<?xml version="1.0"?>
<opencv_storage>
<stage10>
  <maxWeakCount>25</maxWeakCount>
  <stageThreshold>-1.4897055625915527e+00</stageThreshold>
  <weakClassifiers>
    <_>
      <internalNodes>
        0 -1 2170 4.2525660991668701e-01</internalNodes>
      <leafValues>
        -4.1589778661727905e-01 4.7570332884788513e-01</leafValues></_>
    <_>
      <internalNodes>
        0 -1 17584 -5.0710089271888137e-04</internalNodes>
      <leafValues>
        1.6712014377117157e-01 -4.6322524547576904e-01</leafValues></_>
    <_>
      <internalNodes>
        0 -1 154 -1.8784627318382263e-02</internalNodes>
      <leafValues>
        -7.6452410221099854e-01 1.0661189258098602e-01</leafValues></_>
    <_>
      <internalNodes>
        0 -1 3302 1.1212987825274467e-02</internalNodes>
      <leafValues>
        1.3582624495029449e-01 -6.0846495628356934e-01</leafValues></_>
    <_>
      <internalNodes>
        0 -1 19358 -1.5269833966158330e-04</internalNodes>
      <leafValues>
        1.8252281844615936e-01 -3.4860458970069885e-01</leafValues></_>
    <_>
      <internalNodes>
        0 -1 24654 -3.7986673414707184e-02</internalNodes>
      <leafValues>
        -8.1654042005538940e-01 9.9777005612850189e-02</leafValues></_>
    <_>
      <internalNodes>
        0 -1 3037 1.5935234725475311e-02</internalNodes>
      <leafValues>
        1.0632178187370300e-01 -4.8597395420074463e-01</leafValues></_>
    <_>
      <internalNodes>
        0 -1 6182 -2.6690486818552017e-02</internalNodes>
      <leafValues>
        -8.3745414018630981e-01 6.3317582011222839e-02</leafValues></_>
    <_>
      <internalNodes>
        0 -1 5721 1.7402473837137222e-02</internalNodes>
      <leafValues>
        5.8815967291593552e-02 -9.1829162836074829e-01</leafValues></_>
    <_>
      <internalNodes>
        0 -1 24566 -1.3850162737071514e-02</internalNodes>
      <leafValues>
        -6.7878693342208862e-01 7.1464292705059052e-02</leafValues></_>
    <_>
      <internalNodes>
        0 -1 15920 -1.1427694698795676e-04</internalNodes>
      <leafValues>
        2.0942859351634979e-01 -2.9603579640388489e-01</leafValues></_>
    <_>
      <internalNodes>
        0 -1 116 2.4374717846512794e-02</internalNodes>
      <leafValues>
        6.3521645963191986e-02 -6.0297441482543945e-01</leafValues></_>
    <_>
      <internalNodes>
        0 -1 20880 -8.7096747010946274e-03</internalNodes>
      <leafValues>
        -7.6376825571060181e-01 7.2301849722862244e-02</leafValues></_>
    <_>
      <internalNodes>
        0 -1 24024 1.3518006540834904e-02</internalNodes>
      <leafValues>
        8.9359521865844727e-02 -5.2161759138107300e-01</leafValues></_>
    <_>
      <internalNodes>
        0 -1 8313 1.3811024837195873e-04</internalNodes>
      <leafValues>
        -2.5808003544807434e-01 1.8213786184787750e-01</leafValues></_>
    <_>
      <internalNodes>
        0 -1 3149 1.4878161251544952e-02</internalNodes>
      <leafValues>
        7.0324331521987915e-02 -8.7841075658798218e-01</leafValues></_>
    <_>
      <internalNodes>
        0 -1 23942 -7.1128364652395248e-03</internalNodes>
      <leafValues>
        -6.7726373672485352e-01 5.1760178059339523e-02</leafValues></_>
    <_>
      <internalNodes>
        0 -1 14571 1.2486215564422309e-04</internalNodes>
      <leafValues>
        -2.8559884428977966e-01 1.5707901120185852e-01</leafValues></_>
    <_>
      <internalNodes>
        0 -1 593 1.4502851292490959e-02</internalNodes>
      <leafValues>
        6.7580237984657288e-02 -6.9681876897811890e-01</leafValues></_>
    <_>
      <internalNodes>
        0 -1 16869 1.7779603600502014e-02</internalNodes>
      <leafValues>
        -1.1907555907964706e-01 4.5006418228149414e-01</leafValues></_>
    <_>
      <internalNodes>
        0 -1 67 -2.1101936697959900e-02</internalNodes>
      <leafValues>
        -7.3437756299972534e-01 8.1087023019790649e-02</leafValues></_>
    <_>
      <internalNodes>
        0 -1 13961 -1.8329670652747154e-02</internalNodes>
      <leafValues>
        4.2407390475273132e-01 -1.2310831993818283e-01</leafValues></_>
    <_>
      <internalNodes>
        0 -1 9580 4.4118158984929323e-04</internalNodes>
      <leafValues>
        -2.6437684893608093e-01 2.0837965607643127e-01</leafValues></_>
    <_>
      <internalNodes>
        0 -1 23219 -1.5993613749742508e-02</internalNodes>
      <leafValues>
        -9.1210865974426270e-01 3.7493638694286346e-02</leafValues></_>
    <_>
      <internalNodes>
        0 -1 23220 1.8856320530176163e-02</internalNodes>
      <leafValues>
        4.8456508666276932e-02 -7.1360188722610474e-01</leafValues></_></weakClassifiers></stage10>
</opencv_storage>
