<?xml version="1.0"?>
<opencv_storage>
<stage14>
  <maxWeakCount>43</maxWeakCount>
  <stageThreshold>-1.3694705963134766e+00</stageThreshold>
  <weakClassifiers>
    <_>
      <internalNodes>
        0 -1 13935 2.4032345414161682e-01</internalNodes>
      <leafValues>
        -3.5642233490943909e-01 4.1533547639846802e-01</leafValues></_>
    <_>
      <internalNodes>
        0 -1 13029 1.3586415350437164e-01</internalNodes>
      <leafValues>
        -1.5519963204860687e-01 3.4686499834060669e-01</leafValues></_>
    <_>
      <internalNodes>
        0 -1 24781 -9.2982798814773560e-03</internalNodes>
      <leafValues>
        -5.1193094253540039e-01 7.2814404964447021e-02</leafValues></_>
    <_>
      <internalNodes>
        0 -1 5545 1.8274129251949489e-04</internalNodes>
      <leafValues>
        -2.2294369339942932e-01 2.6300138235092163e-01</leafValues></_>
    <_>
      <internalNodes>
        0 -1 3082 1.0508595965802670e-02</internalNodes>
      <leafValues>
        3.8482602685689926e-02 -6.1936002969741821e-01</leafValues></_>
    <_>
      <internalNodes>
        0 -1 9007 -7.6338974758982658e-03</internalNodes>
      <leafValues>
        -4.6135398745536804e-01 9.0546734631061554e-02</leafValues></_>
    <_>
      <internalNodes>
        0 -1 9136 -2.2220499813556671e-02</internalNodes>
      <leafValues>
        -5.8788424730300903e-01 6.1502330005168915e-02</leafValues></_>
    <_>
      <internalNodes>
        0 -1 6182 -9.1906433226540685e-05</internalNodes>
      <leafValues>
        1.7253433167934418e-01 -2.3805919289588928e-01</leafValues></_>
    <_>
      <internalNodes>
        0 -1 3196 -2.5915870442986488e-02</internalNodes>
      <leafValues>
        -8.1249439716339111e-01 5.4704364389181137e-02</leafValues></_>
    <_>
      <internalNodes>
        0 -1 2566 -1.0317690670490265e-02</internalNodes>
      <leafValues>
        -4.4341561198234558e-01 8.9894786477088928e-02</leafValues></_>
    <_>
      <internalNodes>
        0 -1 24432 1.6291361302137375e-02</internalNodes>
      <leafValues>
        5.1781378686428070e-02 -7.2153943777084351e-01</leafValues></_>
    <_>
      <internalNodes>
        0 -1 10796 1.0352153331041336e-03</internalNodes>
      <leafValues>
        -2.8310823440551758e-01 1.2589770555496216e-01</leafValues></_>
    <_>
      <internalNodes>
        0 -1 3191 2.1899554878473282e-02</internalNodes>
      <leafValues>
        4.1960157454013824e-02 -8.3051621913909912e-01</leafValues></_>
    <_>
      <internalNodes>
        0 -1 23973 -1.3078031770419329e-04</internalNodes>
      <leafValues>
        1.8099933862686157e-01 -1.8860408663749695e-01</leafValues></_>
    <_>
      <internalNodes>
        0 -1 23287 -2.4532245472073555e-02</internalNodes>
      <leafValues>
        -8.6376649141311646e-01 6.2211502343416214e-02</leafValues></_>
    <_>
      <internalNodes>
        0 -1 888 -2.1978963166475296e-02</internalNodes>
      <leafValues>
        -6.6292273998260498e-01 4.4580750167369843e-02</leafValues></_>
    <_>
      <internalNodes>
        0 -1 2103 -8.4651215001940727e-03</internalNodes>
      <leafValues>
        -4.7131985425949097e-01 7.6549760997295380e-02</leafValues></_>
    <_>
      <internalNodes>
        0 -1 14879 -1.1510355770587921e-01</internalNodes>
      <leafValues>
        4.0704846382141113e-01 -1.0063095390796661e-01</leafValues></_>
    <_>
      <internalNodes>
        0 -1 24915 2.2605862468481064e-02</internalNodes>
      <leafValues>
        5.4448716342449188e-02 -7.6136857271194458e-01</leafValues></_>
    <_>
      <internalNodes>
        0 -1 21720 1.3496619067154825e-04</internalNodes>
      <leafValues>
        -1.6951766610145569e-01 2.2368672490119934e-01</leafValues></_>
    <_>
      <internalNodes>
        0 -1 3477 -1.2780871475115418e-04</internalNodes>
      <leafValues>
        1.8287521600723267e-01 -2.4113056063652039e-01</leafValues></_>
    <_>
      <internalNodes>
        0 -1 18608 8.4476772462949157e-04</internalNodes>
      <leafValues>
        -2.2390145063400269e-01 1.8471600115299225e-01</leafValues></_>
    <_>
      <internalNodes>
        0 -1 8725 -7.0526478812098503e-03</internalNodes>
      <leafValues>
        -3.6245343089103699e-01 1.0372209548950195e-01</leafValues></_>
    <_>
      <internalNodes>
        0 -1 16732 -1.3675898313522339e-01</internalNodes>
      <leafValues>
        -2.6031762361526489e-01 1.2369877099990845e-01</leafValues></_>
    <_>
      <internalNodes>
        0 -1 1939 2.7918562293052673e-01</internalNodes>
      <leafValues>
        -4.2746592313051224e-02 8.4086763858795166e-01</leafValues></_>
    <_>
      <internalNodes>
        0 -1 15044 1.3498012721538544e-01</internalNodes>
      <leafValues>
        -7.0979915559291840e-02 5.1639544963836670e-01</leafValues></_>
    <_>
      <internalNodes>
        0 -1 14104 8.6865322373341769e-05</internalNodes>
      <leafValues>
        -1.7061087489128113e-01 1.8831983208656311e-01</leafValues></_>
    <_>
      <internalNodes>
        0 -1 457 -3.4654238261282444e-03</internalNodes>
      <leafValues>
        -4.4973093271255493e-01 7.6667629182338715e-02</leafValues></_>
    <_>
      <internalNodes>
        0 -1 9234 -2.3448389768600464e-01</internalNodes>
      <leafValues>
        -9.7319781780242920e-01 2.4565739557147026e-02</leafValues></_>
    <_>
      <internalNodes>
        0 -1 15937 -2.9596802778542042e-03</internalNodes>
      <leafValues>
        4.1172790527343750e-01 -8.9285746216773987e-02</leafValues></_>
    <_>
      <internalNodes>
        0 -1 24267 2.7847819728776813e-04</internalNodes>
      <leafValues>
        -1.7554764449596405e-01 1.8510656058788300e-01</leafValues></_>
    <_>
      <internalNodes>
        0 -1 15326 1.4804127858951688e-03</internalNodes>
      <leafValues>
        -1.9474609196186066e-01 1.6091251373291016e-01</leafValues></_>
    <_>
      <internalNodes>
        0 -1 10198 -8.2480430603027344e-02</internalNodes>
      <leafValues>
        6.4346373081207275e-01 -6.3796132802963257e-02</leafValues></_>
    <_>
      <internalNodes>
        0 -1 19689 -1.1564563028514385e-02</internalNodes>
      <leafValues>
        -3.0335855484008789e-01 1.1266255378723145e-01</leafValues></_>
    <_>
      <internalNodes>
        0 -1 20169 -4.4760171324014664e-02</internalNodes>
      <leafValues>
        5.9709209203720093e-01 -5.6540992110967636e-02</leafValues></_>
    <_>
      <internalNodes>
        0 -1 22807 1.9250780344009399e-02</internalNodes>
      <leafValues>
        -5.4338753223419189e-02 4.9812430143356323e-01</leafValues></_>
    <_>
      <internalNodes>
        0 -1 4639 8.3552844822406769e-02</internalNodes>
      <leafValues>
        -8.8445283472537994e-02 4.0285664796829224e-01</leafValues></_>
    <_>
      <internalNodes>
        0 -1 49 1.9570020958781242e-03</internalNodes>
      <leafValues>
        8.2773543894290924e-02 -4.4948455691337585e-01</leafValues></_>
    <_>
      <internalNodes>
        0 -1 14084 1.3077646726742387e-03</internalNodes>
      <leafValues>
        -2.6363864541053772e-01 1.3353128731250763e-01</leafValues></_>
    <_>
      <internalNodes>
        0 -1 23182 -6.1694383621215820e-03</internalNodes>
      <leafValues>
        -3.8568368554115295e-01 8.9115470647811890e-02</leafValues></_>
    <_>
      <internalNodes>
        0 -1 21744 -4.5499438419938087e-03</internalNodes>
      <leafValues>
        -2.2258056700229645e-01 1.5390047430992126e-01</leafValues></_>
    <_>
      <internalNodes>
        0 -1 100 3.8031954318284988e-04</internalNodes>
      <leafValues>
        -1.4646236598491669e-01 2.1547065675258636e-01</leafValues></_>
    <_>
      <internalNodes>
        0 -1 2888 2.7193624991923571e-03</internalNodes>
      <leafValues>
        8.1916928291320801e-02 -3.6609560251235962e-01</leafValues></_></weakClassifiers></stage14>
</opencv_storage>
