<?xml version="1.0"?>
<opencv_storage>
<stage7>
  <maxWeakCount>13</maxWeakCount>
  <stageThreshold>-1.3836663961410522e+00</stageThreshold>
  <weakClassifiers>
    <_>
      <internalNodes>
        0 -1 3368 1.0166405141353607e-01</internalNodes>
      <leafValues>
        -5.9813952445983887e-01 3.3517241477966309e-01</leafValues></_>
    <_>
      <internalNodes>
        0 -1 24568 -2.1050926297903061e-02</internalNodes>
      <leafValues>
        -8.1975877285003662e-01 9.4472751021385193e-02</leafValues></_>
    <_>
      <internalNodes>
        0 -1 24568 2.3216500878334045e-02</internalNodes>
      <leafValues>
        1.8230216205120087e-01 -8.1695151329040527e-01</leafValues></_>
    <_>
      <internalNodes>
        0 -1 16430 1.3460780610330403e-04</internalNodes>
      <leafValues>
        -3.7045589089393616e-01 3.0093294382095337e-01</leafValues></_>
    <_>
      <internalNodes>
        0 -1 13956 1.6649732366204262e-02</internalNodes>
      <leafValues>
        1.2966676056385040e-01 -8.3398729562759399e-01</leafValues></_>
    <_>
      <internalNodes>
        0 -1 18316 2.1932820975780487e-01</internalNodes>
      <leafValues>
        -2.2040583193302155e-01 5.4928785562515259e-01</leafValues></_>
    <_>
      <internalNodes>
        0 -1 279 -1.4425124973058701e-02</internalNodes>
      <leafValues>
        -7.4028378725051880e-01 1.6329216957092285e-01</leafValues></_>
    <_>
      <internalNodes>
        0 -1 21609 1.2950459495186806e-04</internalNodes>
      <leafValues>
        -3.1334084272384644e-01 3.6639681458473206e-01</leafValues></_>
    <_>
      <internalNodes>
        0 -1 2700 9.8228063434362411e-03</internalNodes>
      <leafValues>
        1.9518351554870605e-01 -7.6469796895980835e-01</leafValues></_>
    <_>
      <internalNodes>
        0 -1 11348 -1.1637121497187763e-04</internalNodes>
      <leafValues>
        2.9299125075340271e-01 -3.4331187605857849e-01</leafValues></_>
    <_>
      <internalNodes>
        0 -1 6577 5.4183909669518471e-03</internalNodes>
      <leafValues>
        1.0706169158220291e-01 -8.6407101154327393e-01</leafValues></_>
    <_>
      <internalNodes>
        0 -1 24893 1.6283873468637466e-02</internalNodes>
      <leafValues>
        5.7589456439018250e-02 -8.6364775896072388e-01</leafValues></_>
    <_>
      <internalNodes>
        0 -1 2053 -1.5744842588901520e-02</internalNodes>
      <leafValues>
        -8.4850847721099854e-01 1.0261270403862000e-01</leafValues></_></weakClassifiers></stage7>
</opencv_storage>
