<?xml version="1.0"?>
<opencv_storage>
<cascade>
  <stageType>BOOST</stageType>
  <featureType>HAAR</featureType>
  <height>5</height>
  <width>5</width>
  <stageParams>
    <boostType>GAB</boostType>
    <minHitRate>9.9500000476837158e-01</minHitRate>
    <maxFalseAlarm>5.0000000000000000e-01</maxFalseAlarm>
    <weightTrimRate>9.4999999999999996e-01</weightTrimRate>
    <maxDepth>1</maxDepth>
    <maxWeakCount>100</maxWeakCount></stageParams>
  <featureParams>
    <maxCatCount>0</maxCatCount>
    <featSize>1</featSize>
    <mode>BASIC</mode></featureParams>
  <stageNum>15</stageNum>
  <stages>
    <!-- stage 0 -->
    <_>
      <maxWeakCount>3</maxWeakCount>
      <stageThreshold>-5.0767666101455688e-01</stageThreshold>
      <weakClassifiers>
        <_>
          <internalNodes>
            0 -1 12 2.1929824724793434e-03</internalNodes>
          <leafValues>
            -9.3360996246337891e-01 2.7233114838600159e-01</leafValues></_>
        <_>
          <internalNodes>
            0 -1 30 -1.5554182231426239e-02</internalNodes>
          <leafValues>
            -1. 1.8393762409687042e-01</leafValues></_>
        <_>
          <internalNodes>
            0 -1 46 2.9711805284023285e-02</internalNodes>
          <leafValues>
            3.3100795745849609e-01 -9.6394544839859009e-01</leafValues></_></weakClassifiers></_>
    <!-- stage 1 -->
    <_>
      <maxWeakCount>3</maxWeakCount>
      <stageThreshold>-1.1136796474456787e+00</stageThreshold>
      <weakClassifiers>
        <_>
          <internalNodes>
            0 -1 27 2.9255438596010208e-02</internalNodes>
          <leafValues>
            4.8370927572250366e-01 -9.7342193126678467e-01</leafValues></_>
        <_>
          <internalNodes>
            0 -1 24 5.0988340377807617e-01</internalNodes>
          <leafValues>
            -5.8262765407562256e-01 7.7823394536972046e-01</leafValues></_>
        <_>
          <internalNodes>
            0 -1 4 -5.8602422475814819e-02</internalNodes>
          <leafValues>
            -1. 4.4236996769905090e-01</leafValues></_></weakClassifiers></_>
    <!-- stage 2 -->
    <_>
      <maxWeakCount>3</maxWeakCount>
      <stageThreshold>-1.1950908899307251e+00</stageThreshold>
      <weakClassifiers>
        <_>
          <internalNodes>
            0 -1 26 -2.7800095267593861e-03</internalNodes>
          <leafValues>
            4.7448980808258057e-01 -9.2857140302658081e-01</leafValues></_>
        <_>
          <internalNodes>
            0 -1 34 -1.9856557250022888e-01</internalNodes>
          <leafValues>
            6.3775384426116943e-01 -6.1634320020675659e-01</leafValues></_>
        <_>
          <internalNodes>
            0 -1 11 8.8470995426177979e-02</internalNodes>
          <leafValues>
            3.4982371330261230e-01 -9.9384653568267822e-01</leafValues></_></weakClassifiers></_>
    <!-- stage 3 -->
    <_>
      <maxWeakCount>2</maxWeakCount>
      <stageThreshold>-1.3899336755275726e-01</stageThreshold>
      <weakClassifiers>
        <_>
          <internalNodes>
            0 -1 14 3.0328102875500917e-03</internalNodes>
          <leafValues>
            -9.5336788892745972e-01 8.5350316762924194e-01</leafValues></_>
        <_>
          <internalNodes>
            0 -1 41 -1.1378868948668242e-03</internalNodes>
          <leafValues>
            8.1437450647354126e-01 -8.5926049947738647e-01</leafValues></_></weakClassifiers></_>
    <!-- stage 4 -->
    <_>
      <maxWeakCount>4</maxWeakCount>
      <stageThreshold>-8.9618903398513794e-01</stageThreshold>
      <weakClassifiers>
        <_>
          <internalNodes>
            0 -1 21 5.6720666587352753e-02</internalNodes>
          <leafValues>
            2.2567287087440491e-01 -9.6313363313674927e-01</leafValues></_>
        <_>
          <internalNodes>
            0 -1 2 3.8462594151496887e-02</internalNodes>
          <leafValues>
            2.5185552239418030e-01 -9.6316707134246826e-01</leafValues></_>
        <_>
          <internalNodes>
            0 -1 25 2.8009098768234253e-01</internalNodes>
          <leafValues>
            -4.6434584259986877e-01 7.0461827516555786e-01</leafValues></_>
        <_>
          <internalNodes>
            0 -1 4 -5.6868564337491989e-02</internalNodes>
          <leafValues>
            -1. 3.0565103888511658e-01</leafValues></_></weakClassifiers></_>
    <!-- stage 5 -->
    <_>
      <maxWeakCount>3</maxWeakCount>
      <stageThreshold>-4.0625604987144470e-01</stageThreshold>
      <weakClassifiers>
        <_>
          <internalNodes>
            0 -1 4 5.3473751991987228e-02</internalNodes>
          <leafValues>
            3.7532809376716614e-01 -7.6175546646118164e-01</leafValues></_>
        <_>
          <internalNodes>
            0 -1 27 4.0007598698139191e-02</internalNodes>
          <leafValues>
            2.8751078248023987e-01 -9.8302078247070312e-01</leafValues></_>
        <_>
          <internalNodes>
            0 -1 49 -3.1389910727739334e-02</internalNodes>
          <leafValues>
            -9.3057727813720703e-01 2.0143663883209229e-01</leafValues></_></weakClassifiers></_>
    <!-- stage 6 -->
    <_>
      <maxWeakCount>5</maxWeakCount>
      <stageThreshold>-7.7983713150024414e-01</stageThreshold>
      <weakClassifiers>
        <_>
          <internalNodes>
            0 -1 31 2.2412076592445374e-01</internalNodes>
          <leafValues>
            -5.0959485769271851e-01 6.0173159837722778e-01</leafValues></_>
        <_>
          <internalNodes>
            0 -1 0 4.5166797935962677e-02</internalNodes>
          <leafValues>
            2.6605457067489624e-01 -9.3389844894409180e-01</leafValues></_>
        <_>
          <internalNodes>
            0 -1 5 -3.9644226431846619e-02</internalNodes>
          <leafValues>
            -9.4787293672561646e-01 1.6397021710872650e-01</leafValues></_>
        <_>
          <internalNodes>
            0 -1 16 -2.6576826348900795e-03</internalNodes>
          <leafValues>
            2.7400541305541992e-01 -6.5071207284927368e-01</leafValues></_>
        <_>
          <internalNodes>
            0 -1 47 5.2108112722635269e-02</internalNodes>
          <leafValues>
            2.2619724273681641e-01 -8.0318063497543335e-01</leafValues></_></weakClassifiers></_>
    <!-- stage 7 -->
    <_>
      <maxWeakCount>4</maxWeakCount>
      <stageThreshold>-7.4586778879165649e-01</stageThreshold>
      <weakClassifiers>
        <_>
          <internalNodes>
            0 -1 20 1.1975850211456418e-03</internalNodes>
          <leafValues>
            -6.5641027688980103e-01 5.0322580337524414e-01</leafValues></_>
        <_>
          <internalNodes>
            0 -1 5 8.0754712224006653e-02</internalNodes>
          <leafValues>
            3.1273326277732849e-01 -8.7850630283355713e-01</leafValues></_>
        <_>
          <internalNodes>
            0 -1 27 -8.7575010955333710e-02</internalNodes>
          <leafValues>
            -8.0016589164733887e-01 3.4546566009521484e-01</leafValues></_>
        <_>
          <internalNodes>
            0 -1 35 -7.2858748026192188e-03</internalNodes>
          <leafValues>
            3.9797511696815491e-01 -6.5961724519729614e-01</leafValues></_></weakClassifiers></_>
    <!-- stage 8 -->
    <_>
      <maxWeakCount>5</maxWeakCount>
      <stageThreshold>-1.0435945987701416e+00</stageThreshold>
      <weakClassifiers>
        <_>
          <internalNodes>
            0 -1 18 -9.6126772463321686e-02</internalNodes>
          <leafValues>
            -9.7590363025665283e-01 1.1610487103462219e-01</leafValues></_>
        <_>
          <internalNodes>
            0 -1 37 -1.7039162339642644e-03</internalNodes>
          <leafValues>
            2.1015202999114990e-01 -7.8543686866760254e-01</leafValues></_>
        <_>
          <internalNodes>
            0 -1 21 5.4712653160095215e-02</internalNodes>
          <leafValues>
            2.0607218146324158e-01 -9.2566698789596558e-01</leafValues></_>
        <_>
          <internalNodes>
            0 -1 21 -7.3852829635143280e-02</internalNodes>
          <leafValues>
            -8.5251212120056152e-01 1.9614891707897186e-01</leafValues></_>
        <_>
          <internalNodes>
            0 -1 33 -3.2634385861456394e-03</internalNodes>
          <leafValues>
            2.8567793965339661e-01 -6.4033347368240356e-01</leafValues></_></weakClassifiers></_>
    <!-- stage 9 -->
    <_>
      <maxWeakCount>6</maxWeakCount>
      <stageThreshold>-1.3880076408386230e+00</stageThreshold>
      <weakClassifiers>
        <_>
          <internalNodes>
            0 -1 8 1.6844279598444700e-03</internalNodes>
          <leafValues>
            -8.4688997268676758e-01 1.5682281553745270e-01</leafValues></_>
        <_>
          <internalNodes>
            0 -1 11 -5.3504865616559982e-02</internalNodes>
          <leafValues>
            -9.1394317150115967e-01 2.2522632777690887e-01</leafValues></_>
        <_>
          <internalNodes>
            0 -1 48 2.8315763920545578e-02</internalNodes>
          <leafValues>
            1.8510524928569794e-01 -9.0614253282546997e-01</leafValues></_>
        <_>
          <internalNodes>
            0 -1 48 -4.6309053897857666e-02</internalNodes>
          <leafValues>
            -8.9457488059997559e-01 2.9317015409469604e-01</leafValues></_>
        <_>
          <internalNodes>
            0 -1 36 -2.3624899331480265e-03</internalNodes>
          <leafValues>
            3.2795822620391846e-01 -5.1087218523025513e-01</leafValues></_>
        <_>
          <internalNodes>
            0 -1 43 -1.0681566782295704e-03</internalNodes>
          <leafValues>
            3.5750052332878113e-01 -6.4918351173400879e-01</leafValues></_></weakClassifiers></_>
    <!-- stage 10 -->
    <_>
      <maxWeakCount>6</maxWeakCount>
      <stageThreshold>-8.9896130561828613e-01</stageThreshold>
      <weakClassifiers>
        <_>
          <internalNodes>
            0 -1 32 -1.0996888391673565e-02</internalNodes>
          <leafValues>
            2.1621622145175934e-01 -7.6562500000000000e-01</leafValues></_>
        <_>
          <internalNodes>
            0 -1 38 -6.6102474927902222e-02</internalNodes>
          <leafValues>
            -8.5904997587203979e-01 1.7761583626270294e-01</leafValues></_>
        <_>
          <internalNodes>
            0 -1 11 7.5369857251644135e-02</internalNodes>
          <leafValues>
            1.6702613234519958e-01 -9.4954472780227661e-01</leafValues></_>
        <_>
          <internalNodes>
            0 -1 38 5.1098093390464783e-02</internalNodes>
          <leafValues>
            1.3694790005683899e-01 -9.8465979099273682e-01</leafValues></_>
        <_>
          <internalNodes>
            0 -1 19 -5.4622860625386238e-03</internalNodes>
          <leafValues>
            2.8501534461975098e-01 -5.3638106584548950e-01</leafValues></_>
        <_>
          <internalNodes>
            0 -1 29 2.6297585573047400e-03</internalNodes>
          <leafValues>
            -8.4511691331863403e-01 2.0559291541576385e-01</leafValues></_></weakClassifiers></_>
    <!-- stage 11 -->
    <_>
      <maxWeakCount>6</maxWeakCount>
      <stageThreshold>-6.9581866264343262e-01</stageThreshold>
      <weakClassifiers>
        <_>
          <internalNodes>
            0 -1 39 2.0125109702348709e-02</internalNodes>
          <leafValues>
            1.1194030195474625e-01 -9.7560977935791016e-01</leafValues></_>
        <_>
          <internalNodes>
            0 -1 3 1.1975850211456418e-03</internalNodes>
          <leafValues>
            -5.8813297748565674e-01 2.6633554697036743e-01</leafValues></_>
        <_>
          <internalNodes>
            0 -1 19 -1.5315965283662081e-03</internalNodes>
          <leafValues>
            3.5888272523880005e-01 -5.5965483188629150e-01</leafValues></_>
        <_>
          <internalNodes>
            0 -1 9 1.4114161022007465e-03</internalNodes>
          <leafValues>
            -8.1439030170440674e-01 1.9066411256790161e-01</leafValues></_>
        <_>
          <internalNodes>
            0 -1 1 2.8970541432499886e-02</internalNodes>
          <leafValues>
            1.6121549904346466e-01 -9.2450398206710815e-01</leafValues></_>
        <_>
          <internalNodes>
            0 -1 40 -3.4070110414177179e-03</internalNodes>
          <leafValues>
            2.1940018236637115e-01 -7.7328270673751831e-01</leafValues></_></weakClassifiers></_>
    <!-- stage 12 -->
    <_>
      <maxWeakCount>9</maxWeakCount>
      <stageThreshold>-1.2222241163253784e+00</stageThreshold>
      <weakClassifiers>
        <_>
          <internalNodes>
            0 -1 28 -1.6742756962776184e-01</internalNodes>
          <leafValues>
            3.0718955397605896e-01 -4.9238577485084534e-01</leafValues></_>
        <_>
          <internalNodes>
            0 -1 23 6.9883920252323151e-02</internalNodes>
          <leafValues>
            -3.4522029757499695e-01 4.9224865436553955e-01</leafValues></_>
        <_>
          <internalNodes>
            0 -1 47 -4.1953973472118378e-02</internalNodes>
          <leafValues>
            -9.4383746385574341e-01 1.7683129012584686e-01</leafValues></_>
        <_>
          <internalNodes>
            0 -1 47 1.1028046905994415e-01</internalNodes>
          <leafValues>
            2.1960125863552094e-01 -8.8955801725387573e-01</leafValues></_>
        <_>
          <internalNodes>
            0 -1 22 -9.9519968032836914e-01</internalNodes>
          <leafValues>
            -6.9242060184478760e-01 1.9311727583408356e-01</leafValues></_>
        <_>
          <internalNodes>
            0 -1 0 2.0695556886494160e-03</internalNodes>
          <leafValues>
            -3.7147137522697449e-01 4.0414202213287354e-01</leafValues></_>
        <_>
          <internalNodes>
            0 -1 18 7.4434220790863037e-02</internalNodes>
          <leafValues>
            1.6428878903388977e-01 -7.5646710395812988e-01</leafValues></_>
        <_>
          <internalNodes>
            0 -1 10 2.7132763061672449e-03</internalNodes>
          <leafValues>
            -5.5694043636322021e-01 2.4155345559120178e-01</leafValues></_>
        <_>
          <internalNodes>
            0 -1 15 1.3545826077461243e-02</internalNodes>
          <leafValues>
            1.2350112944841385e-01 -9.3255883455276489e-01</leafValues></_></weakClassifiers></_>
    <!-- stage 13 -->
    <_>
      <maxWeakCount>6</maxWeakCount>
      <stageThreshold>-6.1290627717971802e-01</stageThreshold>
      <weakClassifiers>
        <_>
          <internalNodes>
            0 -1 27 -1.0466757230460644e-03</internalNodes>
          <leafValues>
            2.5806450843811035e-01 -5.9756100177764893e-01</leafValues></_>
        <_>
          <internalNodes>
            0 -1 44 -1.2666946649551392e-01</internalNodes>
          <leafValues>
            -7.7426838874816895e-01 1.7806333303451538e-01</leafValues></_>
        <_>
          <internalNodes>
            0 -1 27 -8.9218139648437500e-02</internalNodes>
          <leafValues>
            -7.4237614870071411e-01 2.5122153759002686e-01</leafValues></_>
        <_>
          <internalNodes>
            0 -1 45 -1.9085439853370190e-03</internalNodes>
          <leafValues>
            3.8627368211746216e-01 -4.3177932500839233e-01</leafValues></_>
        <_>
          <internalNodes>
            0 -1 17 -4.3501988053321838e-02</internalNodes>
          <leafValues>
            -8.6410850286483765e-01 1.4515130221843719e-01</leafValues></_>
        <_>
          <internalNodes>
            0 -1 7 5.6127071380615234e-01</internalNodes>
          <leafValues>
            1.7117691040039062e-01 -8.8047605752944946e-01</leafValues></_></weakClassifiers></_>
    <!-- stage 14 -->
    <_>
      <maxWeakCount>8</maxWeakCount>
      <stageThreshold>-1.0130409002304077e+00</stageThreshold>
      <weakClassifiers>
        <_>
          <internalNodes>
            0 -1 25 3.5725620388984680e-01</internalNodes>
          <leafValues>
            -3.7423312664031982e-01 3.9336493611335754e-01</leafValues></_>
        <_>
          <internalNodes>
            0 -1 49 1.8642120063304901e-02</internalNodes>
          <leafValues>
            1.3655342161655426e-01 -9.6545022726058960e-01</leafValues></_>
        <_>
          <internalNodes>
            0 -1 6 -3.1481437385082245e-02</internalNodes>
          <leafValues>
            -9.6554613113403320e-01 1.2701499462127686e-01</leafValues></_>
        <_>
          <internalNodes>
            0 -1 13 2.7242177166044712e-03</internalNodes>
          <leafValues>
            -6.3890343904495239e-01 1.9061504304409027e-01</leafValues></_>
        <_>
          <internalNodes>
            0 -1 45 -3.5366114228963852e-02</internalNodes>
          <leafValues>
            -8.5037851333618164e-01 1.2016655504703522e-01</leafValues></_>
        <_>
          <internalNodes>
            0 -1 42 -2.3414134047925472e-03</internalNodes>
          <leafValues>
            2.4573403596878052e-01 -4.8299708962440491e-01</leafValues></_>
        <_>
          <internalNodes>
            0 -1 2 3.0023483559489250e-02</internalNodes>
          <leafValues>
            1.4460973441600800e-01 -8.3752429485321045e-01</leafValues></_>
        <_>
          <internalNodes>
            0 -1 0 -1.4058944769203663e-02</internalNodes>
          <leafValues>
            -8.9444100856781006e-01 1.0736356675624847e-01</leafValues></_></weakClassifiers></_></stages>
  <features>
    <_>
      <rects>
        <_>
          0 0 2 1 -1.</_>
        <_>
          1 0 1 1 2.</_></rects>
      <tilted>0</tilted></_>
    <_>
      <rects>
        <_>
          0 0 1 2 -1.</_>
        <_>
          0 1 1 1 2.</_></rects>
      <tilted>0</tilted></_>
    <_>
      <rects>
        <_>
          0 0 3 1 -1.</_>
        <_>
          1 0 1 1 3.</_></rects>
      <tilted>0</tilted></_>
    <_>
      <rects>
        <_>
          0 0 2 2 -1.</_>
        <_>
          1 0 1 2 2.</_></rects>
      <tilted>0</tilted></_>
    <_>
      <rects>
        <_>
          0 0 1 4 -1.</_>
        <_>
          0 2 1 2 2.</_></rects>
      <tilted>0</tilted></_>
    <_>
      <rects>
        <_>
          0 0 4 1 -1.</_>
        <_>
          2 0 2 1 2.</_></rects>
      <tilted>0</tilted></_>
    <_>
      <rects>
        <_>
          0 0 2 2 -1.</_>
        <_>
          0 1 2 1 2.</_></rects>
      <tilted>0</tilted></_>
    <_>
      <rects>
        <_>
          0 0 2 4 -1.</_>
        <_>
          0 2 2 2 2.</_></rects>
      <tilted>0</tilted></_>
    <_>
      <rects>
        <_>
          0 0 3 2 -1.</_>
        <_>
          0 1 3 1 2.</_></rects>
      <tilted>0</tilted></_>
    <_>
      <rects>
        <_>
          0 0 5 2 -1.</_>
        <_>
          0 1 5 1 2.</_></rects>
      <tilted>0</tilted></_>
    <_>
      <rects>
        <_>
          0 1 2 2 -1.</_>
        <_>
          0 1 1 1 2.</_>
        <_>
          1 2 1 1 2.</_></rects>
      <tilted>0</tilted></_>
    <_>
      <rects>
        <_>
          0 1 1 4 -1.</_>
        <_>
          0 3 1 2 2.</_></rects>
      <tilted>0</tilted></_>
    <_>
      <rects>
        <_>
          0 1 2 4 -1.</_>
        <_>
          1 1 1 4 2.</_></rects>
      <tilted>0</tilted></_>
    <_>
      <rects>
        <_>
          0 1 2 2 -1.</_>
        <_>
          0 2 2 1 2.</_></rects>
      <tilted>0</tilted></_>
    <_>
      <rects>
        <_>
          0 2 2 2 -1.</_>
        <_>
          1 2 1 2 2.</_></rects>
      <tilted>0</tilted></_>
    <_>
      <rects>
        <_>
          0 3 1 2 -1.</_>
        <_>
          0 4 1 1 2.</_></rects>
      <tilted>0</tilted></_>
    <_>
      <rects>
        <_>
          0 3 2 2 -1.</_>
        <_>
          0 3 1 1 2.</_>
        <_>
          1 4 1 1 2.</_></rects>
      <tilted>0</tilted></_>
    <_>
      <rects>
        <_>
          0 4 3 1 -1.</_>
        <_>
          1 4 1 1 3.</_></rects>
      <tilted>0</tilted></_>
    <_>
      <rects>
        <_>
          0 4 4 1 -1.</_>
        <_>
          2 4 2 1 2.</_></rects>
      <tilted>0</tilted></_>
    <_>
      <rects>
        <_>
          1 0 1 3 -1.</_>
        <_>
          1 1 1 1 3.</_></rects>
      <tilted>0</tilted></_>
    <_>
      <rects>
        <_>
          1 0 2 2 -1.</_>
        <_>
          1 0 1 1 2.</_>
        <_>
          2 1 1 1 2.</_></rects>
      <tilted>0</tilted></_>
    <_>
      <rects>
        <_>
          1 0 4 1 -1.</_>
        <_>
          3 0 2 1 2.</_></rects>
      <tilted>0</tilted></_>
    <_>
      <rects>
        <_>
          1 0 4 5 -1.</_>
        <_>
          3 0 2 5 2.</_></rects>
      <tilted>0</tilted></_>
    <_>
      <rects>
        <_>
          1 1 2 2 -1.</_>
        <_>
          1 1 1 1 2.</_>
        <_>
          2 2 1 1 2.</_></rects>
      <tilted>0</tilted></_>
    <_>
      <rects>
        <_>
          1 1 3 3 -1.</_>
        <_>
          2 1 1 3 3.</_></rects>
      <tilted>0</tilted></_>
    <_>
      <rects>
        <_>
          1 2 3 1 -1.</_>
        <_>
          2 2 1 1 3.</_></rects>
      <tilted>0</tilted></_>
    <_>
      <rects>
        <_>
          1 3 2 2 -1.</_>
        <_>
          1 4 2 1 2.</_></rects>
      <tilted>0</tilted></_>
    <_>
      <rects>
        <_>
          1 4 4 1 -1.</_>
        <_>
          3 4 2 1 2.</_></rects>
      <tilted>0</tilted></_>
    <_>
      <rects>
        <_>
          2 0 3 4 -1.</_>
        <_>
          3 0 1 4 3.</_></rects>
      <tilted>0</tilted></_>
    <_>
      <rects>
        <_>
          2 0 2 2 -1.</_>
        <_>
          2 1 2 1 2.</_></rects>
      <tilted>0</tilted></_>
    <_>
      <rects>
        <_>
          2 0 3 2 -1.</_>
        <_>
          2 1 3 1 2.</_></rects>
      <tilted>0</tilted></_>
    <_>
      <rects>
        <_>
          2 1 1 3 -1.</_>
        <_>
          2 2 1 1 3.</_></rects>
      <tilted>0</tilted></_>
    <_>
      <rects>
        <_>
          2 2 2 1 -1.</_>
        <_>
          3 2 1 1 2.</_></rects>
      <tilted>0</tilted></_>
    <_>
      <rects>
        <_>
          2 2 1 2 -1.</_>
        <_>
          2 3 1 1 2.</_></rects>
      <tilted>0</tilted></_>
    <_>
      <rects>
        <_>
          2 2 2 2 -1.</_>
        <_>
          3 2 1 2 2.</_></rects>
      <tilted>0</tilted></_>
    <_>
      <rects>
        <_>
          2 2 3 2 -1.</_>
        <_>
          3 2 1 2 3.</_></rects>
      <tilted>0</tilted></_>
    <_>
      <rects>
        <_>
          2 3 3 1 -1.</_>
        <_>
          3 3 1 1 3.</_></rects>
      <tilted>0</tilted></_>
    <_>
      <rects>
        <_>
          2 3 3 2 -1.</_>
        <_>
          2 4 3 1 2.</_></rects>
      <tilted>0</tilted></_>
    <_>
      <rects>
        <_>
          2 4 3 1 -1.</_>
        <_>
          3 4 1 1 3.</_></rects>
      <tilted>0</tilted></_>
    <_>
      <rects>
        <_>
          3 0 2 1 -1.</_>
        <_>
          4 0 1 1 2.</_></rects>
      <tilted>0</tilted></_>
    <_>
      <rects>
        <_>
          3 1 2 3 -1.</_>
        <_>
          4 1 1 3 2.</_></rects>
      <tilted>0</tilted></_>
    <_>
      <rects>
        <_>
          3 2 2 1 -1.</_>
        <_>
          4 2 1 1 2.</_></rects>
      <tilted>0</tilted></_>
    <_>
      <rects>
        <_>
          3 3 2 1 -1.</_>
        <_>
          4 3 1 1 2.</_></rects>
      <tilted>0</tilted></_>
    <_>
      <rects>
        <_>
          3 3 1 2 -1.</_>
        <_>
          3 4 1 1 2.</_></rects>
      <tilted>0</tilted></_>
    <_>
      <rects>
        <_>
          3 3 2 2 -1.</_>
        <_>
          3 4 2 1 2.</_></rects>
      <tilted>0</tilted></_>
    <_>
      <rects>
        <_>
          3 4 2 1 -1.</_>
        <_>
          4 4 1 1 2.</_></rects>
      <tilted>0</tilted></_>
    <_>
      <rects>
        <_>
          4 0 1 3 -1.</_>
        <_>
          4 1 1 1 3.</_></rects>
      <tilted>0</tilted></_>
    <_>
      <rects>
        <_>
          4 0 1 4 -1.</_>
        <_>
          4 2 1 2 2.</_></rects>
      <tilted>0</tilted></_>
    <_>
      <rects>
        <_>
          4 1 1 4 -1.</_>
        <_>
          4 3 1 2 2.</_></rects>
      <tilted>0</tilted></_>
    <_>
      <rects>
        <_>
          4 3 1 2 -1.</_>
        <_>
          4 4 1 1 2.</_></rects>
      <tilted>0</tilted></_></features></cascade>
</opencv_storage>
