<?xml version="1.0"?>
<opencv_storage>
<stage16>
  <maxWeakCount>14</maxWeakCount>
  <stageThreshold>-9.3172407150268555e-01</stageThreshold>
  <weakClassifiers>
    <_>
      <internalNodes>
        0 -1 89 -2.9523032717406750e-03</internalNodes>
      <leafValues>
        4.4315993785858154e-02 -6.7955803871154785e-01</leafValues></_>
    <_>
      <internalNodes>
        0 -1 3 2.2615399211645126e-02</internalNodes>
      <leafValues>
        1.0618478059768677e-01 -8.2087308168411255e-01</leafValues></_>
    <_>
      <internalNodes>
        0 -1 291 -1.9503026269376278e-03</internalNodes>
      <leafValues>
        1.8149647116661072e-01 -4.4919353723526001e-01</leafValues></_>
    <_>
      <internalNodes>
        0 -1 258 -2.0381778478622437e-02</internalNodes>
      <leafValues>
        -6.2877416610717773e-01 1.6516833007335663e-01</leafValues></_>
    <_>
      <internalNodes>
        0 -1 165 -8.3046957850456238e-02</internalNodes>
      <leafValues>
        3.4358704090118408e-01 -2.7148684859275818e-01</leafValues></_>
    <_>
      <internalNodes>
        0 -1 189 -6.1299949884414673e-03</internalNodes>
      <leafValues>
        1.2212768942117691e-01 -7.2074949741363525e-01</leafValues></_>
    <_>
      <internalNodes>
        0 -1 304 -2.1658826619386673e-02</internalNodes>
      <leafValues>
        -7.1689313650131226e-01 1.5740770101547241e-01</leafValues></_>
    <_>
      <internalNodes>
        0 -1 90 2.2324281930923462e-01</internalNodes>
      <leafValues>
        1.4489640295505524e-01 -6.8115389347076416e-01</leafValues></_>
    <_>
      <internalNodes>
        0 -1 301 -1.3073949143290520e-02</internalNodes>
      <leafValues>
        -7.0794880390167236e-01 1.1756271868944168e-01</leafValues></_>
    <_>
      <internalNodes>
        0 -1 37 4.0935970842838287e-02</internalNodes>
      <leafValues>
        1.1086861789226532e-01 -6.3577204942703247e-01</leafValues></_>
    <_>
      <internalNodes>
        0 -1 87 -1.0018933098763227e-03</internalNodes>
      <leafValues>
        2.7435839176177979e-01 -3.5158500075340271e-01</leafValues></_>
    <_>
      <internalNodes>
        0 -1 98 -4.4604599475860596e-01</internalNodes>
      <leafValues>
        -5.2980685234069824e-01 1.4453500509262085e-01</leafValues></_>
    <_>
      <internalNodes>
        0 -1 131 -9.0246368199586868e-03</internalNodes>
      <leafValues>
        2.7660354971885681e-01 -3.0930230021476746e-01</leafValues></_>
    <_>
      <internalNodes>
        0 -1 217 -5.2834816277027130e-02</internalNodes>
      <leafValues>
        7.9151016473770142e-01 -9.7884066402912140e-02</leafValues></_></weakClassifiers></stage16>
</opencv_storage>
