<?xml version="1.0"?>
<opencv_storage>
<stage13>
  <maxWeakCount>6</maxWeakCount>
  <stageThreshold>-6.1290627717971802e-01</stageThreshold>
  <weakClassifiers>
    <_>
      <internalNodes>
        0 -1 194 -1.0466757230460644e-03</internalNodes>
      <leafValues>
        2.5806450843811035e-01 -5.9756100177764893e-01</leafValues></_>
    <_>
      <internalNodes>
        0 -1 295 -1.2666946649551392e-01</internalNodes>
      <leafValues>
        -7.7426838874816895e-01 1.7806333303451538e-01</leafValues></_>
    <_>
      <internalNodes>
        0 -1 194 -8.9218139648437500e-02</internalNodes>
      <leafValues>
        -7.4237614870071411e-01 2.5122153759002686e-01</leafValues></_>
    <_>
      <internalNodes>
        0 -1 296 -1.9085439853370190e-03</internalNodes>
      <leafValues>
        3.8627368211746216e-01 -4.3177932500839233e-01</leafValues></_>
    <_>
      <internalNodes>
        0 -1 100 -4.3501988053321838e-02</internalNodes>
      <leafValues>
        -8.6410850286483765e-01 1.4515130221843719e-01</leafValues></_>
    <_>
      <internalNodes>
        0 -1 20 5.6127071380615234e-01</internalNodes>
      <leafValues>
        1.7117691040039062e-01 -8.8047605752944946e-01</leafValues></_></weakClassifiers></stage13>
</opencv_storage>
