<?xml version="1.0"?>
<opencv_storage>
<stage5>
  <maxWeakCount>16</maxWeakCount>
  <stageThreshold>-1.8882036209106445e+00</stageThreshold>
  <weakClassifiers>
    <_>
      <internalNodes>
        0 -1 145 -1 -37665 -134217729 -65537 -2138369 -10534331
        -16777217 -8421377</internalNodes>
      <leafValues>
        -6.5846800804138184e-01 1.4098973572254181e-01</leafValues></_>
    <_>
      <internalNodes>
        0 -1 84 -2 -1 266317822 -2049 -8945665 -335545345 1006600031
        -5242881</internalNodes>
      <leafValues>
        -6.0840576887130737e-01 2.2967511415481567e-01</leafValues></_>
    <_>
      <internalNodes>
        0 -1 34 -283905101 -6131470 -526893 -146799 -135531531 -34082569
        2012705467 -569101</internalNodes>
      <leafValues>
        -2.6288592815399170e-01 4.5307350158691406e-01</leafValues></_>
    <_>
      <internalNodes>
        0 -1 676 2080372735 -14778977 2147450878 1060776434 -272640001
        1232279927 226474492 2139042814</internalNodes>
      <leafValues>
        -3.4194326400756836e-01 2.9693707823753357e-01</leafValues></_>
    <_>
      <internalNodes>
        0 -1 1109 -1078516973 -2140527822 -1449378048 111295776
        -1075068997 176868778 1574952377 -536870917</internalNodes>
      <leafValues>
        -2.1606764197349548e-01 4.1637057065963745e-01</leafValues></_>
    <_>
      <internalNodes>
        0 -1 918 -268456156 -251666241 -2179329 -1041238161 -87184387
        -604187297 -335872418 1108408111</internalNodes>
      <leafValues>
        -4.5111906528472900e-01 1.8388703465461731e-01</leafValues></_>
    <_>
      <internalNodes>
        0 -1 751 -1530516943 -318832708 -2492425 -671309837 -2131116075
        -486968931 56210916 -24637035</internalNodes>
      <leafValues>
        -2.9978087544441223e-01 2.7654454112052917e-01</leafValues></_>
    <_>
      <internalNodes>
        0 -1 777 -537141388 -34472961 517934070 1339960438 -956872907
        205258387 721136252 251584510</internalNodes>
      <leafValues>
        -4.3760389089584351e-01 1.6311077773571014e-01</leafValues></_>
    <_>
      <internalNodes>
        0 -1 399 -1895896244 -361329729 2011017086 2141336030 1165228759
        1884306279 1414943489 1937056670</internalNodes>
      <leafValues>
        -4.8426446318626404e-01 1.5613944828510284e-01</leafValues></_>
    <_>
      <internalNodes>
        0 -1 39 -363581522 -1163985159 -704661377 -1900241921 -168798913
        -4512837 846231391 487216735</internalNodes>
      <leafValues>
        -4.4930750131607056e-01 1.5246112644672394e-01</leafValues></_>
    <_>
      <internalNodes>
        0 -1 1143 -956317841 1142593591 1811866154 10661612 -1729170352
        31684596 -1079053432 -2098487350</internalNodes>
      <leafValues>
        -3.0098274350166321e-01 2.3822435736656189e-01</leafValues></_>
    <_>
      <internalNodes>
        0 -1 773 -488722656 -1302152434 1878682878 1465004970 1138753461
        290251163 1028851936 521616058</internalNodes>
      <leafValues>
        -5.6425553560256958e-01 1.3333661854267120e-01</leafValues></_>
    <_>
      <internalNodes>
        0 -1 578 -935568556 1828328151 719845759 1034821118 908090980
        1142380820 1725733988 -537191492</internalNodes>
      <leafValues>
        -3.2251134514808655e-01 2.1021747589111328e-01</leafValues></_>
    <_>
      <internalNodes>
        0 -1 950 -2031214588 -424777185 1940270071 1379810986 -693372348
        -1023420193 65976564 -1875372358</internalNodes>
      <leafValues>
        -3.7928387522697449e-01 1.6622006893157959e-01</leafValues></_>
    <_>
      <internalNodes>
        0 -1 1094 -1351119093 401141631 -1081170400 1123593134
        -577980544 97540093 1801971405 1399623594</internalNodes>
      <leafValues>
        -3.0296751856803894e-01 1.9891446828842163e-01</leafValues></_>
    <_>
      <internalNodes>
        0 -1 238 774831092 116697982 1073692344 -363923850 -114032641
        1731215117 896925692 1092935140</internalNodes>
      <leafValues>
        -5.8647489547729492e-01 1.0189074277877808e-01</leafValues></_></weakClassifiers></stage5>
</opencv_storage>
