<?xml version="1.0"?>
<opencv_storage>
<stage9>
  <maxWeakCount>34</maxWeakCount>
  <stageThreshold>-1.8302330970764160e+00</stageThreshold>
  <weakClassifiers>
    <_>
      <internalNodes>
        0 -1 549 -2049 2147448823 -440449669 2147450879 2147156447
        1002133997 -68192018 -1</internalNodes>
      <leafValues>
        -6.0070204734802246e-01 2.1952679753303528e-01</leafValues></_>
    <_>
      <internalNodes>
        0 -1 1039 -1107561701 -1423075950 -961532909 -715724032
        -1077936197 160101795 503314941 536870911</internalNodes>
      <leafValues>
        -3.6955496668815613e-01 2.1803924441337585e-01</leafValues></_>
    <_>
      <internalNodes>
        0 -1 12 -281562181 -2296917 1065604987 -7359753 -136449761
        -6703913 1460163774 1465729215</internalNodes>
      <leafValues>
        -2.7392417192459106e-01 2.4308906495571136e-01</leafValues></_>
    <_>
      <internalNodes>
        0 -1 1122 -1058026289 -538989349 -427571233 -268437777
        -896472949 -19339553 -487859249 -533537874</internalNodes>
      <leafValues>
        -1.5267008543014526e-01 3.8906064629554749e-01</leafValues></_>
    <_>
      <internalNodes>
        0 -1 382 -606212 -276890371 1826561022 -981905698 1564934143
        -4326657 509037548 -289407033</internalNodes>
      <leafValues>
        -4.7790086269378662e-01 1.1832889169454575e-01</leafValues></_>
    <_>
      <internalNodes>
        0 -1 691 34865232 -59046345 2126917463 993140026 276840448
        1197286461 4224588 -80073030</internalNodes>
      <leafValues>
        -2.5777715444564819e-01 2.1778854727745056e-01</leafValues></_>
    <_>
      <internalNodes>
        0 -1 328 1724297006 -537004697 2071428543 -169884306 -149824001
        -538968577 1903457815 1107776259</internalNodes>
      <leafValues>
        -4.8728787899017334e-01 1.1304023861885071e-01</leafValues></_>
    <_>
      <internalNodes>
        0 -1 1059 258974624 -1430407713 -475283522 205300430 857204768
        -442845462 -1379550622 1136459770</internalNodes>
      <leafValues>
        -3.5493159294128418e-01 1.1996661871671677e-01</leafValues></_>
    <_>
      <internalNodes>
        0 -1 790 142542947 -151054729 1543443643 -617469638 544102437
        1215786615 1206892029 -543276308</internalNodes>
      <leafValues>
        -2.4021698534488678e-01 1.9314262270927429e-01</leafValues></_>
    <_>
      <internalNodes>
        0 -1 321 -215813357 1560343066 -1620116709 1995069558 -614928866
        -137897826 1394079719 -6483693</internalNodes>
      <leafValues>
        -1.3507276773452759e-01 3.3100137114524841e-01</leafValues></_>
    <_>
      <internalNodes>
        0 -1 736 1761445892 1894565101 -1462374150 829545597 -264664720
        -1816352120 -1168576424 270105753</internalNodes>
      <leafValues>
        -4.3651843070983887e-01 1.0001436620950699e-01</leafValues></_>
    <_>
      <internalNodes>
        0 -1 760 -1493714881 -354872101 -134480009 -539866754
        -1862551691 -464551758 1165742213 -1690562256</internalNodes>
      <leafValues>
        -2.2053164243698120e-01 1.8007716536521912e-01</leafValues></_>
    <_>
      <internalNodes>
        0 -1 1113 -715714191 -1084953632 -136038895 1222692368
        -1321485406 -1885238102 1065344443 -807409969</internalNodes>
      <leafValues>
        -1.3877336680889130e-01 2.9458230733871460e-01</leafValues></_>
    <_>
      <internalNodes>
        0 -1 92 -293688434 -301726305 -569463271 -643922146 1468004095
        -11579604 1983934862 -277395973</internalNodes>
      <leafValues>
        -2.7840545773506165e-01 1.5012632310390472e-01</leafValues></_>
    <_>
      <internalNodes>
        0 -1 558 1432058820 -654315525 578760304 1081962364 1728490837
        268337051 556937060 158359348</internalNodes>
      <leafValues>
        -5.5407094955444336e-01 7.2261720895767212e-02</leafValues></_>
    <_>
      <internalNodes>
        0 -1 290 638973689 -16811521 1245439502 -35361 -604983586
        1482382677 -330126796 -8393042</internalNodes>
      <leafValues>
        -1.1506218463182449e-01 3.6629572510719299e-01</leafValues></_>
    <_>
      <internalNodes>
        0 -1 548 787354619 1492400477 1672483377 -683252975 886508590
        1079345093 1120949510 -243319050</internalNodes>
      <leafValues>
        -2.2899812459945679e-01 1.6083119809627533e-01</leafValues></_>
    <_>
      <internalNodes>
        0 -1 778 -291556490 1249568783 -1332026724 1516110922 192837759
        1165755963 332395412 508459768</internalNodes>
      <leafValues>
        -3.3220157027244568e-01 1.0959669202566147e-01</leafValues></_>
    <_>
      <internalNodes>
        0 -1 1051 -588004865 -805444356 -680837155 -540021793 -614994723
        -397324 -895823910 -634654801</internalNodes>
      <leafValues>
        -8.8510677218437195e-02 4.2902934551239014e-01</leafValues></_>
    <_>
      <internalNodes>
        0 -1 819 428293412 -1397302341 2069605198 1324079615 -315790475
        -270489093 -1310599195 1389144737</internalNodes>
      <leafValues>
        -4.1232252120971680e-01 9.2451907694339752e-02</leafValues></_>
    <_>
      <internalNodes>
        0 -1 1173 -1079666 -1783667933 2071897992 55000174 -321024120
        1352659431 -907612242 -492136562</internalNodes>
      <leafValues>
        -1.3845659792423248e-01 2.7019834518432617e-01</leafValues></_>
    <_>
      <internalNodes>
        0 -1 310 -834011026 73595518 -1572922374 756532822 1857299812
        297104996 1083537576 2139571036</internalNodes>
      <leafValues>
        -3.2295385003089905e-01 1.1370233446359634e-01</leafValues></_>
    <_>
      <internalNodes>
        0 -1 139 1275485924 798756754 145430526 1323494200 2022373620
        -817657042 712958836 139874388</internalNodes>
      <leafValues>
        -5.6529754400253296e-01 6.1897378414869308e-02</leafValues></_>
    <_>
      <internalNodes>
        0 -1 966 736064311 -2111959467 -143552035 -968710530 771749330
        336017781 896521661 196806046</internalNodes>
      <leafValues>
        -1.8891976773738861e-01 1.8916425108909607e-01</leafValues></_>
    <_>
      <internalNodes>
        0 -1 308 1991011535 -813845777 -84089204 -168207954 1416903400
        -25464978 -1871393227 -9481347</internalNodes>
      <leafValues>
        -1.4115674793720245e-01 2.5334972143173218e-01</leafValues></_>
    <_>
      <internalNodes>
        0 -1 521 -1896542464 502070063 515356550 1205190619 -1745234571
        -1885459717 -538285072 135225102</internalNodes>
      <leafValues>
        -6.0356593132019043e-01 5.9543959796428680e-02</leafValues></_>
    <_>
      <internalNodes>
        0 -1 1110 -40751317 -2139531539 2147434067 -477267036
        -2052018445 177114044 -1938056709 -538968645</internalNodes>
      <leafValues>
        -1.1083710193634033e-01 3.3482706546783447e-01</leafValues></_>
    <_>
      <internalNodes>
        0 -1 471 474954792 -2001334661 1023136797 -1467501142 -55200300
        -172637811 870292944 404085982</internalNodes>
      <leafValues>
        -2.9672488570213318e-01 1.2267339229583740e-01</leafValues></_>
    <_>
      <internalNodes>
        0 -1 31 -1355409400 -22386162 -46334277 -693603800 -34165826
        -483558545 387209054 -737366010</internalNodes>
      <leafValues>
        -2.1328586339950562e-01 1.5899384021759033e-01</leafValues></_>
    <_>
      <internalNodes>
        0 -1 1197 -1227914546 1434290739 670772797 -1362232545
        1849523337 1766899642 587322073 -534512916</internalNodes>
      <leafValues>
        -1.4361195266246796e-01 2.2980107367038727e-01</leafValues></_>
    <_>
      <internalNodes>
        0 -1 60 135581182 -1697458258 1869559646 -898704922 2137972075
        -561550885 2133962223 -25364639</internalNodes>
      <leafValues>
        -3.9551919698715210e-01 8.8769942522048950e-02</leafValues></_>
    <_>
      <internalNodes>
        0 -1 1083 783951520 249574450 -410088478 210547110 503082800
        294196374 917944444 1261536954</internalNodes>
      <leafValues>
        -3.8322272896766663e-01 8.7681688368320465e-02</leafValues></_>
    <_>
      <internalNodes>
        0 -1 956 -1571943420 -435017457 1783806426 49027646 532558640
        858227315 426242544 303699962</internalNodes>
      <leafValues>
        -4.3831741809844971e-01 7.5525775551795959e-02</leafValues></_>
    <_>
      <internalNodes>
        0 -1 626 -405224175 -123523269 -83479683 -624856553 -851677772
        925382615 363720023 -1801423051</internalNodes>
      <leafValues>
        -1.8456009030342102e-01 1.8527668714523315e-01</leafValues></_></weakClassifiers></stage9>
</opencv_storage>
