<?xml version="1.0"?>
<opencv_storage>
<stage3>
  <maxWeakCount>11</maxWeakCount>
  <stageThreshold>-2.0186996459960938e+00</stageThreshold>
  <weakClassifiers>
    <_>
      <internalNodes>
        0 -1 334 -2 -1 -1 -1 -1 -1029 -1 -1</internalNodes>
      <leafValues>
        -8.4974801540374756e-01 1.0482969135046005e-01</leafValues></_>
    <_>
      <internalNodes>
        0 -1 110 -419500050 -83951617 -65538 -65538 1970786303
        -143147025 2004353023 -8947713</internalNodes>
      <leafValues>
        -6.7315125465393066e-01 1.6287405788898468e-01</leafValues></_>
    <_>
      <internalNodes>
        0 -1 830 -67126489 2012215087 -675282945 1362620415 -68158725
        -69533793 -335549445 319552443</internalNodes>
      <leafValues>
        -4.4620624184608459e-01 3.3996990323066711e-01</leafValues></_>
    <_>
      <internalNodes>
        0 -1 774 -25244164 -8749570 1472146396 767038394 -21496323
        527719551 1006578168 1069497338</internalNodes>
      <leafValues>
        -5.3098738193511963e-01 2.4190764129161835e-01</leafValues></_>
    <_>
      <internalNodes>
        0 -1 603 -285823196 -82049 -1 -537133441 -67108865 -1078198337
        -2022769185 1108198667</internalNodes>
      <leafValues>
        -5.0411373376846313e-01 2.4144501984119415e-01</leafValues></_>
    <_>
      <internalNodes>
        0 -1 430 348000095 -554009665 -16826466 2147123134 744300556
        1031085140 -1242042876 -8422538</internalNodes>
      <leafValues>
        -3.1324893236160278e-01 3.6297890543937683e-01</leafValues></_>
    <_>
      <internalNodes>
        0 -1 545 -402655484 1971322735 -105929794 66976747 2147349813
        -1941438547 -67117068 154138607</internalNodes>
      <leafValues>
        -6.0815817117691040e-01 1.8021753430366516e-01</leafValues></_>
    <_>
      <internalNodes>
        0 -1 1020 -956422108 -896795354 -606244866 -498192418 -16783291
        1433495071 -757334092 -2144818040</internalNodes>
      <leafValues>
        -4.3806937336921692e-01 2.3888239264488220e-01</leafValues></_>
    <_>
      <internalNodes>
        0 -1 1035 -1354760925 -2047105105 1714319282 -962003986
        799781813 94021306 503299516 -1677722629</internalNodes>
      <leafValues>
        -3.0191418528556824e-01 3.4638336300849915e-01</leafValues></_>
    <_>
      <internalNodes>
        0 -1 192 -388325080 -864128003 1071576831 -805830661 2113887089
        -16935497 2094847293 470042371</internalNodes>
      <leafValues>
        -5.3217959403991699e-01 1.8874844908714294e-01</leafValues></_>
    <_>
      <internalNodes>
        0 -1 1075 113158816 -1800670658 -1214812242 150794222
        -1879114080 364832127 -212336759 1123868586</internalNodes>
      <leafValues>
        -4.4946131110191345e-01 1.9529607892036438e-01</leafValues></_></weakClassifiers></stage3>
</opencv_storage>
