<?xml version="1.0"?>
<opencv_storage>
<stage9>
  <maxWeakCount>22</maxWeakCount>
  <stageThreshold>-1.4810675382614136e+00</stageThreshold>
  <weakClassifiers>
    <_>
      <internalNodes>
        0 -1 257 1.3898620009422302e-01</internalNodes>
      <leafValues>
        -5.3129160404205322e-01 2.9472902417182922e-01</leafValues></_>
    <_>
      <internalNodes>
        0 -1 1808 2.8416249901056290e-02</internalNodes>
      <leafValues>
        8.6413092911243439e-02 -7.3446089029312134e-01</leafValues></_>
    <_>
      <internalNodes>
        0 -1 1808 -1.5968017280101776e-02</internalNodes>
      <leafValues>
        -6.3927322626113892e-01 1.8149726092815399e-01</leafValues></_>
    <_>
      <internalNodes>
        0 -1 3220 2.7370721101760864e-02</internalNodes>
      <leafValues>
        -3.1154701113700867e-01 2.6634681224822998e-01</leafValues></_>
    <_>
      <internalNodes>
        0 -1 8 1.5903733670711517e-02</internalNodes>
      <leafValues>
        1.1367367953062057e-01 -8.2026284933090210e-01</leafValues></_>
    <_>
      <internalNodes>
        0 -1 507 2.9456784250214696e-04</internalNodes>
      <leafValues>
        -3.6604288220405579e-01 2.1077248454093933e-01</leafValues></_>
    <_>
      <internalNodes>
        0 -1 4999 -3.1820006668567657e-02</internalNodes>
      <leafValues>
        -8.5715544223785400e-01 8.7537787854671478e-02</leafValues></_>
    <_>
      <internalNodes>
        0 -1 5005 1.4762522652745247e-02</internalNodes>
      <leafValues>
        9.7516916692256927e-02 -6.7943519353866577e-01</leafValues></_>
    <_>
      <internalNodes>
        0 -1 874 -3.0293338932096958e-03</internalNodes>
      <leafValues>
        1.4840622246265411e-01 -4.5512998104095459e-01</leafValues></_>
    <_>
      <internalNodes>
        0 -1 731 -1.1151989921927452e-02</internalNodes>
      <leafValues>
        -6.2940293550491333e-01 8.6477741599082947e-02</leafValues></_>
    <_>
      <internalNodes>
        0 -1 1068 -6.6650718450546265e-02</internalNodes>
      <leafValues>
        -8.7622576951980591e-01 7.4026539921760559e-02</leafValues></_>
    <_>
      <internalNodes>
        0 -1 130 6.5456949174404144e-02</internalNodes>
      <leafValues>
        9.6915975213050842e-02 -6.7884474992752075e-01</leafValues></_>
    <_>
      <internalNodes>
        0 -1 3844 2.7453684015199542e-04</internalNodes>
      <leafValues>
        -2.5661092996597290e-01 2.3908612132072449e-01</leafValues></_>
    <_>
      <internalNodes>
        0 -1 4998 2.3117627948522568e-02</internalNodes>
      <leafValues>
        8.6337938904762268e-02 -6.5817832946777344e-01</leafValues></_>
    <_>
      <internalNodes>
        0 -1 3225 -1.4350876212120056e-02</internalNodes>
      <leafValues>
        -6.5698242187500000e-01 6.7124553024768829e-02</leafValues></_>
    <_>
      <internalNodes>
        0 -1 620 -1.6113344579935074e-02</internalNodes>
      <leafValues>
        -6.9322615861892700e-01 6.1706200242042542e-02</leafValues></_>
    <_>
      <internalNodes>
        0 -1 13 3.3512787194922566e-04</internalNodes>
      <leafValues>
        -2.3013392090797424e-01 2.2887434065341949e-01</leafValues></_>
    <_>
      <internalNodes>
        0 -1 824 -4.8823639750480652e-02</internalNodes>
      <leafValues>
        -7.8735989332199097e-01 6.1767056584358215e-02</leafValues></_>
    <_>
      <internalNodes>
        0 -1 2515 2.6649869978427887e-02</internalNodes>
      <leafValues>
        9.5206446945667267e-02 -4.3938910961151123e-01</leafValues></_>
    <_>
      <internalNodes>
        0 -1 951 -9.7982510924339294e-02</internalNodes>
      <leafValues>
        -6.3953071832656860e-01 7.5562156736850739e-02</leafValues></_>
    <_>
      <internalNodes>
        0 -1 2912 1.2613005936145782e-01</internalNodes>
      <leafValues>
        -7.4764721095561981e-02 7.3910707235336304e-01</leafValues></_>
    <_>
      <internalNodes>
        0 -1 1545 -9.5139729091897607e-04</internalNodes>
      <leafValues>
        2.5026583671569824e-01 -1.9487187266349792e-01</leafValues></_></weakClassifiers></stage9>
</opencv_storage>
