<?xml version="1.0"?>
<opencv_storage>
<stage0>
  <maxWeakCount>6</maxWeakCount>
  <stageThreshold>-1.8464658260345459e+00</stageThreshold>
  <weakClassifiers>
    <_>
      <internalNodes>
        0 -1 4 -17891346 -65537 -3145732 -1 -67634177 -524401 -1 -17</internalNodes>
      <leafValues>
        -8.3403724431991577e-01 7.1964305639266968e-01</leafValues></_>
    <_>
      <internalNodes>
        0 -1 7 -1280 1375204363 -673185802 1366294367 -2230880 297120193
        -67108872 335544235</internalNodes>
      <leafValues>
        -7.3127573728561401e-01 2.6602888107299805e-01</leafValues></_>
    <_>
      <internalNodes>
        0 -1 5 -65540 -176226338 1610497520 -1163270 -4456452 1014119871
        -1409302808 -60418</internalNodes>
      <leafValues>
        -4.9038130044937134e-01 4.8951101303100586e-01</leafValues></_>
    <_>
      <internalNodes>
        0 -1 4 -438590800 -184680534 1600008143 -704860422 -2064976144
        -1603534889 -135007490 -203427909</internalNodes>
      <leafValues>
        -4.1152510046958923e-01 4.6771979331970215e-01</leafValues></_>
    <_>
      <internalNodes>
        0 -1 3 -523722208 -522669227 2144268543 -18495909 -70406737
        -238188617 -1210059330 286326823</internalNodes>
      <leafValues>
        -5.5130720138549805e-01 2.9274097084999084e-01</leafValues></_>
    <_>
      <internalNodes>
        0 -1 1 -366041394 -27335954 -1257626106 -873543460 -212344893
        1466397561 1900394315 2001946227</internalNodes>
      <leafValues>
        -4.9458551406860352e-01 2.9281589388847351e-01</leafValues></_></weakClassifiers></stage0>
</opencv_storage>
