<?xml version="1.0"?>
<opencv_storage>
<stage3>
  <maxWeakCount>12</maxWeakCount>
  <stageThreshold>-1.6714552640914917e+00</stageThreshold>
  <weakClassifiers>
    <_>
      <internalNodes>
        0 -1 13129 1.0653093457221985e-01</internalNodes>
      <leafValues>
        -5.6611365079879761e-01 7.5689882040023804e-01</leafValues></_>
    <_>
      <internalNodes>
        0 -1 36587 1.9835722446441650e-01</internalNodes>
      <leafValues>
        -2.4702812731266022e-01 6.6088932752609253e-01</leafValues></_>
    <_>
      <internalNodes>
        0 -1 7891 1.7622686922550201e-02</internalNodes>
      <leafValues>
        2.0855388045310974e-01 -7.4917864799499512e-01</leafValues></_>
    <_>
      <internalNodes>
        0 -1 37734 2.0392265915870667e-01</internalNodes>
      <leafValues>
        -2.6316192746162415e-01 6.9428431987762451e-01</leafValues></_>
    <_>
      <internalNodes>
        0 -1 7891 -1.1093492619693279e-02</internalNodes>
      <leafValues>
        -6.5361726284027100e-01 3.3692228794097900e-01</leafValues></_>
    <_>
      <internalNodes>
        0 -1 3888 8.4765376523137093e-03</internalNodes>
      <leafValues>
        7.8483954071998596e-02 -8.2007747888565063e-01</leafValues></_>
    <_>
      <internalNodes>
        0 -1 73493 -5.5007543414831161e-03</internalNodes>
      <leafValues>
        -7.4922263622283936e-01 1.5157075226306915e-01</leafValues></_>
    <_>
      <internalNodes>
        0 -1 7613 -7.0350831374526024e-03</internalNodes>
      <leafValues>
        -6.8524992465972900e-01 1.8876467645168304e-01</leafValues></_>
    <_>
      <internalNodes>
        0 -1 77720 -1.2023478746414185e-02</internalNodes>
      <leafValues>
        -6.2607079744338989e-01 1.3844747841358185e-01</leafValues></_>
    <_>
      <internalNodes>
        0 -1 77982 1.5638835728168488e-02</internalNodes>
      <leafValues>
        1.6567949950695038e-01 -7.2226011753082275e-01</leafValues></_>
    <_>
      <internalNodes>
        0 -1 45876 8.9264377951622009e-02</internalNodes>
      <leafValues>
        -1.4871314167976379e-01 7.0277124643325806e-01</leafValues></_>
    <_>
      <internalNodes>
        0 -1 6160 2.3834232240915298e-02</internalNodes>
      <leafValues>
        1.2145514786243439e-01 -8.8819313049316406e-01</leafValues></_></weakClassifiers></stage3>
</opencv_storage>
