<?xml version="1.0"?>
<opencv_storage>
<stage5>
  <maxWeakCount>15</maxWeakCount>
  <stageThreshold>-1.5658897161483765e+00</stageThreshold>
  <weakClassifiers>
    <_>
      <internalNodes>
        0 -1 13129 1.2074488401412964e-01</internalNodes>
      <leafValues>
        -5.1187270879745483e-01 7.0035338401794434e-01</leafValues></_>
    <_>
      <internalNodes>
        0 -1 42077 2.0493245124816895e-01</internalNodes>
      <leafValues>
        -2.0793896913528442e-01 6.2367212772369385e-01</leafValues></_>
    <_>
      <internalNodes>
        0 -1 43474 1.6507080197334290e-01</internalNodes>
      <leafValues>
        -1.8696644902229309e-01 7.3667508363723755e-01</leafValues></_>
    <_>
      <internalNodes>
        0 -1 4950 -1.8681529909372330e-02</internalNodes>
      <leafValues>
        -6.9963884353637695e-01 2.1522337198257446e-01</leafValues></_>
    <_>
      <internalNodes>
        0 -1 5387 1.1989776045084000e-02</internalNodes>
      <leafValues>
        2.0924881100654602e-01 -7.0966237783432007e-01</leafValues></_>
    <_>
      <internalNodes>
        0 -1 45347 -5.5963927879929543e-03</internalNodes>
      <leafValues>
        -7.6605707406997681e-01 4.9208384007215500e-02</leafValues></_>
    <_>
      <internalNodes>
        0 -1 34466 2.0024023950099945e-02</internalNodes>
      <leafValues>
        1.4469985663890839e-01 -6.7026013135910034e-01</leafValues></_>
    <_>
      <internalNodes>
        0 -1 24532 7.8610653872601688e-05</internalNodes>
      <leafValues>
        -3.4825980663299561e-01 2.9796808958053589e-01</leafValues></_>
    <_>
      <internalNodes>
        0 -1 77716 -1.1953628621995449e-02</internalNodes>
      <leafValues>
        -6.6070514917373657e-01 1.1784042418003082e-01</leafValues></_>
    <_>
      <internalNodes>
        0 -1 77983 -1.8687942996621132e-02</internalNodes>
      <leafValues>
        -8.2603847980499268e-01 1.0700500011444092e-01</leafValues></_>
    <_>
      <internalNodes>
        0 -1 21429 6.3797071576118469e-02</internalNodes>
      <leafValues>
        1.0915517061948776e-01 -7.9274058341979980e-01</leafValues></_>
    <_>
      <internalNodes>
        0 -1 7586 -1.7106946557760239e-02</internalNodes>
      <leafValues>
        -7.1776938438415527e-01 1.2792891263961792e-01</leafValues></_>
    <_>
      <internalNodes>
        0 -1 43 1.4493959024548531e-02</internalNodes>
      <leafValues>
        1.1574109643697739e-01 -6.9621765613555908e-01</leafValues></_>
    <_>
      <internalNodes>
        0 -1 21747 1.8631983548402786e-02</internalNodes>
      <leafValues>
        7.4839890003204346e-02 -7.7935427427291870e-01</leafValues></_>
    <_>
      <internalNodes>
        0 -1 78266 -5.0764072511810809e-05</internalNodes>
      <leafValues>
        2.9992857575416565e-01 -2.7120825648307800e-01</leafValues></_></weakClassifiers></stage5>
</opencv_storage>
