<?xml version="1.0"?>
<opencv_storage>
<stage0>
  <maxWeakCount>10</maxWeakCount>
  <stageThreshold>-1.8183438777923584e+00</stageThreshold>
  <weakClassifiers>
    <_>
      <internalNodes>
        0 -1 51050 1.3306000828742981e-01</internalNodes>
      <leafValues>
        -6.8630576133728027e-01 8.5796767473220825e-01</leafValues></_>
    <_>
      <internalNodes>
        0 -1 18534 2.1459360420703888e-01</internalNodes>
      <leafValues>
        -2.7208626270294189e-01 8.1724429130554199e-01</leafValues></_>
    <_>
      <internalNodes>
        0 -1 43160 8.6629040539264679e-02</internalNodes>
      <leafValues>
        -2.0772391557693481e-01 7.3427397012710571e-01</leafValues></_>
    <_>
      <internalNodes>
        0 -1 35190 2.0095917582511902e-01</internalNodes>
      <leafValues>
        -2.0404326915740967e-01 7.1317344903945923e-01</leafValues></_>
    <_>
      <internalNodes>
        0 -1 6945 -5.2767880260944366e-03</internalNodes>
      <leafValues>
        -7.9933279752731323e-01 2.0482447743415833e-01</leafValues></_>
    <_>
      <internalNodes>
        0 -1 43045 -5.4312989115715027e-02</internalNodes>
      <leafValues>
        7.8534728288650513e-01 -2.0384198427200317e-01</leafValues></_>
    <_>
      <internalNodes>
        0 -1 43359 3.9680488407611847e-02</internalNodes>
      <leafValues>
        -9.8220944404602051e-02 8.1486868858337402e-01</leafValues></_>
    <_>
      <internalNodes>
        0 -1 77837 2.1392043679952621e-02</internalNodes>
      <leafValues>
        2.1947665512561798e-01 -7.1927690505981445e-01</leafValues></_>
    <_>
      <internalNodes>
        0 -1 76931 -2.2276280447840691e-02</internalNodes>
      <leafValues>
        -6.6410815715789795e-01 1.6881135106086731e-01</leafValues></_>
    <_>
      <internalNodes>
        0 -1 21429 6.8703711032867432e-02</internalNodes>
      <leafValues>
        1.5817669034004211e-01 -7.3923426866531372e-01</leafValues></_></weakClassifiers></stage0>
</opencv_storage>
