<?xml version="1.0"?>
<opencv_storage>
<stage4>
  <maxWeakCount>33</maxWeakCount>
  <stageThreshold>-1.7684451341629028e+00</stageThreshold>
  <weakClassifiers>
    <_>
      <internalNodes>
        0 -1 163 3.3334183692932129e-01</internalNodes>
      <leafValues>
        -4.5670571923255920e-01 6.2060391902923584e-01</leafValues></_>
    <_>
      <internalNodes>
        0 -1 6 -1.1600778996944427e-01</internalNodes>
      <leafValues>
        -6.8309921026229858e-01 1.7677858471870422e-01</leafValues></_>
    <_>
      <internalNodes>
        0 -1 6 7.0706278085708618e-02</internalNodes>
      <leafValues>
        2.0858977735042572e-01 -5.7196015119552612e-01</leafValues></_>
    <_>
      <internalNodes>
        0 -1 156 4.1579768061637878e-01</internalNodes>
      <leafValues>
        -3.2035037875175476e-01 3.0914416909217834e-01</leafValues></_>
    <_>
      <internalNodes>
        0 -1 301 7.4033305048942566e-02</internalNodes>
      <leafValues>
        1.6246418654918671e-01 -6.3560885190963745e-01</leafValues></_>
    <_>
      <internalNodes>
        0 -1 303 6.4223565161228180e-02</internalNodes>
      <leafValues>
        1.2951570749282837e-01 -7.1015828847885132e-01</leafValues></_>
    <_>
      <internalNodes>
        0 -1 15 -1.0356795787811279e-01</internalNodes>
      <leafValues>
        -5.4937165975570679e-01 1.5355749428272247e-01</leafValues></_>
    <_>
      <internalNodes>
        0 -1 270 -3.3517771959304810e-01</internalNodes>
      <leafValues>
        -6.7606604099273682e-01 3.9988834410905838e-02</leafValues></_>
    <_>
      <internalNodes>
        0 -1 0 5.8954253792762756e-02</internalNodes>
      <leafValues>
        1.3580471277236938e-01 -6.6255062818527222e-01</leafValues></_>
    <_>
      <internalNodes>
        0 -1 2 -6.5049298107624054e-02</internalNodes>
      <leafValues>
        -5.6616044044494629e-01 1.0027667880058289e-01</leafValues></_>
    <_>
      <internalNodes>
        0 -1 61 9.4908702373504639e-01</internalNodes>
      <leafValues>
        1.4682952314615250e-02 -8.1757181882858276e-01</leafValues></_>
    <_>
      <internalNodes>
        0 -1 189 1.3352555036544800e-01</internalNodes>
      <leafValues>
        1.4830479025840759e-01 -4.5369929075241089e-01</leafValues></_>
    <_>
      <internalNodes>
        0 -1 95 -3.2909461855888367e-01</internalNodes>
      <leafValues>
        -5.1658385992050171e-01 8.9444801211357117e-02</leafValues></_>
    <_>
      <internalNodes>
        0 -1 40 -1.0537181794643402e-01</internalNodes>
      <leafValues>
        -3.7214025855064392e-01 1.1784513294696808e-01</leafValues></_>
    <_>
      <internalNodes>
        0 -1 296 -4.7128438949584961e-02</internalNodes>
      <leafValues>
        -3.7143242359161377e-01 1.1890281736850739e-01</leafValues></_>
    <_>
      <internalNodes>
        0 -1 249 -1.9684478640556335e-01</internalNodes>
      <leafValues>
        3.5903814435005188e-01 -1.1996492743492126e-01</leafValues></_>
    <_>
      <internalNodes>
        0 -1 71 4.7712600231170654e-01</internalNodes>
      <leafValues>
        -7.7525205910205841e-02 5.4630267620086670e-01</leafValues></_>
    <_>
      <internalNodes>
        0 -1 257 -1.1277776956558228e-01</internalNodes>
      <leafValues>
        -4.2775276303291321e-01 1.0830244421958923e-01</leafValues></_>
    <_>
      <internalNodes>
        0 -1 219 3.7159276008605957e-01</internalNodes>
      <leafValues>
        -1.1751451343297958e-01 3.4823855757713318e-01</leafValues></_>
    <_>
      <internalNodes>
        0 -1 68 9.5200330018997192e-02</internalNodes>
      <leafValues>
        9.5513723790645599e-02 -4.0244367718696594e-01</leafValues></_>
    <_>
      <internalNodes>
        0 -1 241 2.7836787700653076e-01</internalNodes>
      <leafValues>
        -9.4391562044620514e-02 3.6584627628326416e-01</leafValues></_>
    <_>
      <internalNodes>
        0 -1 241 -1.5143954753875732e-01</internalNodes>
      <leafValues>
        2.7816352248191833e-01 -1.6733616590499878e-01</leafValues></_>
    <_>
      <internalNodes>
        0 -1 197 -6.1099920421838760e-02</internalNodes>
      <leafValues>
        -3.4777063131332397e-01 8.2198284566402435e-02</leafValues></_>
    <_>
      <internalNodes>
        0 -1 197 1.2510713934898376e-01</internalNodes>
      <leafValues>
        7.1264818310737610e-02 -4.9572804570198059e-01</leafValues></_>
    <_>
      <internalNodes>
        0 -1 194 -1.6277474351227283e-03</internalNodes>
      <leafValues>
        1.5308354794979095e-01 -1.9431039690971375e-01</leafValues></_>
    <_>
      <internalNodes>
        0 -1 87 6.7481443285942078e-02</internalNodes>
      <leafValues>
        6.7127443850040436e-02 -4.0350008010864258e-01</leafValues></_>
    <_>
      <internalNodes>
        0 -1 304 1.5169584751129150e-01</internalNodes>
      <leafValues>
        4.7134153544902802e-02 -4.6880599856376648e-01</leafValues></_>
    <_>
      <internalNodes>
        0 -1 245 2.5658380985260010e-01</internalNodes>
      <leafValues>
        -1.0030736774206161e-01 2.7628755569458008e-01</leafValues></_>
    <_>
      <internalNodes>
        0 -1 244 -6.3373260200023651e-03</internalNodes>
      <leafValues>
        1.2351400405168533e-01 -2.2049875557422638e-01</leafValues></_>
    <_>
      <internalNodes>
        0 -1 282 -5.1247692108154297e-01</internalNodes>
      <leafValues>
        -4.3920779228210449e-01 6.9818168878555298e-02</leafValues></_>
    <_>
      <internalNodes>
        0 -1 196 -1.1353947222232819e-02</internalNodes>
      <leafValues>
        2.3133900761604309e-01 -1.2113135308027267e-01</leafValues></_>
    <_>
      <internalNodes>
        0 -1 106 2.0322615746408701e-03</internalNodes>
      <leafValues>
        -1.6901855170726776e-01 1.6985519230365753e-01</leafValues></_>
    <_>
      <internalNodes>
        0 -1 3 -9.0428411960601807e-02</internalNodes>
      <leafValues>
        -3.5417023301124573e-01 7.7542096376419067e-02</leafValues></_></weakClassifiers></stage4>
</opencv_storage>
