<?xml version="1.0"?>
<opencv_storage>
<stage1>
  <maxWeakCount>7</maxWeakCount>
  <stageThreshold>-1.4486398696899414e+00</stageThreshold>
  <weakClassifiers>
    <_>
      <internalNodes>
        0 -1 235 -1.2159297475591302e-03</internalNodes>
      <leafValues>
        4.8344659805297852e-01 -7.4215555191040039e-01</leafValues></_>
    <_>
      <internalNodes>
        0 -1 230 2.7217784523963928e-01</internalNodes>
      <leafValues>
        -4.8162025213241577e-01 4.8581442236900330e-01</leafValues></_>
    <_>
      <internalNodes>
        0 -1 180 7.9660059418529272e-04</internalNodes>
      <leafValues>
        -3.4895795583724976e-01 4.0055447816848755e-01</leafValues></_>
    <_>
      <internalNodes>
        0 -1 299 1.6548281908035278e-01</internalNodes>
      <leafValues>
        1.6295398771762848e-01 -7.2939157485961914e-01</leafValues></_>
    <_>
      <internalNodes>
        0 -1 302 -1.0217647254467010e-01</internalNodes>
      <leafValues>
        -6.3387173414230347e-01 1.7313133180141449e-01</leafValues></_>
    <_>
      <internalNodes>
        0 -1 235 1.1194510152563453e-03</internalNodes>
      <leafValues>
        -1.9936652481555939e-01 5.4360836744308472e-01</leafValues></_>
    <_>
      <internalNodes>
        0 -1 175 -1.3039949117228389e-03</internalNodes>
      <leafValues>
        2.6617789268493652e-01 -4.3122395873069763e-01</leafValues></_></weakClassifiers></stage1>
</opencv_storage>
