<?xml version="1.0"?>
<opencv_storage>
<stage9>
  <maxWeakCount>24</maxWeakCount>
  <stageThreshold>-1.5270391702651978e+00</stageThreshold>
  <weakClassifiers>
    <_>
      <internalNodes>
        0 -1 93 -2.3840796202421188e-03</internalNodes>
      <leafValues>
        -5.1509767770767212e-02 -6.9641494750976562e-01</leafValues></_>
    <_>
      <internalNodes>
        0 -1 219 3.2533043622970581e-01</internalNodes>
      <leafValues>
        -2.8014650940895081e-01 3.9241963624954224e-01</leafValues></_>
    <_>
      <internalNodes>
        0 -1 261 -1.6780674923211336e-03</internalNodes>
      <leafValues>
        3.1795582175254822e-01 -2.8760525584220886e-01</leafValues></_>
    <_>
      <internalNodes>
        0 -1 66 -3.4865498542785645e-02</internalNodes>
      <leafValues>
        -7.2456133365631104e-01 1.2287536263465881e-01</leafValues></_>
    <_>
      <internalNodes>
        0 -1 117 9.5588870346546173e-02</internalNodes>
      <leafValues>
        1.0723824054002762e-01 -8.4962141513824463e-01</leafValues></_>
    <_>
      <internalNodes>
        0 -1 117 -1.0599955916404724e-01</internalNodes>
      <leafValues>
        -7.1261519193649292e-01 1.2075204402208328e-01</leafValues></_>
    <_>
      <internalNodes>
        0 -1 37 -4.4172625988721848e-02</internalNodes>
      <leafValues>
        -8.1938004493713379e-01 6.6111363470554352e-02</leafValues></_>
    <_>
      <internalNodes>
        0 -1 252 -2.4294606409966946e-03</internalNodes>
      <leafValues>
        1.8356032669544220e-01 -3.9412871003150940e-01</leafValues></_>
    <_>
      <internalNodes>
        0 -1 193 1.0501572489738464e-01</internalNodes>
      <leafValues>
        9.5477499067783356e-02 -6.6741013526916504e-01</leafValues></_>
    <_>
      <internalNodes>
        0 -1 298 -5.9320736676454544e-02</internalNodes>
      <leafValues>
        -7.3023271560668945e-01 8.5197485983371735e-02</leafValues></_>
    <_>
      <internalNodes>
        0 -1 298 4.9088172614574432e-02</internalNodes>
      <leafValues>
        7.9195581376552582e-02 -6.7373490333557129e-01</leafValues></_>
    <_>
      <internalNodes>
        0 -1 6 7.6909713447093964e-02</internalNodes>
      <leafValues>
        1.0099590569734573e-01 -5.7143479585647583e-01</leafValues></_>
    <_>
      <internalNodes>
        0 -1 294 -3.2383250072598457e-03</internalNodes>
      <leafValues>
        2.2907456755638123e-01 -2.5592890381813049e-01</leafValues></_>
    <_>
      <internalNodes>
        0 -1 238 -1.1310225352644920e-02</internalNodes>
      <leafValues>
        2.5280532240867615e-01 -2.2245009243488312e-01</leafValues></_>
    <_>
      <internalNodes>
        0 -1 234 -3.5117739439010620e-01</internalNodes>
      <leafValues>
        -3.9049422740936279e-01 1.6780459880828857e-01</leafValues></_>
    <_>
      <internalNodes>
        0 -1 0 -4.8945382237434387e-02</internalNodes>
      <leafValues>
        -7.1424019336700439e-01 8.2844659686088562e-02</leafValues></_>
    <_>
      <internalNodes>
        0 -1 296 -3.6354981362819672e-02</internalNodes>
      <leafValues>
        -5.3423732519149780e-01 7.0107527077198029e-02</leafValues></_>
    <_>
      <internalNodes>
        0 -1 258 -2.0119021646678448e-03</internalNodes>
      <leafValues>
        2.6732546091079712e-01 -2.0811212062835693e-01</leafValues></_>
    <_>
      <internalNodes>
        0 -1 125 -1.0507113933563232e+00</internalNodes>
      <leafValues>
        -6.2574338912963867e-01 7.3137417435646057e-02</leafValues></_>
    <_>
      <internalNodes>
        0 -1 194 -2.8587123379111290e-03</internalNodes>
      <leafValues>
        2.1281689405441284e-01 -2.5783622264862061e-01</leafValues></_>
    <_>
      <internalNodes>
        0 -1 1 -3.8892142474651337e-02</internalNodes>
      <leafValues>
        -8.6233967542648315e-01 4.2519457638263702e-02</leafValues></_>
    <_>
      <internalNodes>
        0 -1 237 -7.2287004441022873e-03</internalNodes>
      <leafValues>
        1.3644492626190186e-01 -2.5734362006187439e-01</leafValues></_>
    <_>
      <internalNodes>
        0 -1 220 5.4069019854068756e-02</internalNodes>
      <leafValues>
        -1.1217978596687317e-01 4.9256542325019836e-01</leafValues></_>
    <_>
      <internalNodes>
        0 -1 26 -1.5265734866261482e-02</internalNodes>
      <leafValues>
        1.8119379878044128e-01 -2.7566212415695190e-01</leafValues></_></weakClassifiers></stage9>
</opencv_storage>
