<?xml version="1.0"?>
<opencv_storage>
<stage9>
  <maxWeakCount>39</maxWeakCount>
  <stageThreshold>-1.8991047143936157e+00</stageThreshold>
  <weakClassifiers>
    <_>
      <internalNodes>
        0 -1 46 -14421245 -15207645 -82839805 -11536510 -69209201
        -9570896 -7342185 -145767133</internalNodes>
      <leafValues>
        -7.0579832792282104e-01 -6.8070895969867706e-02</leafValues></_>
    <_>
      <internalNodes>
        0 -1 206 -604295493 967562930 -31835374 742046474 1073725439
        199101290 536868863 -1025</internalNodes>
      <leafValues>
        -3.0469769239425659e-01 3.3789408206939697e-01</leafValues></_>
    <_>
      <internalNodes>
        0 -1 40 1137174267 -545305985 -1225794627 -2727969 -467646748
        -13152507 -94840136 -13149121</internalNodes>
      <leafValues>
        -1.9256357848644257e-01 2.7685138583183289e-01</leafValues></_>
    <_>
      <internalNodes>
        0 -1 121 -2080595662 2146686332 1609170399 -69680929 -413408786
        -41818632 -512166461 17630395</internalNodes>
      <leafValues>
        -3.7056627869606018e-01 1.3938653469085693e-01</leafValues></_>
    <_>
      <internalNodes>
        0 -1 17 -1393754114 -287506577 -1007461226 -356319316 -8978441
        -8401921 976736235 -93389885</internalNodes>
      <leafValues>
        -4.4730424880981445e-01 1.4095678925514221e-01</leafValues></_>
    <_>
      <internalNodes>
        0 -1 183 -588456708 -185307588 -271974401 1074653405 -587345780
        -637616739 -673605381 -1878484568</internalNodes>
      <leafValues>
        -2.0837715268135071e-01 2.8728231787681580e-01</leafValues></_>
    <_>
      <internalNodes>
        0 -1 172 -542134494 2002717503 -545148002 328194450 -289949019
        95009727 -903689232 -1984299271</internalNodes>
      <leafValues>
        -2.6186347007751465e-01 1.8444232642650604e-01</leafValues></_>
    <_>
      <internalNodes>
        0 -1 212 -1955618174 -1628460550 1338032059 134198874 1675488771
        -277364770 -420242642 46829306</internalNodes>
      <leafValues>
        -2.5216415524482727e-01 1.7003805935382843e-01</leafValues></_>
    <_>
      <internalNodes>
        0 -1 21 1617849102 -51379733 -1079046466 -9565985 -747377177
        -681228280 2002015912 1987335799</internalNodes>
      <leafValues>
        -3.6795398592948914e-01 1.3246993720531464e-01</leafValues></_>
    <_>
      <internalNodes>
        0 -1 134 -579040256 2086468703 -1331956483 1908401565 1228515572
        -120846177 2029295784 -1741662756</internalNodes>
      <leafValues>
        -2.9590094089508057e-01 1.2039335072040558e-01</leafValues></_>
    <_>
      <internalNodes>
        0 -1 119 1143889264 539185128 191133524 793203250 4281700
        104689720 459348312 520702540</internalNodes>
      <leafValues>
        -3.7882944941520691e-01 1.1755941063165665e-01</leafValues></_>
    <_>
      <internalNodes>
        0 -1 192 548350530 -1597894133 1220468616 1086589838 -1412251227
        220185591 490715388 260015278</internalNodes>
      <leafValues>
        -2.6716336607933044e-01 1.4552384614944458e-01</leafValues></_>
    <_>
      <internalNodes>
        0 -1 33 -1575096536 653929829 -2123899886 1031733118 930280998
        175725237 336909092 1779727686</internalNodes>
      <leafValues>
        -3.7229600548744202e-01 1.0105269402265549e-01</leafValues></_>
    <_>
      <internalNodes>
        0 -1 176 203706897 -1233487931 629882489 1597516604 429436217
        477171068 1060866712 -8426498</internalNodes>
      <leafValues>
        -1.9914726912975311e-01 2.0039647817611694e-01</leafValues></_>
    <_>
      <internalNodes>
        0 -1 102 -284122448 -965670111 -268601932 -38610848 -61801076
        -1409960026 391624019 -3354207</internalNodes>
      <leafValues>
        -1.8408584594726562e-01 1.9456560909748077e-01</leafValues></_>
    <_>
      <internalNodes>
        0 -1 54 -612130286 -746393912 68213159 -618728831 -248471728
        -1621497583 1399240219 -16690155</internalNodes>
      <leafValues>
        -1.4935752749443054e-01 2.3777388036251068e-01</leafValues></_>
    <_>
      <internalNodes>
        0 -1 74 -61425916 -6381604 985609980 1956103838 -56627675
        -303572586 646594404 263812730</internalNodes>
      <leafValues>
        -6.2364244461059570e-01 5.9186093509197235e-02</leafValues></_>
    <_>
      <internalNodes>
        0 -1 209 465491512 631213168 800096001 563763488 -1087901127
        -1891648912 338689422 -271589634</internalNodes>
      <leafValues>
        -1.5965460240840912e-01 2.1800643205642700e-01</leafValues></_>
    <_>
      <internalNodes>
        0 -1 16 246287660 -590896138 1767026938 -1901469512 2105376633
        -725138193 1799163439 727208525</internalNodes>
      <leafValues>
        -5.4841345548629761e-01 6.3900418579578400e-02</leafValues></_>
    <_>
      <internalNodes>
        0 -1 201 -1912894293 -481302003 2051501806 1408092094
        -1057122839 -20201490 -493889075 -133571669</internalNodes>
      <leafValues>
        -1.1150757968425751e-01 3.0763298273086548e-01</leafValues></_>
    <_>
      <internalNodes>
        0 -1 173 1758161408 1392497896 1169886996 75312863 686583585
        145239986 982658032 343998288</internalNodes>
      <leafValues>
        -4.5343032479286194e-01 7.4867874383926392e-02</leafValues></_>
    <_>
      <internalNodes>
        0 -1 25 -1065940737 -293852590 842801762 291417823 -247483970
        1393960782 1314067278 -80093924</internalNodes>
      <leafValues>
        -1.7648535966873169e-01 1.8743604421615601e-01</leafValues></_>
    <_>
      <internalNodes>
        0 -1 93 954737168 1383115772 -1783075247 641743063 1555206785
        -50000969 -76071401 268713987</internalNodes>
      <leafValues>
        -2.8163155913352966e-01 1.1573837697505951e-01</leafValues></_>
    <_>
      <internalNodes>
        0 -1 157 -1360654812 -218368692 -1682213761 1104859454
        -1447319387 1369612433 1112252516 1073807406</internalNodes>
      <leafValues>
        -5.0422960519790649e-01 5.9454839676618576e-02</leafValues></_>
    <_>
      <internalNodes>
        0 -1 223 -248823725 -811636999 533888856 -1399776055 -1077441623
        -1987849412 1737883307 -816360002</internalNodes>
      <leafValues>
        -1.2454204261302948e-01 2.5388649106025696e-01</leafValues></_>
    <_>
      <internalNodes>
        0 -1 140 -1496406476 -959707298 785743480 1127399386 -950405377
        3907 1879016412 1394825082</internalNodes>
      <leafValues>
        -3.4217879176139832e-01 9.0360946953296661e-02</leafValues></_>
    <_>
      <internalNodes>
        0 -1 155 -827396576 -2072790773 -74891333 1360081790 1050888772
        -236656386 -2146036868 1392556933</internalNodes>
      <leafValues>
        -3.9059931039810181e-01 7.6575316488742828e-02</leafValues></_>
    <_>
      <internalNodes>
        0 -1 194 -129764229 -1934807552 1063738929 -33273967 -1075866860
        -1686310916 1039663103 -2105633</internalNodes>
      <leafValues>
        -9.3708030879497528e-02 3.4382978081703186e-01</leafValues></_>
    <_>
      <internalNodes>
        0 -1 47 1853830411 -9459260 -589324454 -41982809 -172002562
        -109314315 2046374174 -491411688</internalNodes>
      <leafValues>
        -1.3560631871223450e-01 2.3366048932075500e-01</leafValues></_>
    <_>
      <internalNodes>
        0 -1 15 661791264 -1157985826 883109264 681377469 1077163376
        -1240180548 -1662662444 1499689329</internalNodes>
      <leafValues>
        -3.3899697661399841e-01 9.3046784400939941e-02</leafValues></_>
    <_>
      <internalNodes>
        0 -1 193 1487992676 -1896760724 1038827088 1509490181 1056882608
        -2059487849 958892763 -1141641238</internalNodes>
      <leafValues>
        -1.1754774302244186e-01 2.5426492094993591e-01</leafValues></_>
    <_>
      <internalNodes>
        0 -1 113 -1676235292 358403166 1236465576 101844660 -2113749263
        83961857 586460016 1546480268</internalNodes>
      <leafValues>
        -5.0018930435180664e-01 5.9386197477579117e-02</leafValues></_>
    <_>
      <internalNodes>
        0 -1 118 565148273 2094345597 889115884 1400597247 843281968
        -60158108 107344176 -1156621666</internalNodes>
      <leafValues>
        -1.5049594640731812e-01 2.0551098883152008e-01</leafValues></_>
    <_>
      <internalNodes>
        0 -1 107 251435152 678436953 -192860030 2121822396 -97171721
        1461994506 1473582900 1172303094</internalNodes>
      <leafValues>
        -3.8358819484710693e-01 7.9436950385570526e-02</leafValues></_>
    <_>
      <internalNodes>
        0 -1 142 -318783712 663793846 -210577012 324490154 -1565279020
        335708833 143381284 196862927</internalNodes>
      <leafValues>
        -4.7675085067749023e-01 5.9770468622446060e-02</leafValues></_>
    <_>
      <internalNodes>
        0 -1 106 -1023493848 -64610351 -147137022 -107590 -450895975
        1882199626 1952752385 -83160793</internalNodes>
      <leafValues>
        -1.9160746037960052e-01 1.6444261372089386e-01</leafValues></_>
    <_>
      <internalNodes>
        0 -1 132 -361890016 -319163746 -1212930 711478082 -1669809758
        -302092672 1367610225 -1844838323</internalNodes>
      <leafValues>
        -1.7794618010520935e-01 1.7286249995231628e-01</leafValues></_>
    <_>
      <internalNodes>
        0 -1 24 -2146819672 1947084490 -1551021396 -671300460 656783071
        -688624618 589751846 919880794</internalNodes>
      <leafValues>
        -2.2823973000049591e-01 1.3963155448436737e-01</leafValues></_>
    <_>
      <internalNodes>
        0 -1 149 1181637668 107355617 1040187222 746610161 360479763
        -1730327918 1381100372 536443480</internalNodes>
      <leafValues>
        -3.2604148983955383e-01 9.5141418278217316e-02</leafValues></_></weakClassifiers></stage9>
</opencv_storage>
