<?xml version="1.0"?>
<opencv_storage>
<cascade>
  <stageType>BOOST</stageType>
  <featureType>HAAR</featureType>
  <height>15</height>
  <width>15</width>
  <stageParams>
    <boostType>GAB</boostType>
    <minHitRate>9.9500000476837158e-01</minHitRate>
    <maxFalseAlarm>5.0000000000000000e-01</maxFalseAlarm>
    <weightTrimRate>9.4999999999999996e-01</weightTrimRate>
    <maxDepth>1</maxDepth>
    <maxWeakCount>100</maxWeakCount></stageParams>
  <featureParams>
    <maxCatCount>0</maxCatCount>
    <featSize>1</featSize>
    <mode>BASIC</mode></featureParams>
  <stageNum>15</stageNum>
  <stages>
    <!-- stage 0 -->
    <_>
      <maxWeakCount>6</maxWeakCount>
      <stageThreshold>-1.2988131046295166e+00</stageThreshold>
      <weakClassifiers>
        <_>
          <internalNodes>
            0 -1 41 1.9812989234924316e-01</internalNodes>
          <leafValues>
            -7.4747473001480103e-01 7.9738563299179077e-01</leafValues></_>
        <_>
          <internalNodes>
            0 -1 118 2.3695017397403717e-01</internalNodes>
          <leafValues>
            -4.2526763677597046e-01 6.8306708335876465e-01</leafValues></_>
        <_>
          <internalNodes>
            0 -1 68 -2.2118411958217621e-02</internalNodes>
          <leafValues>
            -7.4791830778121948e-01 2.5650611519813538e-01</leafValues></_>
        <_>
          <internalNodes>
            0 -1 21 3.1866069883108139e-02</internalNodes>
          <leafValues>
            1.9650234282016754e-01 -9.0491318702697754e-01</leafValues></_>
        <_>
          <internalNodes>
            0 -1 111 2.3790614679455757e-02</internalNodes>
          <leafValues>
            1.7862367630004883e-01 -8.6559116840362549e-01</leafValues></_>
        <_>
          <internalNodes>
            0 -1 111 -2.0868562161922455e-02</internalNodes>
          <leafValues>
            -7.5253635644912720e-01 2.8651204705238342e-01</leafValues></_></weakClassifiers></_>
    <!-- stage 1 -->
    <_>
      <maxWeakCount>9</maxWeakCount>
      <stageThreshold>-1.6364035606384277e+00</stageThreshold>
      <weakClassifiers>
        <_>
          <internalNodes>
            0 -1 41 2.6491206884384155e-01</internalNodes>
          <leafValues>
            -6.6719365119934082e-01 8.2990652322769165e-01</leafValues></_>
        <_>
          <internalNodes>
            0 -1 116 9.0821146965026855e-02</internalNodes>
          <leafValues>
            -4.4783714413642883e-01 6.1028742790222168e-01</leafValues></_>
        <_>
          <internalNodes>
            0 -1 22 -1.2323632836341858e-02</internalNodes>
          <leafValues>
            -8.5090470314025879e-01 2.0409855246543884e-01</leafValues></_>
        <_>
          <internalNodes>
            0 -1 93 1.1316467076539993e-02</internalNodes>
          <leafValues>
            2.1793067455291748e-01 -7.6528298854827881e-01</leafValues></_>
        <_>
          <internalNodes>
            0 -1 94 -2.0771637558937073e-02</internalNodes>
          <leafValues>
            -7.9657030105590820e-01 1.4412184059619904e-01</leafValues></_>
        <_>
          <internalNodes>
            0 -1 232 -1.1641733348369598e-02</internalNodes>
          <leafValues>
            -8.4218007326126099e-01 1.4548912644386292e-01</leafValues></_>
        <_>
          <internalNodes>
            0 -1 234 2.3129392415285110e-02</internalNodes>
          <leafValues>
            1.6856211423873901e-01 -7.3728531599044800e-01</leafValues></_>
        <_>
          <internalNodes>
            0 -1 130 1.7481128871440887e-01</internalNodes>
          <leafValues>
            -2.5203943252563477e-01 6.4065974950790405e-01</leafValues></_>
        <_>
          <internalNodes>
            0 -1 136 2.0869143307209015e-01</internalNodes>
          <leafValues>
            -1.6632200777530670e-01 7.8755420446395874e-01</leafValues></_></weakClassifiers></_>
    <!-- stage 2 -->
    <_>
      <maxWeakCount>10</maxWeakCount>
      <stageThreshold>-1.4333667755126953e+00</stageThreshold>
      <weakClassifiers>
        <_>
          <internalNodes>
            0 -1 41 2.8463643789291382e-01</internalNodes>
          <leafValues>
            -6.4316320419311523e-01 8.2381415367126465e-01</leafValues></_>
        <_>
          <internalNodes>
            0 -1 157 -5.3102819947525859e-04</internalNodes>
          <leafValues>
            3.2101827859878540e-01 -6.1325329542160034e-01</leafValues></_>
        <_>
          <internalNodes>
            0 -1 15 1.4309853315353394e-02</internalNodes>
          <leafValues>
            1.9932332634925842e-01 -7.8656136989593506e-01</leafValues></_>
        <_>
          <internalNodes>
            0 -1 97 -1.1766877025365829e-02</internalNodes>
          <leafValues>
            -8.0079585313796997e-01 1.6938632726669312e-01</leafValues></_>
        <_>
          <internalNodes>
            0 -1 23 1.8815524876117706e-02</internalNodes>
          <leafValues>
            1.3933840394020081e-01 -7.8597033023834229e-01</leafValues></_>
        <_>
          <internalNodes>
            0 -1 158 -8.0854129046201706e-03</internalNodes>
          <leafValues>
            3.0701524019241333e-01 -4.5654508471488953e-01</leafValues></_>
        <_>
          <internalNodes>
            0 -1 237 -3.3292807638645172e-02</internalNodes>
          <leafValues>
            -7.9961025714874268e-01 1.6622568666934967e-01</leafValues></_>
        <_>
          <internalNodes>
            0 -1 249 9.8529839888215065e-03</internalNodes>
          <leafValues>
            1.4803820848464966e-01 -7.4603861570358276e-01</leafValues></_>
        <_>
          <internalNodes>
            0 -1 180 6.8741016089916229e-02</internalNodes>
          <leafValues>
            -1.8315017223358154e-01 7.7339625358581543e-01</leafValues></_>
        <_>
          <internalNodes>
            0 -1 117 -1.1305031180381775e-01</internalNodes>
          <leafValues>
            7.4477446079254150e-01 -1.6190792620182037e-01</leafValues></_></weakClassifiers></_>
    <!-- stage 3 -->
    <_>
      <maxWeakCount>10</maxWeakCount>
      <stageThreshold>-1.4086899757385254e+00</stageThreshold>
      <weakClassifiers>
        <_>
          <internalNodes>
            0 -1 145 2.3839680850505829e-01</internalNodes>
          <leafValues>
            -6.4009660482406616e-01 7.0788532495498657e-01</leafValues></_>
        <_>
          <internalNodes>
            0 -1 77 3.0242216587066650e-01</internalNodes>
          <leafValues>
            -3.7565192580223083e-01 6.1414772272109985e-01</leafValues></_>
        <_>
          <internalNodes>
            0 -1 159 -1.5431054634973407e-04</internalNodes>
          <leafValues>
            3.1001833081245422e-01 -4.3397504091262817e-01</leafValues></_>
        <_>
          <internalNodes>
            0 -1 114 -1.5956461429595947e-02</internalNodes>
          <leafValues>
            -9.0093749761581421e-01 1.5231685340404510e-01</leafValues></_>
        <_>
          <internalNodes>
            0 -1 156 4.0375344455242157e-02</internalNodes>
          <leafValues>
            -1.9239425659179688e-01 7.6325398683547974e-01</leafValues></_>
        <_>
          <internalNodes>
            0 -1 58 1.2607106007635593e-02</internalNodes>
          <leafValues>
            2.2116518020629883e-01 -7.2544634342193604e-01</leafValues></_>
        <_>
          <internalNodes>
            0 -1 153 -5.4659351706504822e-02</internalNodes>
          <leafValues>
            7.5196784734725952e-01 -2.0323497056961060e-01</leafValues></_>
        <_>
          <internalNodes>
            0 -1 251 -1.4687890186905861e-02</internalNodes>
          <leafValues>
            -8.4741967916488647e-01 1.8276317417621613e-01</leafValues></_>
        <_>
          <internalNodes>
            0 -1 66 5.4084448493085802e-05</internalNodes>
          <leafValues>
            -4.1503751277923584e-01 3.0929049849510193e-01</leafValues></_>
        <_>
          <internalNodes>
            0 -1 120 -9.8485261201858521e-02</internalNodes>
          <leafValues>
            7.5689172744750977e-01 -1.8587146699428558e-01</leafValues></_></weakClassifiers></_>
    <!-- stage 4 -->
    <_>
      <maxWeakCount>10</maxWeakCount>
      <stageThreshold>-1.3372391462326050e+00</stageThreshold>
      <weakClassifiers>
        <_>
          <internalNodes>
            0 -1 142 3.7941831350326538e-01</internalNodes>
          <leafValues>
            -5.5013340711593628e-01 6.5813714265823364e-01</leafValues></_>
        <_>
          <internalNodes>
            0 -1 94 1.4054028317332268e-02</internalNodes>
          <leafValues>
            1.9376654922962189e-01 -8.6658126115798950e-01</leafValues></_>
        <_>
          <internalNodes>
            0 -1 84 2.8181764483451843e-01</internalNodes>
          <leafValues>
            -2.4372546374797821e-01 7.8698951005935669e-01</leafValues></_>
        <_>
          <internalNodes>
            0 -1 128 -1.5727907419204712e-02</internalNodes>
          <leafValues>
            -7.0444208383560181e-01 2.5039750337600708e-01</leafValues></_>
        <_>
          <internalNodes>
            0 -1 0 -8.4149595350027084e-03</internalNodes>
          <leafValues>
            -8.2749420404434204e-01 1.2373775243759155e-01</leafValues></_>
        <_>
          <internalNodes>
            0 -1 18 1.0105087421834469e-02</internalNodes>
          <leafValues>
            2.9482799768447876e-01 -7.1798086166381836e-01</leafValues></_>
        <_>
          <internalNodes>
            0 -1 220 1.8353173509240150e-02</internalNodes>
          <leafValues>
            1.0041491687297821e-01 -7.4111586809158325e-01</leafValues></_>
        <_>
          <internalNodes>
            0 -1 139 9.4749806448817253e-03</internalNodes>
          <leafValues>
            1.6677395999431610e-01 -7.0054775476455688e-01</leafValues></_>
        <_>
          <internalNodes>
            0 -1 250 6.6347820684313774e-03</internalNodes>
          <leafValues>
            1.4816541969776154e-01 -7.6125270128250122e-01</leafValues></_>
        <_>
          <internalNodes>
            0 -1 110 3.7249043583869934e-02</internalNodes>
          <leafValues>
            1.1108040809631348e-01 -8.6662471294403076e-01</leafValues></_></weakClassifiers></_>
    <!-- stage 5 -->
    <_>
      <maxWeakCount>12</maxWeakCount>
      <stageThreshold>-1.4258276224136353e+00</stageThreshold>
      <weakClassifiers>
        <_>
          <internalNodes>
            0 -1 41 3.8436684012413025e-01</internalNodes>
          <leafValues>
            -4.9361702799797058e-01 7.5897437334060669e-01</leafValues></_>
        <_>
          <internalNodes>
            0 -1 13 -3.8348913192749023e-02</internalNodes>
          <leafValues>
            -8.8676798343658447e-01 1.8987700343132019e-01</leafValues></_>
        <_>
          <internalNodes>
            0 -1 3 9.3572102487087250e-03</internalNodes>
          <leafValues>
            1.4599506556987762e-01 -8.6797279119491577e-01</leafValues></_>
        <_>
          <internalNodes>
            0 -1 27 -3.3098824322223663e-02</internalNodes>
          <leafValues>
            -8.1352627277374268e-01 1.2927868962287903e-01</leafValues></_>
        <_>
          <internalNodes>
            0 -1 75 1.1877138167619705e-02</internalNodes>
          <leafValues>
            1.6826742887496948e-01 -7.8012931346893311e-01</leafValues></_>
        <_>
          <internalNodes>
            0 -1 80 7.8789532184600830e-02</internalNodes>
          <leafValues>
            -3.8382112979888916e-01 3.7606680393218994e-01</leafValues></_>
        <_>
          <internalNodes>
            0 -1 62 1.2350620701909065e-02</internalNodes>
          <leafValues>
            1.1872249096632004e-01 -7.4616003036499023e-01</leafValues></_>
        <_>
          <internalNodes>
            0 -1 52 1.0040528140962124e-02</internalNodes>
          <leafValues>
            1.6198754310607910e-01 -7.8241944313049316e-01</leafValues></_>
        <_>
          <internalNodes>
            0 -1 223 -2.1476373076438904e-02</internalNodes>
          <leafValues>
            -7.3253828287124634e-01 1.0762766003608704e-01</leafValues></_>
        <_>
          <internalNodes>
            0 -1 34 2.0900083705782890e-02</internalNodes>
          <leafValues>
            1.0651502013206482e-01 -8.2084524631500244e-01</leafValues></_>
        <_>
          <internalNodes>
            0 -1 228 3.0070498585700989e-02</internalNodes>
          <leafValues>
            1.0106411576271057e-01 -7.9220360517501831e-01</leafValues></_>
        <_>
          <internalNodes>
            0 -1 85 -1.0687156463973224e-04</internalNodes>
          <leafValues>
            2.8963473439216614e-01 -3.1590887904167175e-01</leafValues></_></weakClassifiers></_>
    <!-- stage 6 -->
    <_>
      <maxWeakCount>11</maxWeakCount>
      <stageThreshold>-1.1460500955581665e+00</stageThreshold>
      <weakClassifiers>
        <_>
          <internalNodes>
            0 -1 42 4.1240000724792480e-01</internalNodes>
          <leafValues>
            -5.1996958255767822e-01 5.8393406867980957e-01</leafValues></_>
        <_>
          <internalNodes>
            0 -1 111 -2.5751043111085892e-02</internalNodes>
          <leafValues>
            -7.9098576307296753e-01 1.5340889990329742e-01</leafValues></_>
        <_>
          <internalNodes>
            0 -1 205 6.8671074695885181e-03</internalNodes>
          <leafValues>
            1.4526410400867462e-01 -8.4787362813949585e-01</leafValues></_>
        <_>
          <internalNodes>
            0 -1 241 -1.7426459118723869e-02</internalNodes>
          <leafValues>
            -7.8467506170272827e-01 1.1879021674394608e-01</leafValues></_>
        <_>
          <internalNodes>
            0 -1 11 2.0032918080687523e-02</internalNodes>
          <leafValues>
            1.1291079223155975e-01 -8.2070469856262207e-01</leafValues></_>
        <_>
          <internalNodes>
            0 -1 4 -2.2991884499788284e-02</internalNodes>
          <leafValues>
            -8.2831275463104248e-01 1.1242470890283585e-01</leafValues></_>
        <_>
          <internalNodes>
            0 -1 44 -6.1049081385135651e-02</internalNodes>
          <leafValues>
            2.3924717307090759e-01 -4.7262671589851379e-01</leafValues></_>
        <_>
          <internalNodes>
            0 -1 244 -7.8394748270511627e-03</internalNodes>
          <leafValues>
            -7.9065877199172974e-01 1.2962210178375244e-01</leafValues></_>
        <_>
          <internalNodes>
            0 -1 91 4.1368681937456131e-02</internalNodes>
          <leafValues>
            5.8943647891283035e-02 -8.7239241600036621e-01</leafValues></_>
        <_>
          <internalNodes>
            0 -1 65 -2.5152847170829773e-02</internalNodes>
          <leafValues>
            -7.7580243349075317e-01 1.2034196406602859e-01</leafValues></_>
        <_>
          <internalNodes>
            0 -1 25 -7.0747986435890198e-02</internalNodes>
          <leafValues>
            -7.8878670930862427e-01 1.0743974149227142e-01</leafValues></_></weakClassifiers></_>
    <!-- stage 7 -->
    <_>
      <maxWeakCount>13</maxWeakCount>
      <stageThreshold>-1.3836663961410522e+00</stageThreshold>
      <weakClassifiers>
        <_>
          <internalNodes>
            0 -1 71 1.0166405141353607e-01</internalNodes>
          <leafValues>
            -5.9813952445983887e-01 3.3517241477966309e-01</leafValues></_>
        <_>
          <internalNodes>
            0 -1 234 -2.1050926297903061e-02</internalNodes>
          <leafValues>
            -8.1975877285003662e-01 9.4472751021385193e-02</leafValues></_>
        <_>
          <internalNodes>
            0 -1 234 2.3216500878334045e-02</internalNodes>
          <leafValues>
            1.8230216205120087e-01 -8.1695151329040527e-01</leafValues></_>
        <_>
          <internalNodes>
            0 -1 169 1.3460780610330403e-04</internalNodes>
          <leafValues>
            -3.7045589089393616e-01 3.0093294382095337e-01</leafValues></_>
        <_>
          <internalNodes>
            0 -1 140 1.6649732366204262e-02</internalNodes>
          <leafValues>
            1.2966676056385040e-01 -8.3398729562759399e-01</leafValues></_>
        <_>
          <internalNodes>
            0 -1 182 2.1932820975780487e-01</internalNodes>
          <leafValues>
            -2.2040583193302155e-01 5.4928785562515259e-01</leafValues></_>
        <_>
          <internalNodes>
            0 -1 17 -1.4425124973058701e-02</internalNodes>
          <leafValues>
            -7.4028378725051880e-01 1.6329216957092285e-01</leafValues></_>
        <_>
          <internalNodes>
            0 -1 200 1.2950459495186806e-04</internalNodes>
          <leafValues>
            -3.1334084272384644e-01 3.6639681458473206e-01</leafValues></_>
        <_>
          <internalNodes>
            0 -1 48 9.8228063434362411e-03</internalNodes>
          <leafValues>
            1.9518351554870605e-01 -7.6469796895980835e-01</leafValues></_>
        <_>
          <internalNodes>
            0 -1 124 -1.1637121497187763e-04</internalNodes>
          <leafValues>
            2.9299125075340271e-01 -3.4331187605857849e-01</leafValues></_>
        <_>
          <internalNodes>
            0 -1 101 5.4183909669518471e-03</internalNodes>
          <leafValues>
            1.0706169158220291e-01 -8.6407101154327393e-01</leafValues></_>
        <_>
          <internalNodes>
            0 -1 246 1.6283873468637466e-02</internalNodes>
          <leafValues>
            5.7589456439018250e-02 -8.6364775896072388e-01</leafValues></_>
        <_>
          <internalNodes>
            0 -1 38 -1.5744842588901520e-02</internalNodes>
          <leafValues>
            -8.4850847721099854e-01 1.0261270403862000e-01</leafValues></_></weakClassifiers></_>
    <!-- stage 8 -->
    <_>
      <maxWeakCount>16</maxWeakCount>
      <stageThreshold>-1.4682359695434570e+00</stageThreshold>
      <weakClassifiers>
        <_>
          <internalNodes>
            0 -1 167 4.1436398029327393e-01</internalNodes>
          <leafValues>
            -4.2711171507835388e-01 6.8373495340347290e-01</leafValues></_>
        <_>
          <internalNodes>
            0 -1 147 3.0894726514816284e-01</internalNodes>
          <leafValues>
            -1.9692054390907288e-01 6.9613921642303467e-01</leafValues></_>
        <_>
          <internalNodes>
            0 -1 61 -1.1442644521594048e-02</internalNodes>
          <leafValues>
            -7.5125753879547119e-01 1.4743313193321228e-01</leafValues></_>
        <_>
          <internalNodes>
            0 -1 221 -2.6141284033656120e-02</internalNodes>
          <leafValues>
            -7.7615654468536377e-01 9.4386667013168335e-02</leafValues></_>
        <_>
          <internalNodes>
            0 -1 161 -1.2307548604439944e-04</internalNodes>
          <leafValues>
            3.0970963835716248e-01 -2.8960111737251282e-01</leafValues></_>
        <_>
          <internalNodes>
            0 -1 63 2.3880906403064728e-02</internalNodes>
          <leafValues>
            1.4444401860237122e-01 -6.9703638553619385e-01</leafValues></_>
        <_>
          <internalNodes>
            0 -1 197 -1.2656991020776331e-04</internalNodes>
          <leafValues>
            3.1607663631439209e-01 -2.7872362732887268e-01</leafValues></_>
        <_>
          <internalNodes>
            0 -1 239 2.0533043891191483e-02</internalNodes>
          <leafValues>
            1.3094969093799591e-01 -6.3106298446655273e-01</leafValues></_>
        <_>
          <internalNodes>
            0 -1 30 -2.3555383086204529e-02</internalNodes>
          <leafValues>
            -8.6332708597183228e-01 4.6943575143814087e-02</leafValues></_>
        <_>
          <internalNodes>
            0 -1 70 1.0966219007968903e-02</internalNodes>
          <leafValues>
            8.1748493015766144e-02 -7.7086657285690308e-01</leafValues></_>
        <_>
          <internalNodes>
            0 -1 166 -3.7120952038094401e-04</internalNodes>
          <leafValues>
            2.5819987058639526e-01 -3.1985756754875183e-01</leafValues></_>
        <_>
          <internalNodes>
            0 -1 9 -1.2181297875940800e-02</internalNodes>
          <leafValues>
            -6.7029404640197754e-01 8.9649207890033722e-02</leafValues></_>
        <_>
          <internalNodes>
            0 -1 32 6.8382948637008667e-02</internalNodes>
          <leafValues>
            -3.1448009610176086e-01 2.2095736861228943e-01</leafValues></_>
        <_>
          <internalNodes>
            0 -1 20 -1.9667845219373703e-02</internalNodes>
          <leafValues>
            -8.5579198598861694e-01 8.8266022503376007e-02</leafValues></_>
        <_>
          <internalNodes>
            0 -1 28 1.2977025471627712e-02</internalNodes>
          <leafValues>
            6.4177453517913818e-02 -7.9050958156585693e-01</leafValues></_>
        <_>
          <internalNodes>
            0 -1 133 -1.0769747314043343e-04</internalNodes>
          <leafValues>
            3.3592110872268677e-01 -2.1236196160316467e-01</leafValues></_></weakClassifiers></_>
    <!-- stage 9 -->
    <_>
      <maxWeakCount>18</maxWeakCount>
      <stageThreshold>-1.4435356855392456e+00</stageThreshold>
      <weakClassifiers>
        <_>
          <internalNodes>
            0 -1 145 3.1920590996742249e-01</internalNodes>
          <leafValues>
            -4.9068826436996460e-01 3.6460176110267639e-01</leafValues></_>
        <_>
          <internalNodes>
            0 -1 108 4.9695488996803761e-04</internalNodes>
          <leafValues>
            -4.1899046301841736e-01 2.0952750742435455e-01</leafValues></_>
        <_>
          <internalNodes>
            0 -1 40 -2.5520991533994675e-02</internalNodes>
          <leafValues>
            -8.0673682689666748e-01 9.6712462604045868e-02</leafValues></_>
        <_>
          <internalNodes>
            0 -1 206 -1.1888803914189339e-02</internalNodes>
          <leafValues>
            -7.9893118143081665e-01 1.1552594602108002e-01</leafValues></_>
        <_>
          <internalNodes>
            0 -1 181 -1.2983666965737939e-04</internalNodes>
          <leafValues>
            3.3932733535766602e-01 -3.5298529267311096e-01</leafValues></_>
        <_>
          <internalNodes>
            0 -1 187 -8.3050029352307320e-03</internalNodes>
          <leafValues>
            -7.6308012008666992e-01 7.7893093228340149e-02</leafValues></_>
        <_>
          <internalNodes>
            0 -1 153 9.5511808991432190e-02</internalNodes>
          <leafValues>
            -2.1855299174785614e-01 3.8723605871200562e-01</leafValues></_>
        <_>
          <internalNodes>
            0 -1 127 1.2637794017791748e-02</internalNodes>
          <leafValues>
            7.6595164835453033e-02 -6.9781857728958130e-01</leafValues></_>
        <_>
          <internalNodes>
            0 -1 64 -1.5754073858261108e-02</internalNodes>
          <leafValues>
            -7.9256838560104370e-01 8.7838038802146912e-02</leafValues></_>
        <_>
          <internalNodes>
            0 -1 126 -1.2737858924083412e-04</internalNodes>
          <leafValues>
            2.5546386837959290e-01 -3.1676921248435974e-01</leafValues></_>
        <_>
          <internalNodes>
            0 -1 233 1.7852514982223511e-02</internalNodes>
          <leafValues>
            8.2432821393013000e-02 -7.6548534631729126e-01</leafValues></_>
        <_>
          <internalNodes>
            0 -1 135 1.4114429056644440e-01</internalNodes>
          <leafValues>
            -1.2882350385189056e-01 5.5885124206542969e-01</leafValues></_>
        <_>
          <internalNodes>
            0 -1 213 5.8451406657695770e-02</internalNodes>
          <leafValues>
            8.5826344788074493e-02 -7.8836691379547119e-01</leafValues></_>
        <_>
          <internalNodes>
            0 -1 82 1.0361618478782475e-04</internalNodes>
          <leafValues>
            -3.1092464923858643e-01 2.0393450558185577e-01</leafValues></_>
        <_>
          <internalNodes>
            0 -1 29 -1.8404476344585419e-02</internalNodes>
          <leafValues>
            -6.4553356170654297e-01 1.1761612445116043e-01</leafValues></_>
        <_>
          <internalNodes>
            0 -1 8 1.7258871346712112e-02</internalNodes>
          <leafValues>
            6.2335699796676636e-02 -8.3664888143539429e-01</leafValues></_>
        <_>
          <internalNodes>
            0 -1 247 2.0495234057307243e-02</internalNodes>
          <leafValues>
            5.5757176131010056e-02 -8.6000162363052368e-01</leafValues></_>
        <_>
          <internalNodes>
            0 -1 181 2.0177007536403835e-04</internalNodes>
          <leafValues>
            -2.1115309000015259e-01 2.8708407282829285e-01</leafValues></_></weakClassifiers></_>
    <!-- stage 10 -->
    <_>
      <maxWeakCount>25</maxWeakCount>
      <stageThreshold>-1.4897055625915527e+00</stageThreshold>
      <weakClassifiers>
        <_>
          <internalNodes>
            0 -1 41 4.2525660991668701e-01</internalNodes>
          <leafValues>
            -4.1589778661727905e-01 4.7570332884788513e-01</leafValues></_>
        <_>
          <internalNodes>
            0 -1 179 -5.0710089271888137e-04</internalNodes>
          <leafValues>
            1.6712014377117157e-01 -4.6322524547576904e-01</leafValues></_>
        <_>
          <internalNodes>
            0 -1 14 -1.8784627318382263e-02</internalNodes>
          <leafValues>
            -7.6452410221099854e-01 1.0661189258098602e-01</leafValues></_>
        <_>
          <internalNodes>
            0 -1 69 1.1212987825274467e-02</internalNodes>
          <leafValues>
            1.3582624495029449e-01 -6.0846495628356934e-01</leafValues></_>
        <_>
          <internalNodes>
            0 -1 185 -1.5269833966158330e-04</internalNodes>
          <leafValues>
            1.8252281844615936e-01 -3.4860458970069885e-01</leafValues></_>
        <_>
          <internalNodes>
            0 -1 238 -3.7986673414707184e-02</internalNodes>
          <leafValues>
            -8.1654042005538940e-01 9.9777005612850189e-02</leafValues></_>
        <_>
          <internalNodes>
            0 -1 53 1.5935234725475311e-02</internalNodes>
          <leafValues>
            1.0632178187370300e-01 -4.8597395420074463e-01</leafValues></_>
        <_>
          <internalNodes>
            0 -1 94 -2.6690486818552017e-02</internalNodes>
          <leafValues>
            -8.3745414018630981e-01 6.3317582011222839e-02</leafValues></_>
        <_>
          <internalNodes>
            0 -1 88 1.7402473837137222e-02</internalNodes>
          <leafValues>
            5.8815967291593552e-02 -9.1829162836074829e-01</leafValues></_>
        <_>
          <internalNodes>
            0 -1 233 -1.3850162737071514e-02</internalNodes>
          <leafValues>
            -6.7878693342208862e-01 7.1464292705059052e-02</leafValues></_>
        <_>
          <internalNodes>
            0 -1 162 -1.1427694698795676e-04</internalNodes>
          <leafValues>
            2.0942859351634979e-01 -2.9603579640388489e-01</leafValues></_>
        <_>
          <internalNodes>
            0 -1 12 2.4374717846512794e-02</internalNodes>
          <leafValues>
            6.3521645963191986e-02 -6.0297441482543945e-01</leafValues></_>
        <_>
          <internalNodes>
            0 -1 198 -8.7096747010946274e-03</internalNodes>
          <leafValues>
            -7.6376825571060181e-01 7.2301849722862244e-02</leafValues></_>
        <_>
          <internalNodes>
            0 -1 220 1.3518006540834904e-02</internalNodes>
          <leafValues>
            8.9359521865844727e-02 -5.2161759138107300e-01</leafValues></_>
        <_>
          <internalNodes>
            0 -1 104 1.3811024837195873e-04</internalNodes>
          <leafValues>
            -2.5808003544807434e-01 1.8213786184787750e-01</leafValues></_>
        <_>
          <internalNodes>
            0 -1 56 1.4878161251544952e-02</internalNodes>
          <leafValues>
            7.0324331521987915e-02 -8.7841075658798218e-01</leafValues></_>
        <_>
          <internalNodes>
            0 -1 217 -7.1128364652395248e-03</internalNodes>
          <leafValues>
            -6.7726373672485352e-01 5.1760178059339523e-02</leafValues></_>
        <_>
          <internalNodes>
            0 -1 146 1.2486215564422309e-04</internalNodes>
          <leafValues>
            -2.8559884428977966e-01 1.5707901120185852e-01</leafValues></_>
        <_>
          <internalNodes>
            0 -1 26 1.4502851292490959e-02</internalNodes>
          <leafValues>
            6.7580237984657288e-02 -6.9681876897811890e-01</leafValues></_>
        <_>
          <internalNodes>
            0 -1 173 1.7779603600502014e-02</internalNodes>
          <leafValues>
            -1.1907555907964706e-01 4.5006418228149414e-01</leafValues></_>
        <_>
          <internalNodes>
            0 -1 5 -2.1101936697959900e-02</internalNodes>
          <leafValues>
            -7.3437756299972534e-01 8.1087023019790649e-02</leafValues></_>
        <_>
          <internalNodes>
            0 -1 141 -1.8329670652747154e-02</internalNodes>
          <leafValues>
            4.2407390475273132e-01 -1.2310831993818283e-01</leafValues></_>
        <_>
          <internalNodes>
            0 -1 115 4.4118158984929323e-04</internalNodes>
          <leafValues>
            -2.6437684893608093e-01 2.0837965607643127e-01</leafValues></_>
        <_>
          <internalNodes>
            0 -1 210 -1.5993613749742508e-02</internalNodes>
          <leafValues>
            -9.1210865974426270e-01 3.7493638694286346e-02</leafValues></_>
        <_>
          <internalNodes>
            0 -1 211 1.8856320530176163e-02</internalNodes>
          <leafValues>
            4.8456508666276932e-02 -7.1360188722610474e-01</leafValues></_></weakClassifiers></_>
    <!-- stage 11 -->
    <_>
      <maxWeakCount>27</maxWeakCount>
      <stageThreshold>-1.2902721166610718e+00</stageThreshold>
      <weakClassifiers>
        <_>
          <internalNodes>
            0 -1 142 4.4498813152313232e-01</internalNodes>
          <leafValues>
            -4.3728554248809814e-01 3.5516887903213501e-01</leafValues></_>
        <_>
          <internalNodes>
            0 -1 215 -9.8968579550273716e-05</internalNodes>
          <leafValues>
            2.5102871656417847e-01 -2.6830130815505981e-01</leafValues></_>
        <_>
          <internalNodes>
            0 -1 216 -1.2317358516156673e-02</internalNodes>
          <leafValues>
            -6.8392181396484375e-01 8.4709979593753815e-02</leafValues></_>
        <_>
          <internalNodes>
            0 -1 76 1.0543510143179446e-04</internalNodes>
          <leafValues>
            -2.8244650363922119e-01 2.3387302458286285e-01</leafValues></_>
        <_>
          <internalNodes>
            0 -1 1 -1.3252643868327141e-02</internalNodes>
          <leafValues>
            -5.7015722990036011e-01 8.6725182831287384e-02</leafValues></_>
        <_>
          <internalNodes>
            0 -1 132 1.0808606445789337e-01</internalNodes>
          <leafValues>
            -1.9119429588317871e-01 2.9528230428695679e-01</leafValues></_>
        <_>
          <internalNodes>
            0 -1 89 -8.5455924272537231e-04</internalNodes>
          <leafValues>
            1.6583101451396942e-01 -3.1344187259674072e-01</leafValues></_>
        <_>
          <internalNodes>
            0 -1 92 -1.3816313818097115e-02</internalNodes>
          <leafValues>
            -4.6389675140380859e-01 1.3290324807167053e-01</leafValues></_>
        <_>
          <internalNodes>
            0 -1 207 -5.7816728949546814e-03</internalNodes>
          <leafValues>
            -6.1712408065795898e-01 6.5585583448410034e-02</leafValues></_>
        <_>
          <internalNodes>
            0 -1 150 1.8140861392021179e-01</internalNodes>
          <leafValues>
            -1.4445953071117401e-01 4.0705072879791260e-01</leafValues></_>
        <_>
          <internalNodes>
            0 -1 184 -2.1647457033395767e-03</internalNodes>
          <leafValues>
            2.1851852536201477e-01 -2.8294804692268372e-01</leafValues></_>
        <_>
          <internalNodes>
            0 -1 98 -6.6364146769046783e-02</internalNodes>
          <leafValues>
            -6.8224751949310303e-01 7.2387397289276123e-02</leafValues></_>
        <_>
          <internalNodes>
            0 -1 107 -1.5814660582691431e-04</internalNodes>
          <leafValues>
            1.7330251634120941e-01 -2.6260691881179810e-01</leafValues></_>
        <_>
          <internalNodes>
            0 -1 45 -2.2193044424057007e-02</internalNodes>
          <leafValues>
            -7.8800749778747559e-01 4.4250443577766418e-02</leafValues></_>
        <_>
          <internalNodes>
            0 -1 225 2.3713197559118271e-02</internalNodes>
          <leafValues>
            6.7468017339706421e-02 -6.0196560621261597e-01</leafValues></_>
        <_>
          <internalNodes>
            0 -1 43 8.4915794432163239e-03</internalNodes>
          <leafValues>
            5.0184622406959534e-02 -7.8671473264694214e-01</leafValues></_>
        <_>
          <internalNodes>
            0 -1 160 1.2356023304164410e-02</internalNodes>
          <leafValues>
            5.0581634044647217e-02 -6.9115257263183594e-01</leafValues></_>
        <_>
          <internalNodes>
            0 -1 236 1.1856790661113337e-04</internalNodes>
          <leafValues>
            -2.1199814975261688e-01 2.3261009156703949e-01</leafValues></_>
        <_>
          <internalNodes>
            0 -1 188 -1.3030284643173218e-01</internalNodes>
          <leafValues>
            -9.1623663902282715e-01 5.3987175226211548e-02</leafValues></_>
        <_>
          <internalNodes>
            0 -1 170 2.2251944988965988e-02</internalNodes>
          <leafValues>
            -1.4275066554546356e-01 3.3296877145767212e-01</leafValues></_>
        <_>
          <internalNodes>
            0 -1 95 -8.9944992214441299e-03</internalNodes>
          <leafValues>
            -5.4864454269409180e-01 9.0325541794300079e-02</leafValues></_>
        <_>
          <internalNodes>
            0 -1 37 5.2947527728974819e-04</internalNodes>
          <leafValues>
            -3.2314887642860413e-01 1.3245235383510590e-01</leafValues></_>
        <_>
          <internalNodes>
            0 -1 99 -9.0710729360580444e-02</internalNodes>
          <leafValues>
            3.3924555778503418e-01 -1.4494998753070831e-01</leafValues></_>
        <_>
          <internalNodes>
            0 -1 176 6.7494332790374756e-02</internalNodes>
          <leafValues>
            -9.8106287419795990e-02 4.3536975979804993e-01</leafValues></_>
        <_>
          <internalNodes>
            0 -1 96 -2.7264477685093880e-02</internalNodes>
          <leafValues>
            -5.6967091560363770e-01 7.5175009667873383e-02</leafValues></_>
        <_>
          <internalNodes>
            0 -1 164 1.4173284580465406e-04</internalNodes>
          <leafValues>
            -1.8068303167819977e-01 2.1199731528759003e-01</leafValues></_>
        <_>
          <internalNodes>
            0 -1 49 5.3453841246664524e-03</internalNodes>
          <leafValues>
            8.1608578562736511e-02 -5.3988617658615112e-01</leafValues></_></weakClassifiers></_>
    <!-- stage 12 -->
    <_>
      <maxWeakCount>34</maxWeakCount>
      <stageThreshold>-1.4033750295639038e+00</stageThreshold>
      <weakClassifiers>
        <_>
          <internalNodes>
            0 -1 83 1.7724189162254333e-01</internalNodes>
          <leafValues>
            -4.0872865915298462e-01 2.8704664111137390e-01</leafValues></_>
        <_>
          <internalNodes>
            0 -1 162 -1.3544980436563492e-02</internalNodes>
          <leafValues>
            -6.9790071249008179e-01 9.4125166535377502e-02</leafValues></_>
        <_>
          <internalNodes>
            0 -1 186 -1.4354049926623702e-04</internalNodes>
          <leafValues>
            3.0946764349937439e-01 -3.0264598131179810e-01</leafValues></_>
        <_>
          <internalNodes>
            0 -1 231 -5.4906253353692591e-05</internalNodes>
          <leafValues>
            1.8170294165611267e-01 -3.0063074827194214e-01</leafValues></_>
        <_>
          <internalNodes>
            0 -1 140 -1.5285529196262360e-02</internalNodes>
          <leafValues>
            -5.6317973136901855e-01 1.2497361004352570e-01</leafValues></_>
        <_>
          <internalNodes>
            0 -1 222 -2.2422589361667633e-02</internalNodes>
          <leafValues>
            -4.2620101571083069e-01 1.2653915584087372e-01</leafValues></_>
        <_>
          <internalNodes>
            0 -1 171 -2.0102267153561115e-03</internalNodes>
          <leafValues>
            2.2630040347576141e-01 -2.3733676970005035e-01</leafValues></_>
        <_>
          <internalNodes>
            0 -1 219 -8.1185642629861832e-03</internalNodes>
          <leafValues>
            -5.2534443140029907e-01 8.0554649233818054e-02</leafValues></_>
        <_>
          <internalNodes>
            0 -1 105 -8.8431399490218610e-05</internalNodes>
          <leafValues>
            1.7350539565086365e-01 -3.0085048079490662e-01</leafValues></_>
        <_>
          <internalNodes>
            0 -1 11 -1.4997624792158604e-02</internalNodes>
          <leafValues>
            -4.6643322706222534e-01 1.2972627580165863e-01</leafValues></_>
        <_>
          <internalNodes>
            0 -1 191 -1.3076108694076538e-01</internalNodes>
          <leafValues>
            6.2632745504379272e-01 -9.9680624902248383e-02</leafValues></_>
        <_>
          <internalNodes>
            0 -1 55 -1.3661963865160942e-02</internalNodes>
          <leafValues>
            -4.8580926656723022e-01 1.2547011673450470e-01</leafValues></_>
        <_>
          <internalNodes>
            0 -1 57 3.2413389533758163e-02</internalNodes>
          <leafValues>
            5.6290857493877411e-02 -6.7572486400604248e-01</leafValues></_>
        <_>
          <internalNodes>
            0 -1 226 -1.5528730000369251e-04</internalNodes>
          <leafValues>
            1.9100351631641388e-01 -2.3368735611438751e-01</leafValues></_>
        <_>
          <internalNodes>
            0 -1 210 8.4239374846220016e-03</internalNodes>
          <leafValues>
            6.4086571335792542e-02 -5.6606543064117432e-01</leafValues></_>
        <_>
          <internalNodes>
            0 -1 33 -2.5772698223590851e-02</internalNodes>
          <leafValues>
            -8.2782572507858276e-01 4.5687440782785416e-02</leafValues></_>
        <_>
          <internalNodes>
            0 -1 122 2.0168253104202449e-04</internalNodes>
          <leafValues>
            -2.7987152338027954e-01 1.3019338250160217e-01</leafValues></_>
        <_>
          <internalNodes>
            0 -1 72 1.4105582609772682e-02</internalNodes>
          <leafValues>
            5.8508384972810745e-02 -6.6915374994277954e-01</leafValues></_>
        <_>
          <internalNodes>
            0 -1 204 -1.0361589491367340e-02</internalNodes>
          <leafValues>
            -5.2588742971420288e-01 6.8506240844726562e-02</leafValues></_>
        <_>
          <internalNodes>
            0 -1 183 1.2729526497423649e-03</internalNodes>
          <leafValues>
            -2.4743749201297760e-01 1.8992836773395538e-01</leafValues></_>
        <_>
          <internalNodes>
            0 -1 195 7.9904804006218910e-03</internalNodes>
          <leafValues>
            -1.2729118764400482e-01 4.2388191819190979e-01</leafValues></_>
        <_>
          <internalNodes>
            0 -1 151 -1.4567999541759491e-01</internalNodes>
          <leafValues>
            4.4873473048210144e-01 -9.8248153924942017e-02</leafValues></_>
        <_>
          <internalNodes>
            0 -1 47 1.2227185652591288e-04</internalNodes>
          <leafValues>
            -2.0941965281963348e-01 2.1328042447566986e-01</leafValues></_>
        <_>
          <internalNodes>
            0 -1 242 9.7093721851706505e-03</internalNodes>
          <leafValues>
            5.5693510919809341e-02 -7.9712903499603271e-01</leafValues></_>
        <_>
          <internalNodes>
            0 -1 10 3.7128753960132599e-02</internalNodes>
          <leafValues>
            3.3984553068876266e-02 -8.6395019292831421e-01</leafValues></_>
        <_>
          <internalNodes>
            0 -1 174 5.8597928727976978e-05</internalNodes>
          <leafValues>
            -2.8186503052711487e-01 1.3334062695503235e-01</leafValues></_>
        <_>
          <internalNodes>
            0 -1 196 -5.3940545767545700e-03</internalNodes>
          <leafValues>
            -3.4429797530174255e-01 1.4506249129772186e-01</leafValues></_>
        <_>
          <internalNodes>
            0 -1 112 -7.6279103755950928e-02</internalNodes>
          <leafValues>
            3.1528916954994202e-01 -1.3653865456581116e-01</leafValues></_>
        <_>
          <internalNodes>
            0 -1 100 5.2891242504119873e-01</internalNodes>
          <leafValues>
            -1.5577413141727448e-01 2.7572703361511230e-01</leafValues></_>
        <_>
          <internalNodes>
            0 -1 224 -4.7327252104878426e-03</internalNodes>
          <leafValues>
            -3.7440791726112366e-01 1.1360850185155869e-01</leafValues></_>
        <_>
          <internalNodes>
            0 -1 6 -8.4986072033643723e-03</internalNodes>
          <leafValues>
            -8.2849568128585815e-01 4.1963148862123489e-02</leafValues></_>
        <_>
          <internalNodes>
            0 -1 148 7.1379137807525694e-05</internalNodes>
          <leafValues>
            -2.3364204168319702e-01 1.6673761606216431e-01</leafValues></_>
        <_>
          <internalNodes>
            0 -1 131 5.1967002451419830e-02</internalNodes>
          <leafValues>
            -9.3818068504333496e-02 6.1409193277359009e-01</leafValues></_>
        <_>
          <internalNodes>
            0 -1 103 -1.9675310701131821e-02</internalNodes>
          <leafValues>
            3.8389378786087036e-01 -1.0776712000370026e-01</leafValues></_></weakClassifiers></_>
    <!-- stage 13 -->
    <_>
      <maxWeakCount>37</maxWeakCount>
      <stageThreshold>-1.3087637424468994e+00</stageThreshold>
      <weakClassifiers>
        <_>
          <internalNodes>
            0 -1 165 1.8378505110740662e-01</internalNodes>
          <leafValues>
            -3.8345864415168762e-01 3.3581164479255676e-01</leafValues></_>
        <_>
          <internalNodes>
            0 -1 203 -1.2124475324526429e-04</internalNodes>
          <leafValues>
            2.1693944931030273e-01 -2.5089916586875916e-01</leafValues></_>
        <_>
          <internalNodes>
            0 -1 230 -1.0691549628973007e-02</internalNodes>
          <leafValues>
            -5.8670479059219360e-01 8.7267436087131500e-02</leafValues></_>
        <_>
          <internalNodes>
            0 -1 123 -3.6293655633926392e-02</internalNodes>
          <leafValues>
            2.2968006134033203e-01 -2.6010081171989441e-01</leafValues></_>
        <_>
          <internalNodes>
            0 -1 35 -9.3218898400664330e-03</internalNodes>
          <leafValues>
            -6.1612480878829956e-01 5.3638737648725510e-02</leafValues></_>
        <_>
          <internalNodes>
            0 -1 79 8.5771568119525909e-03</internalNodes>
          <leafValues>
            1.2839907407760620e-01 -4.8310047388076782e-01</leafValues></_>
        <_>
          <internalNodes>
            0 -1 90 -5.6694239901844412e-05</internalNodes>
          <leafValues>
            1.4573386311531067e-01 -3.0320969223976135e-01</leafValues></_>
        <_>
          <internalNodes>
            0 -1 59 -3.4479908645153046e-02</internalNodes>
          <leafValues>
            -6.5855991840362549e-01 5.6192994117736816e-02</leafValues></_>
        <_>
          <internalNodes>
            0 -1 177 -1.1794766760431230e-04</internalNodes>
          <leafValues>
            1.4363348484039307e-01 -2.8390768170356750e-01</leafValues></_>
        <_>
          <internalNodes>
            0 -1 238 -1.3696037232875824e-02</internalNodes>
          <leafValues>
            -4.3272465467453003e-01 1.1582283675670624e-01</leafValues></_>
        <_>
          <internalNodes>
            0 -1 240 3.6785922944545746e-02</internalNodes>
          <leafValues>
            4.7380138188600540e-02 -8.3392673730850220e-01</leafValues></_>
        <_>
          <internalNodes>
            0 -1 129 -5.8877009898424149e-02</internalNodes>
          <leafValues>
            2.7747261524200439e-01 -1.5126271545886993e-01</leafValues></_>
        <_>
          <internalNodes>
            0 -1 102 8.7471140432171524e-05</internalNodes>
          <leafValues>
            -2.5039663910865784e-01 1.7756561934947968e-01</leafValues></_>
        <_>
          <internalNodes>
            0 -1 67 -1.8654130399227142e-02</internalNodes>
          <leafValues>
            -5.9962993860244751e-01 9.4777241349220276e-02</leafValues></_>
        <_>
          <internalNodes>
            0 -1 149 -1.2522751092910767e-01</internalNodes>
          <leafValues>
            6.4341592788696289e-01 -7.2876222431659698e-02</leafValues></_>
        <_>
          <internalNodes>
            0 -1 190 2.1765963733196259e-01</internalNodes>
          <leafValues>
            -5.6993544101715088e-02 6.0573208332061768e-01</leafValues></_>
        <_>
          <internalNodes>
            0 -1 81 3.8583797868341208e-04</internalNodes>
          <leafValues>
            -2.4877879023551941e-01 1.4051003754138947e-01</leafValues></_>
        <_>
          <internalNodes>
            0 -1 31 1.8337294459342957e-02</internalNodes>
          <leafValues>
            5.6745212525129318e-02 -6.3601219654083252e-01</leafValues></_>
        <_>
          <internalNodes>
            0 -1 16 1.1858410201966763e-02</internalNodes>
          <leafValues>
            6.8524658679962158e-02 -4.6948778629302979e-01</leafValues></_>
        <_>
          <internalNodes>
            0 -1 51 -1.5132027328945696e-04</internalNodes>
          <leafValues>
            1.8372394144535065e-01 -1.6896694898605347e-01</leafValues></_>
        <_>
          <internalNodes>
            0 -1 199 -1.4948491938412189e-02</internalNodes>
          <leafValues>
            4.6190127730369568e-01 -8.3054259419441223e-02</leafValues></_>
        <_>
          <internalNodes>
            0 -1 139 -2.1498207002878189e-02</internalNodes>
          <leafValues>
            -7.5604051351547241e-01 6.0239516198635101e-02</leafValues></_>
        <_>
          <internalNodes>
            0 -1 109 1.3558348291553557e-04</internalNodes>
          <leafValues>
            -1.9817024469375610e-01 1.8247079849243164e-01</leafValues></_>
        <_>
          <internalNodes>
            0 -1 24 -2.8481262922286987e-01</internalNodes>
          <leafValues>
            -8.4143245220184326e-01 4.1141033172607422e-02</leafValues></_>
        <_>
          <internalNodes>
            0 -1 245 -4.0041282773017883e-03</internalNodes>
          <leafValues>
            -4.7215282917022705e-01 6.1803102493286133e-02</leafValues></_>
        <_>
          <internalNodes>
            0 -1 125 -7.4937520548701286e-04</internalNodes>
          <leafValues>
            1.3415777683258057e-01 -2.3587974905967712e-01</leafValues></_>
        <_>
          <internalNodes>
            0 -1 248 9.4530034402851015e-05</internalNodes>
          <leafValues>
            -1.7181934416294098e-01 1.9111347198486328e-01</leafValues></_>
        <_>
          <internalNodes>
            0 -1 178 2.0629974082112312e-02</internalNodes>
          <leafValues>
            -5.3664285689592361e-02 6.2652420997619629e-01</leafValues></_>
        <_>
          <internalNodes>
            0 -1 168 -6.4691528677940369e-02</internalNodes>
          <leafValues>
            6.4247727394104004e-01 -4.3171018362045288e-02</leafValues></_>
        <_>
          <internalNodes>
            0 -1 214 1.8434673547744751e-02</internalNodes>
          <leafValues>
            6.1212033033370972e-02 -5.9575736522674561e-01</leafValues></_>
        <_>
          <internalNodes>
            0 -1 73 2.5126369670033455e-02</internalNodes>
          <leafValues>
            4.8179671168327332e-02 -5.6349712610244751e-01</leafValues></_>
        <_>
          <internalNodes>
            0 -1 192 1.3857472222298384e-03</internalNodes>
          <leafValues>
            -1.8127411603927612e-01 1.6766105592250824e-01</leafValues></_>
        <_>
          <internalNodes>
            0 -1 175 -1.2091931700706482e-01</internalNodes>
          <leafValues>
            3.3299440145492554e-01 -1.2726578116416931e-01</leafValues></_>
        <_>
          <internalNodes>
            0 -1 235 -3.9279432967305183e-03</internalNodes>
          <leafValues>
            -3.5673344135284424e-01 8.7921895086765289e-02</leafValues></_>
        <_>
          <internalNodes>
            0 -1 194 6.1648249626159668e-02</internalNodes>
          <leafValues>
            -9.3848749995231628e-02 3.6516144871711731e-01</leafValues></_>
        <_>
          <internalNodes>
            0 -1 134 2.9746536165475845e-04</internalNodes>
          <leafValues>
            -2.5671225786209106e-01 1.3377679884433746e-01</leafValues></_>
        <_>
          <internalNodes>
            0 -1 87 7.9350722953677177e-03</internalNodes>
          <leafValues>
            -1.2040681391954422e-01 4.0361079573631287e-01</leafValues></_></weakClassifiers></_>
    <!-- stage 14 -->
    <_>
      <maxWeakCount>43</maxWeakCount>
      <stageThreshold>-1.3694705963134766e+00</stageThreshold>
      <weakClassifiers>
        <_>
          <internalNodes>
            0 -1 138 2.4032345414161682e-01</internalNodes>
          <leafValues>
            -3.5642233490943909e-01 4.1533547639846802e-01</leafValues></_>
        <_>
          <internalNodes>
            0 -1 137 1.3586415350437164e-01</internalNodes>
          <leafValues>
            -1.5519963204860687e-01 3.4686499834060669e-01</leafValues></_>
        <_>
          <internalNodes>
            0 -1 243 -9.2982798814773560e-03</internalNodes>
          <leafValues>
            -5.1193094253540039e-01 7.2814404964447021e-02</leafValues></_>
        <_>
          <internalNodes>
            0 -1 86 1.8274129251949489e-04</internalNodes>
          <leafValues>
            -2.2294369339942932e-01 2.6300138235092163e-01</leafValues></_>
        <_>
          <internalNodes>
            0 -1 54 1.0508595965802670e-02</internalNodes>
          <leafValues>
            3.8482602685689926e-02 -6.1936002969741821e-01</leafValues></_>
        <_>
          <internalNodes>
            0 -1 109 -7.6338974758982658e-03</internalNodes>
          <leafValues>
            -4.6135398745536804e-01 9.0546734631061554e-02</leafValues></_>
        <_>
          <internalNodes>
            0 -1 111 -2.2220499813556671e-02</internalNodes>
          <leafValues>
            -5.8788424730300903e-01 6.1502330005168915e-02</leafValues></_>
        <_>
          <internalNodes>
            0 -1 94 -9.1906433226540685e-05</internalNodes>
          <leafValues>
            1.7253433167934418e-01 -2.3805919289588928e-01</leafValues></_>
        <_>
          <internalNodes>
            0 -1 65 -2.5915870442986488e-02</internalNodes>
          <leafValues>
            -8.1249439716339111e-01 5.4704364389181137e-02</leafValues></_>
        <_>
          <internalNodes>
            0 -1 46 -1.0317690670490265e-02</internalNodes>
          <leafValues>
            -4.4341561198234558e-01 8.9894786477088928e-02</leafValues></_>
        <_>
          <internalNodes>
            0 -1 229 1.6291361302137375e-02</internalNodes>
          <leafValues>
            5.1781378686428070e-02 -7.2153943777084351e-01</leafValues></_>
        <_>
          <internalNodes>
            0 -1 121 1.0352153331041336e-03</internalNodes>
          <leafValues>
            -2.8310823440551758e-01 1.2589770555496216e-01</leafValues></_>
        <_>
          <internalNodes>
            0 -1 60 2.1899554878473282e-02</internalNodes>
          <leafValues>
            4.1960157454013824e-02 -8.3051621913909912e-01</leafValues></_>
        <_>
          <internalNodes>
            0 -1 218 -1.3078031770419329e-04</internalNodes>
          <leafValues>
            1.8099933862686157e-01 -1.8860408663749695e-01</leafValues></_>
        <_>
          <internalNodes>
            0 -1 212 -2.4532245472073555e-02</internalNodes>
          <leafValues>
            -8.6376649141311646e-01 6.2211502343416214e-02</leafValues></_>
        <_>
          <internalNodes>
            0 -1 29 -2.1978963166475296e-02</internalNodes>
          <leafValues>
            -6.6292273998260498e-01 4.4580750167369843e-02</leafValues></_>
        <_>
          <internalNodes>
            0 -1 39 -8.4651215001940727e-03</internalNodes>
          <leafValues>
            -4.7131985425949097e-01 7.6549760997295380e-02</leafValues></_>
        <_>
          <internalNodes>
            0 -1 152 -1.1510355770587921e-01</internalNodes>
          <leafValues>
            4.0704846382141113e-01 -1.0063095390796661e-01</leafValues></_>
        <_>
          <internalNodes>
            0 -1 247 2.2605862468481064e-02</internalNodes>
          <leafValues>
            5.4448716342449188e-02 -7.6136857271194458e-01</leafValues></_>
        <_>
          <internalNodes>
            0 -1 201 1.3496619067154825e-04</internalNodes>
          <leafValues>
            -1.6951766610145569e-01 2.2368672490119934e-01</leafValues></_>
        <_>
          <internalNodes>
            0 -1 74 -1.2780871475115418e-04</internalNodes>
          <leafValues>
            1.8287521600723267e-01 -2.4113056063652039e-01</leafValues></_>
        <_>
          <internalNodes>
            0 -1 183 8.4476772462949157e-04</internalNodes>
          <leafValues>
            -2.2390145063400269e-01 1.8471600115299225e-01</leafValues></_>
        <_>
          <internalNodes>
            0 -1 106 -7.0526478812098503e-03</internalNodes>
          <leafValues>
            -3.6245343089103699e-01 1.0372209548950195e-01</leafValues></_>
        <_>
          <internalNodes>
            0 -1 172 -1.3675898313522339e-01</internalNodes>
          <leafValues>
            -2.6031762361526489e-01 1.2369877099990845e-01</leafValues></_>
        <_>
          <internalNodes>
            0 -1 36 2.7918562293052673e-01</internalNodes>
          <leafValues>
            -4.2746592313051224e-02 8.4086763858795166e-01</leafValues></_>
        <_>
          <internalNodes>
            0 -1 154 1.3498012721538544e-01</internalNodes>
          <leafValues>
            -7.0979915559291840e-02 5.1639544963836670e-01</leafValues></_>
        <_>
          <internalNodes>
            0 -1 144 8.6865322373341769e-05</internalNodes>
          <leafValues>
            -1.7061087489128113e-01 1.8831983208656311e-01</leafValues></_>
        <_>
          <internalNodes>
            0 -1 19 -3.4654238261282444e-03</internalNodes>
          <leafValues>
            -4.4973093271255493e-01 7.6667629182338715e-02</leafValues></_>
        <_>
          <internalNodes>
            0 -1 113 -2.3448389768600464e-01</internalNodes>
          <leafValues>
            -9.7319781780242920e-01 2.4565739557147026e-02</leafValues></_>
        <_>
          <internalNodes>
            0 -1 163 -2.9596802778542042e-03</internalNodes>
          <leafValues>
            4.1172790527343750e-01 -8.9285746216773987e-02</leafValues></_>
        <_>
          <internalNodes>
            0 -1 227 2.7847819728776813e-04</internalNodes>
          <leafValues>
            -1.7554764449596405e-01 1.8510656058788300e-01</leafValues></_>
        <_>
          <internalNodes>
            0 -1 155 1.4804127858951688e-03</internalNodes>
          <leafValues>
            -1.9474609196186066e-01 1.6091251373291016e-01</leafValues></_>
        <_>
          <internalNodes>
            0 -1 119 -8.2480430603027344e-02</internalNodes>
          <leafValues>
            6.4346373081207275e-01 -6.3796132802963257e-02</leafValues></_>
        <_>
          <internalNodes>
            0 -1 189 -1.1564563028514385e-02</internalNodes>
          <leafValues>
            -3.0335855484008789e-01 1.1266255378723145e-01</leafValues></_>
        <_>
          <internalNodes>
            0 -1 193 -4.4760171324014664e-02</internalNodes>
          <leafValues>
            5.9709209203720093e-01 -5.6540992110967636e-02</leafValues></_>
        <_>
          <internalNodes>
            0 -1 208 1.9250780344009399e-02</internalNodes>
          <leafValues>
            -5.4338753223419189e-02 4.9812430143356323e-01</leafValues></_>
        <_>
          <internalNodes>
            0 -1 78 8.3552844822406769e-02</internalNodes>
          <leafValues>
            -8.8445283472537994e-02 4.0285664796829224e-01</leafValues></_>
        <_>
          <internalNodes>
            0 -1 2 1.9570020958781242e-03</internalNodes>
          <leafValues>
            8.2773543894290924e-02 -4.4948455691337585e-01</leafValues></_>
        <_>
          <internalNodes>
            0 -1 143 1.3077646726742387e-03</internalNodes>
          <leafValues>
            -2.6363864541053772e-01 1.3353128731250763e-01</leafValues></_>
        <_>
          <internalNodes>
            0 -1 209 -6.1694383621215820e-03</internalNodes>
          <leafValues>
            -3.8568368554115295e-01 8.9115470647811890e-02</leafValues></_>
        <_>
          <internalNodes>
            0 -1 202 -4.5499438419938087e-03</internalNodes>
          <leafValues>
            -2.2258056700229645e-01 1.5390047430992126e-01</leafValues></_>
        <_>
          <internalNodes>
            0 -1 7 3.8031954318284988e-04</internalNodes>
          <leafValues>
            -1.4646236598491669e-01 2.1547065675258636e-01</leafValues></_>
        <_>
          <internalNodes>
            0 -1 50 2.7193624991923571e-03</internalNodes>
          <leafValues>
            8.1916928291320801e-02 -3.6609560251235962e-01</leafValues></_></weakClassifiers></_></stages>
  <features>
    <_>
      <rects>
        <_>
          0 0 1 8 -1.</_>
        <_>
          0 4 1 4 2.</_></rects>
      <tilted>0</tilted></_>
    <_>
      <rects>
        <_>
          0 0 3 14 -1.</_>
        <_>
          1 0 1 14 3.</_></rects>
      <tilted>0</tilted></_>
    <_>
      <rects>
        <_>
          0 0 4 1 -1.</_>
        <_>
          2 0 2 1 2.</_></rects>
      <tilted>0</tilted></_>
    <_>
      <rects>
        <_>
          0 0 4 3 -1.</_>
        <_>
          2 0 2 3 2.</_></rects>
      <tilted>0</tilted></_>
    <_>
      <rects>
        <_>
          0 0 2 9 -1.</_>
        <_>
          0 3 2 3 3.</_></rects>
      <tilted>0</tilted></_>
    <_>
      <rects>
        <_>
          0 0 2 12 -1.</_>
        <_>
          0 4 2 4 3.</_></rects>
      <tilted>0</tilted></_>
    <_>
      <rects>
        <_>
          0 0 6 1 -1.</_>
        <_>
          3 0 3 1 2.</_></rects>
      <tilted>0</tilted></_>
    <_>
      <rects>
        <_>
          0 0 9 1 -1.</_>
        <_>
          3 0 3 1 3.</_></rects>
      <tilted>0</tilted></_>
    <_>
      <rects>
        <_>
          0 0 6 2 -1.</_>
        <_>
          3 0 3 2 2.</_></rects>
      <tilted>0</tilted></_>
    <_>
      <rects>
        <_>
          0 0 3 6 -1.</_>
        <_>
          0 2 3 2 3.</_></rects>
      <tilted>0</tilted></_>
    <_>
      <rects>
        <_>
          0 0 9 3 -1.</_>
        <_>
          3 0 3 3 3.</_></rects>
      <tilted>0</tilted></_>
    <_>
      <rects>
        <_>
          0 0 3 9 -1.</_>
        <_>
          0 3 3 3 3.</_></rects>
      <tilted>0</tilted></_>
    <_>
      <rects>
        <_>
          0 0 3 12 -1.</_>
        <_>
          0 4 3 4 3.</_></rects>
      <tilted>0</tilted></_>
    <_>
      <rects>
        <_>
          0 0 3 15 -1.</_>
        <_>
          0 5 3 5 3.</_></rects>
      <tilted>0</tilted></_>
    <_>
      <rects>
        <_>
          0 0 12 2 -1.</_>
        <_>
          4 0 4 2 3.</_></rects>
      <tilted>0</tilted></_>
    <_>
      <rects>
        <_>
          0 0 15 1 -1.</_>
        <_>
          5 0 5 1 3.</_></rects>
      <tilted>0</tilted></_>
    <_>
      <rects>
        <_>
          0 0 5 6 -1.</_>
        <_>
          0 2 5 2 3.</_></rects>
      <tilted>0</tilted></_>
    <_>
      <rects>
        <_>
          0 0 14 1 -1.</_>
        <_>
          7 0 7 1 2.</_></rects>
      <tilted>0</tilted></_>
    <_>
      <rects>
        <_>
          0 1 1 12 -1.</_>
        <_>
          0 5 1 4 3.</_></rects>
      <tilted>0</tilted></_>
    <_>
      <rects>
        <_>
          0 1 6 1 -1.</_>
        <_>
          2 1 2 1 3.</_></rects>
      <tilted>0</tilted></_>
    <_>
      <rects>
        <_>
          0 1 4 5 -1.</_>
        <_>
          2 1 2 5 2.</_></rects>
      <tilted>0</tilted></_>
    <_>
      <rects>
        <_>
          0 1 2 14 -1.</_>
        <_>
          0 8 2 7 2.</_></rects>
      <tilted>0</tilted></_>
    <_>
      <rects>
        <_>
          0 1 6 2 -1.</_>
        <_>
          3 1 3 2 2.</_></rects>
      <tilted>0</tilted></_>
    <_>
      <rects>
        <_>
          0 1 3 9 -1.</_>
        <_>
          0 4 3 3 3.</_></rects>
      <tilted>0</tilted></_>
    <_>
      <rects>
        <_>
          0 1 9 14 -1.</_>
        <_>
          3 1 3 14 3.</_></rects>
      <tilted>0</tilted></_>
    <_>
      <rects>
        <_>
          0 1 4 14 -1.</_>
        <_>
          0 8 4 7 2.</_></rects>
      <tilted>0</tilted></_>
    <_>
      <rects>
        <_>
          0 1 10 1 -1.</_>
        <_>
          5 1 5 1 2.</_></rects>
      <tilted>0</tilted></_>
    <_>
      <rects>
        <_>
          0 1 14 2 -1.</_>
        <_>
          7 1 7 2 2.</_></rects>
      <tilted>0</tilted></_>
    <_>
      <rects>
        <_>
          0 2 1 10 -1.</_>
        <_>
          0 7 1 5 2.</_></rects>
      <tilted>0</tilted></_>
    <_>
      <rects>
        <_>
          0 2 3 9 -1.</_>
        <_>
          0 5 3 3 3.</_></rects>
      <tilted>0</tilted></_>
    <_>
      <rects>
        <_>
          0 2 14 1 -1.</_>
        <_>
          7 2 7 1 2.</_></rects>
      <tilted>0</tilted></_>
    <_>
      <rects>
        <_>
          0 3 1 12 -1.</_>
        <_>
          0 7 1 4 3.</_></rects>
      <tilted>0</tilted></_>
    <_>
      <rects>
        <_>
          0 3 15 6 -1.</_>
        <_>
          0 6 15 3 2.</_></rects>
      <tilted>0</tilted></_>
    <_>
      <rects>
        <_>
          0 4 2 8 -1.</_>
        <_>
          0 8 2 4 2.</_></rects>
      <tilted>0</tilted></_>
    <_>
      <rects>
        <_>
          0 4 2 10 -1.</_>
        <_>
          0 9 2 5 2.</_></rects>
      <tilted>0</tilted></_>
    <_>
      <rects>
        <_>
          0 5 3 6 -1.</_>
        <_>
          0 7 3 2 3.</_></rects>
      <tilted>0</tilted></_>
    <_>
      <rects>
        <_>
          0 5 12 4 -1.</_>
        <_>
          6 5 6 4 2.</_></rects>
      <tilted>0</tilted></_>
    <_>
      <rects>
        <_>
          0 5 10 2 -1.</_>
        <_>
          0 6 10 1 2.</_></rects>
      <tilted>0</tilted></_>
    <_>
      <rects>
        <_>
          0 6 1 8 -1.</_>
        <_>
          0 10 1 4 2.</_></rects>
      <tilted>0</tilted></_>
    <_>
      <rects>
        <_>
          0 6 3 6 -1.</_>
        <_>
          0 8 3 2 3.</_></rects>
      <tilted>0</tilted></_>
    <_>
      <rects>
        <_>
          0 6 3 9 -1.</_>
        <_>
          0 9 3 3 3.</_></rects>
      <tilted>0</tilted></_>
    <_>
      <rects>
        <_>
          0 6 15 4 -1.</_>
        <_>
          5 6 5 4 3.</_></rects>
      <tilted>0</tilted></_>
    <_>
      <rects>
        <_>
          0 6 15 5 -1.</_>
        <_>
          5 6 5 5 3.</_></rects>
      <tilted>0</tilted></_>
    <_>
      <rects>
        <_>
          0 7 2 4 -1.</_>
        <_>
          0 9 2 2 2.</_></rects>
      <tilted>0</tilted></_>
    <_>
      <rects>
        <_>
          0 7 12 8 -1.</_>
        <_>
          0 11 12 4 2.</_></rects>
      <tilted>0</tilted></_>
    <_>
      <rects>
        <_>
          0 8 3 6 -1.</_>
        <_>
          0 10 3 2 3.</_></rects>
      <tilted>0</tilted></_>
    <_>
      <rects>
        <_>
          0 8 4 6 -1.</_>
        <_>
          0 10 4 2 3.</_></rects>
      <tilted>0</tilted></_>
    <_>
      <rects>
        <_>
          0 9 2 3 -1.</_>
        <_>
          1 9 1 3 2.</_></rects>
      <tilted>0</tilted></_>
    <_>
      <rects>
        <_>
          0 9 2 6 -1.</_>
        <_>
          0 11 2 2 3.</_></rects>
      <tilted>0</tilted></_>
    <_>
      <rects>
        <_>
          0 9 3 4 -1.</_>
        <_>
          0 11 3 2 2.</_></rects>
      <tilted>0</tilted></_>
    <_>
      <rects>
        <_>
          0 10 4 3 -1.</_>
        <_>
          0 11 4 1 3.</_></rects>
      <tilted>0</tilted></_>
    <_>
      <rects>
        <_>
          0 11 1 4 -1.</_>
        <_>
          0 13 1 2 2.</_></rects>
      <tilted>0</tilted></_>
    <_>
      <rects>
        <_>
          0 11 4 4 -1.</_>
        <_>
          0 13 4 2 2.</_></rects>
      <tilted>0</tilted></_>
    <_>
      <rects>
        <_>
          0 11 14 2 -1.</_>
        <_>
          7 11 7 2 2.</_></rects>
      <tilted>0</tilted></_>
    <_>
      <rects>
        <_>
          0 12 4 3 -1.</_>
        <_>
          2 12 2 3 2.</_></rects>
      <tilted>0</tilted></_>
    <_>
      <rects>
        <_>
          0 12 9 3 -1.</_>
        <_>
          3 12 3 3 3.</_></rects>
      <tilted>0</tilted></_>
    <_>
      <rects>
        <_>
          0 13 4 2 -1.</_>
        <_>
          2 13 2 2 2.</_></rects>
      <tilted>0</tilted></_>
    <_>
      <rects>
        <_>
          0 13 9 2 -1.</_>
        <_>
          3 13 3 2 3.</_></rects>
      <tilted>0</tilted></_>
    <_>
      <rects>
        <_>
          0 13 14 1 -1.</_>
        <_>
          7 13 7 1 2.</_></rects>
      <tilted>0</tilted></_>
    <_>
      <rects>
        <_>
          0 13 14 2 -1.</_>
        <_>
          7 13 7 2 2.</_></rects>
      <tilted>0</tilted></_>
    <_>
      <rects>
        <_>
          0 14 8 1 -1.</_>
        <_>
          4 14 4 1 2.</_></rects>
      <tilted>0</tilted></_>
    <_>
      <rects>
        <_>
          0 14 12 1 -1.</_>
        <_>
          4 14 4 1 3.</_></rects>
      <tilted>0</tilted></_>
    <_>
      <rects>
        <_>
          0 14 10 1 -1.</_>
        <_>
          5 14 5 1 2.</_></rects>
      <tilted>0</tilted></_>
    <_>
      <rects>
        <_>
          0 14 15 1 -1.</_>
        <_>
          5 14 5 1 3.</_></rects>
      <tilted>0</tilted></_>
    <_>
      <rects>
        <_>
          0 14 12 1 -1.</_>
        <_>
          6 14 6 1 2.</_></rects>
      <tilted>0</tilted></_>
    <_>
      <rects>
        <_>
          0 14 14 1 -1.</_>
        <_>
          7 14 7 1 2.</_></rects>
      <tilted>0</tilted></_>
    <_>
      <rects>
        <_>
          1 0 2 14 -1.</_>
        <_>
          2 0 1 14 2.</_></rects>
      <tilted>0</tilted></_>
    <_>
      <rects>
        <_>
          1 0 6 4 -1.</_>
        <_>
          3 0 2 4 3.</_></rects>
      <tilted>0</tilted></_>
    <_>
      <rects>
        <_>
          1 0 2 14 -1.</_>
        <_>
          1 7 2 7 2.</_></rects>
      <tilted>0</tilted></_>
    <_>
      <rects>
        <_>
          1 0 9 2 -1.</_>
        <_>
          4 0 3 2 3.</_></rects>
      <tilted>0</tilted></_>
    <_>
      <rects>
        <_>
          1 0 8 1 -1.</_>
        <_>
          5 0 4 1 2.</_></rects>
      <tilted>0</tilted></_>
    <_>
      <rects>
        <_>
          1 0 8 10 -1.</_>
        <_>
          1 0 4 5 2.</_>
        <_>
          5 5 4 5 2.</_></rects>
      <tilted>0</tilted></_>
    <_>
      <rects>
        <_>
          1 0 14 1 -1.</_>
        <_>
          8 0 7 1 2.</_></rects>
      <tilted>0</tilted></_>
    <_>
      <rects>
        <_>
          1 0 14 4 -1.</_>
        <_>
          1 0 7 2 2.</_>
        <_>
          8 2 7 2 2.</_></rects>
      <tilted>0</tilted></_>
    <_>
      <rects>
        <_>
          1 0 14 5 -1.</_>
        <_>
          8 0 7 5 2.</_></rects>
      <tilted>0</tilted></_>
    <_>
      <rects>
        <_>
          1 1 14 1 -1.</_>
        <_>
          8 1 7 1 2.</_></rects>
      <tilted>0</tilted></_>
    <_>
      <rects>
        <_>
          1 3 2 10 -1.</_>
        <_>
          2 3 1 10 2.</_></rects>
      <tilted>0</tilted></_>
    <_>
      <rects>
        <_>
          1 3 12 10 -1.</_>
        <_>
          5 3 4 10 3.</_></rects>
      <tilted>0</tilted></_>
    <_>
      <rects>
        <_>
          1 4 4 9 -1.</_>
        <_>
          3 4 2 9 2.</_></rects>
      <tilted>0</tilted></_>
    <_>
      <rects>
        <_>
          1 5 2 6 -1.</_>
        <_>
          1 7 2 2 3.</_></rects>
      <tilted>0</tilted></_>
    <_>
      <rects>
        <_>
          1 6 8 5 -1.</_>
        <_>
          5 6 4 5 2.</_></rects>
      <tilted>0</tilted></_>
    <_>
      <rects>
        <_>
          1 6 7 2 -1.</_>
        <_>
          1 7 7 1 2.</_></rects>
      <tilted>0</tilted></_>
    <_>
      <rects>
        <_>
          1 7 2 6 -1.</_>
        <_>
          2 7 1 6 2.</_></rects>
      <tilted>0</tilted></_>
    <_>
      <rects>
        <_>
          1 7 12 2 -1.</_>
        <_>
          5 7 4 2 3.</_></rects>
      <tilted>0</tilted></_>
    <_>
      <rects>
        <_>
          1 7 12 4 -1.</_>
        <_>
          5 7 4 4 3.</_></rects>
      <tilted>0</tilted></_>
    <_>
      <rects>
        <_>
          1 8 2 6 -1.</_>
        <_>
          1 8 1 3 2.</_>
        <_>
          2 11 1 3 2.</_></rects>
      <tilted>0</tilted></_>
    <_>
      <rects>
        <_>
          1 8 2 7 -1.</_>
        <_>
          2 8 1 7 2.</_></rects>
      <tilted>0</tilted></_>
    <_>
      <rects>
        <_>
          1 8 6 1 -1.</_>
        <_>
          3 8 2 1 3.</_></rects>
      <tilted>0</tilted></_>
    <_>
      <rects>
        <_>
          1 9 2 6 -1.</_>
        <_>
          1 11 2 2 3.</_></rects>
      <tilted>0</tilted></_>
    <_>
      <rects>
        <_>
          1 10 14 5 -1.</_>
        <_>
          8 10 7 5 2.</_></rects>
      <tilted>0</tilted></_>
    <_>
      <rects>
        <_>
          1 12 14 1 -1.</_>
        <_>
          8 12 7 1 2.</_></rects>
      <tilted>0</tilted></_>
    <_>
      <rects>
        <_>
          1 12 14 2 -1.</_>
        <_>
          8 12 7 2 2.</_></rects>
      <tilted>0</tilted></_>
    <_>
      <rects>
        <_>
          1 13 14 1 -1.</_>
        <_>
          8 13 7 1 2.</_></rects>
      <tilted>0</tilted></_>
    <_>
      <rects>
        <_>
          1 14 12 1 -1.</_>
        <_>
          7 14 6 1 2.</_></rects>
      <tilted>0</tilted></_>
    <_>
      <rects>
        <_>
          1 14 14 1 -1.</_>
        <_>
          8 14 7 1 2.</_></rects>
      <tilted>0</tilted></_>
    <_>
      <rects>
        <_>
          2 0 6 3 -1.</_>
        <_>
          4 0 2 3 3.</_></rects>
      <tilted>0</tilted></_>
    <_>
      <rects>
        <_>
          2 0 9 4 -1.</_>
        <_>
          5 0 3 4 3.</_></rects>
      <tilted>0</tilted></_>
    <_>
      <rects>
        <_>
          2 0 12 1 -1.</_>
        <_>
          6 0 4 1 3.</_></rects>
      <tilted>0</tilted></_>
    <_>
      <rects>
        <_>
          2 0 12 4 -1.</_>
        <_>
          8 0 6 4 2.</_></rects>
      <tilted>0</tilted></_>
    <_>
      <rects>
        <_>
          2 0 10 12 -1.</_>
        <_>
          2 4 10 4 3.</_></rects>
      <tilted>0</tilted></_>
    <_>
      <rects>
        <_>
          2 0 13 15 -1.</_>
        <_>
          2 5 13 5 3.</_></rects>
      <tilted>0</tilted></_>
    <_>
      <rects>
        <_>
          2 1 4 1 -1.</_>
        <_>
          4 1 2 1 2.</_></rects>
      <tilted>0</tilted></_>
    <_>
      <rects>
        <_>
          2 2 12 2 -1.</_>
        <_>
          6 2 4 2 3.</_></rects>
      <tilted>0</tilted></_>
    <_>
      <rects>
        <_>
          2 4 8 4 -1.</_>
        <_>
          2 4 4 2 2.</_>
        <_>
          6 6 4 2 2.</_></rects>
      <tilted>0</tilted></_>
    <_>
      <rects>
        <_>
          2 8 2 3 -1.</_>
        <_>
          3 8 1 3 2.</_></rects>
      <tilted>0</tilted></_>
    <_>
      <rects>
        <_>
          2 8 2 6 -1.</_>
        <_>
          2 11 2 3 2.</_></rects>
      <tilted>0</tilted></_>
    <_>
      <rects>
        <_>
          2 11 6 4 -1.</_>
        <_>
          4 11 2 4 3.</_></rects>
      <tilted>0</tilted></_>
    <_>
      <rects>
        <_>
          2 13 12 2 -1.</_>
        <_>
          8 13 6 2 2.</_></rects>
      <tilted>0</tilted></_>
    <_>
      <rects>
        <_>
          3 0 2 12 -1.</_>
        <_>
          4 0 1 12 2.</_></rects>
      <tilted>0</tilted></_>
    <_>
      <rects>
        <_>
          3 0 9 2 -1.</_>
        <_>
          6 0 3 2 3.</_></rects>
      <tilted>0</tilted></_>
    <_>
      <rects>
        <_>
          3 0 12 2 -1.</_>
        <_>
          7 0 4 2 3.</_></rects>
      <tilted>0</tilted></_>
    <_>
      <rects>
        <_>
          3 0 12 2 -1.</_>
        <_>
          9 0 6 2 2.</_></rects>
      <tilted>0</tilted></_>
    <_>
      <rects>
        <_>
          3 0 10 12 -1.</_>
        <_>
          3 4 10 4 3.</_></rects>
      <tilted>0</tilted></_>
    <_>
      <rects>
        <_>
          3 0 12 10 -1.</_>
        <_>
          3 5 12 5 2.</_></rects>
      <tilted>0</tilted></_>
    <_>
      <rects>
        <_>
          3 1 10 1 -1.</_>
        <_>
          8 1 5 1 2.</_></rects>
      <tilted>0</tilted></_>
    <_>
      <rects>
        <_>
          3 2 2 7 -1.</_>
        <_>
          4 2 1 7 2.</_></rects>
      <tilted>0</tilted></_>
    <_>
      <rects>
        <_>
          3 2 7 8 -1.</_>
        <_>
          3 6 7 4 2.</_></rects>
      <tilted>0</tilted></_>
    <_>
      <rects>
        <_>
          3 2 8 9 -1.</_>
        <_>
          3 5 8 3 3.</_></rects>
      <tilted>0</tilted></_>
    <_>
      <rects>
        <_>
          3 2 9 12 -1.</_>
        <_>
          3 6 9 4 3.</_></rects>
      <tilted>0</tilted></_>
    <_>
      <rects>
        <_>
          3 4 6 6 -1.</_>
        <_>
          3 4 3 3 2.</_>
        <_>
          6 7 3 3 2.</_></rects>
      <tilted>0</tilted></_>
    <_>
      <rects>
        <_>
          3 5 9 9 -1.</_>
        <_>
          3 8 9 3 3.</_></rects>
      <tilted>0</tilted></_>
    <_>
      <rects>
        <_>
          3 7 2 7 -1.</_>
        <_>
          4 7 1 7 2.</_></rects>
      <tilted>0</tilted></_>
    <_>
      <rects>
        <_>
          3 8 2 5 -1.</_>
        <_>
          4 8 1 5 2.</_></rects>
      <tilted>0</tilted></_>
    <_>
      <rects>
        <_>
          3 9 12 4 -1.</_>
        <_>
          3 11 12 2 2.</_></rects>
      <tilted>0</tilted></_>
    <_>
      <rects>
        <_>
          3 11 2 2 -1.</_>
        <_>
          3 12 2 1 2.</_></rects>
      <tilted>0</tilted></_>
    <_>
      <rects>
        <_>
          3 11 5 2 -1.</_>
        <_>
          3 12 5 1 2.</_></rects>
      <tilted>0</tilted></_>
    <_>
      <rects>
        <_>
          3 13 12 2 -1.</_>
        <_>
          9 13 6 2 2.</_></rects>
      <tilted>0</tilted></_>
    <_>
      <rects>
        <_>
          3 14 12 1 -1.</_>
        <_>
          7 14 4 1 3.</_></rects>
      <tilted>0</tilted></_>
    <_>
      <rects>
        <_>
          3 14 12 1 -1.</_>
        <_>
          9 14 6 1 2.</_></rects>
      <tilted>0</tilted></_>
    <_>
      <rects>
        <_>
          4 0 10 12 -1.</_>
        <_>
          4 4 10 4 3.</_></rects>
      <tilted>0</tilted></_>
    <_>
      <rects>
        <_>
          4 2 8 9 -1.</_>
        <_>
          4 5 8 3 3.</_></rects>
      <tilted>0</tilted></_>
    <_>
      <rects>
        <_>
          4 4 6 4 -1.</_>
        <_>
          4 4 3 2 2.</_>
        <_>
          7 6 3 2 2.</_></rects>
      <tilted>0</tilted></_>
    <_>
      <rects>
        <_>
          4 4 6 6 -1.</_>
        <_>
          4 7 6 3 2.</_></rects>
      <tilted>0</tilted></_>
    <_>
      <rects>
        <_>
          4 5 2 2 -1.</_>
        <_>
          4 5 1 1 2.</_>
        <_>
          5 6 1 1 2.</_></rects>
      <tilted>0</tilted></_>
    <_>
      <rects>
        <_>
          4 5 2 9 -1.</_>
        <_>
          5 5 1 9 2.</_></rects>
      <tilted>0</tilted></_>
    <_>
      <rects>
        <_>
          4 5 7 6 -1.</_>
        <_>
          4 8 7 3 2.</_></rects>
      <tilted>0</tilted></_>
    <_>
      <rects>
        <_>
          4 5 7 9 -1.</_>
        <_>
          4 8 7 3 3.</_></rects>
      <tilted>0</tilted></_>
    <_>
      <rects>
        <_>
          4 6 9 3 -1.</_>
        <_>
          7 6 3 3 3.</_></rects>
      <tilted>0</tilted></_>
    <_>
      <rects>
        <_>
          5 0 4 10 -1.</_>
        <_>
          5 5 4 5 2.</_></rects>
      <tilted>0</tilted></_>
    <_>
      <rects>
        <_>
          5 0 10 1 -1.</_>
        <_>
          10 0 5 1 2.</_></rects>
      <tilted>0</tilted></_>
    <_>
      <rects>
        <_>
          5 0 10 2 -1.</_>
        <_>
          10 0 5 2 2.</_></rects>
      <tilted>0</tilted></_>
    <_>
      <rects>
        <_>
          5 0 5 6 -1.</_>
        <_>
          5 3 5 3 2.</_></rects>
      <tilted>0</tilted></_>
    <_>
      <rects>
        <_>
          5 0 5 15 -1.</_>
        <_>
          5 5 5 5 3.</_></rects>
      <tilted>0</tilted></_>
    <_>
      <rects>
        <_>
          5 1 2 11 -1.</_>
        <_>
          6 1 1 11 2.</_></rects>
      <tilted>0</tilted></_>
    <_>
      <rects>
        <_>
          5 1 6 3 -1.</_>
        <_>
          7 1 2 3 3.</_></rects>
      <tilted>0</tilted></_>
    <_>
      <rects>
        <_>
          5 2 5 12 -1.</_>
        <_>
          5 6 5 4 3.</_></rects>
      <tilted>0</tilted></_>
    <_>
      <rects>
        <_>
          5 3 2 10 -1.</_>
        <_>
          6 3 1 10 2.</_></rects>
      <tilted>0</tilted></_>
    <_>
      <rects>
        <_>
          5 3 4 12 -1.</_>
        <_>
          5 7 4 4 3.</_></rects>
      <tilted>0</tilted></_>
    <_>
      <rects>
        <_>
          5 4 3 10 -1.</_>
        <_>
          6 4 1 10 3.</_></rects>
      <tilted>0</tilted></_>
    <_>
      <rects>
        <_>
          5 4 2 10 -1.</_>
        <_>
          5 9 2 5 2.</_></rects>
      <tilted>0</tilted></_>
    <_>
      <rects>
        <_>
          5 4 9 8 -1.</_>
        <_>
          8 4 3 8 3.</_></rects>
      <tilted>0</tilted></_>
    <_>
      <rects>
        <_>
          5 4 9 9 -1.</_>
        <_>
          8 4 3 9 3.</_></rects>
      <tilted>0</tilted></_>
    <_>
      <rects>
        <_>
          5 4 8 6 -1.</_>
        <_>
          5 4 4 3 2.</_>
        <_>
          9 7 4 3 2.</_></rects>
      <tilted>0</tilted></_>
    <_>
      <rects>
        <_>
          5 5 6 7 -1.</_>
        <_>
          7 5 2 7 3.</_></rects>
      <tilted>0</tilted></_>
    <_>
      <rects>
        <_>
          5 5 6 10 -1.</_>
        <_>
          5 5 3 5 2.</_>
        <_>
          8 10 3 5 2.</_></rects>
      <tilted>0</tilted></_>
    <_>
      <rects>
        <_>
          5 7 3 7 -1.</_>
        <_>
          6 7 1 7 3.</_></rects>
      <tilted>0</tilted></_>
    <_>
      <rects>
        <_>
          5 7 4 3 -1.</_>
        <_>
          7 7 2 3 2.</_></rects>
      <tilted>0</tilted></_>
    <_>
      <rects>
        <_>
          5 7 10 8 -1.</_>
        <_>
          10 7 5 8 2.</_></rects>
      <tilted>0</tilted></_>
    <_>
      <rects>
        <_>
          5 8 8 4 -1.</_>
        <_>
          5 10 8 2 2.</_></rects>
      <tilted>0</tilted></_>
    <_>
      <rects>
        <_>
          5 10 9 2 -1.</_>
        <_>
          5 11 9 1 2.</_></rects>
      <tilted>0</tilted></_>
    <_>
      <rects>
        <_>
          5 11 3 3 -1.</_>
        <_>
          6 11 1 3 3.</_></rects>
      <tilted>0</tilted></_>
    <_>
      <rects>
        <_>
          5 12 1 2 -1.</_>
        <_>
          5 13 1 1 2.</_></rects>
      <tilted>0</tilted></_>
    <_>
      <rects>
        <_>
          5 14 10 1 -1.</_>
        <_>
          10 14 5 1 2.</_></rects>
      <tilted>0</tilted></_>
    <_>
      <rects>
        <_>
          6 0 1 8 -1.</_>
        <_>
          6 4 1 4 2.</_></rects>
      <tilted>0</tilted></_>
    <_>
      <rects>
        <_>
          6 0 6 2 -1.</_>
        <_>
          8 0 2 2 3.</_></rects>
      <tilted>0</tilted></_>
    <_>
      <rects>
        <_>
          6 0 3 10 -1.</_>
        <_>
          6 5 3 5 2.</_></rects>
      <tilted>0</tilted></_>
    <_>
      <rects>
        <_>
          6 0 8 4 -1.</_>
        <_>
          10 0 4 4 2.</_></rects>
      <tilted>0</tilted></_>
    <_>
      <rects>
        <_>
          6 0 4 15 -1.</_>
        <_>
          6 5 4 5 3.</_></rects>
      <tilted>0</tilted></_>
    <_>
      <rects>
        <_>
          6 1 8 4 -1.</_>
        <_>
          6 1 4 2 2.</_>
        <_>
          10 3 4 2 2.</_></rects>
      <tilted>0</tilted></_>
    <_>
      <rects>
        <_>
          6 2 2 2 -1.</_>
        <_>
          6 3 2 1 2.</_></rects>
      <tilted>0</tilted></_>
    <_>
      <rects>
        <_>
          6 2 5 6 -1.</_>
        <_>
          6 4 5 2 3.</_></rects>
      <tilted>0</tilted></_>
    <_>
      <rects>
        <_>
          6 3 2 12 -1.</_>
        <_>
          6 3 1 6 2.</_>
        <_>
          7 9 1 6 2.</_></rects>
      <tilted>0</tilted></_>
    <_>
      <rects>
        <_>
          6 3 4 12 -1.</_>
        <_>
          6 9 4 6 2.</_></rects>
      <tilted>0</tilted></_>
    <_>
      <rects>
        <_>
          6 4 6 4 -1.</_>
        <_>
          6 4 3 2 2.</_>
        <_>
          9 6 3 2 2.</_></rects>
      <tilted>0</tilted></_>
    <_>
      <rects>
        <_>
          6 5 3 8 -1.</_>
        <_>
          7 5 1 8 3.</_></rects>
      <tilted>0</tilted></_>
    <_>
      <rects>
        <_>
          6 5 9 6 -1.</_>
        <_>
          9 5 3 6 3.</_></rects>
      <tilted>0</tilted></_>
    <_>
      <rects>
        <_>
          6 5 8 6 -1.</_>
        <_>
          6 5 4 3 2.</_>
        <_>
          10 8 4 3 2.</_></rects>
      <tilted>0</tilted></_>
    <_>
      <rects>
        <_>
          6 8 7 2 -1.</_>
        <_>
          6 9 7 1 2.</_></rects>
      <tilted>0</tilted></_>
    <_>
      <rects>
        <_>
          6 9 2 6 -1.</_>
        <_>
          6 12 2 3 2.</_></rects>
      <tilted>0</tilted></_>
    <_>
      <rects>
        <_>
          6 9 8 2 -1.</_>
        <_>
          6 10 8 1 2.</_></rects>
      <tilted>0</tilted></_>
    <_>
      <rects>
        <_>
          7 1 1 12 -1.</_>
        <_>
          7 5 1 4 3.</_></rects>
      <tilted>0</tilted></_>
    <_>
      <rects>
        <_>
          7 1 8 2 -1.</_>
        <_>
          11 1 4 2 2.</_></rects>
      <tilted>0</tilted></_>
    <_>
      <rects>
        <_>
          7 2 3 12 -1.</_>
        <_>
          7 6 3 4 3.</_></rects>
      <tilted>0</tilted></_>
    <_>
      <rects>
        <_>
          7 4 3 10 -1.</_>
        <_>
          8 4 1 10 3.</_></rects>
      <tilted>0</tilted></_>
    <_>
      <rects>
        <_>
          7 5 2 10 -1.</_>
        <_>
          8 5 1 10 2.</_></rects>
      <tilted>0</tilted></_>
    <_>
      <rects>
        <_>
          7 11 1 4 -1.</_>
        <_>
          7 13 1 2 2.</_></rects>
      <tilted>0</tilted></_>
    <_>
      <rects>
        <_>
          7 14 8 1 -1.</_>
        <_>
          11 14 4 1 2.</_></rects>
      <tilted>0</tilted></_>
    <_>
      <rects>
        <_>
          8 0 6 2 -1.</_>
        <_>
          10 0 2 2 3.</_></rects>
      <tilted>0</tilted></_>
    <_>
      <rects>
        <_>
          8 0 7 10 -1.</_>
        <_>
          8 5 7 5 2.</_></rects>
      <tilted>0</tilted></_>
    <_>
      <rects>
        <_>
          8 1 3 8 -1.</_>
        <_>
          9 1 1 8 3.</_></rects>
      <tilted>0</tilted></_>
    <_>
      <rects>
        <_>
          8 1 2 12 -1.</_>
        <_>
          8 5 2 4 3.</_></rects>
      <tilted>0</tilted></_>
    <_>
      <rects>
        <_>
          8 3 6 8 -1.</_>
        <_>
          8 3 3 4 2.</_>
        <_>
          11 7 3 4 2.</_></rects>
      <tilted>0</tilted></_>
    <_>
      <rects>
        <_>
          8 4 3 9 -1.</_>
        <_>
          9 4 1 9 3.</_></rects>
      <tilted>0</tilted></_>
    <_>
      <rects>
        <_>
          8 4 4 4 -1.</_>
        <_>
          8 4 2 2 2.</_>
        <_>
          10 6 2 2 2.</_></rects>
      <tilted>0</tilted></_>
    <_>
      <rects>
        <_>
          8 5 6 7 -1.</_>
        <_>
          10 5 2 7 3.</_></rects>
      <tilted>0</tilted></_>
    <_>
      <rects>
        <_>
          8 7 6 1 -1.</_>
        <_>
          10 7 2 1 3.</_></rects>
      <tilted>0</tilted></_>
    <_>
      <rects>
        <_>
          8 8 3 6 -1.</_>
        <_>
          9 8 1 6 3.</_></rects>
      <tilted>0</tilted></_>
    <_>
      <rects>
        <_>
          8 14 4 1 -1.</_>
        <_>
          10 14 2 1 2.</_></rects>
      <tilted>0</tilted></_>
    <_>
      <rects>
        <_>
          8 14 6 1 -1.</_>
        <_>
          11 14 3 1 2.</_></rects>
      <tilted>0</tilted></_>
    <_>
      <rects>
        <_>
          9 2 2 6 -1.</_>
        <_>
          9 5 2 3 2.</_></rects>
      <tilted>0</tilted></_>
    <_>
      <rects>
        <_>
          9 5 2 2 -1.</_>
        <_>
          9 5 1 1 2.</_>
        <_>
          10 6 1 1 2.</_></rects>
      <tilted>0</tilted></_>
    <_>
      <rects>
        <_>
          9 6 3 1 -1.</_>
        <_>
          10 6 1 1 3.</_></rects>
      <tilted>0</tilted></_>
    <_>
      <rects>
        <_>
          9 6 3 8 -1.</_>
        <_>
          10 6 1 8 3.</_></rects>
      <tilted>0</tilted></_>
    <_>
      <rects>
        <_>
          9 13 6 1 -1.</_>
        <_>
          12 13 3 1 2.</_></rects>
      <tilted>0</tilted></_>
    <_>
      <rects>
        <_>
          9 13 6 2 -1.</_>
        <_>
          12 13 3 2 2.</_></rects>
      <tilted>0</tilted></_>
    <_>
      <rects>
        <_>
          9 14 6 1 -1.</_>
        <_>
          12 14 3 1 2.</_></rects>
      <tilted>0</tilted></_>
    <_>
      <rects>
        <_>
          10 0 4 3 -1.</_>
        <_>
          12 0 2 3 2.</_></rects>
      <tilted>0</tilted></_>
    <_>
      <rects>
        <_>
          10 0 5 3 -1.</_>
        <_>
          10 1 5 1 3.</_></rects>
      <tilted>0</tilted></_>
    <_>
      <rects>
        <_>
          10 6 3 5 -1.</_>
        <_>
          11 6 1 5 3.</_></rects>
      <tilted>0</tilted></_>
    <_>
      <rects>
        <_>
          11 0 4 6 -1.</_>
        <_>
          11 0 2 3 2.</_>
        <_>
          13 3 2 3 2.</_></rects>
      <tilted>0</tilted></_>
    <_>
      <rects>
        <_>
          11 0 4 4 -1.</_>
        <_>
          11 2 4 2 2.</_></rects>
      <tilted>0</tilted></_>
    <_>
      <rects>
        <_>
          11 0 4 6 -1.</_>
        <_>
          11 2 4 2 3.</_></rects>
      <tilted>0</tilted></_>
    <_>
      <rects>
        <_>
          11 1 4 4 -1.</_>
        <_>
          13 1 2 4 2.</_></rects>
      <tilted>0</tilted></_>
    <_>
      <rects>
        <_>
          11 3 4 12 -1.</_>
        <_>
          11 9 4 6 2.</_></rects>
      <tilted>0</tilted></_>
    <_>
      <rects>
        <_>
          11 9 4 6 -1.</_>
        <_>
          11 11 4 2 3.</_></rects>
      <tilted>0</tilted></_>
    <_>
      <rects>
        <_>
          11 11 4 2 -1.</_>
        <_>
          13 11 2 2 2.</_></rects>
      <tilted>0</tilted></_>
    <_>
      <rects>
        <_>
          11 11 4 4 -1.</_>
        <_>
          13 11 2 4 2.</_></rects>
      <tilted>0</tilted></_>
    <_>
      <rects>
        <_>
          11 12 4 3 -1.</_>
        <_>
          11 13 4 1 3.</_></rects>
      <tilted>0</tilted></_>
    <_>
      <rects>
        <_>
          12 0 2 4 -1.</_>
        <_>
          13 0 1 4 2.</_></rects>
      <tilted>0</tilted></_>
    <_>
      <rects>
        <_>
          12 0 3 6 -1.</_>
        <_>
          12 2 3 2 3.</_></rects>
      <tilted>0</tilted></_>
    <_>
      <rects>
        <_>
          12 0 3 9 -1.</_>
        <_>
          12 3 3 3 3.</_></rects>
      <tilted>0</tilted></_>
    <_>
      <rects>
        <_>
          12 0 3 8 -1.</_>
        <_>
          12 4 3 4 2.</_></rects>
      <tilted>0</tilted></_>
    <_>
      <rects>
        <_>
          12 0 3 14 -1.</_>
        <_>
          12 7 3 7 2.</_></rects>
      <tilted>0</tilted></_>
    <_>
      <rects>
        <_>
          12 1 1 14 -1.</_>
        <_>
          12 8 1 7 2.</_></rects>
      <tilted>0</tilted></_>
    <_>
      <rects>
        <_>
          12 1 3 6 -1.</_>
        <_>
          12 3 3 2 3.</_></rects>
      <tilted>0</tilted></_>
    <_>
      <rects>
        <_>
          12 1 3 9 -1.</_>
        <_>
          12 4 3 3 3.</_></rects>
      <tilted>0</tilted></_>
    <_>
      <rects>
        <_>
          12 3 3 9 -1.</_>
        <_>
          13 3 1 9 3.</_></rects>
      <tilted>0</tilted></_>
    <_>
      <rects>
        <_>
          12 4 3 6 -1.</_>
        <_>
          12 6 3 2 3.</_></rects>
      <tilted>0</tilted></_>
    <_>
      <rects>
        <_>
          12 6 3 9 -1.</_>
        <_>
          12 9 3 3 3.</_></rects>
      <tilted>0</tilted></_>
    <_>
      <rects>
        <_>
          12 8 3 6 -1.</_>
        <_>
          12 10 3 2 3.</_></rects>
      <tilted>0</tilted></_>
    <_>
      <rects>
        <_>
          12 9 3 6 -1.</_>
        <_>
          12 11 3 2 3.</_></rects>
      <tilted>0</tilted></_>
    <_>
      <rects>
        <_>
          13 0 2 15 -1.</_>
        <_>
          14 0 1 15 2.</_></rects>
      <tilted>0</tilted></_>
    <_>
      <rects>
        <_>
          13 0 2 6 -1.</_>
        <_>
          13 3 2 3 2.</_></rects>
      <tilted>0</tilted></_>
    <_>
      <rects>
        <_>
          13 0 2 9 -1.</_>
        <_>
          13 3 2 3 3.</_></rects>
      <tilted>0</tilted></_>
    <_>
      <rects>
        <_>
          13 0 2 12 -1.</_>
        <_>
          13 4 2 4 3.</_></rects>
      <tilted>0</tilted></_>
    <_>
      <rects>
        <_>
          13 1 2 6 -1.</_>
        <_>
          13 3 2 2 3.</_></rects>
      <tilted>0</tilted></_>
    <_>
      <rects>
        <_>
          13 1 2 9 -1.</_>
        <_>
          13 4 2 3 3.</_></rects>
      <tilted>0</tilted></_>
    <_>
      <rects>
        <_>
          13 1 2 14 -1.</_>
        <_>
          13 8 2 7 2.</_></rects>
      <tilted>0</tilted></_>
    <_>
      <rects>
        <_>
          13 2 2 12 -1.</_>
        <_>
          13 8 2 6 2.</_></rects>
      <tilted>0</tilted></_>
    <_>
      <rects>
        <_>
          13 3 2 12 -1.</_>
        <_>
          13 7 2 4 3.</_></rects>
      <tilted>0</tilted></_>
    <_>
      <rects>
        <_>
          13 3 2 12 -1.</_>
        <_>
          13 9 2 6 2.</_></rects>
      <tilted>0</tilted></_>
    <_>
      <rects>
        <_>
          13 5 2 9 -1.</_>
        <_>
          13 8 2 3 3.</_></rects>
      <tilted>0</tilted></_>
    <_>
      <rects>
        <_>
          13 6 2 4 -1.</_>
        <_>
          13 8 2 2 2.</_></rects>
      <tilted>0</tilted></_>
    <_>
      <rects>
        <_>
          13 6 2 9 -1.</_>
        <_>
          13 9 2 3 3.</_></rects>
      <tilted>0</tilted></_>
    <_>
      <rects>
        <_>
          13 9 2 4 -1.</_>
        <_>
          13 11 2 2 2.</_></rects>
      <tilted>0</tilted></_>
    <_>
      <rects>
        <_>
          14 0 1 6 -1.</_>
        <_>
          14 2 1 2 3.</_></rects>
      <tilted>0</tilted></_>
    <_>
      <rects>
        <_>
          14 0 1 10 -1.</_>
        <_>
          14 5 1 5 2.</_></rects>
      <tilted>0</tilted></_>
    <_>
      <rects>
        <_>
          14 2 1 12 -1.</_>
        <_>
          14 6 1 4 3.</_></rects>
      <tilted>0</tilted></_>
    <_>
      <rects>
        <_>
          14 3 1 6 -1.</_>
        <_>
          14 5 1 2 3.</_></rects>
      <tilted>0</tilted></_>
    <_>
      <rects>
        <_>
          14 3 1 12 -1.</_>
        <_>
          14 9 1 6 2.</_></rects>
      <tilted>0</tilted></_>
    <_>
      <rects>
        <_>
          14 4 1 6 -1.</_>
        <_>
          14 7 1 3 2.</_></rects>
      <tilted>0</tilted></_>
    <_>
      <rects>
        <_>
          14 5 1 10 -1.</_>
        <_>
          14 10 1 5 2.</_></rects>
      <tilted>0</tilted></_></features></cascade>
</opencv_storage>
