<?xml version="1.0"?>
<opencv_storage>
<stage8>
  <maxWeakCount>24</maxWeakCount>
  <stageThreshold>-1.5556305646896362e+00</stageThreshold>
  <weakClassifiers>
    <_>
      <internalNodes>
        0 -1 10651 1.5538294613361359e-01</internalNodes>
      <leafValues>
        -4.9234622716903687e-01 3.8315895199775696e-01</leafValues></_>
    <_>
      <internalNodes>
        0 -1 10108 1.1164429783821106e-01</internalNodes>
      <leafValues>
        -2.8831261396408081e-01 2.9539021849632263e-01</leafValues></_>
    <_>
      <internalNodes>
        0 -1 24568 -1.5269861556589603e-02</internalNodes>
      <leafValues>
        -6.0468226671218872e-01 1.1730539798736572e-01</leafValues></_>
    <_>
      <internalNodes>
        0 -1 24612 2.4568457156419754e-02</internalNodes>
      <leafValues>
        1.3926458358764648e-01 -6.9523108005523682e-01</leafValues></_>
    <_>
      <internalNodes>
        0 -1 15899 2.1205818280577660e-02</internalNodes>
      <leafValues>
        7.2905912995338440e-02 -7.8929394483566284e-01</leafValues></_>
    <_>
      <internalNodes>
        0 -1 20880 -1.0988795838784426e-04</internalNodes>
      <leafValues>
        2.8426620364189148e-01 -3.0351743102073669e-01</leafValues></_>
    <_>
      <internalNodes>
        0 -1 15920 -1.3839351013302803e-02</internalNodes>
      <leafValues>
        -7.0724779367446899e-01 9.6938289701938629e-02</leafValues></_>
    <_>
      <internalNodes>
        0 -1 1152 1.7582409083843231e-02</internalNodes>
      <leafValues>
        5.3815331310033798e-02 -8.3988088369369507e-01</leafValues></_>
    <_>
      <internalNodes>
        0 -1 503 -1.1110920459032059e-02</internalNodes>
      <leafValues>
        -7.5670129060745239e-01 6.6750325262546539e-02</leafValues></_>
    <_>
      <internalNodes>
        0 -1 1778 1.1788930743932724e-02</internalNodes>
      <leafValues>
        4.9844898283481598e-02 -8.4502470493316650e-01</leafValues></_>
    <_>
      <internalNodes>
        0 -1 17903 1.2721442908514291e-04</internalNodes>
      <leafValues>
        -2.2745364904403687e-01 2.6060584187507629e-01</leafValues></_>
    <_>
      <internalNodes>
        0 -1 17005 1.2603202462196350e-01</internalNodes>
      <leafValues>
        -9.7500480711460114e-02 6.0027569532394409e-01</leafValues></_>
    <_>
      <internalNodes>
        0 -1 18780 3.0999731272459030e-02</internalNodes>
      <leafValues>
        -1.6292575001716614e-01 3.9141747355461121e-01</leafValues></_>
    <_>
      <internalNodes>
        0 -1 18231 6.3906237483024597e-02</internalNodes>
      <leafValues>
        -7.9009786248207092e-02 6.7591130733489990e-01</leafValues></_>
    <_>
      <internalNodes>
        0 -1 11348 -1.1724451178452000e-04</internalNodes>
      <leafValues>
        2.6022371649742126e-01 -2.0494550466537476e-01</leafValues></_>
    <_>
      <internalNodes>
        0 -1 13031 8.4460526704788208e-02</internalNodes>
      <leafValues>
        -8.6791224777698517e-02 7.1980279684066772e-01</leafValues></_>
    <_>
      <internalNodes>
        0 -1 110 2.1160125732421875e-02</internalNodes>
      <leafValues>
        1.1090730130672455e-01 -5.7080817222595215e-01</leafValues></_>
    <_>
      <internalNodes>
        0 -1 16262 1.7944658175110817e-02</internalNodes>
      <leafValues>
        -1.3083957135677338e-01 4.1559916734695435e-01</leafValues></_>
    <_>
      <internalNodes>
        0 -1 3192 1.1879765952471644e-04</internalNodes>
      <leafValues>
        -2.1046407520771027e-01 2.3293769359588623e-01</leafValues></_>
    <_>
      <internalNodes>
        0 -1 18489 1.1537206918001175e-01</internalNodes>
      <leafValues>
        -9.2186003923416138e-02 5.5138128995895386e-01</leafValues></_>
    <_>
      <internalNodes>
        0 -1 15048 -9.3220576643943787e-02</internalNodes>
      <leafValues>
        3.5466066002845764e-01 -1.4015029370784760e-01</leafValues></_>
    <_>
      <internalNodes>
        0 -1 16669 4.4098913669586182e-02</internalNodes>
      <leafValues>
        -1.8522556126117706e-01 3.0194547772407532e-01</leafValues></_>
    <_>
      <internalNodes>
        0 -1 23938 7.0681846700608730e-03</internalNodes>
      <leafValues>
        1.0818428546190262e-01 -5.0031948089599609e-01</leafValues></_>
    <_>
      <internalNodes>
        0 -1 14793 1.2081146996933967e-04</internalNodes>
      <leafValues>
        -2.9446673393249512e-01 1.8588633835315704e-01</leafValues></_></weakClassifiers></stage8>
</opencv_storage>
