<?xml version="1.0"?>
<opencv_storage>
<stage3>
  <maxWeakCount>13</maxWeakCount>
  <stageThreshold>-1.6887227296829224e+00</stageThreshold>
  <weakClassifiers>
    <_>
      <internalNodes>
        0 -1 18278 1.4413219690322876e-01</internalNodes>
      <leafValues>
        -5.6050002574920654e-01 7.2461539506912231e-01</leafValues></_>
    <_>
      <internalNodes>
        0 -1 7774 1.9233474135398865e-01</internalNodes>
      <leafValues>
        -2.9397392272949219e-01 6.4758557081222534e-01</leafValues></_>
    <_>
      <internalNodes>
        0 -1 11527 1.2671437114477158e-02</internalNodes>
      <leafValues>
        1.7500880360603333e-01 -7.3280555009841919e-01</leafValues></_>
    <_>
      <internalNodes>
        0 -1 67 1.6991078853607178e-02</internalNodes>
      <leafValues>
        2.1929751336574554e-01 -6.4496594667434692e-01</leafValues></_>
    <_>
      <internalNodes>
        0 -1 1815 2.9212016612291336e-02</internalNodes>
      <leafValues>
        1.1423246562480927e-01 -8.9582437276840210e-01</leafValues></_>
    <_>
      <internalNodes>
        0 -1 3176 -3.4614801406860352e-02</internalNodes>
      <leafValues>
        -6.6398388147354126e-01 1.8519550561904907e-01</leafValues></_>
    <_>
      <internalNodes>
        0 -1 11529 8.7109804153442383e-03</internalNodes>
      <leafValues>
        1.2661910057067871e-01 -7.0272970199584961e-01</leafValues></_>
    <_>
      <internalNodes>
        0 -1 24572 -4.7058224678039551e-02</internalNodes>
      <leafValues>
        -8.1749564409255981e-01 1.2638944387435913e-01</leafValues></_>
    <_>
      <internalNodes>
        0 -1 24934 1.2458859011530876e-02</internalNodes>
      <leafValues>
        1.1095611006021500e-01 -8.4528702497482300e-01</leafValues></_>
    <_>
      <internalNodes>
        0 -1 98 -7.1953637525439262e-03</internalNodes>
      <leafValues>
        -8.4020429849624634e-01 9.2286035418510437e-02</leafValues></_>
    <_>
      <internalNodes>
        0 -1 13088 8.2721874117851257e-02</internalNodes>
      <leafValues>
        -1.5402786433696747e-01 7.4865460395812988e-01</leafValues></_>
    <_>
      <internalNodes>
        0 -1 13965 1.3092303276062012e-01</internalNodes>
      <leafValues>
        -1.4812998473644257e-01 5.3960448503494263e-01</leafValues></_>
    <_>
      <internalNodes>
        0 -1 24609 2.2964686155319214e-02</internalNodes>
      <leafValues>
        1.2607258558273315e-01 -9.0483498573303223e-01</leafValues></_></weakClassifiers></stage3>
</opencv_storage>
