<?xml version="1.0"?>
<opencv_storage>
<stage4>
  <maxWeakCount>100</maxWeakCount>
  <stageThreshold>-1.6942402124404907e+00</stageThreshold>
  <weakClassifiers>
    <_>
      <internalNodes>
        0 -1 4 -620830738 -2649089 -604244737 -637536811 -4203073
        -589329351 -16777285 -263425</internalNodes>
      <leafValues>
        -7.1887028217315674e-01 -3.8423251360654831e-02</leafValues></_>
    <_>
      <internalNodes>
        0 -1 2 -33562625 -69633 -1 -66050 -12587297 2071922013 -44048385
        -8421377</internalNodes>
      <leafValues>
        -2.8127115964889526e-01 3.3718171715736389e-01</leafValues></_>
    <_>
      <internalNodes>
        0 -1 8 2071458740 -783839909 700422076 260785135 -1145061451
        230414271 469742076 536870911</internalNodes>
      <leafValues>
        -3.7904039025306702e-01 2.0007845759391785e-01</leafValues></_>
    <_>
      <internalNodes>
        0 -1 3 -354966484 -168692231 -202245900 -330245 -85590029
        -119034695 -67633417 1528627631</internalNodes>
      <leafValues>
        -3.3864298462867737e-01 2.4439056217670441e-01</leafValues></_>
    <_>
      <internalNodes>
        0 -1 1 -486618386 -83952967 -30834 -33583877 -201868181
        1920299471 1969710411 -134224449</internalNodes>
      <leafValues>
        -2.8096163272857666e-01 2.0769633352756500e-01</leafValues></_>
    <_>
      <internalNodes>
        0 -1 7 -272631004 1902853919 -1470497106 1194326523 -1363488847
        11710116 -357893208 36433579</internalNodes>
      <leafValues>
        -3.7029376626014709e-01 1.8161393702030182e-01</leafValues></_>
    <_>
      <internalNodes>
        0 -1 5 1899397116 1969113356 905920510 1605253882 -1361263793
        421418467 920633208 -8421378</internalNodes>
      <leafValues>
        -2.8774484992027283e-01 1.8894577026367188e-01</leafValues></_>
    <_>
      <internalNodes>
        0 -1 0 -353388865 -18876701 -1378305 -16846685 -136380425 -16388
        2012739323 -186683253</internalNodes>
      <leafValues>
        -1.7507418990135193e-01 2.6120746135711670e-01</leafValues></_>
    <_>
      <internalNodes>
        0 -1 4 -805861840 -195783761 -1686474500 -783092336 -709763653
        -590117831 1413197996 838040107</internalNodes>
      <leafValues>
        -3.2587638497352600e-01 1.1030743271112442e-01</leafValues></_>
    <_>
      <internalNodes>
        0 -1 6 -100696064 -729553 2092756735 2746879 -84935792
        -308812321 -310708191 268556424</internalNodes>
      <leafValues>
        -3.1547665596008301e-01 1.2459884583950043e-01</leafValues></_>
    <_>
      <internalNodes>
        0 -1 2 -430307346 643645286 -1008246958 2099063271 2008500157
        -565020315 -402688460 2139938320</internalNodes>
      <leafValues>
        -1.9865508377552032e-01 1.5939328074455261e-01</leafValues></_>
    <_>
      <internalNodes>
        0 -1 7 -1021087920 -942549521 -2142716231 -1733858867
        -1946139280 -791090038 2083060035 -104567153</internalNodes>
      <leafValues>
        -2.0451222360134125e-01 1.2925413250923157e-01</leafValues></_>
    <_>
      <internalNodes>
        0 -1 3 -34836496 -268518611 1045329917 -1918505383 -807473859
        -178389017 94205213 -1081878956</internalNodes>
      <leafValues>
        -1.1805660277605057e-01 2.1582056581974030e-01</leafValues></_>
    <_>
      <internalNodes>
        0 -1 5 -1590189610 -1244608057 -33619972 -1350893666 -1127118524
        -1441311549 -278979841 2147457903</internalNodes>
      <leafValues>
        -1.6561649739742279e-01 1.5253902971744537e-01</leafValues></_>
    <_>
      <internalNodes>
        0 -1 1 606254894 -428671078 613287430 -1638402 106104724
        -683544241 375661840 2135184949</internalNodes>
      <leafValues>
        -2.7181291580200195e-01 7.8024148941040039e-02</leafValues></_>
    <_>
      <internalNodes>
        0 -1 8 -71602358 1291433405 780057198 -807420929 1283024234
        40157102 -384303518 -297992837</internalNodes>
      <leafValues>
        -1.2409108877182007e-01 1.7012807726860046e-01</leafValues></_>
    <_>
      <internalNodes>
        0 -1 0 -1258394781 -218190890 1072418038 -134218130 -822139537
        -33688450 1165876010 1610073462</internalNodes>
      <leafValues>
        -1.3388864696025848e-01 1.5412640571594238e-01</leafValues></_>
    <_>
      <internalNodes>
        0 -1 6 -1335173724 946421499 -633864517 1940388298 -224431121
        -109088769 984986079 -1425082505</internalNodes>
      <leafValues>
        -1.1241367459297180e-01 1.6144542396068573e-01</leafValues></_>
    <_>
      <internalNodes>
        0 -1 3 -2449913 -331809 2145380092 1572163547 2147470798
        -539103233 -10514675 -488085987</internalNodes>
      <leafValues>
        -1.1191525310277939e-01 1.7763762176036835e-01</leafValues></_>
    <_>
      <internalNodes>
        0 -1 4 -682982492 2131919834 1531687102 1375679957 1319619764
        -935195607 -1095784261 -295976226</internalNodes>
      <leafValues>
        -1.9961106777191162e-01 7.5885400176048279e-02</leafValues></_>
    <_>
      <internalNodes>
        0 -1 7 2034957698 -1979861344 -537460880 820375403 -524886
        -16926723 -1342701640 -1277689888</internalNodes>
      <leafValues>
        -1.0332020372152328e-01 1.3635095953941345e-01</leafValues></_>
    <_>
      <internalNodes>
        0 -1 5 1882240344 -1382299572 1711274938 -1091753942 1011876164
        2022954291 -1353220112 -1610619923</internalNodes>
      <leafValues>
        -1.2659737467765808e-01 1.0655858367681503e-01</leafValues></_>
    <_>
      <internalNodes>
        0 -1 2 -1222660550 -1094072 1860336154 -671127572 930043423
        2097109718 2105369642 -273468312</internalNodes>
      <leafValues>
        -9.8630025982856750e-02 1.4921328425407410e-01</leafValues></_>
    <_>
      <internalNodes>
        0 -1 1 1759863517 881124094 1025975894 1341840846 1953514879
        -529104897 -170010646 -193923984</internalNodes>
      <leafValues>
        -1.0663346201181412e-01 1.1158407479524612e-01</leafValues></_>
    <_>
      <internalNodes>
        0 -1 0 -350034518 -472140499 -67144009 2063517421 2145112655
        -134267787 -679644651 -142895495</internalNodes>
      <leafValues>
        -8.3231292665004730e-02 1.1990824341773987e-01</leafValues></_>
    <_>
      <internalNodes>
        0 -1 8 1781230432 134382603 -107035922 -1027030036 1043465352
        743192869 794692285 -1900544520</internalNodes>
      <leafValues>
        -1.1524802446365356e-01 8.4394201636314392e-02</leafValues></_>
    <_>
      <internalNodes>
        0 -1 4 -865414024 -138378568 460992720 1241232528 -147537509
        -598635511 -25747302 -15523186</internalNodes>
      <leafValues>
        -1.4663444459438324e-01 5.8466438204050064e-02</leafValues></_>
    <_>
      <internalNodes>
        0 -1 5 -1590267776 1973307486 -302072142 -353623232 1011894604
        -1147318013 -291587528 -22803966</internalNodes>
      <leafValues>
        -1.3497240841388702e-01 5.8578114956617355e-02</leafValues></_>
    <_>
      <internalNodes>
        0 -1 2 773634816 788212983 1860644610 -8392725 397362726
        -1485686666 1064789264 -8391422</internalNodes>
      <leafValues>
        -7.1581825613975525e-02 1.2284140288829803e-01</leafValues></_>
    <_>
      <internalNodes>
        0 -1 3 -995827584 2106958157 1916892629 -1393924583 -622772808
        -455748360 -336235275 -1807710874</internalNodes>
      <leafValues>
        -9.9720746278762817e-02 7.8191936016082764e-02</leafValues></_>
    <_>
      <internalNodes>
        0 -1 1 -1331498314 -1152779522 218541703 -67175473 -2091844190
        2142306303 -682295322 -34081038</internalNodes>
      <leafValues>
        -8.0854013562202454e-02 1.1265642940998077e-01</leafValues></_>
    <_>
      <internalNodes>
        0 -1 7 1099491336 -1598989143 5289512 16836804 -1098855068
        345564222 -291439634 1355672815</internalNodes>
      <leafValues>
        -1.6254359483718872e-01 5.0709653645753860e-02</leafValues></_>
    <_>
      <internalNodes>
        0 -1 6 652883968 -1452238277 -895734919 -2136905653 -72559806
        856287517 -2132361855 268555649</internalNodes>
      <leafValues>
        -1.7591078579425812e-01 3.7050485610961914e-02</leafValues></_>
    <_>
      <internalNodes>
        0 -1 0 947004454 -34801567 1654887534 -1033965464 -990814009
        -175525763 -457477088 1154761184</internalNodes>
      <leafValues>
        -1.1949323117733002e-01 4.8344597220420837e-02</leafValues></_>
    <_>
      <internalNodes>
        0 -1 4 -998079098 -187198740 -884214568 -1059134252 3625132
        1088261225 -152592200 -1812215060</internalNodes>
      <leafValues>
        -1.4094695448875427e-01 4.0285862982273102e-02</leafValues></_>
    <_>
      <internalNodes>
        0 -1 8 -1364464667 251180222 796855165 -1826768130 1289348519
        -1090523153 -918533 -67108865</internalNodes>
      <leafValues>
        -3.3738397061824799e-02 1.8455800414085388e-01</leafValues></_>
    <_>
      <internalNodes>
        0 -1 7 -912697372 1389444288 -1471103454 -232199958 1010361570
        -468668752 -198510112 -1188823544</internalNodes>
      <leafValues>
        -8.7291367352008820e-02 6.8839095532894135e-02</leafValues></_>
    <_>
      <internalNodes>
        0 -1 6 -1057107713 -302318614 -830476360 1559886260 -255012135
        -3146858 -822282504 -929104150</internalNodes>
      <leafValues>
        -3.4817270934581757e-02 1.8340304493904114e-01</leafValues></_>
    <_>
      <internalNodes>
        0 -1 3 214180096 -805974643 1656844241 -141013237 -692019448
        -29025184 -78265321 -305763132</internalNodes>
      <leafValues>
        -9.1137737035751343e-02 5.7728376239538193e-02</leafValues></_>
    <_>
      <internalNodes>
        0 -1 1 1734870080 -943791112 -2037956010 2130702334 1147018253
        -704908977 2086792489 -402758882</internalNodes>
      <leafValues>
        -8.1313923001289368e-02 6.7625619471073151e-02</leafValues></_>
    <_>
      <internalNodes>
        0 -1 5 1882366588 -451409828 -1191429452 170534948 -1101149748
        -635808319 1067194534 1035929514</internalNodes>
      <leafValues>
        -1.3395786285400391e-01 4.1502252221107483e-02</leafValues></_>
    <_>
      <internalNodes>
        0 -1 2 1985094320 924073800 1407884806 2095837162 -687448317
        238899804 863824912 534767509</internalNodes>
      <leafValues>
        -8.4932021796703339e-02 5.5390443652868271e-02</leafValues></_>
    <_>
      <internalNodes>
        0 -1 4 -590495160 -7040163 1531457550 -639716144 -920335232
        -1002402776 -324796928 -267719</internalNodes>
      <leafValues>
        -1.0495502501726151e-01 4.4579915702342987e-02</leafValues></_>
    <_>
      <internalNodes>
        0 -1 8 699100146 889173182 1870548020 -1365312515 -1098955140
        -2137327182 -10572114 -453247498</internalNodes>
      <leafValues>
        -5.5954433977603912e-02 9.5076866447925568e-02</leafValues></_>
    <_>
      <internalNodes>
        0 -1 5 -25581534 2012839774 -268439559 -154477 -868353
        1593277709 -75500184 -17956240</internalNodes>
      <leafValues>
        -5.6455787271261215e-02 7.6439596712589264e-02</leafValues></_>
    <_>
      <internalNodes>
        0 -1 7 -443292524 -1250167070 -1470581088 -1650079498
        -1397701140 1056631988 -22484499 -18092809</internalNodes>
      <leafValues>
        -5.9234801679849625e-02 6.4763620495796204e-02</leafValues></_>
    <_>
      <internalNodes>
        0 -1 6 -16851489 -234881281 -20988929 -386945569 -1079582978
        -1075581985 -1715954213 -220073731</internalNodes>
      <leafValues>
        -2.5787575170397758e-02 1.6137428581714630e-01</leafValues></_>
    <_>
      <internalNodes>
        0 -1 0 -278741984 -263425691 -177533129 2004528564 2145008949
        1475688439 1014483275 -32500156</internalNodes>
      <leafValues>
        -5.2044048905372620e-02 6.0776121914386749e-02</leafValues></_>
    <_>
      <internalNodes>
        0 -1 3 -989034302 -1378711265 -499112379 -1377771829 -1430229576
        -62401536 -370862516 -1728474065</internalNodes>
      <leafValues>
        -6.3340522348880768e-02 5.6490380316972733e-02</leafValues></_>
    <_>
      <internalNodes>
        0 -1 4 -2024767488 -191528148 -1957990192 1347892369 337773714
        349408328 -198464993 -1314294</internalNodes>
      <leafValues>
        -1.1055395752191544e-01 2.8352303430438042e-02</leafValues></_>
    <_>
      <internalNodes>
        0 -1 6 -72897560 -324485257 -1158153220 -1616118326 2144263110
        -102761570 1786665388 -1983078638</internalNodes>
      <leafValues>
        -4.1193686425685883e-02 8.7865039706230164e-02</leafValues></_>
    <_>
      <internalNodes>
        0 -1 1 10682624 1584460458 1009910407 -575164438 -86408766
        1782477263 -1645730048 2130531889</internalNodes>
      <leafValues>
        -7.0231452584266663e-02 4.8907361924648285e-02</leafValues></_>
    <_>
      <internalNodes>
        0 -1 7 1372388394 1419072776 -82049 -67252357 1968667985
        351794533 -33554482 -131090</internalNodes>
      <leafValues>
        -5.0689648836851120e-02 5.7927098125219345e-02</leafValues></_>
    <_>
      <internalNodes>
        0 -1 5 -248485928 -10581545 2046438004 -541099512 1011894734
        -107227711 -300134752 2138876815</internalNodes>
      <leafValues>
        -6.7097969353199005e-02 4.1360262781381607e-02</leafValues></_>
    <_>
      <internalNodes>
        0 -1 8 724265736 134447114 1757287678 852214734 540157576
        706886440 -1492514272 775585627</internalNodes>
      <leafValues>
        -9.0221449732780457e-02 3.0139949172735214e-02</leafValues></_>
    <_>
      <internalNodes>
        0 -1 0 538976288 541597696 2228258 4849664 80740357 83955812
        70254592 1048576</internalNodes>
      <leafValues>
        -5.4416686296463013e-01 3.8910107687115669e-03</leafValues></_>
    <_>
      <internalNodes>
        0 -1 3 -61966704 -42144947 -278926371 -167923735 -1015246964
        -170027177 1841292684 -164420204</internalNodes>
      <leafValues>
        -3.8103595376014709e-02 6.3032940030097961e-02</leafValues></_>
    <_>
      <internalNodes>
        0 -1 4 -871705052 -406814056 189412522 -646040108 -811251584
        -2008380407 -554205684 -5518609</internalNodes>
      <leafValues>
        -1.0377146303653717e-01 2.6271544396877289e-02</leafValues></_>
    <_>
      <internalNodes>
        0 -1 0 -537403584 -548357590 -9741004 -9502916 -2097386 -655492
        -8563950 -15671214</internalNodes>
      <leafValues>
        -2.7307575568556786e-02 1.0749720782041550e-01</leafValues></_>
    <_>
      <internalNodes>
        0 -1 5 808755744 -178829212 -436732574 1324924340 -1135228476
        -1709484671 2124320829 -54658352</internalNodes>
      <leafValues>
        -6.0787480324506760e-02 3.6757968366146088e-02</leafValues></_>
    <_>
      <internalNodes>
        0 -1 7 -539898168 -9609779 1476280296 -294846468 -805440082
        -50463237 -302514705 -102760451</internalNodes>
      <leafValues>
        -3.9639536291360855e-02 6.9298878312110901e-02</leafValues></_>
    <_>
      <internalNodes>
        0 -1 1 1043645964 -1113527298 -274237905 -4810257 623988535
        -30378113 -18923541 -42932271</internalNodes>
      <leafValues>
        -4.8116892576217651e-02 5.1656782627105713e-02</leafValues></_>
    <_>
      <internalNodes>
        0 -1 2 638461730 -2105528658 1138888518 -1351176203 390551480
        1410605812 2037705971 2137349979</internalNodes>
      <leafValues>
        -7.8419968485832214e-02 3.3307641744613647e-02</leafValues></_>
    <_>
      <internalNodes>
        0 -1 6 -764223488 701684450 -624628296 -2141061935 -1331366151
        -1278676490 -219106957 1887689426</internalNodes>
      <leafValues>
        -6.8424277007579803e-02 3.6895878612995148e-02</leafValues></_>
    <_>
      <internalNodes>
        0 -1 3 -458936 -34055217 1850635981 -286261333 -134418466
        -372410385 -10631682 -289080603</internalNodes>
      <leafValues>
        -3.0109064653515816e-02 6.9331288337707520e-02</leafValues></_>
    <_>
      <internalNodes>
        0 -1 4 -2036170624 -460025272 1263185992 1104389253 -2095017813
        -732459912 -150996301 -787713</internalNodes>
      <leafValues>
        -8.7984479963779449e-02 2.3945901542901993e-02</leafValues></_>
    <_>
      <internalNodes>
        0 -1 2 1712466562 2127560285 1860337174 1576738810 119953205
        -1094763681 894725172 -136577858</internalNodes>
      <leafValues>
        -3.5498302429914474e-02 7.2228647768497467e-02</leafValues></_>
    <_>
      <internalNodes>
        0 -1 5 -265226018 -1482766114 703602744 -1075650325 -1102017587
        -635973181 -288063774 -1074270865</internalNodes>
      <leafValues>
        -4.0213704109191895e-02 4.4558335095643997e-02</leafValues></_>
    <_>
      <internalNodes>
        0 -1 1 -513777208 -568852550 -40761674 2128787918 -1676667616
        -16977459 1984998720 -146473968</internalNodes>
      <leafValues>
        -5.3839761763811111e-02 4.1653852909803391e-02</leafValues></_>
    <_>
      <internalNodes>
        0 -1 8 -1475646560 167944521 -1455545810 1183482862 168856738
        -2110211158 746974139 143785720</internalNodes>
      <leafValues>
        -5.5747933685779572e-02 3.5907387733459473e-02</leafValues></_>
    <_>
      <internalNodes>
        0 -1 7 -451976124 435797728 -1470513612 2041571567 -1533358259
        -2429300 -22480032 -1356337475</internalNodes>
      <leafValues>
        -5.6463833898305893e-02 3.6887433379888535e-02</leafValues></_>
    <_>
      <internalNodes>
        0 -1 4 -720582464 -7961976 -1823993856 -1730272128 -592460668
        -925987832 -1402082304 -1074068984</internalNodes>
      <leafValues>
        -8.1434458494186401e-02 2.3688357323408127e-02</leafValues></_>
    <_>
      <internalNodes>
        0 -1 6 -290726706 -369295682 -889197831 -1063130802 -86060340
        -169874466 -2068261683 -666307379</internalNodes>
      <leafValues>
        -2.6119532063603401e-02 8.1368811428546906e-02</leafValues></_>
    <_>
      <internalNodes>
        0 -1 3 67108864 83886349 574627844 67109376 37752064 4457472
        17105924 4</internalNodes>
      <leafValues>
        -9.6290308237075806e-01 1.4430838637053967e-03</leafValues></_>
    <_>
      <internalNodes>
        0 -1 0 1595957266 1339516260 1032908855 -1080311696 -1077805056
        -7834124 1159916032 1167537985</internalNodes>
      <leafValues>
        -5.1533877849578857e-02 3.1531807035207748e-02</leafValues></_>
    <_>
      <internalNodes>
        0 -1 3 -1164147040 -201827 -8410228 -133416 -2294419 -2234433
        -1109396156 -33953922</internalNodes>
      <leafValues>
        -3.5904236137866974e-02 4.9158338457345963e-02</leafValues></_>
    <_>
      <internalNodes>
        0 -1 7 1090535424 201736 676361762 -1692018600 1043361075
        913895094 -97850369 1927937163</internalNodes>
      <leafValues>
        -7.2187833487987518e-02 2.4727543815970421e-02</leafValues></_>
    <_>
      <internalNodes>
        0 -1 1 512 58024 132614 2099402 1049600 29005 1280 4211728</internalNodes>
      <leafValues>
        -1. 1.1668683728203177e-03</leafValues></_>
    <_>
      <internalNodes>
        0 -1 5 540024832 621807620 11542560 0 1011878212 403723521
        1310752 67108864</internalNodes>
      <leafValues>
        -9.2556095123291016e-01 1.2339808745309711e-03</leafValues></_>
    <_>
      <internalNodes>
        0 -1 6 2097152 538974752 168044544 2172928 805310976 553738516
        2101248 0</internalNodes>
      <leafValues>
        -1. 1.0551362065598369e-03</leafValues></_>
    <_>
      <internalNodes>
        0 -1 8 671179008 32776 675151908 525004 1049600 2336 2592
        1063952</internalNodes>
      <leafValues>
        -3.3831599354743958e-01 3.8490660954266787e-03</leafValues></_>
    <_>
      <internalNodes>
        0 -1 2 67109376 33556480 1122109954 0 117720576 4 827606016 0</internalNodes>
      <leafValues>
        -9.6275418996810913e-01 1.3710189377889037e-03</leafValues></_>
    <_>
      <internalNodes>
        0 -1 5 -25648192 -42828074 -201903072 -407022249 2139094517
        1056669679 -12859608 -9282</internalNodes>
      <leafValues>
        -3.5518869757652283e-02 3.7699908018112183e-02</leafValues></_>
    <_>
      <internalNodes>
        0 -1 8 732658602 1861785534 788418287 -1277379842 -1441087830
        -1431668045 -4459042 -1078001921</internalNodes>
      <leafValues>
        -2.2368570789694786e-02 7.2837181389331818e-02</leafValues></_>
    <_>
      <internalNodes>
        0 -1 7 1259142320 -196021200 -2007957955 1889294572 -1264925188
        -57529670 1990228292 -12189964</internalNodes>
      <leafValues>
        -4.3089494109153748e-02 3.5424139350652695e-02</leafValues></_>
    <_>
      <internalNodes>
        0 -1 3 -410322686 -141231100 -1312762256 -113226421 -230621510
        -20907008 -79572439 1929434624</internalNodes>
      <leafValues>
        -4.3610997498035431e-02 3.1848415732383728e-02</leafValues></_>
    <_>
      <internalNodes>
        0 -1 4 0 1677754888 155725824 5383296 2097152 4328456 69279744
        520</internalNodes>
      <leafValues>
        -1. 1.3104233657941222e-03</leafValues></_>
    <_>
      <internalNodes>
        0 -1 5 -138112 -142639244 -134864844 -620784456 -4 -33816593
        -384779 -536874251</internalNodes>
      <leafValues>
        -3.3228471875190735e-02 3.6221887916326523e-02</leafValues></_>
    <_>
      <internalNodes>
        0 -1 2 790576678 -1415819803 -287084794 -1081088145 930080654
        2130645488 1971277307 -268560543</internalNodes>
      <leafValues>
        -2.8946960344910622e-02 4.3071150779724121e-02</leafValues></_>
    <_>
      <internalNodes>
        0 -1 4 -2066710244 -1244163851 1094730844 1369755984 -804201320
        -656572303 -803153764 -134547202</internalNodes>
      <leafValues>
        -6.0302525758743286e-02 2.2815112024545670e-02</leafValues></_>
    <_>
      <internalNodes>
        0 -1 8 715910048 251303102 1073646012 -1038173185 -369449233
        -1095847957 2147415519 -335544321</internalNodes>
      <leafValues>
        -2.0069718360900879e-02 6.6915653645992279e-02</leafValues></_>
    <_>
      <internalNodes>
        0 -1 7 1090535424 5120 5256736 280640 68175104 1048576 538999040
        91136</internalNodes>
      <leafValues>
        -6.9930291175842285e-01 2.1521353628486395e-03</leafValues></_>
    <_>
      <internalNodes>
        0 -1 1 1015072810 -521513646 470093862 -322898044 1937670494
        -335830592 -43619762 -50458054</internalNodes>
      <leafValues>
        -3.9024453610181808e-02 2.8082692995667458e-02</leafValues></_>
    <_>
      <internalNodes>
        0 -1 0 -42852223 -582438848 -309256009 1377756788 -541063919
        1468600433 -181182112 1884311632</internalNodes>
      <leafValues>
        -4.1417334228754044e-02 2.7002621442079544e-02</leafValues></_>
    <_>
      <internalNodes>
        0 -1 5 -241761556 1020248248 216739840 761298500 -2138224510
        -1416691645 -1076131838 -13751894</internalNodes>
      <leafValues>
        -4.4897563755512238e-02 2.6117302477359772e-02</leafValues></_>
    <_>
      <internalNodes>
        0 -1 7 -238494354 -1130496054 -606216 -588777530 -35790908
        -553779203 -805317124 -123994646</internalNodes>
      <leafValues>
        -2.5955189019441605e-02 3.8676332682371140e-02</leafValues></_>
    <_>
      <internalNodes>
        0 -1 4 -699936768 -2846412 1124073488 -779808768 1870712960
        -858488832 -86896639 -268279</internalNodes>
      <leafValues>
        -5.1438845694065094e-02 2.0772546529769897e-02</leafValues></_>
    <_>
      <internalNodes>
        0 -1 3 -197089584 -973561875 -28315236 -441057695 -740532316
        -674390089 -167905899 -792660780</internalNodes>
      <leafValues>
        -2.6743488386273384e-02 4.7036916017532349e-02</leafValues></_>
    <_>
      <internalNodes>
        0 -1 6 -1963203672 -277217553 1593273147 -1394082917 -49553669
        2079320990 -344794197 -1164052293</internalNodes>
      <leafValues>
        -2.1382752805948257e-02 4.5881971716880798e-02</leafValues></_>
    <_>
      <internalNodes>
        0 -1 1 -953443832 -3604482 1191323174 2008514542 -812395100
        -134776961 -1083640052 -2049</internalNodes>
      <leafValues>
        -2.0003953948616982e-02 4.3192330747842789e-02</leafValues></_></weakClassifiers></stage4>
</opencv_storage>
