<?xml version="1.0"?>
<opencv_storage>
<stage9>
  <maxWeakCount>32</maxWeakCount>
  <stageThreshold>-1.6810890436172485e+00</stageThreshold>
  <weakClassifiers>
    <_>
      <internalNodes>
        0 -1 2318 2.3124247789382935e-01</internalNodes>
      <leafValues>
        -4.6313896775245667e-01 4.3746110796928406e-01</leafValues></_>
    <_>
      <internalNodes>
        0 -1 620 -1.2146335095167160e-02</internalNodes>
      <leafValues>
        -6.6471958160400391e-01 1.0494749993085861e-01</leafValues></_>
    <_>
      <internalNodes>
        0 -1 355 2.6654411340132356e-04</internalNodes>
      <leafValues>
        -2.2348617017269135e-01 3.3122780919075012e-01</leafValues></_>
    <_>
      <internalNodes>
        0 -1 40 -2.8039447963237762e-02</internalNodes>
      <leafValues>
        -7.3429775238037109e-01 6.1122093349695206e-02</leafValues></_>
    <_>
      <internalNodes>
        0 -1 35 1.4054049737751484e-02</internalNodes>
      <leafValues>
        1.0930815339088440e-01 -7.0933997631072998e-01</leafValues></_>
    <_>
      <internalNodes>
        0 -1 755 5.4579209536314011e-03</internalNodes>
      <leafValues>
        -4.7151279449462891e-01 1.8205723166465759e-01</leafValues></_>
    <_>
      <internalNodes>
        0 -1 4976 -1.0477874428033829e-02</internalNodes>
      <leafValues>
        -6.5504521131515503e-01 6.1998747289180756e-02</leafValues></_>
    <_>
      <internalNodes>
        0 -1 1903 -3.2501365058124065e-04</internalNodes>
      <leafValues>
        2.2558759152889252e-01 -2.6483985781669617e-01</leafValues></_>
    <_>
      <internalNodes>
        0 -1 4982 3.7399902939796448e-03</internalNodes>
      <leafValues>
        8.3516962826251984e-02 -5.2651703357696533e-01</leafValues></_>
    <_>
      <internalNodes>
        0 -1 8 -1.2654751539230347e-02</internalNodes>
      <leafValues>
        -5.7246428728103638e-01 9.2639923095703125e-02</leafValues></_>
    <_>
      <internalNodes>
        0 -1 259 -6.3611552119255066e-02</internalNodes>
      <leafValues>
        -5.7812500000000000e-01 8.9040763676166534e-02</leafValues></_>
    <_>
      <internalNodes>
        0 -1 73 5.5599853396415710e-02</internalNodes>
      <leafValues>
        8.0958925187587738e-02 -6.0632592439651489e-01</leafValues></_>
    <_>
      <internalNodes>
        0 -1 501 2.5323897716589272e-04</internalNodes>
      <leafValues>
        -2.4285480380058289e-01 2.2639465332031250e-01</leafValues></_>
    <_>
      <internalNodes>
        0 -1 5009 2.8343267738819122e-02</internalNodes>
      <leafValues>
        6.6834956407546997e-02 -8.2469046115875244e-01</leafValues></_>
    <_>
      <internalNodes>
        0 -1 2912 -1.1899280548095703e-01</internalNodes>
      <leafValues>
        6.3942074775695801e-01 -9.1386146843433380e-02</leafValues></_>
    <_>
      <internalNodes>
        0 -1 2912 1.0499297082424164e-01</internalNodes>
      <leafValues>
        -5.2387159317731857e-02 5.8972913026809692e-01</leafValues></_>
    <_>
      <internalNodes>
        0 -1 597 4.3702363967895508e-02</internalNodes>
      <leafValues>
        -1.8733787536621094e-01 2.3921440541744232e-01</leafValues></_>
    <_>
      <internalNodes>
        0 -1 4850 2.4723103269934654e-02</internalNodes>
      <leafValues>
        6.5636254847049713e-02 -6.2031769752502441e-01</leafValues></_>
    <_>
      <internalNodes>
        0 -1 4232 -3.5755877615883946e-04</internalNodes>
      <leafValues>
        2.0949174463748932e-01 -2.2851240634918213e-01</leafValues></_>
    <_>
      <internalNodes>
        0 -1 4194 -1.7156736925244331e-02</internalNodes>
      <leafValues>
        -7.0327436923980713e-01 7.2597734630107880e-02</leafValues></_>
    <_>
      <internalNodes>
        0 -1 4830 -1.3651555404067039e-02</internalNodes>
      <leafValues>
        -6.2116408348083496e-01 6.5182112157344818e-02</leafValues></_>
    <_>
      <internalNodes>
        0 -1 3456 3.2336685806512833e-02</internalNodes>
      <leafValues>
        -1.1705928295850754e-01 3.9277574419975281e-01</leafValues></_>
    <_>
      <internalNodes>
        0 -1 2989 -1.2958216667175293e-01</internalNodes>
      <leafValues>
        6.8557643890380859e-01 -5.7826571166515350e-02</leafValues></_>
    <_>
      <internalNodes>
        0 -1 4334 2.6291963877156377e-04</internalNodes>
      <leafValues>
        -1.4288851618766785e-01 2.7891230583190918e-01</leafValues></_>
    <_>
      <internalNodes>
        0 -1 640 6.3179373741149902e-02</internalNodes>
      <leafValues>
        5.6801483035087585e-02 -8.3603847026824951e-01</leafValues></_>
    <_>
      <internalNodes>
        0 -1 4582 -9.3590170145034790e-03</internalNodes>
      <leafValues>
        -4.7284308075904846e-01 7.0279896259307861e-02</leafValues></_>
    <_>
      <internalNodes>
        0 -1 1727 -9.5301903784275055e-03</internalNodes>
      <leafValues>
        1.4687234163284302e-01 -2.7816119790077209e-01</leafValues></_>
    <_>
      <internalNodes>
        0 -1 4000 -5.3655404597520828e-02</internalNodes>
      <leafValues>
        5.6925350427627563e-01 -8.0063432455062866e-02</leafValues></_>
    <_>
      <internalNodes>
        0 -1 4564 -3.5823346115648746e-04</internalNodes>
      <leafValues>
        2.0918540656566620e-01 -1.7265126109123230e-01</leafValues></_>
    <_>
      <internalNodes>
        0 -1 4840 -1.8313091248273849e-02</internalNodes>
      <leafValues>
        -4.5218434929847717e-01 7.4456535279750824e-02</leafValues></_>
    <_>
      <internalNodes>
        0 -1 360 -1.0312365368008614e-02</internalNodes>
      <leafValues>
        -4.3957334756851196e-01 7.2659209370613098e-02</leafValues></_>
    <_>
      <internalNodes>
        0 -1 657 1.1920711398124695e-01</internalNodes>
      <leafValues>
        -1.4335112273693085e-01 2.4070632457733154e-01</leafValues></_></weakClassifiers></stage9>
</opencv_storage>
