<?xml version="1.0"?>
<opencv_storage>
<stage17>
  <maxWeakCount>100</maxWeakCount>
  <stageThreshold>-1.3765386343002319e+00</stageThreshold>
  <weakClassifiers>
    <_>
      <internalNodes>
        0 -1 2319 -1.7695608735084534e-01</internalNodes>
      <leafValues>
        2.7979797124862671e-01 -2.5816372036933899e-01</leafValues></_>
    <_>
      <internalNodes>
        0 -1 4526 1.1303815990686417e-02</internalNodes>
      <leafValues>
        -1.1401565372943878e-01 3.1954431533813477e-01</leafValues></_>
    <_>
      <internalNodes>
        0 -1 198 -1.0395217686891556e-02</internalNodes>
      <leafValues>
        -3.6360469460487366e-01 2.5077184662222862e-02</leafValues></_>
    <_>
      <internalNodes>
        0 -1 198 1.8521577119827271e-02</internalNodes>
      <leafValues>
        1.3898037374019623e-01 -3.0863055586814880e-01</leafValues></_>
    <_>
      <internalNodes>
        0 -1 962 3.1509101390838623e-02</internalNodes>
      <leafValues>
        -3.4661423414945602e-02 -4.9940860271453857e-01</leafValues></_>
    <_>
      <internalNodes>
        0 -1 552 6.1621999740600586e-01</internalNodes>
      <leafValues>
        -7.3320634663105011e-02 2.4260742962360382e-01</leafValues></_>
    <_>
      <internalNodes>
        0 -1 404 -1.5886472538113594e-02</internalNodes>
      <leafValues>
        3.9067330956459045e-01 -3.6501277238130569e-02</leafValues></_>
    <_>
      <internalNodes>
        0 -1 4988 -1.2937089428305626e-02</internalNodes>
      <leafValues>
        -4.5230570435523987e-01 -1.6377164050936699e-02</leafValues></_>
    <_>
      <internalNodes>
        0 -1 1064 -2.2427514195442200e-02</internalNodes>
      <leafValues>
        -3.7233498692512512e-01 3.6931138485670090e-02</leafValues></_>
    <_>
      <internalNodes>
        0 -1 620 2.5455944705754519e-04</internalNodes>
      <leafValues>
        -9.7256444394588470e-02 1.2102402001619339e-01</leafValues></_>
    <_>
      <internalNodes>
        0 -1 355 2.6721466565504670e-04</internalNodes>
      <leafValues>
        -1.1093892157077789e-01 1.1858965456485748e-01</leafValues></_>
    <_>
      <internalNodes>
        0 -1 252 1.3946652412414551e-01</internalNodes>
      <leafValues>
        -7.0554949343204498e-02 1.8456898629665375e-01</leafValues></_>
    <_>
      <internalNodes>
        0 -1 3309 -1.6256924718618393e-02</internalNodes>
      <leafValues>
        3.6960098147392273e-01 -3.9847385138273239e-02</leafValues></_>
    <_>
      <internalNodes>
        0 -1 805 2.1638686303049326e-04</internalNodes>
      <leafValues>
        -1.1389578878879547e-01 1.3116633892059326e-01</leafValues></_>
    <_>
      <internalNodes>
        0 -1 4402 -9.2343389987945557e-02</internalNodes>
      <leafValues>
        2.5041818618774414e-01 -5.5485446006059647e-02</leafValues></_>
    <_>
      <internalNodes>
        0 -1 2296 5.9345319867134094e-02</internalNodes>
      <leafValues>
        -7.2104968130588531e-02 2.1257248520851135e-01</leafValues></_>
    <_>
      <internalNodes>
        0 -1 4435 1.2782973237335682e-02</internalNodes>
      <leafValues>
        -4.3697565793991089e-02 3.1691899895668030e-01</leafValues></_>
    <_>
      <internalNodes>
        0 -1 1000 -1.2234795838594437e-02</internalNodes>
      <leafValues>
        -3.3567169308662415e-01 3.8889311254024506e-02</leafValues></_>
    <_>
      <internalNodes>
        0 -1 3331 4.3291416019201279e-02</internalNodes>
      <leafValues>
        -1.2985287606716156e-01 1.0282123088836670e-01</leafValues></_>
    <_>
      <internalNodes>
        0 -1 4162 -1.7061298713088036e-03</internalNodes>
      <leafValues>
        1.9344982504844666e-01 -6.7278727889060974e-02</leafValues></_>
    <_>
      <internalNodes>
        0 -1 4998 -1.0294136591255665e-02</internalNodes>
      <leafValues>
        -2.4208261072635651e-01 5.6910887360572815e-02</leafValues></_>
    <_>
      <internalNodes>
        0 -1 5019 -4.8707770183682442e-03</internalNodes>
      <leafValues>
        -3.8172876834869385e-01 2.7921449393033981e-02</leafValues></_>
    <_>
      <internalNodes>
        0 -1 3465 1.3824856281280518e-01</internalNodes>
      <leafValues>
        1.1876144446432590e-02 -7.3607730865478516e-01</leafValues></_>
    <_>
      <internalNodes>
        0 -1 886 -8.8523486629128456e-03</internalNodes>
      <leafValues>
        2.1149989962577820e-01 -5.0825972110033035e-02</leafValues></_>
    <_>
      <internalNodes>
        0 -1 1675 1.1179160792380571e-03</internalNodes>
      <leafValues>
        -1.2786303460597992e-01 1.2926070392131805e-01</leafValues></_>
    <_>
      <internalNodes>
        0 -1 928 -4.0363473817706108e-03</internalNodes>
      <leafValues>
        -2.4567854404449463e-01 4.5628279447555542e-02</leafValues></_>
    <_>
      <internalNodes>
        0 -1 233 -1.3253474235534668e-01</internalNodes>
      <leafValues>
        -7.7211451530456543e-01 1.0721280239522457e-02</leafValues></_>
    <_>
      <internalNodes>
        0 -1 4732 6.0480907559394836e-03</internalNodes>
      <leafValues>
        -5.2053328603506088e-02 2.4053283035755157e-01</leafValues></_>
    <_>
      <internalNodes>
        0 -1 937 2.1438617259263992e-03</internalNodes>
      <leafValues>
        -9.3847520649433136e-02 1.0257286578416824e-01</leafValues></_>
    <_>
      <internalNodes>
        0 -1 960 2.2227261215448380e-02</internalNodes>
      <leafValues>
        2.8715107589960098e-02 -3.6490547657012939e-01</leafValues></_>
    <_>
      <internalNodes>
        0 -1 488 5.4656624794006348e-01</internalNodes>
      <leafValues>
        2.7809260413050652e-02 -3.0107676982879639e-01</leafValues></_>
    <_>
      <internalNodes>
        0 -1 2183 2.1917679905891418e-01</internalNodes>
      <leafValues>
        -1.3084252178668976e-01 1.0311565548181534e-01</leafValues></_>
    <_>
      <internalNodes>
        0 -1 2505 -4.6325638890266418e-02</internalNodes>
      <leafValues>
        3.5470104217529297e-01 -3.2341472804546356e-02</leafValues></_>
    <_>
      <internalNodes>
        0 -1 1997 -1.2835290282964706e-02</internalNodes>
      <leafValues>
        1.9842180609703064e-01 -5.1124710589647293e-02</leafValues></_>
    <_>
      <internalNodes>
        0 -1 113 -1.4703556895256042e-01</internalNodes>
      <leafValues>
        -3.4652805328369141e-01 2.9725957661867142e-02</leafValues></_>
    <_>
      <internalNodes>
        0 -1 740 -7.6615833677351475e-03</internalNodes>
      <leafValues>
        2.2739106416702271e-01 -4.2817238718271255e-02</leafValues></_>
    <_>
      <internalNodes>
        0 -1 1752 -1.5158753376454115e-03</internalNodes>
      <leafValues>
        9.3209221959114075e-02 -1.0278594493865967e-01</leafValues></_>
    <_>
      <internalNodes>
        0 -1 33 8.3225350826978683e-03</internalNodes>
      <leafValues>
        3.2737482339143753e-02 -3.1107276678085327e-01</leafValues></_>
    <_>
      <internalNodes>
        0 -1 4538 -4.6763550490140915e-03</internalNodes>
      <leafValues>
        -1.4485150575637817e-01 5.8555532246828079e-02</leafValues></_>
    <_>
      <internalNodes>
        0 -1 658 5.5974569171667099e-02</internalNodes>
      <leafValues>
        1.9201472401618958e-02 -4.5847254991531372e-01</leafValues></_>
    <_>
      <internalNodes>
        0 -1 3224 -9.4358325004577637e-03</internalNodes>
      <leafValues>
        2.4509076774120331e-01 -3.4650392830371857e-02</leafValues></_>
    <_>
      <internalNodes>
        0 -1 2627 1.2360825203359127e-03</internalNodes>
      <leafValues>
        -8.7078854441642761e-02 1.1935584992170334e-01</leafValues></_>
    <_>
      <internalNodes>
        0 -1 1032 1.1270560324192047e-02</internalNodes>
      <leafValues>
        3.3225569874048233e-02 -3.1933557987213135e-01</leafValues></_>
    <_>
      <internalNodes>
        0 -1 2783 4.9846163392066956e-01</internalNodes>
      <leafValues>
        1.7909310758113861e-02 -4.4293460249900818e-01</leafValues></_>
    <_>
      <internalNodes>
        0 -1 1384 4.2720541357994080e-02</internalNodes>
      <leafValues>
        -4.9852430820465088e-02 1.7021523416042328e-01</leafValues></_>
    <_>
      <internalNodes>
        0 -1 1491 4.1649293154478073e-02</internalNodes>
      <leafValues>
        -9.9797867238521576e-02 8.5887804627418518e-02</leafValues></_>
    <_>
      <internalNodes>
        0 -1 1336 -2.8981704264879227e-02</internalNodes>
      <leafValues>
        -1.0887269675731659e-01 7.8346140682697296e-02</leafValues></_>
    <_>
      <internalNodes>
        0 -1 8 7.4777094414457679e-04</internalNodes>
      <leafValues>
        -8.2473799586296082e-02 1.1491820216178894e-01</leafValues></_>
    <_>
      <internalNodes>
        0 -1 1841 4.1943069547414780e-02</internalNodes>
      <leafValues>
        -8.5895538330078125e-02 1.0604355484247208e-01</leafValues></_>
    <_>
      <internalNodes>
        0 -1 1944 8.5871085524559021e-02</internalNodes>
      <leafValues>
        1.6266684234142303e-01 -5.4832607507705688e-02</leafValues></_>
    <_>
      <internalNodes>
        0 -1 4365 2.7714355383068323e-04</internalNodes>
      <leafValues>
        -1.1073489487171173e-01 8.6888134479522705e-02</leafValues></_>
    <_>
      <internalNodes>
        0 -1 4814 -6.1841318383812904e-03</internalNodes>
      <leafValues>
        -1.8697485327720642e-01 4.8320233821868896e-02</leafValues></_>
    <_>
      <internalNodes>
        0 -1 3880 1.0743044316768646e-02</internalNodes>
      <leafValues>
        -7.8923806548118591e-02 1.0042239725589752e-01</leafValues></_>
    <_>
      <internalNodes>
        0 -1 3048 9.6129551529884338e-03</internalNodes>
      <leafValues>
        -1.1470954120159149e-01 7.2009868919849396e-02</leafValues></_>
    <_>
      <internalNodes>
        0 -1 1683 -1.9212417304515839e-02</internalNodes>
      <leafValues>
        3.3195552229881287e-01 -2.7460325509309769e-02</leafValues></_>
    <_>
      <internalNodes>
        0 -1 4982 -3.9911954663693905e-03</internalNodes>
      <leafValues>
        -2.2085012495517731e-01 3.6786310374736786e-02</leafValues></_>
    <_>
      <internalNodes>
        0 -1 4820 -5.1416009664535522e-03</internalNodes>
      <leafValues>
        -2.3624929785728455e-01 3.6157060414552689e-02</leafValues></_>
    <_>
      <internalNodes>
        0 -1 4421 -2.7059757709503174e-01</internalNodes>
      <leafValues>
        4.3612837791442871e-01 -2.1127993240952492e-02</leafValues></_>
    <_>
      <internalNodes>
        0 -1 376 3.4431286156177521e-02</internalNodes>
      <leafValues>
        1.0957283899188042e-02 -8.1930428743362427e-01</leafValues></_>
    <_>
      <internalNodes>
        0 -1 4569 -3.5637384280562401e-04</internalNodes>
      <leafValues>
        9.5846667885780334e-02 -8.4909662604331970e-02</leafValues></_>
    <_>
      <internalNodes>
        0 -1 764 -1.4330558478832245e-01</internalNodes>
      <leafValues>
        -7.6805651187896729e-01 1.0400672443211079e-02</leafValues></_>
    <_>
      <internalNodes>
        0 -1 1061 7.7135384082794189e-02</internalNodes>
      <leafValues>
        1.7650794982910156e-01 -4.3425384908914566e-02</leafValues></_>
    <_>
      <internalNodes>
        0 -1 2325 9.8214097321033478e-02</internalNodes>
      <leafValues>
        -1.6711063683032990e-01 6.0107059776782990e-02</leafValues></_>
    <_>
      <internalNodes>
        0 -1 2089 -6.6450433805584908e-03</internalNodes>
      <leafValues>
        1.8885457515716553e-01 -4.1062992066144943e-02</leafValues></_>
    <_>
      <internalNodes>
        0 -1 674 -9.6905492246150970e-03</internalNodes>
      <leafValues>
        -1.8335141241550446e-01 4.4812470674514771e-02</leafValues></_>
    <_>
      <internalNodes>
        0 -1 2269 5.3729999065399170e-01</internalNodes>
      <leafValues>
        2.2911287844181061e-02 -3.2488000392913818e-01</leafValues></_>
    <_>
      <internalNodes>
        0 -1 216 -9.9687352776527405e-03</internalNodes>
      <leafValues>
        -2.1324457228183746e-01 3.4969564527273178e-02</leafValues></_>
    <_>
      <internalNodes>
        0 -1 1808 2.9452154412865639e-02</internalNodes>
      <leafValues>
        2.4999422952532768e-02 -2.9865902662277222e-01</leafValues></_>
    <_>
      <internalNodes>
        0 -1 5014 3.1448251684196293e-04</internalNodes>
      <leafValues>
        -8.2206562161445618e-02 8.7507233023643494e-02</leafValues></_>
    <_>
      <internalNodes>
        0 -1 3363 1.3976052403450012e-02</internalNodes>
      <leafValues>
        -4.1489269584417343e-02 1.6886228322982788e-01</leafValues></_>
    <_>
      <internalNodes>
        0 -1 341 1.4696016907691956e-01</internalNodes>
      <leafValues>
        1.0928050614893436e-02 -7.6084047555923462e-01</leafValues></_>
    <_>
      <internalNodes>
        0 -1 4500 1.4152039587497711e-01</internalNodes>
      <leafValues>
        8.6400397121906281e-03 -6.5693449974060059e-01</leafValues></_>
    <_>
      <internalNodes>
        0 -1 76 -1.9228504970669746e-03</internalNodes>
      <leafValues>
        1.0159448534250259e-01 -7.2591118514537811e-02</leafValues></_>
    <_>
      <internalNodes>
        0 -1 2066 1.4054656494408846e-03</internalNodes>
      <leafValues>
        -1.0108729451894760e-01 8.9773975312709808e-02</leafValues></_>
    <_>
      <internalNodes>
        0 -1 3890 -5.5063469335436821e-03</internalNodes>
      <leafValues>
        1.7699730396270752e-01 -4.9090426415205002e-02</leafValues></_>
    <_>
      <internalNodes>
        0 -1 364 1.2382147833704948e-02</internalNodes>
      <leafValues>
        3.4397933632135391e-02 -2.2635404765605927e-01</leafValues></_>
    <_>
      <internalNodes>
        0 -1 1679 4.7548115253448486e-02</internalNodes>
      <leafValues>
        -2.1947283297777176e-02 4.2744651436805725e-01</leafValues></_>
    <_>
      <internalNodes>
        0 -1 308 -5.4018205404281616e-01</internalNodes>
      <leafValues>
        -7.1051442623138428e-01 1.2379110790789127e-02</leafValues></_>
    <_>
      <internalNodes>
        0 -1 4259 2.1783370524644852e-02</internalNodes>
      <leafValues>
        1.4064392074942589e-02 -4.5754823088645935e-01</leafValues></_>
    <_>
      <internalNodes>
        0 -1 960 3.1567364931106567e-04</internalNodes>
      <leafValues>
        -9.1086342930793762e-02 8.4862507879734039e-02</leafValues></_>
    <_>
      <internalNodes>
        0 -1 2604 2.4078008532524109e-01</internalNodes>
      <leafValues>
        -1.7169566825032234e-02 4.1705659031867981e-01</leafValues></_>
    <_>
      <internalNodes>
        0 -1 2557 4.8336206236854196e-04</internalNodes>
      <leafValues>
        -7.9099729657173157e-02 8.6373239755630493e-02</leafValues></_>
    <_>
      <internalNodes>
        0 -1 3768 2.6872716844081879e-02</internalNodes>
      <leafValues>
        -2.8405023738741875e-02 2.8099510073661804e-01</leafValues></_>
    <_>
      <internalNodes>
        0 -1 986 6.3929170370101929e-02</internalNodes>
      <leafValues>
        8.8373487815260887e-03 -6.9247388839721680e-01</leafValues></_>
    <_>
      <internalNodes>
        0 -1 4613 -7.6057426631450653e-02</internalNodes>
      <leafValues>
        -5.6839567422866821e-01 1.0842720977962017e-02</leafValues></_>
    <_>
      <internalNodes>
        0 -1 1520 -1.0403339564800262e-01</internalNodes>
      <leafValues>
        -3.0591672658920288e-01 2.0216723904013634e-02</leafValues></_>
    <_>
      <internalNodes>
        0 -1 3911 -4.3650716543197632e-02</internalNodes>
      <leafValues>
        2.8815111517906189e-01 -2.5881960988044739e-02</leafValues></_>
    <_>
      <internalNodes>
        0 -1 4018 8.5826568305492401e-02</internalNodes>
      <leafValues>
        8.6047239601612091e-03 -7.6272237300872803e-01</leafValues></_>
    <_>
      <internalNodes>
        0 -1 3415 -2.8490115073509514e-04</internalNodes>
      <leafValues>
        8.0477371811866760e-02 -8.5544675588607788e-02</leafValues></_>
    <_>
      <internalNodes>
        0 -1 653 2.3697007447481155e-02</internalNodes>
      <leafValues>
        2.3784616962075233e-02 -3.1788083910942078e-01</leafValues></_>
    <_>
      <internalNodes>
        0 -1 2695 -4.9615234136581421e-02</internalNodes>
      <leafValues>
        3.4427171945571899e-01 -2.2000726312398911e-02</leafValues></_>
    <_>
      <internalNodes>
        0 -1 33 -2.4849608540534973e-02</internalNodes>
      <leafValues>
        6.0658341646194458e-01 -9.8305009305477142e-03</leafValues></_>
    <_>
      <internalNodes>
        0 -1 4252 -1.3050626963376999e-02</internalNodes>
      <leafValues>
        -1.9849380850791931e-01 3.3641058951616287e-02</leafValues></_>
    <_>
      <internalNodes>
        0 -1 3890 3.9839103817939758e-02</internalNodes>
      <leafValues>
        -2.3483617231249809e-02 3.6682698130607605e-01</leafValues></_>
    <_>
      <internalNodes>
        0 -1 1500 -5.0591379404067993e-01</internalNodes>
      <leafValues>
        5.2463960647583008e-01 -1.1695018038153648e-02</leafValues></_>
    <_>
      <internalNodes>
        0 -1 193 1.4551458880305290e-02</internalNodes>
      <leafValues>
        2.6609696447849274e-02 -2.6797804236412048e-01</leafValues></_>
    <_>
      <internalNodes>
        0 -1 1400 -4.7840434126555920e-03</internalNodes>
      <leafValues>
        1.5542611479759216e-01 -4.3434221297502518e-02</leafValues></_>
    <_>
      <internalNodes>
        0 -1 1400 1.0681152343750000e-03</internalNodes>
      <leafValues>
        -9.0483933687210083e-02 9.0231277048587799e-02</leafValues></_>
    <_>
      <internalNodes>
        0 -1 406 7.3719680309295654e-02</internalNodes>
      <leafValues>
        6.5102025866508484e-02 -1.1780086159706116e-01</leafValues></_>
    <_>
      <internalNodes>
        0 -1 3517 -1.4610025286674500e-01</internalNodes>
      <leafValues>
        2.7049058675765991e-01 -3.2049469649791718e-02</leafValues></_></weakClassifiers></stage17>
</opencv_storage>
