<?xml version="1.0"?>
<opencv_storage>
<stage15>
  <maxWeakCount>100</maxWeakCount>
  <stageThreshold>-1.5185272693634033e+00</stageThreshold>
  <weakClassifiers>
    <_>
      <internalNodes>
        0 -1 2318 3.0154955387115479e-01</internalNodes>
      <leafValues>
        -2.9335913062095642e-01 2.3454894125461578e-01</leafValues></_>
    <_>
      <internalNodes>
        0 -1 395 -2.0937021821737289e-02</internalNodes>
      <leafValues>
        3.2048293948173523e-01 -1.2694355845451355e-01</leafValues></_>
    <_>
      <internalNodes>
        0 -1 3189 -2.0828248932957649e-02</internalNodes>
      <leafValues>
        -4.9140235781669617e-01 5.1359709352254868e-02</leafValues></_>
    <_>
      <internalNodes>
        0 -1 861 6.8386375904083252e-02</internalNodes>
      <leafValues>
        9.2337518930435181e-02 -2.8772595524787903e-01</leafValues></_>
    <_>
      <internalNodes>
        0 -1 3727 6.2353126704692841e-03</internalNodes>
      <leafValues>
        -6.4190886914730072e-02 3.4083250164985657e-01</leafValues></_>
    <_>
      <internalNodes>
        0 -1 555 3.1371724605560303e-01</internalNodes>
      <leafValues>
        -1.1235152184963226e-01 2.1538174152374268e-01</leafValues></_>
    <_>
      <internalNodes>
        0 -1 10 9.3322079628705978e-03</internalNodes>
      <leafValues>
        3.5401895642280579e-02 -4.9600335955619812e-01</leafValues></_>
    <_>
      <internalNodes>
        0 -1 15 -8.7637081742286682e-03</internalNodes>
      <leafValues>
        -3.4418410062789917e-01 6.5400011837482452e-02</leafValues></_>
    <_>
      <internalNodes>
        0 -1 4360 1.7702937126159668e-02</internalNodes>
      <leafValues>
        -6.2678791582584381e-02 2.6660418510437012e-01</leafValues></_>
    <_>
      <internalNodes>
        0 -1 2318 3.0205413699150085e-01</internalNodes>
      <leafValues>
        6.3149102032184601e-02 -2.5060811638832092e-01</leafValues></_>
    <_>
      <internalNodes>
        0 -1 1576 1.0141657665371895e-02</internalNodes>
      <leafValues>
        -1.8093498051166534e-01 1.2472602725028992e-01</leafValues></_>
    <_>
      <internalNodes>
        0 -1 746 -2.0794354379177094e-02</internalNodes>
      <leafValues>
        -3.7053516507148743e-01 3.3747963607311249e-02</leafValues></_>
    <_>
      <internalNodes>
        0 -1 13 -7.9224631190299988e-03</internalNodes>
      <leafValues>
        -2.6069894433021545e-01 7.0929400622844696e-02</leafValues></_>
    <_>
      <internalNodes>
        0 -1 960 9.9815202702302486e-05</internalNodes>
      <leafValues>
        -1.4125560224056244e-01 1.0210623592138290e-01</leafValues></_>
    <_>
      <internalNodes>
        0 -1 4985 3.2400176860392094e-03</internalNodes>
      <leafValues>
        4.8012726008892059e-02 -3.5829046368598938e-01</leafValues></_>
    <_>
      <internalNodes>
        0 -1 4848 -8.9012775570154190e-03</internalNodes>
      <leafValues>
        -4.8150622844696045e-01 3.0063332989811897e-02</leafValues></_>
    <_>
      <internalNodes>
        0 -1 3329 4.5167781412601471e-02</internalNodes>
      <leafValues>
        -1.2227462977170944e-01 1.0387787967920303e-01</leafValues></_>
    <_>
      <internalNodes>
        0 -1 3866 -1.1759060434997082e-02</internalNodes>
      <leafValues>
        3.0189946293830872e-01 -3.9814244955778122e-02</leafValues></_>
    <_>
      <internalNodes>
        0 -1 2174 5.5643342435359955e-02</internalNodes>
      <leafValues>
        -9.3063466250896454e-02 1.9963325560092926e-01</leafValues></_>
    <_>
      <internalNodes>
        0 -1 2517 -5.8766929432749748e-03</internalNodes>
      <leafValues>
        1.2027009576559067e-01 -1.3021813333034515e-01</leafValues></_>
    <_>
      <internalNodes>
        0 -1 2740 -1.3886451721191406e-02</internalNodes>
      <leafValues>
        2.7250263094902039e-01 -4.8585437238216400e-02</leafValues></_>
    <_>
      <internalNodes>
        0 -1 1808 2.1863059373572469e-04</internalNodes>
      <leafValues>
        -1.1873653531074524e-01 1.0932561010122299e-01</leafValues></_>
    <_>
      <internalNodes>
        0 -1 4569 -1.4274016022682190e-02</internalNodes>
      <leafValues>
        -5.0777703523635864e-01 3.2713375985622406e-02</leafValues></_>
    <_>
      <internalNodes>
        0 -1 2985 -1.3905650377273560e-01</internalNodes>
      <leafValues>
        3.4369558095932007e-01 -3.9487000554800034e-02</leafValues></_>
    <_>
      <internalNodes>
        0 -1 2767 2.4379890412092209e-02</internalNodes>
      <leafValues>
        -5.0387356430292130e-02 2.4589419364929199e-01</leafValues></_>
    <_>
      <internalNodes>
        0 -1 171 -1.7809872329235077e-01</internalNodes>
      <leafValues>
        -5.7227379083633423e-01 2.1661700680851936e-02</leafValues></_>
    <_>
      <internalNodes>
        0 -1 374 9.5643159002065659e-03</internalNodes>
      <leafValues>
        2.6031324639916420e-02 -3.9442896842956543e-01</leafValues></_>
    <_>
      <internalNodes>
        0 -1 1482 1.0818386450409889e-02</internalNodes>
      <leafValues>
        -1.3352485001087189e-01 8.0328442156314850e-02</leafValues></_>
    <_>
      <internalNodes>
        0 -1 1665 2.5842968374490738e-02</internalNodes>
      <leafValues>
        -9.9706977605819702e-02 1.1963942646980286e-01</leafValues></_>
    <_>
      <internalNodes>
        0 -1 909 -5.4795192554593086e-03</internalNodes>
      <leafValues>
        1.1994956433773041e-01 -8.9361727237701416e-02</leafValues></_>
    <_>
      <internalNodes>
        0 -1 3253 -4.3031007051467896e-01</internalNodes>
      <leafValues>
        -5.3197342157363892e-01 1.3282499276101589e-02</leafValues></_>
    <_>
      <internalNodes>
        0 -1 3525 2.2582529485225677e-01</internalNodes>
      <leafValues>
        -2.2204790264368057e-02 4.5690187811851501e-01</leafValues></_>
    <_>
      <internalNodes>
        0 -1 98 -3.9744600653648376e-01</internalNodes>
      <leafValues>
        -7.8332400321960449e-01 1.1763479560613632e-02</leafValues></_>
    <_>
      <internalNodes>
        0 -1 1623 1.3889592140913010e-02</internalNodes>
      <leafValues>
        -3.9758056402206421e-02 2.5830486416816711e-01</leafValues></_>
    <_>
      <internalNodes>
        0 -1 5014 -1.7374485731124878e-02</internalNodes>
      <leafValues>
        -3.6481878161430359e-01 2.7538858354091644e-02</leafValues></_>
    <_>
      <internalNodes>
        0 -1 4464 -2.1027728915214539e-01</internalNodes>
      <leafValues>
        3.3918336033821106e-01 -2.9606623575091362e-02</leafValues></_>
    <_>
      <internalNodes>
        0 -1 4526 1.4072616584599018e-02</internalNodes>
      <leafValues>
        -5.3989242762327194e-02 2.2592528164386749e-01</leafValues></_>
    <_>
      <internalNodes>
        0 -1 4990 -9.0537145733833313e-03</internalNodes>
      <leafValues>
        -2.0921024680137634e-01 4.8596199601888657e-02</leafValues></_>
    <_>
      <internalNodes>
        0 -1 3720 -6.4872289076447487e-03</internalNodes>
      <leafValues>
        5.7186119258403778e-02 -1.6367106139659882e-01</leafValues></_>
    <_>
      <internalNodes>
        0 -1 4998 2.1347325295209885e-02</internalNodes>
      <leafValues>
        3.4277200698852539e-02 -2.7731010317802429e-01</leafValues></_>
    <_>
      <internalNodes>
        0 -1 5014 3.1448251684196293e-04</internalNodes>
      <leafValues>
        -9.7071237862110138e-02 1.0053708404302597e-01</leafValues></_>
    <_>
      <internalNodes>
        0 -1 5003 9.2530890833586454e-04</internalNodes>
      <leafValues>
        -8.3254203200340271e-02 1.1626736074686050e-01</leafValues></_>
    <_>
      <internalNodes>
        0 -1 2712 4.2779818177223206e-02</internalNodes>
      <leafValues>
        1.6327871009707451e-02 -4.6628519892692566e-01</leafValues></_>
    <_>
      <internalNodes>
        0 -1 4398 -7.8385889530181885e-02</internalNodes>
      <leafValues>
        2.6095187664031982e-01 -3.4757714718580246e-02</leafValues></_>
    <_>
      <internalNodes>
        0 -1 1900 3.0087854247540236e-04</internalNodes>
      <leafValues>
        -9.2864364385604858e-02 9.3161143362522125e-02</leafValues></_>
    <_>
      <internalNodes>
        0 -1 3224 -9.9408570677042007e-03</internalNodes>
      <leafValues>
        3.0392760038375854e-01 -3.7023968994617462e-02</leafValues></_>
    <_>
      <internalNodes>
        0 -1 3334 2.3444608086720109e-04</internalNodes>
      <leafValues>
        -8.0362968146800995e-02 1.0082588344812393e-01</leafValues></_>
    <_>
      <internalNodes>
        0 -1 1985 5.7282007765024900e-04</internalNodes>
      <leafValues>
        -9.4442069530487061e-02 1.0738072544336319e-01</leafValues></_>
    <_>
      <internalNodes>
        0 -1 968 -2.7501194272190332e-03</internalNodes>
      <leafValues>
        -2.0903448760509491e-01 4.3532378971576691e-02</leafValues></_>
    <_>
      <internalNodes>
        0 -1 161 2.3447131738066673e-02</internalNodes>
      <leafValues>
        3.1896632164716721e-02 -2.3986829817295074e-01</leafValues></_>
    <_>
      <internalNodes>
        0 -1 1234 1.4095497317612171e-03</internalNodes>
      <leafValues>
        -1.0232985019683838e-01 9.1686442494392395e-02</leafValues></_>
    <_>
      <internalNodes>
        0 -1 3261 -4.0674913674592972e-02</internalNodes>
      <leafValues>
        2.5314423441886902e-01 -3.2836690545082092e-02</leafValues></_>
    <_>
      <internalNodes>
        0 -1 1205 -2.9734227061271667e-01</internalNodes>
      <leafValues>
        -7.3138302564620972e-01 8.2545476034283638e-03</leafValues></_>
    <_>
      <internalNodes>
        0 -1 3537 7.8346040099859238e-03</internalNodes>
      <leafValues>
        -4.6057097613811493e-02 1.8574665486812592e-01</leafValues></_>
    <_>
      <internalNodes>
        0 -1 4582 -6.1176409944891930e-03</internalNodes>
      <leafValues>
        -2.1029315888881683e-01 4.4744309037923813e-02</leafValues></_>
    <_>
      <internalNodes>
        0 -1 4870 4.6825082972645760e-03</internalNodes>
      <leafValues>
        5.7491574436426163e-02 -1.4554379880428314e-01</leafValues></_>
    <_>
      <internalNodes>
        0 -1 4893 -1.0296843945980072e-02</internalNodes>
      <leafValues>
        -2.0697727799415588e-01 3.9842560887336731e-02</leafValues></_>
    <_>
      <internalNodes>
        0 -1 4639 -7.8957185149192810e-02</internalNodes>
      <leafValues>
        3.8676717877388000e-01 -2.4044649675488472e-02</leafValues></_>
    <_>
      <internalNodes>
        0 -1 76 -1.8711953889578581e-03</internalNodes>
      <leafValues>
        1.0556555539369583e-01 -7.6916426420211792e-02</leafValues></_>
    <_>
      <internalNodes>
        0 -1 683 3.8962745666503906e-01</internalNodes>
      <leafValues>
        -3.0108235776424408e-02 3.2466560602188110e-01</leafValues></_>
    <_>
      <internalNodes>
        0 -1 4617 2.0819181576371193e-02</internalNodes>
      <leafValues>
        7.2561301290988922e-02 -1.2089516222476959e-01</leafValues></_>
    <_>
      <internalNodes>
        0 -1 1609 4.5442592818289995e-04</internalNodes>
      <leafValues>
        -1.2233137339353561e-01 8.2296982407569885e-02</leafValues></_>
    <_>
      <internalNodes>
        0 -1 727 3.5144863650202751e-03</internalNodes>
      <leafValues>
        -4.7267135232686996e-02 1.6997145116329193e-01</leafValues></_>
    <_>
      <internalNodes>
        0 -1 620 -6.5257996320724487e-03</internalNodes>
      <leafValues>
        -1.8570493161678314e-01 4.5440483838319778e-02</leafValues></_>
    <_>
      <internalNodes>
        0 -1 3145 5.3676489740610123e-02</internalNodes>
      <leafValues>
        9.7663849592208862e-03 -7.3526418209075928e-01</leafValues></_>
    <_>
      <internalNodes>
        0 -1 4334 4.5372070744633675e-03</internalNodes>
      <leafValues>
        -4.0637556463479996e-02 1.9464591145515442e-01</leafValues></_>
    <_>
      <internalNodes>
        0 -1 1263 1.0007763653993607e-01</internalNodes>
      <leafValues>
        1.7155600711703300e-02 -5.0941264629364014e-01</leafValues></_>
    <_>
      <internalNodes>
        0 -1 3916 9.6001185011118650e-04</internalNodes>
      <leafValues>
        -9.0594843029975891e-02 8.6171582341194153e-02</leafValues></_>
    <_>
      <internalNodes>
        0 -1 887 -1.9060036167502403e-02</internalNodes>
      <leafValues>
        -4.7064554691314697e-01 1.8108777701854706e-02</leafValues></_>
    <_>
      <internalNodes>
        0 -1 2130 3.8849514722824097e-01</internalNodes>
      <leafValues>
        5.7757813483476639e-03 -8.1621491909027100e-01</leafValues></_>
    <_>
      <internalNodes>
        0 -1 2104 1.5865342319011688e-01</internalNodes>
      <leafValues>
        1.0502717457711697e-02 -5.5277818441390991e-01</leafValues></_>
    <_>
      <internalNodes>
        0 -1 2830 2.4937450885772705e-01</internalNodes>
      <leafValues>
        -1.5583998523652554e-02 5.2145665884017944e-01</leafValues></_>
    <_>
      <internalNodes>
        0 -1 1541 7.3557961732149124e-03</internalNodes>
      <leafValues>
        -1.2770819664001465e-01 5.9250459074974060e-02</leafValues></_>
    <_>
      <internalNodes>
        0 -1 1931 -1.2131565250456333e-02</internalNodes>
      <leafValues>
        -1.3343027234077454e-01 5.9956409037113190e-02</leafValues></_>
    <_>
      <internalNodes>
        0 -1 2734 -1.0211808979511261e-01</internalNodes>
      <leafValues>
        1.5783691406250000e-01 -4.4553320854902267e-02</leafValues></_>
    <_>
      <internalNodes>
        0 -1 3806 2.5819964706897736e-02</internalNodes>
      <leafValues>
        -6.3530258834362030e-02 1.0874600708484650e-01</leafValues></_>
    <_>
      <internalNodes>
        0 -1 422 6.0600775480270386e-01</internalNodes>
      <leafValues>
        -5.7436060160398483e-02 1.4519694447517395e-01</leafValues></_>
    <_>
      <internalNodes>
        0 -1 886 -1.0362729430198669e-02</internalNodes>
      <leafValues>
        1.9510918855667114e-01 -3.3716790378093719e-02</leafValues></_>
    <_>
      <internalNodes>
        0 -1 1748 1.3160516973584890e-03</internalNodes>
      <leafValues>
        -9.6615858376026154e-02 8.1868819892406464e-02</leafValues></_>
    <_>
      <internalNodes>
        0 -1 2758 -4.8737254738807678e-01</internalNodes>
      <leafValues>
        -3.4365540742874146e-01 2.2243386134505272e-02</leafValues></_>
    <_>
      <internalNodes>
        0 -1 1370 -3.6734181642532349e-01</internalNodes>
      <leafValues>
        2.7630439400672913e-01 -2.6506802067160606e-02</leafValues></_>
    <_>
      <internalNodes>
        0 -1 2361 -2.8592976927757263e-01</internalNodes>
      <leafValues>
        -2.9115554690361023e-01 2.7918191626667976e-02</leafValues></_>
    <_>
      <internalNodes>
        0 -1 4094 -2.2641036659479141e-02</internalNodes>
      <leafValues>
        1.5860563516616821e-01 -4.8568565398454666e-02</leafValues></_>
    <_>
      <internalNodes>
        0 -1 4170 4.4542875140905380e-02</internalNodes>
      <leafValues>
        -2.7984909713268280e-02 2.8866732120513916e-01</leafValues></_>
    <_>
      <internalNodes>
        0 -1 4538 -2.7013258077204227e-03</internalNodes>
      <leafValues>
        -1.1476925015449524e-01 6.7651629447937012e-02</leafValues></_>
    <_>
      <internalNodes>
        0 -1 4946 -3.4709438681602478e-02</internalNodes>
      <leafValues>
        6.5419077873229980e-01 -1.0485877282917500e-02</leafValues></_>
    <_>
      <internalNodes>
        0 -1 3829 2.8913611173629761e-01</internalNodes>
      <leafValues>
        -9.6030989661812782e-03 6.1678832769393921e-01</leafValues></_>
    <_>
      <internalNodes>
        0 -1 3767 9.1724097728729248e-02</internalNodes>
      <leafValues>
        9.8397862166166306e-03 -8.4753161668777466e-01</leafValues></_>
    <_>
      <internalNodes>
        0 -1 4906 4.0460890159010887e-03</internalNodes>
      <leafValues>
        -6.4249642193317413e-02 9.4065353274345398e-02</leafValues></_>
    <_>
      <internalNodes>
        0 -1 4504 8.6569830775260925e-02</internalNodes>
      <leafValues>
        8.7094493210315704e-03 -6.4241999387741089e-01</leafValues></_>
    <_>
      <internalNodes>
        0 -1 4409 -1.5164066106081009e-02</internalNodes>
      <leafValues>
        2.5488746166229248e-01 -2.6769926771521568e-02</leafValues></_>
    <_>
      <internalNodes>
        0 -1 4556 -2.5477574672549963e-04</internalNodes>
      <leafValues>
        9.1001376509666443e-02 -7.3856249451637268e-02</leafValues></_>
    <_>
      <internalNodes>
        0 -1 4760 3.1450547277927399e-02</internalNodes>
      <leafValues>
        3.7334661930799484e-02 -1.9922494888305664e-01</leafValues></_>
    <_>
      <internalNodes>
        0 -1 1445 -2.1622687578201294e-02</internalNodes>
      <leafValues>
        -1.6252928972244263e-01 4.2373940348625183e-02</leafValues></_>
    <_>
      <internalNodes>
        0 -1 2106 -1.0633788071572781e-02</internalNodes>
      <leafValues>
        1.8948113918304443e-01 -3.7438686937093735e-02</leafValues></_>
    <_>
      <internalNodes>
        0 -1 1845 -1.7747260630130768e-02</internalNodes>
      <leafValues>
        -2.6868861913681030e-01 2.3547364398837090e-02</leafValues></_>
    <_>
      <internalNodes>
        0 -1 3441 2.2474384307861328e-01</internalNodes>
      <leafValues>
        -1.0492936708033085e-02 6.3619375228881836e-01</leafValues></_>
    <_>
      <internalNodes>
        0 -1 3047 7.8212516382336617e-03</internalNodes>
      <leafValues>
        -1.0890706628561020e-01 7.1293830871582031e-02</leafValues></_>
    <_>
      <internalNodes>
        0 -1 4045 8.8600238086655736e-04</internalNodes>
      <leafValues>
        8.9470647275447845e-02 -8.5679352283477783e-02</leafValues></_>
    <_>
      <internalNodes>
        0 -1 438 -1.7552842199802399e-01</internalNodes>
      <leafValues>
        -1.3277611136436462e-01 5.8931238949298859e-02</leafValues></_></weakClassifiers></stage15>
</opencv_storage>
