<?xml version="1.0"?>
<opencv_storage>
<stage2>
  <maxWeakCount>8</maxWeakCount>
  <stageThreshold>-1.6024062633514404e+00</stageThreshold>
  <weakClassifiers>
    <_>
      <internalNodes>
        0 -1 2318 1.4316368103027344e-01</internalNodes>
      <leafValues>
        -6.0508519411087036e-01 6.3061565160751343e-01</leafValues></_>
    <_>
      <internalNodes>
        0 -1 2784 2.1207371726632118e-02</internalNodes>
      <leafValues>
        -5.7577067613601685e-01 3.5908138751983643e-01</leafValues></_>
    <_>
      <internalNodes>
        0 -1 99 1.7724867910146713e-02</internalNodes>
      <leafValues>
        1.7324520647525787e-01 -7.1021759510040283e-01</leafValues></_>
    <_>
      <internalNodes>
        0 -1 66 -1.5906609594821930e-02</internalNodes>
      <leafValues>
        -7.6905822753906250e-01 1.6287562251091003e-01</leafValues></_>
    <_>
      <internalNodes>
        0 -1 709 -6.7428732290863991e-04</internalNodes>
      <leafValues>
        2.6123407483100891e-01 -5.2604389190673828e-01</leafValues></_>
    <_>
      <internalNodes>
        0 -1 2885 -2.6200996944680810e-04</internalNodes>
      <leafValues>
        4.3460181355476379e-01 -2.8912922739982605e-01</leafValues></_>
    <_>
      <internalNodes>
        0 -1 2885 2.9867340344935656e-04</internalNodes>
      <leafValues>
        -3.1950375437736511e-01 4.1272628307342529e-01</leafValues></_>
    <_>
      <internalNodes>
        0 -1 4998 2.1393354982137680e-02</internalNodes>
      <leafValues>
        1.8655945360660553e-01 -7.0746231079101562e-01</leafValues></_></weakClassifiers></stage2>
</opencv_storage>
