<?xml version="1.0"?>
<opencv_storage>
<stage12>
  <maxWeakCount>100</maxWeakCount>
  <stageThreshold>-1.5086668729782104e+00</stageThreshold>
  <weakClassifiers>
    <_>
      <internalNodes>
        0 -1 2318 1.9246099889278412e-01</internalNodes>
      <leafValues>
        -4.1769316792488098e-01 1.5101289749145508e-01</leafValues></_>
    <_>
      <internalNodes>
        0 -1 3771 -3.2166596502065659e-02</internalNodes>
      <leafValues>
        -4.5968109369277954e-01 7.6708167791366577e-02</leafValues></_>
    <_>
      <internalNodes>
        0 -1 4159 6.3595967367291451e-03</internalNodes>
      <leafValues>
        -5.3198400884866714e-02 4.1222760081291199e-01</leafValues></_>
    <_>
      <internalNodes>
        0 -1 4877 -7.8329090029001236e-03</internalNodes>
      <leafValues>
        -4.6130192279815674e-01 5.8492805808782578e-02</leafValues></_>
    <_>
      <internalNodes>
        0 -1 130 8.0546975135803223e-02</internalNodes>
      <leafValues>
        7.6381772756576538e-02 -4.6497932076454163e-01</leafValues></_>
    <_>
      <internalNodes>
        0 -1 1876 -1.7955841496586800e-02</internalNodes>
      <leafValues>
        -5.4684996604919434e-01 5.0844028592109680e-02</leafValues></_>
    <_>
      <internalNodes>
        0 -1 4402 -8.6080424487590790e-02</internalNodes>
      <leafValues>
        2.5451719760894775e-01 -1.5050178766250610e-01</leafValues></_>
    <_>
      <internalNodes>
        0 -1 3960 1.4173891395330429e-02</internalNodes>
      <leafValues>
        -2.1804803982377052e-02 3.8930600881576538e-01</leafValues></_>
    <_>
      <internalNodes>
        0 -1 3974 1.0770807275548577e-03</internalNodes>
      <leafValues>
        -2.3971557617187500e-01 9.7573608160018921e-02</leafValues></_>
    <_>
      <internalNodes>
        0 -1 4993 3.3832145854830742e-03</internalNodes>
      <leafValues>
        8.4030024707317352e-02 -4.1769549250602722e-01</leafValues></_>
    <_>
      <internalNodes>
        0 -1 688 4.8359166830778122e-03</internalNodes>
      <leafValues>
        -2.0888341963291168e-01 1.0934733599424362e-01</leafValues></_>
    <_>
      <internalNodes>
        0 -1 731 -1.1289766058325768e-02</internalNodes>
      <leafValues>
        -4.3967837095260620e-01 3.8551393896341324e-02</leafValues></_>
    <_>
      <internalNodes>
        0 -1 13 -8.0194901674985886e-03</internalNodes>
      <leafValues>
        -3.0660438537597656e-01 7.6148174703121185e-02</leafValues></_>
    <_>
      <internalNodes>
        0 -1 4334 5.7885488495230675e-03</internalNodes>
      <leafValues>
        -5.6607034057378769e-02 3.0946964025497437e-01</leafValues></_>
    <_>
      <internalNodes>
        0 -1 4163 -9.7443652339279652e-04</internalNodes>
      <leafValues>
        1.3098046183586121e-01 -1.3446651399135590e-01</leafValues></_>
    <_>
      <internalNodes>
        0 -1 3456 2.5352645665407181e-02</internalNodes>
      <leafValues>
        -8.5857763886451721e-02 2.1997368335723877e-01</leafValues></_>
    <_>
      <internalNodes>
        0 -1 2599 -8.5166003555059433e-03</internalNodes>
      <leafValues>
        2.2845681011676788e-01 -7.9625137150287628e-02</leafValues></_>
    <_>
      <internalNodes>
        0 -1 4265 -1.5719898045063019e-01</internalNodes>
      <leafValues>
        -5.4050689935684204e-01 2.8362939134240150e-02</leafValues></_>
    <_>
      <internalNodes>
        0 -1 1032 1.7774462699890137e-02</internalNodes>
      <leafValues>
        2.9169451445341110e-02 -5.1244091987609863e-01</leafValues></_>
    <_>
      <internalNodes>
        0 -1 937 3.0205881921574473e-04</internalNodes>
      <leafValues>
        -1.3637189567089081e-01 1.2665696442127228e-01</leafValues></_>
    <_>
      <internalNodes>
        0 -1 2993 1.8995842337608337e-01</internalNodes>
      <leafValues>
        -3.8688030093908310e-02 4.6639633178710938e-01</leafValues></_>
    <_>
      <internalNodes>
        0 -1 4742 -4.2162433266639709e-02</internalNodes>
      <leafValues>
        2.8381240367889404e-01 -5.2942741662263870e-02</leafValues></_>
    <_>
      <internalNodes>
        0 -1 2493 -3.2293243566527963e-04</internalNodes>
      <leafValues>
        1.3755150139331818e-01 -1.1877390742301941e-01</leafValues></_>
    <_>
      <internalNodes>
        0 -1 2318 4.1005176305770874e-01</internalNodes>
      <leafValues>
        -3.7390686571598053e-02 4.4115030765533447e-01</leafValues></_>
    <_>
      <internalNodes>
        0 -1 4817 -3.5305107012391090e-03</internalNodes>
      <leafValues>
        -2.8735828399658203e-01 5.3693342953920364e-02</leafValues></_>
    <_>
      <internalNodes>
        0 -1 4815 -2.4451641365885735e-04</internalNodes>
      <leafValues>
        1.7291729152202606e-01 -1.1411058902740479e-01</leafValues></_>
    <_>
      <internalNodes>
        0 -1 4710 1.5697998926043510e-02</internalNodes>
      <leafValues>
        -5.2631132304668427e-02 2.7099102735519409e-01</leafValues></_>
    <_>
      <internalNodes>
        0 -1 3254 -4.0731745958328247e-01</internalNodes>
      <leafValues>
        -7.6674485206604004e-01 1.5163861215114594e-02</leafValues></_>
    <_>
      <internalNodes>
        0 -1 2828 -2.5179487466812134e-01</internalNodes>
      <leafValues>
        5.5945044755935669e-01 -2.8970610350370407e-02</leafValues></_>
    <_>
      <internalNodes>
        0 -1 193 1.5704881399869919e-02</internalNodes>
      <leafValues>
        4.4207245111465454e-02 -3.2865905761718750e-01</leafValues></_>
    <_>
      <internalNodes>
        0 -1 2481 2.9546834528446198e-02</internalNodes>
      <leafValues>
        -6.2966883182525635e-02 2.2334101796150208e-01</leafValues></_>
    <_>
      <internalNodes>
        0 -1 4969 2.0878382027149200e-02</internalNodes>
      <leafValues>
        2.7054352685809135e-02 -5.5877125263214111e-01</leafValues></_>
    <_>
      <internalNodes>
        0 -1 1718 -9.0407412499189377e-03</internalNodes>
      <leafValues>
        7.5019516050815582e-02 -1.6391639411449432e-01</leafValues></_>
    <_>
      <internalNodes>
        0 -1 3535 -3.3568568527698517e-02</internalNodes>
      <leafValues>
        3.8072195649147034e-01 -3.5131301730871201e-02</leafValues></_>
    <_>
      <internalNodes>
        0 -1 598 4.5955147594213486e-02</internalNodes>
      <leafValues>
        -1.0040113329887390e-01 1.6053685545921326e-01</leafValues></_>
    <_>
      <internalNodes>
        0 -1 3777 -2.9328564414754510e-04</internalNodes>
      <leafValues>
        1.1111915856599808e-01 -1.1600978672504425e-01</leafValues></_>
    <_>
      <internalNodes>
        0 -1 3382 1.6549251973628998e-02</internalNodes>
      <leafValues>
        -5.8265149593353271e-02 2.1890740096569061e-01</leafValues></_>
    <_>
      <internalNodes>
        0 -1 4969 -7.3912157677114010e-03</internalNodes>
      <leafValues>
        -2.5744092464447021e-01 5.4094977676868439e-02</leafValues></_>
    <_>
      <internalNodes>
        0 -1 1456 -3.6647373437881470e-01</internalNodes>
      <leafValues>
        -8.3570039272308350e-01 1.0490259155631065e-02</leafValues></_>
    <_>
      <internalNodes>
        0 -1 349 -4.6113748103380203e-03</internalNodes>
      <leafValues>
        -2.6266399025917053e-01 4.0933270007371902e-02</leafValues></_>
    <_>
      <internalNodes>
        0 -1 1806 7.5467661023139954e-02</internalNodes>
      <leafValues>
        1.0883043520152569e-02 -8.4605723619461060e-01</leafValues></_>
    <_>
      <internalNodes>
        0 -1 74 -1.1225625872612000e-01</internalNodes>
      <leafValues>
        -4.5154348015785217e-01 2.0916186273097992e-02</leafValues></_>
    <_>
      <internalNodes>
        0 -1 3172 8.4375329315662384e-03</internalNodes>
      <leafValues>
        -4.9454588443040848e-02 2.2345234453678131e-01</leafValues></_>
    <_>
      <internalNodes>
        0 -1 2457 1.3526326045393944e-02</internalNodes>
      <leafValues>
        -5.5727809667587280e-02 1.9699890911579132e-01</leafValues></_>
    <_>
      <internalNodes>
        0 -1 553 3.1084382534027100e-01</internalNodes>
      <leafValues>
        -6.6776320338249207e-02 1.8625447154045105e-01</leafValues></_>
    <_>
      <internalNodes>
        0 -1 3880 9.1700302436947823e-03</internalNodes>
      <leafValues>
        -9.0548068284988403e-02 1.2141190469264984e-01</leafValues></_>
    <_>
      <internalNodes>
        0 -1 4577 -8.4752645343542099e-03</internalNodes>
      <leafValues>
        -3.2212468981742859e-01 3.8945171982049942e-02</leafValues></_>
    <_>
      <internalNodes>
        0 -1 4582 2.8965674340724945e-02</internalNodes>
      <leafValues>
        1.6648476943373680e-02 -5.7839262485504150e-01</leafValues></_>
    <_>
      <internalNodes>
        0 -1 4064 1.9001491367816925e-02</internalNodes>
      <leafValues>
        -3.7421926856040955e-02 3.4420999884605408e-01</leafValues></_>
    <_>
      <internalNodes>
        0 -1 3583 1.7171246930956841e-02</internalNodes>
      <leafValues>
        -1.3966704905033112e-01 9.9247165024280548e-02</leafValues></_>
    <_>
      <internalNodes>
        0 -1 950 -1.7067711800336838e-02</internalNodes>
      <leafValues>
        -2.4656105041503906e-01 4.3238028883934021e-02</leafValues></_>
    <_>
      <internalNodes>
        0 -1 3048 7.3961671441793442e-03</internalNodes>
      <leafValues>
        -1.3394725322723389e-01 8.6340889334678650e-02</leafValues></_>
    <_>
      <internalNodes>
        0 -1 2318 1.9087561964988708e-01</internalNodes>
      <leafValues>
        1.0355176776647568e-01 -1.3662430644035339e-01</leafValues></_>
    <_>
      <internalNodes>
        0 -1 3525 1.7889139056205750e-01</internalNodes>
      <leafValues>
        -3.9649903774261475e-02 3.5697776079177856e-01</leafValues></_>
    <_>
      <internalNodes>
        0 -1 4242 -2.4780049920082092e-01</internalNodes>
      <leafValues>
        6.1891454458236694e-01 -1.9603416323661804e-02</leafValues></_>
    <_>
      <internalNodes>
        0 -1 1134 2.9636381077580154e-04</internalNodes>
      <leafValues>
        -9.2565894126892090e-02 1.2298360466957092e-01</leafValues></_>
    <_>
      <internalNodes>
        0 -1 516 -7.6703084632754326e-03</internalNodes>
      <leafValues>
        -2.6046368479728699e-01 3.7769746035337448e-02</leafValues></_>
    <_>
      <internalNodes>
        0 -1 1647 1.4580186456441879e-02</internalNodes>
      <leafValues>
        -8.3848260343074799e-02 1.2713760137557983e-01</leafValues></_>
    <_>
      <internalNodes>
        0 -1 2759 -2.1204069256782532e-02</internalNodes>
      <leafValues>
        2.4656304717063904e-01 -4.1736286133527756e-02</leafValues></_>
    <_>
      <internalNodes>
        0 -1 2711 3.1393390963785350e-04</internalNodes>
      <leafValues>
        -1.3182087242603302e-01 1.2014408409595490e-01</leafValues></_>
    <_>
      <internalNodes>
        0 -1 4978 -3.1101135537028313e-03</internalNodes>
      <leafValues>
        -1.8286608159542084e-01 5.7477105408906937e-02</leafValues></_>
    <_>
      <internalNodes>
        0 -1 1670 -5.0302785821259022e-03</internalNodes>
      <leafValues>
        2.4654297530651093e-01 -4.1347648948431015e-02</leafValues></_>
    <_>
      <internalNodes>
        0 -1 829 -7.8889757394790649e-02</internalNodes>
      <leafValues>
        -5.4064822196960449e-01 2.0836802199482918e-02</leafValues></_>
    <_>
      <internalNodes>
        0 -1 482 1.1104962229728699e-01</internalNodes>
      <leafValues>
        -1.5385542809963226e-01 6.6174387931823730e-02</leafValues></_>
    <_>
      <internalNodes>
        0 -1 1885 -6.3589862547814846e-03</internalNodes>
      <leafValues>
        2.1633888781070709e-01 -5.0774157047271729e-02</leafValues></_>
    <_>
      <internalNodes>
        0 -1 2676 -3.6426877975463867e-01</internalNodes>
      <leafValues>
        -4.4635170698165894e-01 2.2635951638221741e-02</leafValues></_>
    <_>
      <internalNodes>
        0 -1 4933 2.7372280601412058e-04</internalNodes>
      <leafValues>
        -9.6564747393131256e-02 1.0948798060417175e-01</leafValues></_>
    <_>
      <internalNodes>
        0 -1 1913 1.9445487856864929e-01</internalNodes>
      <leafValues>
        2.3064497858285904e-02 -4.3309968709945679e-01</leafValues></_>
    <_>
      <internalNodes>
        0 -1 1686 4.2382098734378815e-02</internalNodes>
      <leafValues>
        1.1928621679544449e-02 -6.8506664037704468e-01</leafValues></_>
    <_>
      <internalNodes>
        0 -1 3185 1.2240336276590824e-02</internalNodes>
      <leafValues>
        1.3499483466148376e-02 -5.9471750259399414e-01</leafValues></_>
    <_>
      <internalNodes>
        0 -1 1881 3.2838404178619385e-02</internalNodes>
      <leafValues>
        6.1517033725976944e-02 -1.4202472567558289e-01</leafValues></_>
    <_>
      <internalNodes>
        0 -1 3840 -1.3674320280551910e-01</internalNodes>
      <leafValues>
        -6.1767506599426270e-01 1.3468760997056961e-02</leafValues></_>
    <_>
      <internalNodes>
        0 -1 42 9.2150047421455383e-02</internalNodes>
      <leafValues>
        -2.1975096315145493e-02 4.5575883984565735e-01</leafValues></_>
    <_>
      <internalNodes>
        0 -1 4739 1.7781928181648254e-02</internalNodes>
      <leafValues>
        -3.0673338100314140e-02 2.7790379524230957e-01</leafValues></_>
    <_>
      <internalNodes>
        0 -1 4755 2.2816039621829987e-02</internalNodes>
      <leafValues>
        4.6076860278844833e-02 -1.9293230772018433e-01</leafValues></_>
    <_>
      <internalNodes>
        0 -1 4526 -8.2799568772315979e-02</internalNodes>
      <leafValues>
        2.9905533790588379e-01 -3.9110872894525528e-02</leafValues></_>
    <_>
      <internalNodes>
        0 -1 2964 -2.8826843481510878e-04</internalNodes>
      <leafValues>
        1.0469312965869904e-01 -8.5393399000167847e-02</leafValues></_>
    <_>
      <internalNodes>
        0 -1 1276 2.9222300276160240e-02</internalNodes>
      <leafValues>
        1.7385723069310188e-02 -5.0060063600540161e-01</leafValues></_>
    <_>
      <internalNodes>
        0 -1 68 7.0771627360954881e-04</internalNodes>
      <leafValues>
        -8.5080638527870178e-02 9.1766759753227234e-02</leafValues></_>
    <_>
      <internalNodes>
        0 -1 1000 4.2514540255069733e-02</internalNodes>
      <leafValues>
        1.1916056275367737e-02 -5.9025895595550537e-01</leafValues></_>
    <_>
      <internalNodes>
        0 -1 3829 3.0449354648590088e-01</internalNodes>
      <leafValues>
        -1.3323666527867317e-02 6.9744062423706055e-01</leafValues></_>
    <_>
      <internalNodes>
        0 -1 2898 5.0389129668474197e-02</internalNodes>
      <leafValues>
        -7.3767244815826416e-02 1.1469397693872452e-01</leafValues></_>
    <_>
      <internalNodes>
        0 -1 1513 1.9978551194071770e-02</internalNodes>
      <leafValues>
        -4.8172075301408768e-02 2.0705841481685638e-01</leafValues></_>
    <_>
      <internalNodes>
        0 -1 758 3.0141519382596016e-02</internalNodes>
      <leafValues>
        2.9624002054333687e-02 -2.9324927926063538e-01</leafValues></_>
    <_>
      <internalNodes>
        0 -1 1874 3.8404303789138794e-01</internalNodes>
      <leafValues>
        1.0133134201169014e-02 -6.4140206575393677e-01</leafValues></_>
    <_>
      <internalNodes>
        0 -1 10 6.8759182468056679e-03</internalNodes>
      <leafValues>
        3.1291212886571884e-02 -2.3015247285366058e-01</leafValues></_>
    <_>
      <internalNodes>
        0 -1 361 1.7170647624880075e-03</internalNodes>
      <leafValues>
        -8.1173479557037354e-02 1.0360058397054672e-01</leafValues></_>
    <_>
      <internalNodes>
        0 -1 199 1.1114498600363731e-02</internalNodes>
      <leafValues>
        4.5880105346441269e-02 -1.9594633579254150e-01</leafValues></_>
    <_>
      <internalNodes>
        0 -1 3304 -6.6086687147617340e-03</internalNodes>
      <leafValues>
        2.2696150839328766e-01 -3.7754204124212265e-02</leafValues></_>
    <_>
      <internalNodes>
        0 -1 718 -3.1316703557968140e-01</internalNodes>
      <leafValues>
        -2.9654833674430847e-01 2.6954382658004761e-02</leafValues></_>
    <_>
      <internalNodes>
        0 -1 3729 3.8046317640691996e-03</internalNodes>
      <leafValues>
        -5.2952732890844345e-02 1.7607812583446503e-01</leafValues></_>
    <_>
      <internalNodes>
        0 -1 662 -1.3494893908500671e-01</internalNodes>
      <leafValues>
        -7.1412909030914307e-01 1.2067694216966629e-02</leafValues></_>
    <_>
      <internalNodes>
        0 -1 4980 -3.8856847677379847e-03</internalNodes>
      <leafValues>
        -2.8571459650993347e-01 2.8858186677098274e-02</leafValues></_>
    <_>
      <internalNodes>
        0 -1 1683 -1.5732448548078537e-02</internalNodes>
      <leafValues>
        2.7500918507575989e-01 -3.0456546694040298e-02</leafValues></_>
    <_>
      <internalNodes>
        0 -1 2296 2.2757863625884056e-03</internalNodes>
      <leafValues>
        -1.4742879569530487e-01 6.4403504133224487e-02</leafValues></_>
    <_>
      <internalNodes>
        0 -1 3778 5.6882597506046295e-02</internalNodes>
      <leafValues>
        1.0469526052474976e-02 -8.5781067609786987e-01</leafValues></_>
    <_>
      <internalNodes>
        0 -1 1140 -6.8351095542311668e-03</internalNodes>
      <leafValues>
        -1.4968770742416382e-01 5.1303684711456299e-02</leafValues></_>
    <_>
      <internalNodes>
        0 -1 1786 -4.6086711809039116e-03</internalNodes>
      <leafValues>
        1.3600832223892212e-01 -6.6398762166500092e-02</leafValues></_>
    <_>
      <internalNodes>
        0 -1 586 -4.4233405590057373e-01</internalNodes>
      <leafValues>
        -3.4928947687149048e-01 2.8025558218359947e-02</leafValues></_>
    <_>
      <internalNodes>
        0 -1 4569 -3.5754023701883852e-04</internalNodes>
      <leafValues>
        1.0326422750949860e-01 -9.3014195561408997e-02</leafValues></_></weakClassifiers></stage12>
</opencv_storage>
