<?xml version="1.0"?>
<opencv_storage>
<stage7>
  <maxWeakCount>33</maxWeakCount>
  <stageThreshold>-1.8904213905334473e+00</stageThreshold>
  <weakClassifiers>
    <_>
      <internalNodes>
        0 -1 40 -6291457 -4097 -524289 -1 -89960705 -8434593 -51380225
        -8421377</internalNodes>
      <leafValues>
        -5.8884334564208984e-01 2.1906355023384094e-01</leafValues></_>
    <_>
      <internalNodes>
        0 -1 199 -470816137 -268438409 -815005697 1088939614 -286594322
        -672401413 -86245462 1109126014</internalNodes>
      <leafValues>
        -3.6927613615989685e-01 2.0472656190395355e-01</leafValues></_>
    <_>
      <internalNodes>
        0 -1 111 -570426113 2147374067 -1074790657 1061044222 -269007730
        1073436701 517170653 -257</internalNodes>
      <leafValues>
        -2.2256428003311157e-01 3.4081283211708069e-01</leafValues></_>
    <_>
      <internalNodes>
        0 -1 20 -268765189 -297877976 -201363201 -1117280 1476261804
        -147816 2012639931 -8096589</internalNodes>
      <leafValues>
        -2.3407548666000366e-01 2.8196209669113159e-01</leafValues></_>
    <_>
      <internalNodes>
        0 -1 156 -436951491 -570639245 -537004065 -102400015 -295857927
        -737554 -225124353 -1710750323</internalNodes>
      <leafValues>
        -2.0467850565910339e-01 2.7494868636131287e-01</leafValues></_>
    <_>
      <internalNodes>
        0 -1 17 1741471742 -285933585 -271503380 -364447764 2138455999
        -545292289 1064685307 -3736636</internalNodes>
      <leafValues>
        -4.6497082710266113e-01 1.5219324827194214e-01</leafValues></_>
    <_>
      <internalNodes>
        0 -1 81 -1502139386 -16841025 845807616 -4306710 1351747588
        1902540612 1447298052 -146051554</internalNodes>
      <leafValues>
        -2.6859205961227417e-01 2.3496557772159576e-01</leafValues></_>
    <_>
      <internalNodes>
        0 -1 193 213922594 244340920 1038703954 433616802 1033813943
        118286772 489132281 536820218</internalNodes>
      <leafValues>
        -2.7018505334854126e-01 2.0766390860080719e-01</leafValues></_>
    <_>
      <internalNodes>
        0 -1 152 -1967215836 -2099008529 -520880129 2044196863
        1861958117 -89447233 2035151741 1077923375</internalNodes>
      <leafValues>
        -4.7885417938232422e-01 9.3155555427074432e-02</leafValues></_>
    <_>
      <internalNodes>
        0 -1 201 -1056996274 -219716083 -1284609393 1114427117
        -973484928 -556011997 -93599538 -367466360</internalNodes>
      <leafValues>
        -1.9707441329956055e-01 2.4572336673736572e-01</leafValues></_>
    <_>
      <internalNodes>
        0 -1 80 2034073268 -1311770805 669989886 -288362530 -225606896
        -759521050 582991672 745962236</internalNodes>
      <leafValues>
        -4.3142250180244446e-01 1.0667631030082703e-01</leafValues></_>
    <_>
      <internalNodes>
        0 -1 216 -627077941 -639655953 -2061515540 5237327 -104887608
        -634849795 -352080932 -267391762</internalNodes>
      <leafValues>
        -1.5144328773021698e-01 3.1682536005973816e-01</leafValues></_>
    <_>
      <internalNodes>
        0 -1 61 721103652 1491336699 -170412546 732918065 1748737401
        -2141442 1811130900 184622943</internalNodes>
      <leafValues>
        -5.3919243812561035e-01 8.0457009375095367e-02</leafValues></_>
    <_>
      <internalNodes>
        0 -1 140 -1495388620 -218439810 1810822652 2067412890 1652030197
        108124975 1467994420 2000639930</internalNodes>
      <leafValues>
        -3.2934299111366272e-01 1.2227757275104523e-01</leafValues></_>
    <_>
      <internalNodes>
        0 -1 69 -2107754880 -318993431 -2119294720 -41095504 1178432324
        810987268 1730224640 -150253532</internalNodes>
      <leafValues>
        -2.9179763793945312e-01 1.4052993059158325e-01</leafValues></_>
    <_>
      <internalNodes>
        0 -1 217 804235043 -538462377 -915985633 1139712222 -270540160
        76387678 1533013961 -1026757714</internalNodes>
      <leafValues>
        -1.7544655501842499e-01 2.2636477649211884e-01</leafValues></_>
    <_>
      <internalNodes>
        0 -1 149 1782469940 245669360 661117919 781570245 511016448
        -1969657744 331528956 530311756</internalNodes>
      <leafValues>
        -2.5440555810928345e-01 1.4952567219734192e-01</leafValues></_>
    <_>
      <internalNodes>
        0 -1 3 -955336943 -561498434 -537946117 1563226264 -2059934123
        -74150255 868069923 -10012937</internalNodes>
      <leafValues>
        -1.6105957329273224e-01 2.4091632664203644e-01</leafValues></_>
    <_>
      <internalNodes>
        0 -1 62 -555983964 9924607 1264336864 1291623876 -552076044
        -822509590 -328206348 -838874196</internalNodes>
      <leafValues>
        -5.5802571773529053e-01 7.8185662627220154e-02</leafValues></_>
    <_>
      <internalNodes>
        0 -1 222 -1913673441 254486525 -524043696 159000256 -2360949
        18337675 526360313 -539247414</internalNodes>
      <leafValues>
        -1.5813270211219788e-01 2.5482496619224548e-01</leafValues></_>
    <_>
      <internalNodes>
        0 -1 166 -831902208 -488750061 1448509176 575283982 1130556020
        125411639 1467682804 3158891</internalNodes>
      <leafValues>
        -4.9024671316146851e-01 7.5471930205821991e-02</leafValues></_>
    <_>
      <internalNodes>
        0 -1 78 -1447643624 490484853 1029159762 1811840094 -1761094721
        439812117 52275764 -650215812</internalNodes>
      <leafValues>
        -3.3118700981140137e-01 1.0818006098270416e-01</leafValues></_>
    <_>
      <internalNodes>
        0 -1 96 -15666816 2014425274 -76449007 1973694465 -279595263
        -214147769 -982321493 -619948909</internalNodes>
      <leafValues>
        -1.3105092942714691e-01 2.8825819492340088e-01</leafValues></_>
    <_>
      <internalNodes>
        0 -1 52 -1099366368 -386992651 -120622657 1170069482 -30017040
        -357111304 1894355056 408111876</internalNodes>
      <leafValues>
        -3.8208794593811035e-01 1.0418280214071274e-01</leafValues></_>
    <_>
      <internalNodes>
        0 -1 169 -814779552 1476391421 1090198496 1344905892 -1985389647
        194964075 255766460 -1907492050</internalNodes>
      <leafValues>
        -2.8449803590774536e-01 1.2419512867927551e-01</leafValues></_>
    <_>
      <internalNodes>
        0 -1 198 -1040203553 -51385121 -1394250545 -505454593 -86668159
        -1921600562 -908404024 -82051077</internalNodes>
      <leafValues>
        -8.7465189397335052e-02 4.1150325536727905e-01</leafValues></_>
    <_>
      <internalNodes>
        0 -1 136 -1937854972 -530409154 1543295832 1178115710 -957482380
        1077355947 99553584 305665060</internalNodes>
      <leafValues>
        -4.6927887201309204e-01 7.6534435153007507e-02</leafValues></_>
    <_>
      <internalNodes>
        0 -1 55 539893890 -117479634 1525005649 2122584846 -516066482
        959269729 1902220906 1157926928</internalNodes>
      <leafValues>
        -3.4265410900115967e-01 9.2964582145214081e-02</leafValues></_>
    <_>
      <internalNodes>
        0 -1 120 -125788624 -643867917 1568627197 2119357353 -137187823
        848345077 19396371 -670220137</internalNodes>
      <leafValues>
        -1.6131716966629028e-01 2.1805059909820557e-01</leafValues></_>
    <_>
      <internalNodes>
        0 -1 92 -2038562546 882539513 -1342456576 -1365249557 -216367703
        1599452718 1202284861 1144817456</internalNodes>
      <leafValues>
        -4.0511763095855713e-01 8.1811770796775818e-02</leafValues></_>
    <_>
      <internalNodes>
        0 -1 223 62468131 444771872 -2093593071 76617729 533177735
        185825517 2069229897 1566560159</internalNodes>
      <leafValues>
        -2.0877048373222351e-01 1.6099090874195099e-01</leafValues></_>
    <_>
      <internalNodes>
        0 -1 181 -923104724 -965756173 -205849349 -209727772 -936132356
        -856031243 -252850705 -1072971363</internalNodes>
      <leafValues>
        -1.5724627673625946e-01 2.2463321685791016e-01</leafValues></_>
    <_>
      <internalNodes>
        0 -1 75 -456719969 -624482323 116353908 -545297002 961964027
        856717175 1725277434 -16256766</internalNodes>
      <leafValues>
        -1.2848249077796936e-01 2.6061150431632996e-01</leafValues></_></weakClassifiers></stage7>
</opencv_storage>
