<?xml version="1.0"?>
<opencv_storage>
<stage11>
  <maxWeakCount>73</maxWeakCount>
  <stageThreshold>-1.5577909946441650e+00</stageThreshold>
  <weakClassifiers>
    <_>
      <internalNodes>
        0 -1 40 -791198467 -8418421 -327692801 -1 -157286258 -8960491
        -84871265 -8421505</internalNodes>
      <leafValues>
        -5.3850120306015015e-01 1.3197469711303711e-01</leafValues></_>
    <_>
      <internalNodes>
        0 -1 196 -355480321 -19079429 -287376913 -1380369 -889665848
        -288363540 -892613413 1109642922</internalNodes>
      <leafValues>
        -2.6398366689682007e-01 2.7410671114921570e-01</leafValues></_>
    <_>
      <internalNodes>
        0 -1 12 -13437997 -3474704 -542444555 -2305870 1467939760
        -7869545 1944057595 -2657353</internalNodes>
      <leafValues>
        -1.4182689785957336e-01 3.3879259228706360e-01</leafValues></_>
    <_>
      <internalNodes>
        0 -1 155 266336096 -1778654741 -1079034961 301585131 -1158689803
        -302844165 -739268869 1375600605</internalNodes>
      <leafValues>
        -3.5476234555244446e-01 1.0870293527841568e-01</leafValues></_>
    <_>
      <internalNodes>
        0 -1 222 -1546704837 -2119987362 -139743744 -1887721746
        -1078725221 5146575 -169869605 -536870997</internalNodes>
      <leafValues>
        -1.1066955327987671e-01 2.6313021779060364e-01</leafValues></_>
    <_>
      <internalNodes>
        0 -1 62 -9637980 -878907547 -1513717940 1213779276 -126945284
        -544366673 2085616574 -234881431</internalNodes>
      <leafValues>
        -4.8991054296493530e-01 5.8512147516012192e-02</leafValues></_>
    <_>
      <internalNodes>
        0 -1 32 -536920577 -21029057 2073814799 -9469953 928499149
        -142664324 302864285 -8430737</internalNodes>
      <leafValues>
        -1.0420651733875275e-01 3.0955070257186890e-01</leafValues></_>
    <_>
      <internalNodes>
        0 -1 94 1622976288 1770844593 -188681225 -435556399 -208277063
        -258350607 -782699695 285344082</internalNodes>
      <leafValues>
        -3.3452209830284119e-01 8.5201308131217957e-02</leafValues></_>
    <_>
      <internalNodes>
        0 -1 192 -1943032030 -2121897885 1305477002 10494410 47380468
        204841733 423420396 521903866</internalNodes>
      <leafValues>
        -2.1538436412811279e-01 1.3328264653682709e-01</leafValues></_>
    <_>
      <internalNodes>
        0 -1 111 -2047155518 838759925 -1601368262 1035878398
        -1050721220 1874558493 282280020 -1610678534</internalNodes>
      <leafValues>
        -2.3555329442024231e-01 9.4360306859016418e-02</leafValues></_>
    <_>
      <internalNodes>
        0 -1 84 -1706152194 -61443 1076104496 -243581714 -1183575524
        -111207870 -131063804 -8389684</internalNodes>
      <leafValues>
        -1.1268646270036697e-01 2.4397081136703491e-01</leafValues></_>
    <_>
      <internalNodes>
        0 -1 29 -1936798018 -33231394 -1676540876 2092312670 -1102718467
        -1086964693 1327826940 1796037502</internalNodes>
      <leafValues>
        -4.5722472667694092e-01 4.6192470937967300e-02</leafValues></_>
    <_>
      <internalNodes>
        0 -1 86 -901479840 786489888 -354442370 803726304 415906594
        594067621 1809439604 199184684</internalNodes>
      <leafValues>
        -3.4037861227989197e-01 6.5734073519706726e-02</leafValues></_>
    <_>
      <internalNodes>
        0 -1 224 -149692589 -1890542926 -1343103695 -586458992
        -1378353717 -1918964816 -11015173 -547620897</internalNodes>
      <leafValues>
        -8.1701956689357758e-02 2.6889115571975708e-01</leafValues></_>
    <_>
      <internalNodes>
        0 -1 16 246285994 -1936968270 652124412 1325975583 1597838677
        2136857821 1635588382 206455819</internalNodes>
      <leafValues>
        -5.0293135643005371e-01 3.8257963955402374e-02</leafValues></_>
    <_>
      <internalNodes>
        0 -1 91 -150736621 -80611411 -138438784 -155921465 -9437813
        -1082133629 -138544248 -713374446</internalNodes>
      <leafValues>
        -7.9533562064170837e-02 3.1171709299087524e-01</leafValues></_>
    <_>
      <internalNodes>
        0 -1 196 252199492 -875836164 -427601880 1112107746 1129169027
        -947262655 121659778 -1450657979</internalNodes>
      <leafValues>
        -1.8633693456649780e-01 1.1642884463071823e-01</leafValues></_>
    <_>
      <internalNodes>
        0 -1 220 -1343869689 -1520570440 -1458952662 1074064872
        -78740606 83776982 1875872719 -778392598</internalNodes>
      <leafValues>
        -1.4184232056140900e-01 1.4838038384914398e-01</leafValues></_>
    <_>
      <internalNodes>
        0 -1 88 1982844560 1153337898 113650134 1292905304 -1293017500
        -13363086 207387456 1326255038</internalNodes>
      <leafValues>
        -2.2242461144924164e-01 9.3311518430709839e-02</leafValues></_>
    <_>
      <internalNodes>
        0 -1 157 235277316 -426069759 -1715776466 1457061140 -1400326011
        1607156906 1726736820 1075445806</internalNodes>
      <leafValues>
        -5.0417482852935791e-01 4.1514825075864792e-02</leafValues></_>
    <_>
      <internalNodes>
        0 -1 24 606480392 1351526024 306578984 -542069952 -1488998721
        -730662338 1403352614 935511280</internalNodes>
      <leafValues>
        -1.9000460207462311e-01 1.0270750522613525e-01</leafValues></_>
    <_>
      <internalNodes>
        0 -1 26 1113501231 -355333864 168159261 -1104387325 1929607897
        1396777219 1615155625 -8563309</internalNodes>
      <leafValues>
        -2.3253701627254486e-01 8.8522404432296753e-02</leafValues></_>
    <_>
      <internalNodes>
        0 -1 146 541439349 -180652393 1198382719 -172281857 -1737800701
        -1888009870 125268153 -1625298965</internalNodes>
      <leafValues>
        -7.2554759681224823e-02 2.7737599611282349e-01</leafValues></_>
    <_>
      <internalNodes>
        0 -1 101 581095208 474272688 -750747788 807328764 326401892
        245128287 839090108 1146408932</internalNodes>
      <leafValues>
        -5.7989412546157837e-01 3.3673796802759171e-02</leafValues></_>
    <_>
      <internalNodes>
        0 -1 55 -298905464 -607213688 1538237592 -284743764 -232443068
        -132780181 1363261312 1443254288</internalNodes>
      <leafValues>
        -1.9182066619396210e-01 9.9149018526077271e-02</leafValues></_>
    <_>
      <internalNodes>
        0 -1 173 270090752 1417602504 360910620 1563510804 574230305
        205524907 735132484 202932045</internalNodes>
      <leafValues>
        -3.7188631296157837e-01 4.6744450926780701e-02</leafValues></_>
    <_>
      <internalNodes>
        0 -1 207 111619978 -1516811366 -1964365000 1196519338
        -1637355585 -1933638102 -1755326018 -7614982</internalNodes>
      <leafValues>
        -7.8189708292484283e-02 2.5652223825454712e-01</leafValues></_>
    <_>
      <internalNodes>
        0 -1 172 -1901347070 1475812279 -558775898 319392148 -1880982032
        -1934869615 -80225776 -2004824213</internalNodes>
      <leafValues>
        -2.0566758513450623e-01 9.2741891741752625e-02</leafValues></_>
    <_>
      <internalNodes>
        0 -1 216 -821788030 -848306577 97489644 9301630 -869037880
        437823404 1904822412 1644989644</internalNodes>
      <leafValues>
        -1.6768735647201538e-01 1.1796876788139343e-01</leafValues></_>
    <_>
      <internalNodes>
        0 -1 171 -241245000 2002999240 1708652380 389678742 411247285
        55859337 1014502396 -25366856</internalNodes>
      <leafValues>
        -2.5418365001678467e-01 6.9216839969158173e-02</leafValues></_>
    <_>
      <internalNodes>
        0 -1 87 937119469 1241347679 -1370699553 1969583319 -1280681809
        -1504817960 -1000850092 -815812613</internalNodes>
      <leafValues>
        -8.8132210075855255e-02 2.0018191635608673e-01</leafValues></_>
    <_>
      <internalNodes>
        0 -1 53 -2013783292 1278148605 -372190238 -1476917250 -140878796
        -1225916489 -923731411 -1319513546</internalNodes>
      <leafValues>
        -4.0456542372703552e-01 4.5737463980913162e-02</leafValues></_>
    <_>
      <internalNodes>
        0 -1 193 273180194 -1929675273 1038761587 -1929892313 370080695
        -2017529433 1057470719 -537396865</internalNodes>
      <leafValues>
        -8.3331689238548279e-02 2.4081563949584961e-01</leafValues></_>
    <_>
      <internalNodes>
        0 -1 40 -1526531262 1823627390 1012320802 1853761230 1295247697
        399473534 1879644724 1887732868</internalNodes>
      <leafValues>
        -2.4706643819808960e-01 7.7735804021358490e-02</leafValues></_>
    <_>
      <internalNodes>
        0 -1 102 -480970976 -151589069 -685870954 2131794560 -439749667
        -1221085548 856307088 -1283181260</internalNodes>
      <leafValues>
        -1.3106466829776764e-01 1.4488711953163147e-01</leafValues></_>
    <_>
      <internalNodes>
        0 -1 149 1483695138 247650736 779964375 209977949 341268240
        685071420 101431900 530539212</internalNodes>
      <leafValues>
        -2.1260432898998260e-01 8.4503114223480225e-02</leafValues></_>
    <_>
      <internalNodes>
        0 -1 11 209661530 -771830469 -1342260776 -369721617 -67949059
        -885012505 1072353244 -537985076</internalNodes>
      <leafValues>
        -1.1566340923309326e-01 1.5572157502174377e-01</leafValues></_>
    <_>
      <internalNodes>
        0 -1 51 -233175904 -1468888111 1781246268 1213017054 -1793740367
        -105726391 -1615389387 877460971</internalNodes>
      <leafValues>
        -2.0388795435428619e-01 8.5384465754032135e-02</leafValues></_>
    <_>
      <internalNodes>
        0 -1 219 851587618 -1806160128 1088881201 16655714 1139150657
        311099870 998266192 1113498628</internalNodes>
      <leafValues>
        -2.5448060035705566e-01 6.6194422543048859e-02</leafValues></_>
    <_>
      <internalNodes>
        0 -1 69 -1415667557 -5196311 -1916818134 2131287600 -1044646418
        -1128046707 132720328 -686910400</internalNodes>
      <leafValues>
        -1.0303756594657898e-01 1.7101757228374481e-01</leafValues></_>
    <_>
      <internalNodes>
        0 -1 159 -1964385188 -860918035 -396075942 8485149 -1689154348
        -861408873 2103777520 975003313</internalNodes>
      <leafValues>
        -1.4479151368141174e-01 1.0984393954277039e-01</leafValues></_>
    <_>
      <internalNodes>
        0 -1 67 -394687456 -1647255304 -37914694 -1442828108 821907701
        -101125941 1370749488 676675329</internalNodes>
      <leafValues>
        -2.8728395700454712e-01 5.9205580502748489e-02</leafValues></_>
    <_>
      <internalNodes>
        0 -1 93 2061498929 1391636408 -974096391 710429151 1594986835
        -1404629085 -871114877 -246070069</internalNodes>
      <leafValues>
        -1.1004860699176788e-01 1.5930020809173584e-01</leafValues></_>
    <_>
      <internalNodes>
        0 -1 137 -958625354 -12839673 1005351540 293098994 978796828
        816975079 540621920 231907163</internalNodes>
      <leafValues>
        -2.6851463317871094e-01 6.4305871725082397e-02</leafValues></_>
    <_>
      <internalNodes>
        0 -1 166 -824180769 -755022177 1450409695 1383759706 -1486196779
        1451142967 1467710969 18957627</internalNodes>
      <leafValues>
        -8.5058502852916718e-02 1.9746841490268707e-01</leafValues></_>
    <_>
      <internalNodes>
        0 -1 14 674512552 673057074 1680569908 -1493638917 842785729
        1471176977 806363846 1966390400</internalNodes>
      <leafValues>
        -3.9773055911064148e-01 4.3764200061559677e-02</leafValues></_>
    <_>
      <internalNodes>
        0 -1 195 -1016083473 -874647561 790825118 489543147 -1901679409
        -539033987 -1613308979 -100007985</internalNodes>
      <leafValues>
        -7.4306756258010864e-02 2.3187789320945740e-01</leafValues></_>
    <_>
      <internalNodes>
        0 -1 39 -1106871041 1833463277 184085853 -717562689 -557642
        2067406429 -2046527272 -1118045171</internalNodes>
      <leafValues>
        -9.7437396645545959e-02 1.7107430100440979e-01</leafValues></_>
    <_>
      <internalNodes>
        0 -1 136 67504132 685945975 1270513496 167944030 72088117
        1336327 128140580 320016548</internalNodes>
      <leafValues>
        -5.7818120718002319e-01 2.8401972725987434e-02</leafValues></_>
    <_>
      <internalNodes>
        0 -1 218 2045048046 -113248337 -816881379 32255358 -1091114288
        -934286450 -1959129396 -119870232</internalNodes>
      <leafValues>
        -9.5792956650257111e-02 1.7166827619075775e-01</leafValues></_>
    <_>
      <internalNodes>
        0 -1 153 1092294656 1308413934 -549958389 1144551132 -1865709292
        1576073918 153158993 674555580</internalNodes>
      <leafValues>
        -2.2786013782024384e-01 7.4314482510089874e-02</leafValues></_>
    <_>
      <internalNodes>
        0 -1 139 -776028512 1367622141 1081478000 1150717822 1543781664
        346073643 238124356 1329821424</internalNodes>
      <leafValues>
        -5.2550595998764038e-01 2.8689552098512650e-02</leafValues></_>
    <_>
      <internalNodes>
        0 -1 75 -940111537 -7919770 -1784084070 -10519099 -212942897
        288433990 561254042 -11572470</internalNodes>
      <leafValues>
        -7.1456633508205414e-02 2.3548468947410583e-01</leafValues></_>
    <_>
      <internalNodes>
        0 -1 165 -963032572 1367612924 -776326152 1365593032 707070033
        19180481 954985280 3222436</internalNodes>
      <leafValues>
        -4.8880919814109802e-01 3.2026495784521103e-02</leafValues></_>
    <_>
      <internalNodes>
        0 -1 198 -917658425 1231287253 -1528468030 -925087877 -52788096
        725914316 721098957 -669390903</internalNodes>
      <leafValues>
        -9.8038345575332642e-02 1.6872173547744751e-01</leafValues></_>
    <_>
      <internalNodes>
        0 -1 77 -387650204 750535694 1719597260 -831618014 395786733
        829504091 1345528059 357913431</internalNodes>
      <leafValues>
        -4.7284063696861267e-01 3.4117016941308975e-02</leafValues></_>
    <_>
      <internalNodes>
        0 -1 170 -10499073 368686903 1597489143 329191270 -2046851073
        938145663 1191794431 391870619</internalNodes>
      <leafValues>
        -5.5761061608791351e-02 2.9396364092826843e-01</leafValues></_>
    <_>
      <internalNodes>
        0 -1 176 772080055 157965252 1192720441 490605594 639252652
        -2016320180 777669044 524249944</internalNodes>
      <leafValues>
        -2.1406613290309906e-01 7.6714538037776947e-02</leafValues></_>
    <_>
      <internalNodes>
        0 -1 212 34341408 -1975942276 1124399858 45387330 1279338496
        -345653516 715216420 7792</internalNodes>
      <leafValues>
        -4.3894603848457336e-01 3.4171827137470245e-02</leafValues></_>
    <_>
      <internalNodes>
        0 -1 213 553027265 -372147505 964149912 1639030700 184730000
        1374539643 185336068 689550828</internalNodes>
      <leafValues>
        -1.4721205830574036e-01 1.0928844660520554e-01</leafValues></_>
    <_>
      <internalNodes>
        0 -1 54 -643309729 -778896371 1738231914 -1625313121 -176318869
        500820719 1408545471 -574979538</internalNodes>
      <leafValues>
        -6.8011216819286346e-02 2.3262940347194672e-01</leafValues></_>
    <_>
      <internalNodes>
        0 -1 10 791487165 -898101814 2140808095 999089878 -76176419
        -596166658 1584252813 -223414923</internalNodes>
      <leafValues>
        -1.2447107583284378e-01 1.3586887717247009e-01</leafValues></_>
    <_>
      <internalNodes>
        0 -1 197 1104809056 1056534718 1760183294 1718249342 1185067812
        -776335250 978593346 1113118266</internalNodes>
      <leafValues>
        -2.7151122689247131e-01 5.6557722389698029e-02</leafValues></_>
    <_>
      <internalNodes>
        0 -1 206 2021273217 2100849982 -1155907821 -1234044128
        -1124161857 973012835 -1632436229 -279593985</internalNodes>
      <leafValues>
        -7.0038624107837677e-02 2.2805804014205933e-01</leafValues></_>
    <_>
      <internalNodes>
        0 -1 79 -1666051292 534004209 -952586172 690360682 1485040453
        1226358923 1773603824 38482140</internalNodes>
      <leafValues>
        -5.5488640069961548e-01 2.8724841773509979e-02</leafValues></_>
    <_>
      <internalNodes>
        0 -1 42 1717632509 -138842675 217186968 1372363902 -1542628658
        -351791782 1715105777 1197429591</internalNodes>
      <leafValues>
        -1.1901560425758362e-01 1.2596714496612549e-01</leafValues></_>
    <_>
      <internalNodes>
        0 -1 119 311917746 36875128 367525273 233723674 1156326768
        708797106 1530166836 -565874996</internalNodes>
      <leafValues>
        -1.6542974114418030e-01 9.5754101872444153e-02</leafValues></_>
    <_>
      <internalNodes>
        0 -1 194 2095316699 -1061159231 -1887273353 -58179587
        -1076379819 695871349 59244495 -1618753573</internalNodes>
      <leafValues>
        -7.6217748224735260e-02 2.2114764153957367e-01</leafValues></_>
    <_>
      <internalNodes>
        0 -1 205 690917191 662578482 -2063701898 329133102 80581888
        -2123826369 543263928 -2145619046</internalNodes>
      <leafValues>
        -1.5292109549045563e-01 1.0389017313718796e-01</leafValues></_>
    <_>
      <internalNodes>
        0 -1 70 762254083 -102986569 -960639082 1870032798 -100042833
        -12028299 -180221636 -347108756</internalNodes>
      <leafValues>
        -1.0764746367931366e-01 1.4531271159648895e-01</leafValues></_>
    <_>
      <internalNodes>
        0 -1 138 -462508540 1618630931 -1117240256 828923179 1673057633
        1410707464 -345013984 4582943</internalNodes>
      <leafValues>
        -5.1720124483108521e-01 2.9088038951158524e-02</leafValues></_>
    <_>
      <internalNodes>
        0 -1 224 387448731 -732692543 -1747298759 -1392426151
        -2062549016 -1933640816 2110650682 801832474</internalNodes>
      <leafValues>
        -1.0287600010633469e-01 1.4443445205688477e-01</leafValues></_>
    <_>
      <internalNodes>
        0 -1 47 -423631993 -1964268280 -161227172 1953465774 -149066897
        -80290057 2137467804 -1835687230</internalNodes>
      <leafValues>
        -9.8266623914241791e-02 1.6021807491779327e-01</leafValues></_></weakClassifiers></stage11>
</opencv_storage>
