<?xml version="1.0"?>
<opencv_storage>
<stage1>
  <maxWeakCount>9</maxWeakCount>
  <stageThreshold>-1.8810821771621704e+00</stageThreshold>
  <weakClassifiers>
    <_>
      <internalNodes>
        0 -1 62 -2 -1 -1 -1 -1 -1025 -1 -1</internalNodes>
      <leafValues>
        -8.5089790821075439e-01 5.4978233575820923e-01</leafValues></_>
    <_>
      <internalNodes>
        0 -1 8 -65554 -1 -33554433 -1 -2883585 -264193 -1 -3217</internalNodes>
      <leafValues>
        -6.2352746725082397e-01 4.0120732784271240e-01</leafValues></_>
    <_>
      <internalNodes>
        0 -1 35 -8456194 -235995169 805255546 2147365886 -9078785
        -1082696073 973025848 2139059963</internalNodes>
      <leafValues>
        -5.3596925735473633e-01 2.7084672451019287e-01</leafValues></_>
    <_>
      <internalNodes>
        0 -1 130 -419452124 -169871554 -135544836 -1811939405 -210770963
        -1443123665 -4326402 51350159</internalNodes>
      <leafValues>
        -5.2140808105468750e-01 2.7320840954780579e-01</leafValues></_>
    <_>
      <internalNodes>
        0 -1 140 -285307356 -486869185 2128543612 -231063558 -981467147
        1131773799 2013262772 -209762376</internalNodes>
      <leafValues>
        -4.3758824467658997e-01 3.0686402320861816e-01</leafValues></_>
    <_>
      <internalNodes>
        0 -1 169 -34647688 1442838527 1526690558 1160642478 -1179912779
        347930087 -278612 450887679</internalNodes>
      <leafValues>
        -4.2551991343498230e-01 2.8291377425193787e-01</leafValues></_>
    <_>
      <internalNodes>
        0 -1 13 -287955058 -688986454 -268998161 -5483471 661914391
        2136242663 876621999 1197232870</internalNodes>
      <leafValues>
        -4.9115309119224548e-01 2.3899164795875549e-01</leafValues></_>
    <_>
      <internalNodes>
        0 -1 114 -287888394 1455108095 -1568751876 -38133862 1945581376
        1987195703 1937708820 -10274818</internalNodes>
      <leafValues>
        -3.4759491682052612e-01 3.2822069525718689e-01</leafValues></_>
    <_>
      <internalNodes>
        0 -1 166 -295819772 -494979465 -571179042 -151093414 -1479297228
        394197567 -671887364 -2143676645</internalNodes>
      <leafValues>
        -4.4891810417175293e-01 2.3818264901638031e-01</leafValues></_></weakClassifiers></stage1>
</opencv_storage>
