<?xml version="1.0"?>
<opencv_storage>
<stage14>
  <maxWeakCount>100</maxWeakCount>
  <stageThreshold>-1.5846763849258423e+00</stageThreshold>
  <weakClassifiers>
    <_>
      <internalNodes>
        0 -1 163 3.9968812465667725e-01</internalNodes>
      <leafValues>
        -3.4744897484779358e-01 2.1547618508338928e-01</leafValues></_>
    <_>
      <internalNodes>
        0 -1 68 4.0780477225780487e-02</internalNodes>
      <leafValues>
        8.4286190569400787e-02 -3.9011025428771973e-01</leafValues></_>
    <_>
      <internalNodes>
        0 -1 68 -3.0440092086791992e-02</internalNodes>
      <leafValues>
        -4.2609906196594238e-01 8.0959506332874298e-02</leafValues></_>
    <_>
      <internalNodes>
        0 -1 256 -3.9537481963634491e-02</internalNodes>
      <leafValues>
        -3.0837574601173401e-01 1.3712869584560394e-01</leafValues></_>
    <_>
      <internalNodes>
        0 -1 194 -8.3654391346499324e-04</internalNodes>
      <leafValues>
        1.1286570876836777e-01 -2.3277081549167633e-01</leafValues></_>
    <_>
      <internalNodes>
        0 -1 117 -9.8069712519645691e-02</internalNodes>
      <leafValues>
        -4.5984315872192383e-01 7.9167224466800690e-02</leafValues></_>
    <_>
      <internalNodes>
        0 -1 117 -2.4922552984207869e-03</internalNodes>
      <leafValues>
        1.5847490727901459e-01 -1.7891235649585724e-01</leafValues></_>
    <_>
      <internalNodes>
        0 -1 215 -2.0457947254180908e-01</internalNodes>
      <leafValues>
        -4.2904385924339294e-01 2.6826282963156700e-02</leafValues></_>
    <_>
      <internalNodes>
        0 -1 296 -5.3528882563114166e-02</internalNodes>
      <leafValues>
        -4.5698958635330200e-01 5.1110353320837021e-02</leafValues></_>
    <_>
      <internalNodes>
        0 -1 2 -2.7491807937622070e-02</internalNodes>
      <leafValues>
        -3.1354781985282898e-01 2.6772411540150642e-02</leafValues></_>
    <_>
      <internalNodes>
        0 -1 2 2.9617398977279663e-02</internalNodes>
      <leafValues>
        1.0753709822893143e-01 -2.7797135710716248e-01</leafValues></_>
    <_>
      <internalNodes>
        0 -1 251 2.9323452711105347e-01</internalNodes>
      <leafValues>
        -5.7489033788442612e-02 4.5177930593490601e-01</leafValues></_>
    <_>
      <internalNodes>
        0 -1 296 -1.9476591842249036e-03</internalNodes>
      <leafValues>
        1.6226221621036530e-01 -1.0266865789890289e-01</leafValues></_>
    <_>
      <internalNodes>
        0 -1 296 -1.8079187721014023e-02</internalNodes>
      <leafValues>
        -2.1342475712299347e-01 5.9686478227376938e-02</leafValues></_>
    <_>
      <internalNodes>
        0 -1 291 -3.6552286148071289e-01</internalNodes>
      <leafValues>
        6.6160696744918823e-01 -2.5632994249463081e-02</leafValues></_>
    <_>
      <internalNodes>
        0 -1 37 1.0507265478372574e-01</internalNodes>
      <leafValues>
        5.4752320051193237e-02 -3.6853301525115967e-01</leafValues></_>
    <_>
      <internalNodes>
        0 -1 198 -2.8117692470550537e-01</internalNodes>
      <leafValues>
        2.2512197494506836e-01 -7.0230737328529358e-02</leafValues></_>
    <_>
      <internalNodes>
        0 -1 282 2.2149467468261719e-01</internalNodes>
      <leafValues>
        3.5864487290382385e-02 -3.4525164961814880e-01</leafValues></_>
    <_>
      <internalNodes>
        0 -1 303 -4.9367144703865051e-02</internalNodes>
      <leafValues>
        -3.3286473155021667e-01 4.4052544981241226e-02</leafValues></_>
    <_>
      <internalNodes>
        0 -1 301 1.9846819341182709e-03</internalNodes>
      <leafValues>
        -1.0797430574893951e-01 1.1991876363754272e-01</leafValues></_>
    <_>
      <internalNodes>
        0 -1 298 -2.7122899889945984e-02</internalNodes>
      <leafValues>
        -2.3771749436855316e-01 5.1080755889415741e-02</leafValues></_>
    <_>
      <internalNodes>
        0 -1 117 1.8833398353308439e-03</internalNodes>
      <leafValues>
        -8.6832776665687561e-02 1.5363226830959320e-01</leafValues></_>
    <_>
      <internalNodes>
        0 -1 220 1.9254028797149658e-02</internalNodes>
      <leafValues>
        -6.2932252883911133e-02 2.0229445397853851e-01</leafValues></_>
    <_>
      <internalNodes>
        0 -1 204 -1.3801952823996544e-02</internalNodes>
      <leafValues>
        8.6813420057296753e-02 -2.0722162723541260e-01</leafValues></_>
    <_>
      <internalNodes>
        0 -1 4 3.6826469004154205e-02</internalNodes>
      <leafValues>
        6.1440154910087585e-02 -2.0509582757949829e-01</leafValues></_>
    <_>
      <internalNodes>
        0 -1 163 4.0777260065078735e-01</internalNodes>
      <leafValues>
        5.8838479220867157e-02 -1.8865460157394409e-01</leafValues></_>
    <_>
      <internalNodes>
        0 -1 169 2.8609186410903931e-01</internalNodes>
      <leafValues>
        -1.1192616820335388e-01 1.0375209897756577e-01</leafValues></_>
    <_>
      <internalNodes>
        0 -1 183 6.4506619237363338e-03</internalNodes>
      <leafValues>
        -1.0334078967571259e-01 1.7505283653736115e-01</leafValues></_>
    <_>
      <internalNodes>
        0 -1 298 2.6151228696107864e-02</internalNodes>
      <leafValues>
        6.4570650458335876e-02 -1.8840140104293823e-01</leafValues></_>
    <_>
      <internalNodes>
        0 -1 183 -2.0914860069751740e-03</internalNodes>
      <leafValues>
        9.4903163611888885e-02 -1.2598915398120880e-01</leafValues></_>
    <_>
      <internalNodes>
        0 -1 249 5.2741304039955139e-02</internalNodes>
      <leafValues>
        -5.1690105348825455e-02 2.7124986052513123e-01</leafValues></_>
    <_>
      <internalNodes>
        0 -1 4 2.3655081167817116e-03</internalNodes>
      <leafValues>
        -1.0567922890186310e-01 1.0749537497758865e-01</leafValues></_>
    <_>
      <internalNodes>
        0 -1 79 -9.4270831346511841e-01</internalNodes>
      <leafValues>
        -8.7586259841918945e-01 3.7601063959300518e-03</leafValues></_>
    <_>
      <internalNodes>
        0 -1 144 5.3374189138412476e-01</internalNodes>
      <leafValues>
        3.0247975140810013e-02 -3.3351337909698486e-01</leafValues></_>
    <_>
      <internalNodes>
        0 -1 77 5.1315897703170776e-01</internalNodes>
      <leafValues>
        -1.3831054791808128e-02 8.7782299518585205e-01</leafValues></_>
    <_>
      <internalNodes>
        0 -1 301 2.1457329392433167e-02</internalNodes>
      <leafValues>
        6.7145794630050659e-02 -1.5023648738861084e-01</leafValues></_>
    <_>
      <internalNodes>
        0 -1 159 5.5118215084075928e-01</internalNodes>
      <leafValues>
        -1.0168937593698502e-01 1.1668355017900467e-01</leafValues></_>
    <_>
      <internalNodes>
        0 -1 2 2.3980685509741306e-03</internalNodes>
      <leafValues>
        -9.0274788439273834e-02 1.2118864059448242e-01</leafValues></_>
    <_>
      <internalNodes>
        0 -1 239 -2.9616768006235361e-03</internalNodes>
      <leafValues>
        1.2639723718166351e-01 -8.5332930088043213e-02</leafValues></_>
    <_>
      <internalNodes>
        0 -1 3 7.0607572793960571e-02</internalNodes>
      <leafValues>
        3.5808164626359940e-02 -2.9428181052207947e-01</leafValues></_>
    <_>
      <internalNodes>
        0 -1 3 -2.0964408293366432e-02</internalNodes>
      <leafValues>
        -1.5905143320560455e-01 5.6887600570917130e-02</leafValues></_>
    <_>
      <internalNodes>
        0 -1 237 -2.8322282433509827e-01</internalNodes>
      <leafValues>
        2.1945026516914368e-01 -4.5086741447448730e-02</leafValues></_>
    <_>
      <internalNodes>
        0 -1 258 -1.6501306090503931e-03</internalNodes>
      <leafValues>
        1.0081043839454651e-01 -1.0318355262279510e-01</leafValues></_>
    <_>
      <internalNodes>
        0 -1 108 7.1305322647094727e-01</internalNodes>
      <leafValues>
        -1.2880467809736729e-02 8.6260443925857544e-01</leafValues></_>
    <_>
      <internalNodes>
        0 -1 225 -6.5801620483398438e-01</internalNodes>
      <leafValues>
        -5.9787446260452271e-01 1.8002897500991821e-02</leafValues></_>
    <_>
      <internalNodes>
        0 -1 99 6.7734122276306152e-02</internalNodes>
      <leafValues>
        2.7643732726573944e-02 -2.6719397306442261e-01</leafValues></_>
    <_>
      <internalNodes>
        0 -1 247 -7.2468531131744385e-01</internalNodes>
      <leafValues>
        -5.5606734752655029e-01 1.3680710457265377e-02</leafValues></_>
    <_>
      <internalNodes>
        0 -1 99 1.9650580361485481e-03</internalNodes>
      <leafValues>
        -8.8644631206989288e-02 8.6860269308090210e-02</leafValues></_>
    <_>
      <internalNodes>
        0 -1 194 2.6818236801773310e-03</internalNodes>
      <leafValues>
        -6.1737701296806335e-02 1.2168693542480469e-01</leafValues></_>
    <_>
      <internalNodes>
        0 -1 297 1.5494005754590034e-02</internalNodes>
      <leafValues>
        5.8078166097402573e-02 -1.4082975685596466e-01</leafValues></_>
    <_>
      <internalNodes>
        0 -1 298 2.2164885886013508e-03</internalNodes>
      <leafValues>
        -9.6330396831035614e-02 1.1856242269277573e-01</leafValues></_>
    <_>
      <internalNodes>
        0 -1 37 -2.3218175396323204e-02</internalNodes>
      <leafValues>
        -1.6782522201538086e-01 4.9151353538036346e-02</leafValues></_>
    <_>
      <internalNodes>
        0 -1 40 9.6544891130179167e-04</internalNodes>
      <leafValues>
        -8.1782817840576172e-02 9.8736926913261414e-02</leafValues></_>
    <_>
      <internalNodes>
        0 -1 40 -1.6951938159763813e-03</internalNodes>
      <leafValues>
        9.5050178468227386e-02 -7.9899869859218597e-02</leafValues></_>
    <_>
      <internalNodes>
        0 -1 32 -1.1474249362945557e+00</internalNodes>
      <leafValues>
        -1. 7.2452565655112267e-03</leafValues></_>
    <_>
      <internalNodes>
        0 -1 118 -7.8134894371032715e-02</internalNodes>
      <leafValues>
        1.8394336104393005e-01 -4.1330654174089432e-02</leafValues></_>
    <_>
      <internalNodes>
        0 -1 259 2.1800366230309010e-03</internalNodes>
      <leafValues>
        -9.9467404186725616e-02 9.4857096672058105e-02</leafValues></_>
    <_>
      <internalNodes>
        0 -1 0 1.9007559865713120e-02</internalNodes>
      <leafValues>
        4.4368419796228409e-02 -1.7316552996635437e-01</leafValues></_>
    <_>
      <internalNodes>
        0 -1 261 -3.2856762409210205e-02</internalNodes>
      <leafValues>
        -1.3750398159027100e-01 4.9154330044984818e-02</leafValues></_>
    <_>
      <internalNodes>
        0 -1 72 7.2620356082916260e-01</internalNodes>
      <leafValues>
        -1.2764411978423595e-02 5.2084583044052124e-01</leafValues></_>
    <_>
      <internalNodes>
        0 -1 77 -1.8370242789387703e-02</internalNodes>
      <leafValues>
        7.0641942322254181e-02 -1.1008029431104660e-01</leafValues></_>
    <_>
      <internalNodes>
        0 -1 298 1.5851639211177826e-02</internalNodes>
      <leafValues>
        5.7858709245920181e-02 -1.2858007848262787e-01</leafValues></_>
    <_>
      <internalNodes>
        0 -1 137 -1.4302954077720642e-01</internalNodes>
      <leafValues>
        2.3197810351848602e-01 -3.2370042055845261e-02</leafValues></_>
    <_>
      <internalNodes>
        0 -1 284 6.1739958822727203e-02</internalNodes>
      <leafValues>
        -3.1609207391738892e-02 1.9314713776111603e-01</leafValues></_>
    <_>
      <internalNodes>
        0 -1 186 -2.3659039288759232e-03</internalNodes>
      <leafValues>
        5.5201217532157898e-02 -1.4372618496417999e-01</leafValues></_>
    <_>
      <internalNodes>
        0 -1 71 -5.8739677071571350e-02</internalNodes>
      <leafValues>
        9.0776138007640839e-02 -9.6425823867321014e-02</leafValues></_>
    <_>
      <internalNodes>
        0 -1 11 2.8337654471397400e-01</internalNodes>
      <leafValues>
        -5.6197579950094223e-02 1.4063255488872528e-01</leafValues></_>
    <_>
      <internalNodes>
        0 -1 164 7.3252499103546143e-02</internalNodes>
      <leafValues>
        6.4599402248859406e-02 -1.4003413915634155e-01</leafValues></_>
    <_>
      <internalNodes>
        0 -1 241 2.6728159189224243e-01</internalNodes>
      <leafValues>
        -4.5148808509111404e-02 1.7660669982433319e-01</leafValues></_>
    <_>
      <internalNodes>
        0 -1 262 -5.9552684426307678e-02</internalNodes>
      <leafValues>
        -1.4081788063049316e-01 5.5055685341358185e-02</leafValues></_>
    <_>
      <internalNodes>
        0 -1 305 1.2401565909385681e-01</internalNodes>
      <leafValues>
        1.2033420614898205e-02 -4.2279860377311707e-01</leafValues></_>
    <_>
      <internalNodes>
        0 -1 292 6.7567184567451477e-02</internalNodes>
      <leafValues>
        -3.1853325664997101e-02 2.0907071232795715e-01</leafValues></_>
    <_>
      <internalNodes>
        0 -1 193 -3.6805499345064163e-02</internalNodes>
      <leafValues>
        -1.5543842315673828e-01 4.1977722197771072e-02</leafValues></_>
    <_>
      <internalNodes>
        0 -1 101 -4.1897394694387913e-03</internalNodes>
      <leafValues>
        8.0731302499771118e-02 -8.1507392227649689e-02</leafValues></_>
    <_>
      <internalNodes>
        0 -1 228 -7.0571208000183105e-01</internalNodes>
      <leafValues>
        -2.8917634487152100e-01 2.5185497477650642e-02</leafValues></_>
    <_>
      <internalNodes>
        0 -1 163 4.8433765769004822e-02</internalNodes>
      <leafValues>
        -1.3199269771575928e-01 5.3178519010543823e-02</leafValues></_>
    <_>
      <internalNodes>
        0 -1 237 5.9478777647018433e-01</internalNodes>
      <leafValues>
        -1.5127846971154213e-02 5.2092707157135010e-01</leafValues></_>
    <_>
      <internalNodes>
        0 -1 229 -6.4910307526588440e-02</internalNodes>
      <leafValues>
        1.9125074148178101e-01 -3.4041725099086761e-02</leafValues></_>
    <_>
      <internalNodes>
        0 -1 11 1.2102859094738960e-02</internalNodes>
      <leafValues>
        -1.1065559089183807e-01 6.6086955368518829e-02</leafValues></_>
    <_>
      <internalNodes>
        0 -1 102 5.6517891585826874e-02</internalNodes>
      <leafValues>
        2.3758362978696823e-02 -3.1677532196044922e-01</leafValues></_>
    <_>
      <internalNodes>
        0 -1 104 1.6428087837994099e-03</internalNodes>
      <leafValues>
        -7.9997301101684570e-02 7.9924911260604858e-02</leafValues></_>
    <_>
      <internalNodes>
        0 -1 197 -1.9207146018743515e-02</internalNodes>
      <leafValues>
        -1.4427354931831360e-01 4.9678381532430649e-02</leafValues></_>
    <_>
      <internalNodes>
        0 -1 90 -1.5949569642543793e-02</internalNodes>
      <leafValues>
        1.3118581473827362e-01 -5.6423045694828033e-02</leafValues></_>
    <_>
      <internalNodes>
        0 -1 212 -8.0751550197601318e-01</internalNodes>
      <leafValues>
        -8.3266192674636841e-01 1.0069243609905243e-02</leafValues></_>
    <_>
      <internalNodes>
        0 -1 156 1.0582315921783447e+00</internalNodes>
      <leafValues>
        1.2886817567050457e-02 -3.8596051931381226e-01</leafValues></_>
    <_>
      <internalNodes>
        0 -1 148 9.1037547588348389e-01</internalNodes>
      <leafValues>
        -1.4165624044835567e-02 4.6353358030319214e-01</leafValues></_>
    <_>
      <internalNodes>
        0 -1 230 8.7113797664642334e-01</internalNodes>
      <leafValues>
        -2.3381354287266731e-02 3.3170083165168762e-01</leafValues></_>
    <_>
      <internalNodes>
        0 -1 172 3.9453583955764771e-01</internalNodes>
      <leafValues>
        -4.4739853590726852e-02 1.5055300295352936e-01</leafValues></_>
    <_>
      <internalNodes>
        0 -1 84 5.8763998746871948e-01</internalNodes>
      <leafValues>
        1.4375340193510056e-02 -6.3734984397888184e-01</leafValues></_>
    <_>
      <internalNodes>
        0 -1 304 6.2717139720916748e-02</internalNodes>
      <leafValues>
        1.9427571445703506e-02 -2.4203637242317200e-01</leafValues></_>
    <_>
      <internalNodes>
        0 -1 304 2.9568593017756939e-03</internalNodes>
      <leafValues>
        -6.8731397390365601e-02 9.2943489551544189e-02</leafValues></_>
    <_>
      <internalNodes>
        0 -1 56 6.7743849754333496e-01</internalNodes>
      <leafValues>
        1.0900227352976799e-02 -6.9976592063903809e-01</leafValues></_>
    <_>
      <internalNodes>
        0 -1 205 -2.6771298050880432e-01</internalNodes>
      <leafValues>
        1.0978968441486359e-01 -4.8523459583520889e-02</leafValues></_>
    <_>
      <internalNodes>
        0 -1 228 3.4873107075691223e-01</internalNodes>
      <leafValues>
        -3.4648884087800980e-02 1.6634537279605865e-01</leafValues></_>
    <_>
      <internalNodes>
        0 -1 149 -1.0785272344946861e-02</internalNodes>
      <leafValues>
        4.9260843545198441e-02 -1.1289243400096893e-01</leafValues></_>
    <_>
      <internalNodes>
        0 -1 136 8.7865531444549561e-02</internalNodes>
      <leafValues>
        6.4800076186656952e-02 -9.3843393027782440e-02</leafValues></_>
    <_>
      <internalNodes>
        0 -1 139 -3.9290627837181091e-01</internalNodes>
      <leafValues>
        3.2883229851722717e-01 -2.0949276164174080e-02</leafValues></_>
    <_>
      <internalNodes>
        0 -1 36 1.0421193391084671e-01</internalNodes>
      <leafValues>
        3.2209929078817368e-02 -1.7956753075122833e-01</leafValues></_>
    <_>
      <internalNodes>
        0 -1 12 3.9236703515052795e-01</internalNodes>
      <leafValues>
        -3.9725225418806076e-02 1.5623335540294647e-01</leafValues></_>
    <_>
      <internalNodes>
        0 -1 111 6.2304455786943436e-02</internalNodes>
      <leafValues>
        -8.6727336049079895e-02 6.1824358999729156e-02</leafValues></_></weakClassifiers></stage14>
</opencv_storage>
