<?xml version="1.0"?>
<opencv_storage>
<stage15>
  <maxWeakCount>100</maxWeakCount>
  <stageThreshold>-1.6209075450897217e+00</stageThreshold>
  <weakClassifiers>
    <_>
      <internalNodes>
        0 -1 163 4.0205100178718567e-01</internalNodes>
      <leafValues>
        -3.4988018870353699e-01 2.8142905235290527e-01</leafValues></_>
    <_>
      <internalNodes>
        0 -1 3 -4.7747284173965454e-02</internalNodes>
      <leafValues>
        -4.8005625605583191e-01 6.3175030052661896e-02</leafValues></_>
    <_>
      <internalNodes>
        0 -1 59 2.6935362815856934e-01</internalNodes>
      <leafValues>
        -2.0435281097888947e-01 2.3544679582118988e-01</leafValues></_>
    <_>
      <internalNodes>
        0 -1 1 2.8770670294761658e-02</internalNodes>
      <leafValues>
        8.1163175404071808e-02 -4.4961690902709961e-01</leafValues></_>
    <_>
      <internalNodes>
        0 -1 298 -5.1727503538131714e-02</internalNodes>
      <leafValues>
        -4.8490771651268005e-01 3.5445276647806168e-02</leafValues></_>
    <_>
      <internalNodes>
        0 -1 193 7.0683449506759644e-02</internalNodes>
      <leafValues>
        7.7416628599166870e-02 -4.0163260698318481e-01</leafValues></_>
    <_>
      <internalNodes>
        0 -1 116 4.4732296466827393e-01</internalNodes>
      <leafValues>
        -1.8916904926300049e-01 1.4632678031921387e-01</leafValues></_>
    <_>
      <internalNodes>
        0 -1 117 -1.0005445778369904e-01</internalNodes>
      <leafValues>
        -4.5125675201416016e-01 4.8645939677953720e-02</leafValues></_>
    <_>
      <internalNodes>
        0 -1 195 3.3324167132377625e-02</internalNodes>
      <leafValues>
        4.2019840329885483e-02 -4.0272939205169678e-01</leafValues></_>
    <_>
      <internalNodes>
        0 -1 6 1.6986660193651915e-03</internalNodes>
      <leafValues>
        -1.3712032139301300e-01 1.2897160649299622e-01</leafValues></_>
    <_>
      <internalNodes>
        0 -1 6 -7.7534565934911370e-04</internalNodes>
      <leafValues>
        1.4397877454757690e-01 -1.2395594269037247e-01</leafValues></_>
    <_>
      <internalNodes>
        0 -1 302 -5.6383520364761353e-02</internalNodes>
      <leafValues>
        -2.8463691473007202e-01 5.5558949708938599e-02</leafValues></_>
    <_>
      <internalNodes>
        0 -1 52 2.2324636578559875e-01</internalNodes>
      <leafValues>
        4.2223565280437469e-02 -3.5642921924591064e-01</leafValues></_>
    <_>
      <internalNodes>
        0 -1 194 -2.2429169621318579e-03</internalNodes>
      <leafValues>
        1.3664646446704865e-01 -1.4062245190143585e-01</leafValues></_>
    <_>
      <internalNodes>
        0 -1 239 -4.0787875652313232e-02</internalNodes>
      <leafValues>
        2.2699061036109924e-01 -6.6926293075084686e-02</leafValues></_>
    <_>
      <internalNodes>
        0 -1 283 4.9546439200639725e-02</internalNodes>
      <leafValues>
        -6.0430716723203659e-02 2.5887820124626160e-01</leafValues></_>
    <_>
      <internalNodes>
        0 -1 159 4.4722628593444824e-01</internalNodes>
      <leafValues>
        -1.5251669287681580e-01 1.0717977583408356e-01</leafValues></_>
    <_>
      <internalNodes>
        0 -1 68 -6.2594562768936157e-02</internalNodes>
      <leafValues>
        -3.2862573862075806e-01 4.8511818051338196e-02</leafValues></_>
    <_>
      <internalNodes>
        0 -1 68 4.0494225919246674e-02</internalNodes>
      <leafValues>
        4.8184324055910110e-02 -2.6887106895446777e-01</leafValues></_>
    <_>
      <internalNodes>
        0 -1 2 -2.7930483222007751e-02</internalNodes>
      <leafValues>
        -2.2593797743320465e-01 5.8977413922548294e-02</leafValues></_>
    <_>
      <internalNodes>
        0 -1 304 1.2558680772781372e-01</internalNodes>
      <leafValues>
        1.6855878755450249e-02 -5.6450670957565308e-01</leafValues></_>
    <_>
      <internalNodes>
        0 -1 177 6.0919654369354248e-01</internalNodes>
      <leafValues>
        -5.0321131944656372e-02 2.7677622437477112e-01</leafValues></_>
    <_>
      <internalNodes>
        0 -1 86 -1.1414499953389168e-02</internalNodes>
      <leafValues>
        1.6924941539764404e-01 -7.9578705132007599e-02</leafValues></_>
    <_>
      <internalNodes>
        0 -1 209 -9.7677683830261230e-01</internalNodes>
      <leafValues>
        -6.7598986625671387e-01 3.8243306335061789e-04</leafValues></_>
    <_>
      <internalNodes>
        0 -1 290 -2.3552624881267548e-01</internalNodes>
      <leafValues>
        -2.5716406106948853e-01 3.7133451551198959e-02</leafValues></_>
    <_>
      <internalNodes>
        0 -1 244 -3.9259009063243866e-03</internalNodes>
      <leafValues>
        7.3944851756095886e-02 -1.8617422878742218e-01</leafValues></_>
    <_>
      <internalNodes>
        0 -1 163 4.0481689572334290e-01</internalNodes>
      <leafValues>
        6.8361341953277588e-02 -1.7524607479572296e-01</leafValues></_>
    <_>
      <internalNodes>
        0 -1 292 4.1825487278401852e-03</internalNodes>
      <leafValues>
        -8.1087298691272736e-02 1.3821330666542053e-01</leafValues></_>
    <_>
      <internalNodes>
        0 -1 212 -2.7070862054824829e-01</internalNodes>
      <leafValues>
        -3.3260574936866760e-01 4.3051905930042267e-02</leafValues></_>
    <_>
      <internalNodes>
        0 -1 2 5.4242394864559174e-02</internalNodes>
      <leafValues>
        3.1800739467144012e-02 -2.8104731440544128e-01</leafValues></_>
    <_>
      <internalNodes>
        0 -1 197 1.8966335337609053e-03</internalNodes>
      <leafValues>
        -8.2184791564941406e-02 1.1195561289787292e-01</leafValues></_>
    <_>
      <internalNodes>
        0 -1 135 4.7169297933578491e-01</internalNodes>
      <leafValues>
        -2.2623078897595406e-02 4.6164223551750183e-01</leafValues></_>
    <_>
      <internalNodes>
        0 -1 14 -7.7662646770477295e-01</internalNodes>
      <leafValues>
        -5.1693016290664673e-01 2.0576186478137970e-02</leafValues></_>
    <_>
      <internalNodes>
        0 -1 65 -4.7708556056022644e-02</internalNodes>
      <leafValues>
        2.5249031186103821e-01 -5.4036047309637070e-02</leafValues></_>
    <_>
      <internalNodes>
        0 -1 89 -8.6601208895444870e-03</internalNodes>
      <leafValues>
        9.9797688424587250e-02 -1.0397539287805557e-01</leafValues></_>
    <_>
      <internalNodes>
        0 -1 297 3.6974273622035980e-02</internalNodes>
      <leafValues>
        4.2344469577074051e-02 -2.6929074525833130e-01</leafValues></_>
    <_>
      <internalNodes>
        0 -1 161 1.5344946645200253e-02</internalNodes>
      <leafValues>
        -1.6375312209129333e-01 5.5056221783161163e-02</leafValues></_>
    <_>
      <internalNodes>
        0 -1 257 6.5950177609920502e-02</internalNodes>
      <leafValues>
        2.8494041413068771e-02 -2.8835996985435486e-01</leafValues></_>
    <_>
      <internalNodes>
        0 -1 256 2.5283473078161478e-03</internalNodes>
      <leafValues>
        -8.6542405188083649e-02 1.3842618465423584e-01</leafValues></_>
    <_>
      <internalNodes>
        0 -1 207 4.0279805660247803e-01</internalNodes>
      <leafValues>
        -4.0218736976385117e-02 2.1897730231285095e-01</leafValues></_>
    <_>
      <internalNodes>
        0 -1 175 1.9855821132659912e-01</internalNodes>
      <leafValues>
        4.2651291936635971e-02 -3.0223700404167175e-01</leafValues></_>
    <_>
      <internalNodes>
        0 -1 1 2.2201794199645519e-03</internalNodes>
      <leafValues>
        -8.3717450499534607e-02 9.9866539239883423e-02</leafValues></_>
    <_>
      <internalNodes>
        0 -1 277 1.2403704226016998e-01</internalNodes>
      <leafValues>
        5.6763067841529846e-02 -1.3585092127323151e-01</leafValues></_>
    <_>
      <internalNodes>
        0 -1 137 -3.1506586819887161e-02</internalNodes>
      <leafValues>
        1.5130333602428436e-01 -4.9277771264314651e-02</leafValues></_>
    <_>
      <internalNodes>
        0 -1 20 1.0258096456527710e-01</internalNodes>
      <leafValues>
        8.4587544202804565e-02 -1.0997510701417923e-01</leafValues></_>
    <_>
      <internalNodes>
        0 -1 68 1.7675817944109440e-03</internalNodes>
      <leafValues>
        -8.1946521997451782e-02 9.8945602774620056e-02</leafValues></_>
    <_>
      <internalNodes>
        0 -1 74 -3.4808140993118286e-01</internalNodes>
      <leafValues>
        -4.5607677102088928e-01 1.4436585828661919e-02</leafValues></_>
    <_>
      <internalNodes>
        0 -1 258 -3.3860683441162109e-02</internalNodes>
      <leafValues>
        -2.3952801525592804e-01 3.2569430768489838e-02</leafValues></_>
    <_>
      <internalNodes>
        0 -1 68 1.0957733541727066e-01</internalNodes>
      <leafValues>
        2.0346432924270630e-02 -2.9797270894050598e-01</leafValues></_>
    <_>
      <internalNodes>
        0 -1 132 1.7173459529876709e+00</internalNodes>
      <leafValues>
        -1.3270178809762001e-02 5.5080968141555786e-01</leafValues></_>
    <_>
      <internalNodes>
        0 -1 196 -6.5458387136459351e-02</internalNodes>
      <leafValues>
        1.9061772525310516e-01 -3.2787840813398361e-02</leafValues></_>
    <_>
      <internalNodes>
        0 -1 259 -2.0185866951942444e-01</internalNodes>
      <leafValues>
        -6.4770460128784180e-01 1.3868127018213272e-02</leafValues></_>
    <_>
      <internalNodes>
        0 -1 197 -3.7723574787378311e-02</internalNodes>
      <leafValues>
        -1.9708064198493958e-01 3.4144047647714615e-02</leafValues></_>
    <_>
      <internalNodes>
        0 -1 195 -2.2409036755561829e-03</internalNodes>
      <leafValues>
        1.1103724688291550e-01 -8.9442253112792969e-02</leafValues></_>
    <_>
      <internalNodes>
        0 -1 157 6.2512856721878052e-01</internalNodes>
      <leafValues>
        1.9003987312316895e-02 -4.1337066888809204e-01</leafValues></_>
    <_>
      <internalNodes>
        0 -1 46 -6.7036330699920654e-01</internalNodes>
      <leafValues>
        -3.1301537156105042e-01 1.8411975353956223e-02</leafValues></_>
    <_>
      <internalNodes>
        0 -1 17 2.8200879693031311e-01</internalNodes>
      <leafValues>
        1.5918493270874023e-02 -3.9926409721374512e-01</leafValues></_>
    <_>
      <internalNodes>
        0 -1 301 4.1319996118545532e-02</internalNodes>
      <leafValues>
        3.5381045192480087e-02 -1.7373389005661011e-01</leafValues></_>
    <_>
      <internalNodes>
        0 -1 301 1.6413677949458361e-03</internalNodes>
      <leafValues>
        -8.6556643247604370e-02 1.0940182954072952e-01</leafValues></_>
    <_>
      <internalNodes>
        0 -1 258 2.7405237779021263e-03</internalNodes>
      <leafValues>
        -6.5686561167240143e-02 9.7778677940368652e-02</leafValues></_>
    <_>
      <internalNodes>
        0 -1 197 -1.3200313784182072e-02</internalNodes>
      <leafValues>
        -1.1777681857347488e-01 5.6510925292968750e-02</leafValues></_>
    <_>
      <internalNodes>
        0 -1 304 1.3126434059813619e-03</internalNodes>
      <leafValues>
        -6.9439232349395752e-02 8.6158648133277893e-02</leafValues></_>
    <_>
      <internalNodes>
        0 -1 304 3.3502064645290375e-02</internalNodes>
      <leafValues>
        4.3654873967170715e-02 -1.8308687210083008e-01</leafValues></_>
    <_>
      <internalNodes>
        0 -1 181 1.4479839242994785e-02</internalNodes>
      <leafValues>
        -5.3944233804941177e-02 1.1627320945262909e-01</leafValues></_>
    <_>
      <internalNodes>
        0 -1 177 3.0259740352630615e-01</internalNodes>
      <leafValues>
        -4.6832486987113953e-02 1.2671372294425964e-01</leafValues></_>
    <_>
      <internalNodes>
        0 -1 216 -9.5175588503479958e-03</internalNodes>
      <leafValues>
        7.9259075224399567e-02 -9.3895114958286285e-02</leafValues></_>
    <_>
      <internalNodes>
        0 -1 175 -1.0701951980590820e+00</internalNodes>
      <leafValues>
        -4.1162225604057312e-01 1.9492939114570618e-02</leafValues></_>
    <_>
      <internalNodes>
        0 -1 218 2.2809049114584923e-03</internalNodes>
      <leafValues>
        -6.3481643795967102e-02 9.7925744950771332e-02</leafValues></_>
    <_>
      <internalNodes>
        0 -1 163 1.1555424332618713e-01</internalNodes>
      <leafValues>
        -1.0182292014360428e-01 5.6251216679811478e-02</leafValues></_>
    <_>
      <internalNodes>
        0 -1 44 5.4275858402252197e-01</internalNodes>
      <leafValues>
        -3.3352136611938477e-02 2.9988756775856018e-01</leafValues></_>
    <_>
      <internalNodes>
        0 -1 99 4.8000007867813110e-02</internalNodes>
      <leafValues>
        3.3653248101472855e-02 -2.4549961090087891e-01</leafValues></_>
    <_>
      <internalNodes>
        0 -1 274 -3.7395974993705750e-01</internalNodes>
      <leafValues>
        5.7469391822814941e-01 -1.5827037394046783e-02</leafValues></_>
    <_>
      <internalNodes>
        0 -1 100 -4.2900059372186661e-02</internalNodes>
      <leafValues>
        -1.7670379579067230e-01 3.5465802997350693e-02</leafValues></_>
    <_>
      <internalNodes>
        0 -1 193 1.4660123270004988e-03</internalNodes>
      <leafValues>
        -7.0221632719039917e-02 8.7318517267704010e-02</leafValues></_>
    <_>
      <internalNodes>
        0 -1 251 3.7317287921905518e-01</internalNodes>
      <leafValues>
        -1.4442740939557552e-02 4.8827317357063293e-01</leafValues></_>
    <_>
      <internalNodes>
        0 -1 271 2.7147408574819565e-02</internalNodes>
      <leafValues>
        -4.1690669953823090e-02 1.1649648845195770e-01</leafValues></_>
    <_>
      <internalNodes>
        0 -1 305 1.1643517017364502e-01</internalNodes>
      <leafValues>
        1.2535309419035912e-02 -3.3805942535400391e-01</leafValues></_>
    <_>
      <internalNodes>
        0 -1 56 6.8467450141906738e-01</internalNodes>
      <leafValues>
        6.1391661874949932e-03 -7.5258171558380127e-01</leafValues></_>
    <_>
      <internalNodes>
        0 -1 197 -1.5977412462234497e-01</internalNodes>
      <leafValues>
        -4.2818817496299744e-01 1.0756208561360836e-02</leafValues></_>
    <_>
      <internalNodes>
        0 -1 293 4.8986899852752686e-01</internalNodes>
      <leafValues>
        -8.0666001886129379e-03 6.6303479671478271e-01</leafValues></_>
    <_>
      <internalNodes>
        0 -1 177 -1.6735640168190002e-01</internalNodes>
      <leafValues>
        8.2045651972293854e-02 -6.0331027954816818e-02</leafValues></_>
    <_>
      <internalNodes>
        0 -1 151 -2.2353580594062805e-01</internalNodes>
      <leafValues>
        -7.9145267605781555e-02 6.9034174084663391e-02</leafValues></_>
    <_>
      <internalNodes>
        0 -1 213 1.2371266260743141e-02</internalNodes>
      <leafValues>
        -8.0299876630306244e-02 7.4038244783878326e-02</leafValues></_>
    <_>
      <internalNodes>
        0 -1 217 1.4463705942034721e-02</internalNodes>
      <leafValues>
        -1.2667785584926605e-01 3.9576403796672821e-02</leafValues></_>
    <_>
      <internalNodes>
        0 -1 217 -7.1782886981964111e-02</internalNodes>
      <leafValues>
        2.2480441629886627e-01 -2.9262134805321693e-02</leafValues></_>
    <_>
      <internalNodes>
        0 -1 2 -1.9216932356357574e-01</internalNodes>
      <leafValues>
        -5.8504903316497803e-01 9.4788111746311188e-03</leafValues></_>
    <_>
      <internalNodes>
        0 -1 37 -3.9517644792795181e-02</internalNodes>
      <leafValues>
        -1.6306459903717041e-01 2.8013654053211212e-02</leafValues></_>
    <_>
      <internalNodes>
        0 -1 196 -2.3497253656387329e-02</internalNodes>
      <leafValues>
        1.1682183295488358e-01 -4.4722370803356171e-02</leafValues></_>
    <_>
      <internalNodes>
        0 -1 135 2.9019624926149845e-03</internalNodes>
      <leafValues>
        -8.4284529089927673e-02 5.9309829026460648e-02</leafValues></_>
    <_>
      <internalNodes>
        0 -1 0 1.9638067111372948e-02</internalNodes>
      <leafValues>
        3.3510304987430573e-02 -1.4984184503555298e-01</leafValues></_>
    <_>
      <internalNodes>
        0 -1 133 3.0578222870826721e-01</internalNodes>
      <leafValues>
        7.9209925606846809e-03 -5.5357921123504639e-01</leafValues></_>
    <_>
      <internalNodes>
        0 -1 32 -1.1422100067138672e+00</internalNodes>
      <leafValues>
        -1. 3.5570226609706879e-03</leafValues></_>
    <_>
      <internalNodes>
        0 -1 212 -7.4222469329833984e-01</internalNodes>
      <leafValues>
        -7.0153486728668213e-01 5.1555819809436798e-03</leafValues></_>
    <_>
      <internalNodes>
        0 -1 287 3.4002482891082764e-01</internalNodes>
      <leafValues>
        -1.1947504244744778e-02 3.8953426480293274e-01</leafValues></_>
    <_>
      <internalNodes>
        0 -1 228 -7.0579719543457031e-01</internalNodes>
      <leafValues>
        -2.4995982646942139e-01 2.2303618490695953e-02</leafValues></_>
    <_>
      <internalNodes>
        0 -1 296 -3.5486079752445221e-02</internalNodes>
      <leafValues>
        -1.7272764444351196e-01 2.6546625420451164e-02</leafValues></_>
    <_>
      <internalNodes>
        0 -1 185 2.5106620788574219e-01</internalNodes>
      <leafValues>
        -4.3915472924709320e-02 1.0736221820116043e-01</leafValues></_>
    <_>
      <internalNodes>
        0 -1 249 3.3434264361858368e-02</internalNodes>
      <leafValues>
        -3.0908795073628426e-02 1.4398436248302460e-01</leafValues></_>
    <_>
      <internalNodes>
        0 -1 85 -8.9226627349853516e-01</internalNodes>
      <leafValues>
        -4.9176186323165894e-01 1.1781725101172924e-02</leafValues></_>
    <_>
      <internalNodes>
        0 -1 257 -2.1586924791336060e-02</internalNodes>
      <leafValues>
        -1.0000496357679367e-01 4.6698044985532761e-02</leafValues></_></weakClassifiers></stage15>
</opencv_storage>
