<?xml version="1.0"?>
<opencv_storage>
<stage9>
  <maxWeakCount>77</maxWeakCount>
  <stageThreshold>-1.5328842401504517e+00</stageThreshold>
  <weakClassifiers>
    <_>
      <internalNodes>
        0 -1 163 1.6667068004608154e-01</internalNodes>
      <leafValues>
        -5.0330865383148193e-01 9.6667766571044922e-02</leafValues></_>
    <_>
      <internalNodes>
        0 -1 117 -6.5903700888156891e-02</internalNodes>
      <leafValues>
        -5.3389787673950195e-01 1.2332700192928314e-01</leafValues></_>
    <_>
      <internalNodes>
        0 -1 195 3.7250019609928131e-02</internalNodes>
      <leafValues>
        1.5062214434146881e-01 -6.8376624584197998e-01</leafValues></_>
    <_>
      <internalNodes>
        0 -1 37 -5.4699957370758057e-02</internalNodes>
      <leafValues>
        -5.6498688459396362e-01 6.8716756999492645e-02</leafValues></_>
    <_>
      <internalNodes>
        0 -1 66 -3.7432089447975159e-02</internalNodes>
      <leafValues>
        -4.8053663969039917e-01 1.1555012315511703e-01</leafValues></_>
    <_>
      <internalNodes>
        0 -1 258 -1.6784822801128030e-03</internalNodes>
      <leafValues>
        2.0140844583511353e-01 -1.9477114081382751e-01</leafValues></_>
    <_>
      <internalNodes>
        0 -1 258 -3.0201826244592667e-02</internalNodes>
      <leafValues>
        -4.3539774417877197e-01 9.6836566925048828e-02</leafValues></_>
    <_>
      <internalNodes>
        0 -1 156 5.0258350372314453e-01</internalNodes>
      <leafValues>
        -1.7345154285430908e-01 1.8379092216491699e-01</leafValues></_>
    <_>
      <internalNodes>
        0 -1 189 -1.0314388200640678e-03</internalNodes>
      <leafValues>
        1.4133080840110779e-01 -2.9248309135437012e-01</leafValues></_>
    <_>
      <internalNodes>
        0 -1 304 -5.8372147381305695e-02</internalNodes>
      <leafValues>
        -4.8237723112106323e-01 6.4491100609302521e-02</leafValues></_>
    <_>
      <internalNodes>
        0 -1 194 -8.5881128907203674e-02</internalNodes>
      <leafValues>
        -3.1474941968917847e-01 1.0053004324436188e-01</leafValues></_>
    <_>
      <internalNodes>
        0 -1 194 -1.5056619886308908e-03</internalNodes>
      <leafValues>
        1.2183071672916412e-01 -2.2148573398590088e-01</leafValues></_>
    <_>
      <internalNodes>
        0 -1 304 6.7846417427062988e-02</internalNodes>
      <leafValues>
        7.5810089707374573e-02 -4.5451706647872925e-01</leafValues></_>
    <_>
      <internalNodes>
        0 -1 194 2.0798393525183201e-03</internalNodes>
      <leafValues>
        -1.2033297866582870e-01 2.4387678503990173e-01</leafValues></_>
    <_>
      <internalNodes>
        0 -1 296 -1.5006053727120161e-03</internalNodes>
      <leafValues>
        1.6484373807907104e-01 -1.5387755632400513e-01</leafValues></_>
    <_>
      <internalNodes>
        0 -1 296 -3.0607584863901138e-02</internalNodes>
      <leafValues>
        -2.8712314367294312e-01 1.0409514605998993e-01</leafValues></_>
    <_>
      <internalNodes>
        0 -1 241 3.5377112030982971e-01</internalNodes>
      <leafValues>
        -9.0599030256271362e-02 3.5055279731750488e-01</leafValues></_>
    <_>
      <internalNodes>
        0 -1 163 5.4484999179840088e-01</internalNodes>
      <leafValues>
        -3.9997361600399017e-02 4.8032692074775696e-01</leafValues></_>
    <_>
      <internalNodes>
        0 -1 172 3.9801511168479919e-01</internalNodes>
      <leafValues>
        -1.0113164037466049e-01 2.9094043374061584e-01</leafValues></_>
    <_>
      <internalNodes>
        0 -1 164 -1.0426446096971631e-03</internalNodes>
      <leafValues>
        2.1088092029094696e-01 -1.4248405396938324e-01</leafValues></_>
    <_>
      <internalNodes>
        0 -1 84 -5.7352423667907715e-01</internalNodes>
      <leafValues>
        -4.9681812524795532e-01 5.7800877839326859e-02</leafValues></_>
    <_>
      <internalNodes>
        0 -1 66 -1.8101288005709648e-03</internalNodes>
      <leafValues>
        1.9410757720470428e-01 -1.2301537394523621e-01</leafValues></_>
    <_>
      <internalNodes>
        0 -1 66 1.9654985517263412e-03</internalNodes>
      <leafValues>
        -1.4093413949012756e-01 2.0944082736968994e-01</leafValues></_>
    <_>
      <internalNodes>
        0 -1 40 9.2386499047279358e-02</internalNodes>
      <leafValues>
        7.0478625595569611e-02 -3.9231678843498230e-01</leafValues></_>
    <_>
      <internalNodes>
        0 -1 197 -9.0997815132141113e-02</internalNodes>
      <leafValues>
        -5.2415299415588379e-01 3.5313788801431656e-02</leafValues></_>
    <_>
      <internalNodes>
        0 -1 14 -7.1130299568176270e-01</internalNodes>
      <leafValues>
        -6.5916222333908081e-01 2.8583627194166183e-02</leafValues></_>
    <_>
      <internalNodes>
        0 -1 249 3.5551551729440689e-02</internalNodes>
      <leafValues>
        -7.6725296676158905e-02 2.6877373456954956e-01</leafValues></_>
    <_>
      <internalNodes>
        0 -1 248 -2.6136229280382395e-03</internalNodes>
      <leafValues>
        1.1932896822690964e-01 -1.9552214443683624e-01</leafValues></_>
    <_>
      <internalNodes>
        0 -1 297 -8.9932933449745178e-02</internalNodes>
      <leafValues>
        -6.0031813383102417e-01 2.4788571521639824e-02</leafValues></_>
    <_>
      <internalNodes>
        0 -1 128 -3.5583779215812683e-01</internalNodes>
      <leafValues>
        2.0553520321846008e-01 -9.7970776259899139e-02</leafValues></_>
    <_>
      <internalNodes>
        0 -1 196 2.5003314018249512e-01</internalNodes>
      <leafValues>
        -4.1379887610673904e-02 4.3810957670211792e-01</leafValues></_>
    <_>
      <internalNodes>
        0 -1 35 4.1319027543067932e-02</internalNodes>
      <leafValues>
        7.6679788529872894e-02 -3.0209347605705261e-01</leafValues></_>
    <_>
      <internalNodes>
        0 -1 6 2.0120011176913977e-03</internalNodes>
      <leafValues>
        -1.5516926348209381e-01 1.4422777295112610e-01</leafValues></_>
    <_>
      <internalNodes>
        0 -1 0 4.1556455194950104e-02</internalNodes>
      <leafValues>
        4.9011804163455963e-02 -3.6923307180404663e-01</leafValues></_>
    <_>
      <internalNodes>
        0 -1 67 3.9412891864776611e-01</internalNodes>
      <leafValues>
        -4.6067249029874802e-02 5.0380086898803711e-01</leafValues></_>
    <_>
      <internalNodes>
        0 -1 161 3.3079865388572216e-03</internalNodes>
      <leafValues>
        -1.7315383255481720e-01 1.1155194044113159e-01</leafValues></_>
    <_>
      <internalNodes>
        0 -1 195 -2.1486561745405197e-03</internalNodes>
      <leafValues>
        1.4987061917781830e-01 -1.3054504990577698e-01</leafValues></_>
    <_>
      <internalNodes>
        0 -1 195 1.6738562844693661e-03</internalNodes>
      <leafValues>
        -9.1171398758888245e-02 1.9092886149883270e-01</leafValues></_>
    <_>
      <internalNodes>
        0 -1 101 1.5712904930114746e-01</internalNodes>
      <leafValues>
        4.4416602700948715e-02 -3.9228698611259460e-01</leafValues></_>
    <_>
      <internalNodes>
        0 -1 245 5.5612915754318237e-01</internalNodes>
      <leafValues>
        -5.8745563030242920e-02 3.5180479288101196e-01</leafValues></_>
    <_>
      <internalNodes>
        0 -1 183 6.7559843882918358e-03</internalNodes>
      <leafValues>
        -9.7274385392665863e-02 1.7633347213268280e-01</leafValues></_>
    <_>
      <internalNodes>
        0 -1 2 -5.0718698650598526e-02</internalNodes>
      <leafValues>
        -3.1015789508819580e-01 5.8121070265769958e-02</leafValues></_>
    <_>
      <internalNodes>
        0 -1 251 3.5608285665512085e-01</internalNodes>
      <leafValues>
        -2.7960678562521935e-02 6.8499284982681274e-01</leafValues></_>
    <_>
      <internalNodes>
        0 -1 68 1.5480336546897888e-01</internalNodes>
      <leafValues>
        4.4188249856233597e-02 -4.6394947171211243e-01</leafValues></_>
    <_>
      <internalNodes>
        0 -1 137 3.5629814863204956e-01</internalNodes>
      <leafValues>
        -3.3895753324031830e-02 6.0170501470565796e-01</leafValues></_>
    <_>
      <internalNodes>
        0 -1 283 -2.3584431409835815e-01</internalNodes>
      <leafValues>
        3.2224398851394653e-01 -5.0219401717185974e-02</leafValues></_>
    <_>
      <internalNodes>
        0 -1 301 -4.9939520657062531e-02</internalNodes>
      <leafValues>
        -3.0192518234252930e-01 6.6867232322692871e-02</leafValues></_>
    <_>
      <internalNodes>
        0 -1 298 -2.7136400341987610e-02</internalNodes>
      <leafValues>
        -2.7109920978546143e-01 8.0237321555614471e-02</leafValues></_>
    <_>
      <internalNodes>
        0 -1 79 -1.1005527973175049e+00</internalNodes>
      <leafValues>
        -1. 1.3758724555373192e-02</leafValues></_>
    <_>
      <internalNodes>
        0 -1 85 -1.0219746828079224e+00</internalNodes>
      <leafValues>
        -9.0824449062347412e-01 1.2817976996302605e-02</leafValues></_>
    <_>
      <internalNodes>
        0 -1 150 3.9792293310165405e-01</internalNodes>
      <leafValues>
        2.3207206279039383e-02 -4.8688635230064392e-01</leafValues></_>
    <_>
      <internalNodes>
        0 -1 32 -1.1417928934097290e+00</internalNodes>
      <leafValues>
        -1. 1.0309091769158840e-02</leafValues></_>
    <_>
      <internalNodes>
        0 -1 298 -2.2710124030709267e-03</internalNodes>
      <leafValues>
        1.4144752919673920e-01 -9.6657142043113708e-02</leafValues></_>
    <_>
      <internalNodes>
        0 -1 86 -4.2950510978698730e-02</internalNodes>
      <leafValues>
        2.4122034013271332e-01 -5.5062495172023773e-02</leafValues></_>
    <_>
      <internalNodes>
        0 -1 72 6.6721197217702866e-03</internalNodes>
      <leafValues>
        -1.6720412671566010e-01 1.0975661873817444e-01</leafValues></_>
    <_>
      <internalNodes>
        0 -1 220 1.1151327192783356e-01</internalNodes>
      <leafValues>
        -5.5961064994335175e-02 2.7414906024932861e-01</leafValues></_>
    <_>
      <internalNodes>
        0 -1 44 -1.9894227385520935e-01</internalNodes>
      <leafValues>
        1.7471404373645782e-01 -9.0801484882831573e-02</leafValues></_>
    <_>
      <internalNodes>
        0 -1 3 3.0570017173886299e-02</internalNodes>
      <leafValues>
        6.4378038048744202e-02 -2.0972689986228943e-01</leafValues></_>
    <_>
      <internalNodes>
        0 -1 35 -1.7146081663668156e-03</internalNodes>
      <leafValues>
        1.6705149412155151e-01 -9.8823711276054382e-02</leafValues></_>
    <_>
      <internalNodes>
        0 -1 37 1.9190546590834856e-03</internalNodes>
      <leafValues>
        -1.1886183917522430e-01 1.4604787528514862e-01</leafValues></_>
    <_>
      <internalNodes>
        0 -1 68 -9.8476022481918335e-02</internalNodes>
      <leafValues>
        -3.8852888345718384e-01 3.5454463213682175e-02</leafValues></_>
    <_>
      <internalNodes>
        0 -1 239 3.5507285594940186e-01</internalNodes>
      <leafValues>
        -2.2914722561836243e-02 6.5341800451278687e-01</leafValues></_>
    <_>
      <internalNodes>
        0 -1 298 -2.3924253880977631e-02</internalNodes>
      <leafValues>
        -2.0018205046653748e-01 7.1089722216129303e-02</leafValues></_>
    <_>
      <internalNodes>
        0 -1 183 2.7290177345275879e-01</internalNodes>
      <leafValues>
        -2.1641846746206284e-02 6.1552190780639648e-01</leafValues></_>
    <_>
      <internalNodes>
        0 -1 144 6.0330188274383545e-01</internalNodes>
      <leafValues>
        3.0267167836427689e-02 -5.5861437320709229e-01</leafValues></_>
    <_>
      <internalNodes>
        0 -1 209 -8.6364579200744629e-01</internalNodes>
      <leafValues>
        -5.1548433303833008e-01 1.9145978614687920e-02</leafValues></_>
    <_>
      <internalNodes>
        0 -1 209 -3.5683375597000122e-01</internalNodes>
      <leafValues>
        1.8796090781688690e-01 -8.7881624698638916e-02</leafValues></_>
    <_>
      <internalNodes>
        0 -1 108 7.1105313301086426e-01</internalNodes>
      <leafValues>
        -1.7102234065532684e-02 8.1028699874877930e-01</leafValues></_>
    <_>
      <internalNodes>
        0 -1 100 1.4845594763755798e-01</internalNodes>
      <leafValues>
        3.9307165890932083e-02 -3.8720560073852539e-01</leafValues></_>
    <_>
      <internalNodes>
        0 -1 112 7.0563626289367676e-01</internalNodes>
      <leafValues>
        3.6950200796127319e-02 -3.4741950035095215e-01</leafValues></_>
    <_>
      <internalNodes>
        0 -1 297 5.4172039031982422e-02</internalNodes>
      <leafValues>
        4.5545917004346848e-02 -2.9008600115776062e-01</leafValues></_>
    <_>
      <internalNodes>
        0 -1 99 -4.3697059154510498e-02</internalNodes>
      <leafValues>
        -2.5248298048973083e-01 4.1537210345268250e-02</leafValues></_>
    <_>
      <internalNodes>
        0 -1 104 2.2754319943487644e-03</internalNodes>
      <leafValues>
        -8.8322803378105164e-02 1.1606921255588531e-01</leafValues></_>
    <_>
      <internalNodes>
        0 -1 197 8.5465714801102877e-04</internalNodes>
      <leafValues>
        -8.9509278535842896e-02 1.1199606955051422e-01</leafValues></_>
    <_>
      <internalNodes>
        0 -1 87 -5.5042795836925507e-02</internalNodes>
      <leafValues>
        -2.2167719900608063e-01 4.8208609223365784e-02</leafValues></_>
    <_>
      <internalNodes>
        0 -1 159 5.6613999605178833e-01</internalNodes>
      <leafValues>
        -9.0868771076202393e-02 1.3336525857448578e-01</leafValues></_>
    <_>
      <internalNodes>
        0 -1 69 3.2391133718192577e-03</internalNodes>
      <leafValues>
        -8.9469678699970245e-02 1.4714805781841278e-01</leafValues></_></weakClassifiers></stage9>
</opencv_storage>
