<?xml version="1.0"?>
<opencv_storage>
<stage7>
  <maxWeakCount>44</maxWeakCount>
  <stageThreshold>-1.6030164957046509e+00</stageThreshold>
  <weakClassifiers>
    <_>
      <internalNodes>
        0 -1 217 1.3752685487270355e-01</internalNodes>
      <leafValues>
        -5.1097804307937622e-01 2.0663069188594818e-01</leafValues></_>
    <_>
      <internalNodes>
        0 -1 297 3.5509444773197174e-02</internalNodes>
      <leafValues>
        1.1049559712409973e-01 -6.0989034175872803e-01</leafValues></_>
    <_>
      <internalNodes>
        0 -1 114 3.6949020624160767e-01</internalNodes>
      <leafValues>
        -2.6689779758453369e-01 2.8705793619155884e-01</leafValues></_>
    <_>
      <internalNodes>
        0 -1 194 -1.3266132771968842e-01</internalNodes>
      <leafValues>
        -5.6608951091766357e-01 1.4853952825069427e-01</leafValues></_>
    <_>
      <internalNodes>
        0 -1 194 -1.6354289837181568e-03</internalNodes>
      <leafValues>
        2.7915355563163757e-01 -3.1008914113044739e-01</leafValues></_>
    <_>
      <internalNodes>
        0 -1 297 -3.4234341233968735e-02</internalNodes>
      <leafValues>
        -5.9726977348327637e-01 5.7161744683980942e-02</leafValues></_>
    <_>
      <internalNodes>
        0 -1 104 1.1104123294353485e-01</internalNodes>
      <leafValues>
        7.3126241564750671e-02 -6.9717776775360107e-01</leafValues></_>
    <_>
      <internalNodes>
        0 -1 15 -1.1978190392255783e-01</internalNodes>
      <leafValues>
        -5.5849927663803101e-01 8.0498829483985901e-02</leafValues></_>
    <_>
      <internalNodes>
        0 -1 117 -2.0705568604171276e-03</internalNodes>
      <leafValues>
        2.7360662817955017e-01 -2.2978700697422028e-01</leafValues></_>
    <_>
      <internalNodes>
        0 -1 37 7.6746731996536255e-02</internalNodes>
      <leafValues>
        3.8770575076341629e-02 -5.2237331867218018e-01</leafValues></_>
    <_>
      <internalNodes>
        0 -1 60 4.4746959209442139e-01</internalNodes>
      <leafValues>
        -2.2294087707996368e-01 2.5168940424919128e-01</leafValues></_>
    <_>
      <internalNodes>
        0 -1 304 -5.8371402323246002e-02</internalNodes>
      <leafValues>
        -4.4061505794525146e-01 1.0753908753395081e-01</leafValues></_>
    <_>
      <internalNodes>
        0 -1 304 6.2897309660911560e-02</internalNodes>
      <leafValues>
        8.2943789660930634e-02 -5.1614743471145630e-01</leafValues></_>
    <_>
      <internalNodes>
        0 -1 220 6.8345636129379272e-02</internalNodes>
      <leafValues>
        -1.1969828605651855e-01 4.1932171583175659e-01</leafValues></_>
    <_>
      <internalNodes>
        0 -1 261 -1.9596968777477741e-03</internalNodes>
      <leafValues>
        2.5571626424789429e-01 -1.6900365054607391e-01</leafValues></_>
    <_>
      <internalNodes>
        0 -1 241 -1.9696290791034698e-01</internalNodes>
      <leafValues>
        2.6063463091850281e-01 -1.8930165469646454e-01</leafValues></_>
    <_>
      <internalNodes>
        0 -1 177 5.4471158981323242e-01</internalNodes>
      <leafValues>
        -9.8400726914405823e-02 4.2837718129158020e-01</leafValues></_>
    <_>
      <internalNodes>
        0 -1 3 5.4051697254180908e-02</internalNodes>
      <leafValues>
        9.2494577169418335e-02 -4.5096486806869507e-01</leafValues></_>
    <_>
      <internalNodes>
        0 -1 1 2.2182697430253029e-03</internalNodes>
      <leafValues>
        -1.9179491698741913e-01 2.6173222064971924e-01</leafValues></_>
    <_>
      <internalNodes>
        0 -1 6 1.6447259485721588e-01</internalNodes>
      <leafValues>
        8.8973186910152435e-02 -4.3142065405845642e-01</leafValues></_>
    <_>
      <internalNodes>
        0 -1 256 2.0761694759130478e-03</internalNodes>
      <leafValues>
        -1.5671654045581818e-01 2.4053414165973663e-01</leafValues></_>
    <_>
      <internalNodes>
        0 -1 194 1.8925821781158447e-01</internalNodes>
      <leafValues>
        9.1994501650333405e-02 -6.0460406541824341e-01</leafValues></_>
    <_>
      <internalNodes>
        0 -1 71 5.5303174257278442e-01</internalNodes>
      <leafValues>
        -8.6721166968345642e-02 5.4384571313858032e-01</leafValues></_>
    <_>
      <internalNodes>
        0 -1 100 1.0213597118854523e-01</internalNodes>
      <leafValues>
        1.0520668327808380e-01 -4.3267285823822021e-01</leafValues></_>
    <_>
      <internalNodes>
        0 -1 274 -1.8110994715243578e-03</internalNodes>
      <leafValues>
        1.6959622502326965e-01 -2.0743523538112640e-01</leafValues></_>
    <_>
      <internalNodes>
        0 -1 87 7.2928346693515778e-02</internalNodes>
      <leafValues>
        4.4226668775081635e-02 -5.3796660900115967e-01</leafValues></_>
    <_>
      <internalNodes>
        0 -1 117 -1.5573248267173767e-01</internalNodes>
      <leafValues>
        -4.3320596218109131e-01 6.3845761120319366e-02</leafValues></_>
    <_>
      <internalNodes>
        0 -1 258 -1.6668448224663734e-03</internalNodes>
      <leafValues>
        1.8737834692001343e-01 -1.6565145552158356e-01</leafValues></_>
    <_>
      <internalNodes>
        0 -1 302 -1.8523499369621277e-01</internalNodes>
      <leafValues>
        -5.3532451391220093e-01 5.8814365416765213e-02</leafValues></_>
    <_>
      <internalNodes>
        0 -1 85 -1.5135106444358826e-01</internalNodes>
      <leafValues>
        2.2783474624156952e-01 -1.5142484009265900e-01</leafValues></_>
    <_>
      <internalNodes>
        0 -1 238 4.2164695262908936e-01</internalNodes>
      <leafValues>
        -5.6079551577568054e-02 4.8467317223548889e-01</leafValues></_>
    <_>
      <internalNodes>
        0 -1 298 2.3099468089640141e-03</internalNodes>
      <leafValues>
        -1.3167437911033630e-01 1.8581712245941162e-01</leafValues></_>
    <_>
      <internalNodes>
        0 -1 301 -3.9321236312389374e-02</internalNodes>
      <leafValues>
        -3.0652725696563721e-01 9.4598211348056793e-02</leafValues></_>
    <_>
      <internalNodes>
        0 -1 297 -2.3109181784093380e-03</internalNodes>
      <leafValues>
        2.1101231873035431e-01 -1.2141903489828110e-01</leafValues></_>
    <_>
      <internalNodes>
        0 -1 217 2.7218580245971680e-01</internalNodes>
      <leafValues>
        -6.3232809305191040e-02 3.8636091351509094e-01</leafValues></_>
    <_>
      <internalNodes>
        0 -1 32 -9.4132900238037109e-01</internalNodes>
      <leafValues>
        -7.1182167530059814e-01 3.9481591433286667e-02</leafValues></_>
    <_>
      <internalNodes>
        0 -1 237 4.0225368738174438e-01</internalNodes>
      <leafValues>
        -5.7662114500999451e-02 5.0669765472412109e-01</leafValues></_>
    <_>
      <internalNodes>
        0 -1 257 5.0791911780834198e-02</internalNodes>
      <leafValues>
        8.9872881770133972e-02 -2.8694126009941101e-01</leafValues></_>
    <_>
      <internalNodes>
        0 -1 71 7.1228361129760742e-01</internalNodes>
      <leafValues>
        -4.1641768068075180e-02 6.1996030807495117e-01</leafValues></_>
    <_>
      <internalNodes>
        0 -1 193 1.1509156227111816e-01</internalNodes>
      <leafValues>
        7.8847326338291168e-02 -3.5397532582283020e-01</leafValues></_>
    <_>
      <internalNodes>
        0 -1 114 6.4730577170848846e-02</internalNodes>
      <leafValues>
        -2.1983428299427032e-01 1.1156188696622849e-01</leafValues></_>
    <_>
      <internalNodes>
        0 -1 135 -2.1520839072763920e-03</internalNodes>
      <leafValues>
        2.0540247857570648e-01 -1.2918172776699066e-01</leafValues></_>
    <_>
      <internalNodes>
        0 -1 106 2.2020507603883743e-03</internalNodes>
      <leafValues>
        -1.6658522188663483e-01 1.9096177816390991e-01</leafValues></_>
    <_>
      <internalNodes>
        0 -1 286 -2.2457321174442768e-03</internalNodes>
      <leafValues>
        2.1298617124557495e-01 -1.2385646253824234e-01</leafValues></_></weakClassifiers></stage7>
</opencv_storage>
