<?xml version="1.0"?>
<opencv_storage>
<stage14>
  <maxWeakCount>87</maxWeakCount>
  <stageThreshold>-1.3797031641006470e+00</stageThreshold>
  <weakClassifiers>
    <_>
      <internalNodes>
        0 -1 167 4.7143083810806274e-01</internalNodes>
      <leafValues>
        -5.0586980581283569e-01 -4.6181172132492065e-02</leafValues></_>
    <_>
      <internalNodes>
        0 -1 156 5.8154416084289551e-01</internalNodes>
      <leafValues>
        -2.0257094502449036e-01 2.3471800982952118e-01</leafValues></_>
    <_>
      <internalNodes>
        0 -1 304 -2.2576872259378433e-02</internalNodes>
      <leafValues>
        -4.4804427027702332e-01 9.9438279867172241e-02</leafValues></_>
    <_>
      <internalNodes>
        0 -1 5 8.6262042168527842e-04</internalNodes>
      <leafValues>
        -2.1279308199882507e-01 1.8005511164665222e-01</leafValues></_>
    <_>
      <internalNodes>
        0 -1 2 2.4319821968674660e-02</internalNodes>
      <leafValues>
        1.2140511721372604e-01 -4.2447438836097717e-01</leafValues></_>
    <_>
      <internalNodes>
        0 -1 304 2.4938199669122696e-02</internalNodes>
      <leafValues>
        7.6230876147747040e-02 -4.2054268717765808e-01</leafValues></_>
    <_>
      <internalNodes>
        0 -1 4 3.0335361137986183e-02</internalNodes>
      <leafValues>
        1.2623988091945648e-01 -3.1550338864326477e-01</leafValues></_>
    <_>
      <internalNodes>
        0 -1 103 2.3169433698058128e-03</internalNodes>
      <leafValues>
        -2.1445509791374207e-01 1.5497633814811707e-01</leafValues></_>
    <_>
      <internalNodes>
        0 -1 37 3.8072418421506882e-02</internalNodes>
      <leafValues>
        5.7206034660339355e-02 -3.7686291337013245e-01</leafValues></_>
    <_>
      <internalNodes>
        0 -1 40 -2.1380002144724131e-03</internalNodes>
      <leafValues>
        1.8215885758399963e-01 -1.3772492110729218e-01</leafValues></_>
    <_>
      <internalNodes>
        0 -1 6 2.8841469902545214e-03</internalNodes>
      <leafValues>
        -1.7501230537891388e-01 1.3237351179122925e-01</leafValues></_>
    <_>
      <internalNodes>
        0 -1 99 4.9409538507461548e-02</internalNodes>
      <leafValues>
        5.6335859000682831e-02 -4.6562296152114868e-01</leafValues></_>
    <_>
      <internalNodes>
        0 -1 139 4.9224258400499821e-03</internalNodes>
      <leafValues>
        -1.2351077795028687e-01 1.9022659957408905e-01</leafValues></_>
    <_>
      <internalNodes>
        0 -1 66 4.8937860876321793e-02</internalNodes>
      <leafValues>
        1.9686654210090637e-02 -8.2995575666427612e-01</leafValues></_>
    <_>
      <internalNodes>
        0 -1 2 -5.0462625920772552e-02</internalNodes>
      <leafValues>
        -5.1056069135665894e-01 3.8195248693227768e-02</leafValues></_>
    <_>
      <internalNodes>
        0 -1 100 -4.2816802859306335e-02</internalNodes>
      <leafValues>
        -4.5009303092956543e-01 4.1653316468000412e-02</leafValues></_>
    <_>
      <internalNodes>
        0 -1 68 -1.1542114615440369e-01</internalNodes>
      <leafValues>
        -8.2994657754898071e-01 1.9583407789468765e-02</leafValues></_>
    <_>
      <internalNodes>
        0 -1 258 2.8934966772794724e-02</internalNodes>
      <leafValues>
        3.2457690685987473e-02 -4.7917258739471436e-01</leafValues></_>
    <_>
      <internalNodes>
        0 -1 215 -4.4547718763351440e-01</internalNodes>
      <leafValues>
        -4.8650428652763367e-01 3.4510932862758636e-02</leafValues></_>
    <_>
      <internalNodes>
        0 -1 90 -5.3552582859992981e-02</internalNodes>
      <leafValues>
        4.0947040915489197e-01 -5.5391374975442886e-02</leafValues></_>
    <_>
      <internalNodes>
        0 -1 6 -1.9770585931837559e-03</internalNodes>
      <leafValues>
        1.9511958956718445e-01 -8.6867414414882660e-02</leafValues></_>
    <_>
      <internalNodes>
        0 -1 298 -3.5424195230007172e-02</internalNodes>
      <leafValues>
        -3.5394206643104553e-01 4.0370538830757141e-02</leafValues></_>
    <_>
      <internalNodes>
        0 -1 298 2.5196321308612823e-02</internalNodes>
      <leafValues>
        5.7678021490573883e-02 -2.9637435078620911e-01</leafValues></_>
    <_>
      <internalNodes>
        0 -1 245 -2.7128968387842178e-02</internalNodes>
      <leafValues>
        1.2513516843318939e-01 -1.2611372768878937e-01</leafValues></_>
    <_>
      <internalNodes>
        0 -1 277 5.9140127152204514e-02</internalNodes>
      <leafValues>
        1.0803347826004028e-01 -1.6449758410453796e-01</leafValues></_>
    <_>
      <internalNodes>
        0 -1 49 1.1281815916299820e-01</internalNodes>
      <leafValues>
        9.9358774721622467e-02 -1.9571135938167572e-01</leafValues></_>
    <_>
      <internalNodes>
        0 -1 181 -5.3474381566047668e-03</internalNodes>
      <leafValues>
        1.1264226585626602e-01 -1.9554239511489868e-01</leafValues></_>
    <_>
      <internalNodes>
        0 -1 136 -2.0441421866416931e-01</internalNodes>
      <leafValues>
        -5.3578555583953857e-01 3.0557712540030479e-02</leafValues></_>
    <_>
      <internalNodes>
        0 -1 194 -2.0700718741863966e-03</internalNodes>
      <leafValues>
        8.6753860116004944e-02 -1.5753544867038727e-01</leafValues></_>
    <_>
      <internalNodes>
        0 -1 193 7.0635944604873657e-02</internalNodes>
      <leafValues>
        4.8123814165592194e-02 -4.1925480961799622e-01</leafValues></_>
    <_>
      <internalNodes>
        0 -1 3 2.4353360757231712e-02</internalNodes>
      <leafValues>
        4.5394942164421082e-02 -2.9934141039848328e-01</leafValues></_>
    <_>
      <internalNodes>
        0 -1 258 -7.3847897350788116e-02</internalNodes>
      <leafValues>
        -6.1927753686904907e-01 1.7224535346031189e-02</leafValues></_>
    <_>
      <internalNodes>
        0 -1 217 -7.1672372519969940e-02</internalNodes>
      <leafValues>
        3.0094289779663086e-01 -5.2659120410680771e-02</leafValues></_>
    <_>
      <internalNodes>
        0 -1 255 4.3750295042991638e-01</internalNodes>
      <leafValues>
        1.5473153442144394e-02 -1.</leafValues></_>
    <_>
      <internalNodes>
        0 -1 247 -3.6410087347030640e-01</internalNodes>
      <leafValues>
        3.2731631398200989e-01 -5.9226606041193008e-02</leafValues></_>
    <_>
      <internalNodes>
        0 -1 193 2.0524533465504646e-03</internalNodes>
      <leafValues>
        -1.2282523512840271e-01 1.4653865993022919e-01</leafValues></_>
    <_>
      <internalNodes>
        0 -1 196 -5.6268293410539627e-02</internalNodes>
      <leafValues>
        3.0237856507301331e-01 -5.4701019078493118e-02</leafValues></_>
    <_>
      <internalNodes>
        0 -1 32 -6.6587316989898682e-01</internalNodes>
      <leafValues>
        -4.3302023410797119e-01 4.2793709784746170e-02</leafValues></_>
    <_>
      <internalNodes>
        0 -1 1 -2.6214856654405594e-02</internalNodes>
      <leafValues>
        -4.8853850364685059e-01 2.3620951920747757e-02</leafValues></_>
    <_>
      <internalNodes>
        0 -1 144 -6.2769728899002075e-01</internalNodes>
      <leafValues>
        -1. 1.2158715166151524e-02</leafValues></_>
    <_>
      <internalNodes>
        0 -1 100 1.9826549105346203e-03</internalNodes>
      <leafValues>
        -1.3039830327033997e-01 1.0831563174724579e-01</leafValues></_>
    <_>
      <internalNodes>
        0 -1 197 -1.5164904296398163e-02</internalNodes>
      <leafValues>
        -2.0666261017322540e-01 6.3844613730907440e-02</leafValues></_>
    <_>
      <internalNodes>
        0 -1 198 -3.6448398232460022e-01</internalNodes>
      <leafValues>
        3.6301422119140625e-01 -3.7622854113578796e-02</leafValues></_>
    <_>
      <internalNodes>
        0 -1 190 -1.3065952807664871e-02</internalNodes>
      <leafValues>
        6.8063475191593170e-02 -2.2319521009922028e-01</leafValues></_>
    <_>
      <internalNodes>
        0 -1 83 -1.9646312296390533e-01</internalNodes>
      <leafValues>
        1.6119198501110077e-01 -9.3258321285247803e-02</leafValues></_>
    <_>
      <internalNodes>
        0 -1 178 -5.7150077819824219e-01</internalNodes>
      <leafValues>
        -5.6973123550415039e-01 2.6712169870734215e-02</leafValues></_>
    <_>
      <internalNodes>
        0 -1 280 3.6311656236648560e-01</internalNodes>
      <leafValues>
        -2.1290479227900505e-02 6.1229264736175537e-01</leafValues></_>
    <_>
      <internalNodes>
        0 -1 164 5.3617078065872192e-01</internalNodes>
      <leafValues>
        -1.4188162051141262e-02 6.7394018173217773e-01</leafValues></_>
    <_>
      <internalNodes>
        0 -1 297 -8.5531948134303093e-03</internalNodes>
      <leafValues>
        -2.1485936641693115e-01 6.0427974909543991e-02</leafValues></_>
    <_>
      <internalNodes>
        0 -1 261 -3.1705945730209351e-03</internalNodes>
      <leafValues>
        9.9514111876487732e-02 -1.1493697017431259e-01</leafValues></_>
    <_>
      <internalNodes>
        0 -1 261 -1.8463600426912308e-02</internalNodes>
      <leafValues>
        -1.8526980280876160e-01 8.7392084300518036e-02</leafValues></_>
    <_>
      <internalNodes>
        0 -1 87 -7.8168958425521851e-02</internalNodes>
      <leafValues>
        -5.1790344715118408e-01 2.7614915743470192e-02</leafValues></_>
    <_>
      <internalNodes>
        0 -1 134 2.7740508317947388e-01</internalNodes>
      <leafValues>
        -2.9624843969941139e-02 5.1213592290878296e-01</leafValues></_>
    <_>
      <internalNodes>
        0 -1 73 -5.8689206838607788e-02</internalNodes>
      <leafValues>
        1.2567555904388428e-01 -1.0461663454771042e-01</leafValues></_>
    <_>
      <internalNodes>
        0 -1 41 -4.9173143506050110e-01</internalNodes>
      <leafValues>
        -6.1370819807052612e-01 1.7683297395706177e-02</leafValues></_>
    <_>
      <internalNodes>
        0 -1 271 -3.2680474687367678e-03</internalNodes>
      <leafValues>
        8.8175550103187561e-02 -1.1807568371295929e-01</leafValues></_>
    <_>
      <internalNodes>
        0 -1 296 -1.8488515168428421e-02</internalNodes>
      <leafValues>
        -2.2953841090202332e-01 5.4795373231172562e-02</leafValues></_>
    <_>
      <internalNodes>
        0 -1 68 -3.1581584364175797e-02</internalNodes>
      <leafValues>
        -2.9858106374740601e-01 3.9089318364858627e-02</leafValues></_>
    <_>
      <internalNodes>
        0 -1 296 -2.0420411601662636e-03</internalNodes>
      <leafValues>
        1.1926560848951340e-01 -1.0151346772909164e-01</leafValues></_>
    <_>
      <internalNodes>
        0 -1 13 -3.5618504881858826e-01</internalNodes>
      <leafValues>
        5.8528614044189453e-01 -2.7164608240127563e-02</leafValues></_>
    <_>
      <internalNodes>
        0 -1 123 3.4972515702247620e-01</internalNodes>
      <leafValues>
        3.4310083836317062e-02 -4.5657473802566528e-01</leafValues></_>
    <_>
      <internalNodes>
        0 -1 144 6.6241496801376343e-01</internalNodes>
      <leafValues>
        1.1413915082812309e-02 -8.1886202096939087e-01</leafValues></_>
    <_>
      <internalNodes>
        0 -1 297 6.2138725072145462e-02</internalNodes>
      <leafValues>
        1.2719840742647648e-02 -6.7702972888946533e-01</leafValues></_>
    <_>
      <internalNodes>
        0 -1 100 2.3130944371223450e-01</internalNodes>
      <leafValues>
        1.2137211859226227e-02 -7.0703911781311035e-01</leafValues></_>
    <_>
      <internalNodes>
        0 -1 0 -4.9194451421499252e-03</internalNodes>
      <leafValues>
        -1.7038764059543610e-01 6.1052538454532623e-02</leafValues></_>
    <_>
      <internalNodes>
        0 -1 271 2.6611596345901489e-02</internalNodes>
      <leafValues>
        -5.2657589316368103e-02 2.4469842016696930e-01</leafValues></_>
    <_>
      <internalNodes>
        0 -1 32 -8.9049154520034790e-01</internalNodes>
      <leafValues>
        -7.8310817480087280e-01 2.1371407434344292e-02</leafValues></_>
    <_>
      <internalNodes>
        0 -1 2 6.4036533236503601e-02</internalNodes>
      <leafValues>
        2.6357419788837433e-02 -4.0735146403312683e-01</leafValues></_>
    <_>
      <internalNodes>
        0 -1 226 -9.6667498350143433e-01</internalNodes>
      <leafValues>
        -9.4883966445922852e-01 1.0197971016168594e-02</leafValues></_>
    <_>
      <internalNodes>
        0 -1 199 -3.4129887819290161e-01</internalNodes>
      <leafValues>
        9.6001923084259033e-01 -1.6457794234156609e-02</leafValues></_>
    <_>
      <internalNodes>
        0 -1 190 -6.9504135847091675e-01</internalNodes>
      <leafValues>
        -1. 1.6232943162322044e-02</leafValues></_>
    <_>
      <internalNodes>
        0 -1 117 -5.6999735534191132e-03</internalNodes>
      <leafValues>
        9.5621496438980103e-02 -9.8323449492454529e-02</leafValues></_>
    <_>
      <internalNodes>
        0 -1 117 1.8147372175008059e-03</internalNodes>
      <leafValues>
        -7.3987394571304321e-02 1.3949690759181976e-01</leafValues></_>
    <_>
      <internalNodes>
        0 -1 303 -9.3873851001262665e-03</internalNodes>
      <leafValues>
        -1.5487681329250336e-01 6.7746892571449280e-02</leafValues></_>
    <_>
      <internalNodes>
        0 -1 77 4.4332200288772583e-01</internalNodes>
      <leafValues>
        -2.0798942074179649e-02 4.8814648389816284e-01</leafValues></_>
    <_>
      <internalNodes>
        0 -1 285 -1.6839159652590752e-03</internalNodes>
      <leafValues>
        1.1696542799472809e-01 -1.1935939639806747e-01</leafValues></_>
    <_>
      <internalNodes>
        0 -1 293 -6.4712166786193848e-03</internalNodes>
      <leafValues>
        -2.0318737626075745e-01 6.8068876862525940e-02</leafValues></_>
    <_>
      <internalNodes>
        0 -1 278 3.7185889482498169e-01</internalNodes>
      <leafValues>
        -2.9079420492053032e-02 5.2788662910461426e-01</leafValues></_>
    <_>
      <internalNodes>
        0 -1 207 -7.6764571666717529e-01</internalNodes>
      <leafValues>
        -5.8441358804702759e-01 2.0706238225102425e-02</leafValues></_>
    <_>
      <internalNodes>
        0 -1 282 3.2807093858718872e-01</internalNodes>
      <leafValues>
        1.2715809978544712e-02 -7.1161741018295288e-01</leafValues></_>
    <_>
      <internalNodes>
        0 -1 17 2.8313729912042618e-02</internalNodes>
      <leafValues>
        5.4851919412612915e-02 -1.8801839649677277e-01</leafValues></_>
    <_>
      <internalNodes>
        0 -1 152 5.5550050735473633e-01</internalNodes>
      <leafValues>
        -4.2107582092285156e-02 2.8748548030853271e-01</leafValues></_>
    <_>
      <internalNodes>
        0 -1 52 -1.3270300626754761e-01</internalNodes>
      <leafValues>
        -1.8745033442974091e-01 7.3492087423801422e-02</leafValues></_>
    <_>
      <internalNodes>
        0 -1 36 -9.3415565788745880e-02</internalNodes>
      <leafValues>
        -2.5087875127792358e-01 4.6495698392391205e-02</leafValues></_>
    <_>
      <internalNodes>
        0 -1 20 9.5696330070495605e-02</internalNodes>
      <leafValues>
        1.0166258364915848e-01 -1.1546382308006287e-01</leafValues></_>
    <_>
      <internalNodes>
        0 -1 43 1.8654167652130127e-01</internalNodes>
      <leafValues>
        -8.9910946786403656e-02 1.3771376013755798e-01</leafValues></_>
    <_>
      <internalNodes>
        0 -1 34 -1.7900317907333374e-01</internalNodes>
      <leafValues>
        7.2979319095611572e-01 -1.6890024766325951e-02</leafValues></_></weakClassifiers></stage14>
</opencv_storage>
