<?xml version="1.0"?>
<opencv_storage>
<stage3>
  <maxWeakCount>12</maxWeakCount>
  <stageThreshold>-2.1690647602081299e+00</stageThreshold>
  <weakClassifiers>
    <_>
      <internalNodes>
        0 -1 62 -4 -33554433 -2097153 -2049 -1025 -1025 -16777217
        -67108865</internalNodes>
      <leafValues>
        -8.8167834281921387e-01 -2.0056611299514771e-01</leafValues></_>
    <_>
      <internalNodes>
        0 -1 173 -3081 1577056251 2147434495 1610612735 -1442840643
        145402795 973060605 536870911</internalNodes>
      <leafValues>
        -5.2417880296707153e-01 2.5401511788368225e-01</leafValues></_>
    <_>
      <internalNodes>
        0 -1 140 -285298906 -419539074 -65540 -222625798 -964689929
        41384807 2013254652 -67147842</internalNodes>
      <leafValues>
        -4.9708330631256104e-01 2.8353473544120789e-01</leafValues></_>
    <_>
      <internalNodes>
        0 -1 50 1692854254 -65537 2146959359 -8654849 -243926025 -20481
        1666557951 1936998703</internalNodes>
      <leafValues>
        -5.5413836240768433e-01 2.3054124414920807e-01</leafValues></_>
    <_>
      <internalNodes>
        0 -1 114 -831051106 1929273311 587128700 -80052354 1668758832
        1987471231 1719079988 -77908610</internalNodes>
      <leafValues>
        -3.1732261180877686e-01 3.5874739289283752e-01</leafValues></_>
    <_>
      <internalNodes>
        0 -1 124 -520117756 -855905169 -1174700545 1804177279 -776210483
        -55063659 -372378695 319392523</internalNodes>
      <leafValues>
        -4.6568706631660461e-01 2.3651006817817688e-01</leafValues></_>
    <_>
      <internalNodes>
        0 -1 40 -372283401 -228708737 -1090560001 -98306 1591762556
        -10007011 -1157922850 -8946050</internalNodes>
      <leafValues>
        -2.6581278443336487e-01 3.7938731908798218e-01</leafValues></_>
    <_>
      <internalNodes>
        0 -1 174 1790327602 1124005758 -4530178 494571454 738194423
        138246125 771471868 -539028738</internalNodes>
      <leafValues>
        -3.0294656753540039e-01 2.9676583409309387e-01</leafValues></_>
    <_>
      <internalNodes>
        0 -1 138 -1208504572 1887403799 -3522690 829276155 -201336971
        1425797807 2079063536 546307551</internalNodes>
      <leafValues>
        -5.8134198188781738e-01 1.5727208554744720e-01</leafValues></_>
    <_>
      <internalNodes>
        0 -1 13 1792943918 -16845937 -8917249 -89370575 -445372786
        2136831970 342947007 1162629871</internalNodes>
      <leafValues>
        -4.6861901879310608e-01 1.8277774751186371e-01</leafValues></_>
    <_>
      <internalNodes>
        0 -1 110 -1493191000 -25284673 -201397106 -231579670 1129971271
        1345486358 2002777156 -210036898</internalNodes>
      <leafValues>
        -3.6220309138298035e-01 2.2904761135578156e-01</leafValues></_>
    <_>
      <internalNodes>
        0 -1 23 -432658518 -1661141121 2146697214 -1410433025
        -1124665961 -25723921 1416846076 197557766</internalNodes>
      <leafValues>
        -6.2045544385910034e-01 1.2946735322475433e-01</leafValues></_></weakClassifiers></stage3>
</opencv_storage>
