<?xml version="1.0"?>
<opencv_storage>
<stage15>
  <maxWeakCount>90</maxWeakCount>
  <stageThreshold>-1.6166357994079590e+00</stageThreshold>
  <weakClassifiers>
    <_>
      <internalNodes>
        0 -1 154 -624375589 -561395473 -859316487 1602803916 -1714698023
        -777207656 -1425614593 320461048</internalNodes>
      <leafValues>
        -7.2979980707168579e-01 -3.8006621599197388e-01</leafValues></_>
    <_>
      <internalNodes>
        0 -1 40 -1060836272 1944055311 -1534082509 -2113 34604284
        -26014387 -364685616 -8945857</internalNodes>
      <leafValues>
        -2.8122064471244812e-01 1.6962105035781860e-01</leafValues></_>
    <_>
      <internalNodes>
        0 -1 63 -14550272 -544243840 -49877758 -553141759 -149520891
        -373072090 1992148294 -1081089791</internalNodes>
      <leafValues>
        -1.2430545687675476e-01 2.0268791913986206e-01</leafValues></_>
    <_>
      <internalNodes>
        0 -1 17 -2067493330 -24078330 -1056893696 -1027550772 1599782839
        -549060769 -1458672422 -354517181</internalNodes>
      <leafValues>
        -4.4883966445922852e-01 5.0562806427478790e-02</leafValues></_>
    <_>
      <internalNodes>
        0 -1 207 1831480043 -1884338357 -1899352797 1100689194
        -1153443909 160884539 -1210181701 -537931781</internalNodes>
      <leafValues>
        -8.7119273841381073e-02 2.3309504985809326e-01</leafValues></_>
    <_>
      <internalNodes>
        0 -1 186 -830568436 -33622930 1493167069 1079834600 -1527069500
        -19075089 -805319540 -393179939</internalNodes>
      <leafValues>
        -1.3159115612506866e-01 1.3309408724308014e-01</leafValues></_>
    <_>
      <internalNodes>
        0 -1 78 823298750 1562262108 2498418 1878933246 -1878994803
        169295874 809630243 2033266558</internalNodes>
      <leafValues>
        -3.0876916646957397e-01 5.1433328539133072e-02</leafValues></_>
    <_>
      <internalNodes>
        0 -1 183 74761332 -187625967 1724487640 584344281 16617665
        -1174534743 -976643585 -1845458304</internalNodes>
      <leafValues>
        -1.3292261958122253e-01 1.2959696352481842e-01</leafValues></_>
    <_>
      <internalNodes>
        0 -1 16 182070508 -1873734252 1637454067 -1029578186 -1107534337
        -1127869992 1796577323 2036224632</internalNodes>
      <leafValues>
        -3.2095322012901306e-01 8.5506610572338104e-02</leafValues></_>
    <_>
      <internalNodes>
        0 -1 85 1416099575 -1771131283 -637668929 2104479739 149845228
        -361274618 1759772380 -1846600019</internalNodes>
      <leafValues>
        -1.0680285841226578e-01 1.8651121854782104e-01</leafValues></_>
    <_>
      <internalNodes>
        0 -1 74 1568946116 388438351 827801552 71607583 -930386396
        -273710305 688504673 148387421</internalNodes>
      <leafValues>
        -3.6987757682800293e-01 7.1435362100601196e-02</leafValues></_>
    <_>
      <internalNodes>
        0 -1 97 -263373 -79747551 -149654 -1121358 -75240822 -13238923
        -142607995 -549595770</internalNodes>
      <leafValues>
        -7.0289112627506256e-02 3.2849156856536865e-01</leafValues></_>
    <_>
      <internalNodes>
        0 -1 21 1851140238 -2070912127 1034297015 -59308913 -751343194
        -948092376 1718393257 -1073854829</internalNodes>
      <leafValues>
        -1.7651902139186859e-01 1.1678437888622284e-01</leafValues></_>
    <_>
      <internalNodes>
        0 -1 10 -79191282 -741700006 1340691246 -694157802 -204011819
        -327694917 1999201860 -81997483</internalNodes>
      <leafValues>
        -1.2165857106447220e-01 1.4814837276935577e-01</leafValues></_>
    <_>
      <internalNodes>
        0 -1 125 1230156288 -2068781601 -1050480388 25225651 965833969
        -928923921 1760029457 1363773884</internalNodes>
      <leafValues>
        -4.2400050163269043e-01 5.0429023802280426e-02</leafValues></_>
    <_>
      <internalNodes>
        0 -1 81 -1505426932 -390150413 560693548 -1789654810 616893044
        1080195141 1108215808 -2059345874</internalNodes>
      <leafValues>
        -2.0722003281116486e-01 5.8882758021354675e-02</leafValues></_>
    <_>
      <internalNodes>
        0 -1 40 567612709 55393150 -2071313753 -334338300 1106502
        1018789431 1916800778 918345445</internalNodes>
      <leafValues>
        -1.5121462941169739e-01 1.0725804418325424e-01</leafValues></_>
    <_>
      <internalNodes>
        0 -1 176 141909781 -1496171561 50566361 -1672208488 2096765241
        -1945076668 1050151673 -1890096402</internalNodes>
      <leafValues>
        -1.3470214605331421e-01 1.1659593880176544e-01</leafValues></_>
    <_>
      <internalNodes>
        0 -1 89 1855383510 581318066 2143769083 -505068961 1848230400
        518557100 1481587572 483449469</internalNodes>
      <leafValues>
        -1.8025675415992737e-01 8.2309655845165253e-02</leafValues></_>
    <_>
      <internalNodes>
        0 -1 60 343277568 1244547119 1000115088 -2134177020 1700951424
        1010264839 680804420 72686086</internalNodes>
      <leafValues>
        -3.6934059858322144e-01 3.9820425212383270e-02</leafValues></_>
    <_>
      <internalNodes>
        0 -1 200 738339360 728827106 -1232862606 112940078 485490688
        1028676693 -515483038 1718677790</internalNodes>
      <leafValues>
        -2.7078461647033691e-01 5.2970532327890396e-02</leafValues></_>
    <_>
      <internalNodes>
        0 -1 202 -777606161 -14113282 -272175516 1207596298 -450365489
        -1826773505 -1277530276 -497160394</internalNodes>
      <leafValues>
        -7.1669101715087891e-02 2.1412205696105957e-01</leafValues></_>
    <_>
      <internalNodes>
        0 -1 219 1906783008 -2122740086 -997744286 127047398 1403162432
        131781089 1594194776 175494680</internalNodes>
      <leafValues>
        -2.3065204918384552e-01 6.4616084098815918e-02</leafValues></_>
    <_>
      <internalNodes>
        0 -1 5 100676106 683182352 923787264 -1502266412 1450640486
        1972867220 270848836 1099088</internalNodes>
      <leafValues>
        -4.4751158356666565e-01 2.8051631525158882e-02</leafValues></_>
    <_>
      <internalNodes>
        0 -1 150 1434750240 1086077239 816878004 15499931 1558844736
        137565934 1404602961 436238085</internalNodes>
      <leafValues>
        -2.2087503969669342e-01 6.2327332794666290e-02</leafValues></_>
    <_>
      <internalNodes>
        0 -1 96 -334239992 1981853851 -1166935197 1021343524 -990849149
        1870569423 -772476481 -614674275</internalNodes>
      <leafValues>
        -1.0028570890426636e-01 1.3585686683654785e-01</leafValues></_>
    <_>
      <internalNodes>
        0 -1 121 -2055423428 2012313648 1963060048 1807809738 -163454038
        698409969 -1660771669 -1040067438</internalNodes>
      <leafValues>
        -1.3892522454261780e-01 1.0363113135099411e-01</leafValues></_>
    <_>
      <internalNodes>
        0 -1 57 -1154780775 -1258679057 -558019716 984411870 -59751044
        -19208693 2113905115 777479743</internalNodes>
      <leafValues>
        -1.0349050909280777e-01 1.4925366640090942e-01</leafValues></_>
    <_>
      <internalNodes>
        0 -1 34 -1059411164 -1442441840 -2129640286 718198940 799701711
        254019593 310803518 874516806</internalNodes>
      <leafValues>
        -5.6439900398254395e-01 2.4697361513972282e-02</leafValues></_>
    <_>
      <internalNodes>
        0 -1 206 1097468929 472718346 -251628781 882261640 2146304563
        830395170 798972041 -17443013</internalNodes>
      <leafValues>
        -1.3188153505325317e-01 1.0621278733015060e-01</leafValues></_>
    <_>
      <internalNodes>
        0 -1 90 1497432593 356374500 -1194982606 1529625513 964386307
        -979464505 509708117 722437555</internalNodes>
      <leafValues>
        -1.2914261221885681e-01 1.0808763653039932e-01</leafValues></_>
    <_>
      <internalNodes>
        0 -1 64 -69223527 -12583997 -540033847 -269530225 -170747045
        -1170247823 -1251482114 -537030264</internalNodes>
      <leafValues>
        -4.4810038059949875e-02 3.1607854366302490e-01</leafValues></_>
    <_>
      <internalNodes>
        0 -1 2 644525581 -1540291649 1212802924 -326206766 1263225567
        -489756241 -1307231340 1365307186</internalNodes>
      <leafValues>
        -1.7060725390911102e-01 8.2698248326778412e-02</leafValues></_>
    <_>
      <internalNodes>
        0 -1 3 -1049690182 1484818030 -2103205958 1823406492 -2053922987
        -1292251169 1300337210 -25480729</internalNodes>
      <leafValues>
        -1.0848842561244965e-01 1.2668758630752563e-01</leafValues></_>
    <_>
      <internalNodes>
        0 -1 44 1208657956 1755133208 1488303930 -900408762 33953856
        1735208968 286359298 346650988</internalNodes>
      <leafValues>
        -3.0826616287231445e-01 4.3677892535924911e-02</leafValues></_>
    <_>
      <internalNodes>
        0 -1 129 -810027527 -140378189 -143749640 -471965730 -17980203
        -69207145 -287587869 -68161857</internalNodes>
      <leafValues>
        -4.2712498456239700e-02 3.3589056134223938e-01</leafValues></_>
    <_>
      <internalNodes>
        0 -1 39 574635180 5007740 2023680020 527558 2075206720 103504463
        22028360 20982852</internalNodes>
      <leafValues>
        -3.5092225670814514e-01 3.9987109601497650e-02</leafValues></_>
    <_>
      <internalNodes>
        0 -1 18 322311969 -192733408 1994739598 1052605953 -184060706
        -638682266 667137899 -1255999585</internalNodes>
      <leafValues>
        -9.9252536892890930e-02 1.3998036086559296e-01</leafValues></_>
    <_>
      <internalNodes>
        0 -1 58 -388226804 239337720 1547040921 -1903337296 1628701941
        1652240476 67654383 5767947</internalNodes>
      <leafValues>
        -4.0701135993003845e-01 3.3321753144264221e-02</leafValues></_>
    <_>
      <internalNodes>
        0 -1 222 -1616063173 -784484363 -252841995 -838913273 -13108261
        -2006986841 -4259893 -1770554093</internalNodes>
      <leafValues>
        -7.0976629853248596e-02 1.9894099235534668e-01</leafValues></_>
    <_>
      <internalNodes>
        0 -1 170 585663236 1483526196 1257013724 1456085318 713417433
        872055506 1230578912 322644442</internalNodes>
      <leafValues>
        -2.7074053883552551e-01 5.2546706050634384e-02</leafValues></_>
    <_>
      <internalNodes>
        0 -1 94 1811159588 1759031504 -1329575721 -1747917927
        -1947119371 -1305235039 -399445858 436732170</internalNodes>
      <leafValues>
        -2.3801249265670776e-01 5.7504959404468536e-02</leafValues></_>
    <_>
      <internalNodes>
        0 -1 216 171182082 3120127 538592672 9989967 406522624
        1580060457 319619584 1076644928</internalNodes>
      <leafValues>
        -3.5264998674392700e-01 3.8375817239284515e-02</leafValues></_>
    <_>
      <internalNodes>
        0 -1 42 -1078600995 -1079026427 -1535849601 1910315437
        -201472369 -478118017 -989940270 -1097905442</internalNodes>
      <leafValues>
        -6.9317527115345001e-02 1.9983737170696259e-01</leafValues></_>
    <_>
      <internalNodes>
        0 -1 194 24066 69876224 958400081 640706400 805307152 766044028
        490105856 286545008</internalNodes>
      <leafValues>
        -3.9703112840652466e-01 3.4741092473268509e-02</leafValues></_>
    <_>
      <internalNodes>
        0 -1 193 972287842 -1632306836 -1091830062 -1325797820 938115035
        -1749404714 1057880543 -1843378</internalNodes>
      <leafValues>
        -7.4906066060066223e-02 1.9471743702888489e-01</leafValues></_>
    <_>
      <internalNodes>
        0 -1 113 -1805675292 1106528354 801290238 182133828 -1945720058
        6824995 598912636 -815237428</internalNodes>
      <leafValues>
        -2.2770594060420990e-01 6.2760934233665466e-02</leafValues></_>
    <_>
      <internalNodes>
        0 -1 132 -416158155 1551493308 -554762265 993791846 142487459
        -33755596 830227271 -1240764075</internalNodes>
      <leafValues>
        -1.0504186153411865e-01 1.3257478177547455e-01</leafValues></_>
    <_>
      <internalNodes>
        0 -1 203 1165864483 -1955452945 -341938651 1542451948 -384973395
        -1647534209 -395740948 -1690809166</internalNodes>
      <leafValues>
        -8.7179362773895264e-02 1.5955197811126709e-01</leafValues></_>
    <_>
      <internalNodes>
        0 -1 214 -1647601197 -178641860 -695929950 250300044 1638515812
        1870116830 1669471965 -500314228</internalNodes>
      <leafValues>
        -1.0873842984437943e-01 1.2704575061798096e-01</leafValues></_>
    <_>
      <internalNodes>
        0 -1 84 1014293631 -53658705 -1967785423 -608716833 -1179132178
        -177389733 -1688690554 -605040915</internalNodes>
      <leafValues>
        -5.9718966484069824e-02 2.3066994547843933e-01</leafValues></_>
    <_>
      <internalNodes>
        0 -1 55 -1568010080 -1604688214 -1970950797 -561613922 896741132
        956660423 325142306 335819330</internalNodes>
      <leafValues>
        -2.8607898950576782e-01 5.0170943140983582e-02</leafValues></_>
    <_>
      <internalNodes>
        0 -1 179 -675092705 -1117831423 -411670686 -155288762 -291277114
        -1073841888 1918628635 -539269176</internalNodes>
      <leafValues>
        -7.7114388346672058e-02 1.7434740066528320e-01</leafValues></_>
    <_>
      <internalNodes>
        0 -1 165 -614528768 -1046427392 -1358373206 1342787112
        -1971320832 -2004308336 852355125 433072776</internalNodes>
      <leafValues>
        -2.9410603642463684e-01 4.5217171311378479e-02</leafValues></_>
    <_>
      <internalNodes>
        0 -1 146 1647596755 -239439393 688658687 2107014077 1154229440
        -817149434 938502841 -1389408902</internalNodes>
      <leafValues>
        -1.1513974517583847e-01 1.1574477702379227e-01</leafValues></_>
    <_>
      <internalNodes>
        0 -1 198 7864320 5218896 644115538 9179004 1892224000 99530333
        4325376 14404</internalNodes>
      <leafValues>
        -5.2694869041442871e-01 2.5438996031880379e-02</leafValues></_>
    <_>
      <internalNodes>
        0 -1 196 -1397766930 -286093900 1975182842 -101761042 -807040531
        -1047041537 -829694754 -370155811</internalNodes>
      <leafValues>
        -5.7093240320682526e-02 2.4888713657855988e-01</leafValues></_>
    <_>
      <internalNodes>
        0 -1 61 985795328 -1975281406 -1669287204 562741920 1847613545
        2055984925 686000164 151002374</internalNodes>
      <leafValues>
        -5.5223888158798218e-01 2.5310695171356201e-02</leafValues></_>
    <_>
      <internalNodes>
        0 -1 223 -108054942 -1647149288 45235286 -1375334720 759679694
        96659796 554953267 1292225938</internalNodes>
      <leafValues>
        -1.5617929399013519e-01 8.9509613811969757e-02</leafValues></_>
    <_>
      <internalNodes>
        0 -1 118 605838912 780414068 681444396 570425598 273698384
        2084716142 33579556 67394100</internalNodes>
      <leafValues>
        -3.9855009317398071e-01 3.3452000468969345e-02</leafValues></_>
    <_>
      <internalNodes>
        0 -1 65 -13371917 -609494736 -1946364487 -75958547 -184764716
        -3342532 -461516835 -90507329</internalNodes>
      <leafValues>
        -3.2146506011486053e-02 4.6164608001708984e-01</leafValues></_>
    <_>
      <internalNodes>
        0 -1 195 -1612187145 -10530949 455546449 117527805 -1984331274
        -785 -612393989 -228851829</internalNodes>
      <leafValues>
        -6.3670724630355835e-02 2.0789836347103119e-01</leafValues></_>
    <_>
      <internalNodes>
        0 -1 54 734433822 788950785 1561353652 -631342333 -663080617
        491670883 905722975 -1660615419</internalNodes>
      <leafValues>
        -1.5468063950538635e-01 8.7788105010986328e-02</leafValues></_>
    <_>
      <internalNodes>
        0 -1 136 149334532 101227058 115220250 640163606 1119875327
        1361208985 1157779488 36900896</internalNodes>
      <leafValues>
        -4.7147980332374573e-01 2.7845390141010284e-02</leafValues></_>
    <_>
      <internalNodes>
        0 -1 212 107610624 -2031777038 164757008 112070232 138700800
        1836579254 773865476 525904</internalNodes>
      <leafValues>
        -4.4550961256027222e-01 2.6421742513775826e-02</leafValues></_>
    <_>
      <internalNodes>
        0 -1 217 -67240773 -752109642 -479774049 -771788550 -61357429
        -1769111685 1499332559 -76677201</internalNodes>
      <leafValues>
        -4.7352351248264313e-02 3.0356976389884949e-01</leafValues></_>
    <_>
      <internalNodes>
        0 -1 107 552639122 7381048 -1329594240 1584944316 947606107
        371196043 1191184420 590356550</internalNodes>
      <leafValues>
        -4.6786120533943176e-01 2.9071679338812828e-02</leafValues></_>
    <_>
      <internalNodes>
        0 -1 103 -584413 -550520997 -8634829 -642812061 1942744554
        -273711257 1465628636 -272922627</internalNodes>
      <leafValues>
        -3.8023207336664200e-02 3.9515841007232666e-01</leafValues></_>
    <_>
      <internalNodes>
        0 -1 23 -1507578720 -2137106596 1376888922 -1991896998
        -572620939 -41466403 570511889 68044851</internalNodes>
      <leafValues>
        -5.7166481018066406e-01 2.6830391958355904e-02</leafValues></_>
    <_>
      <internalNodes>
        0 -1 210 2147369423 -1166167146 -2127159539 -228743307
        -1871011932 2138623799 1095664141 -670964379</internalNodes>
      <leafValues>
        -1.0826353728771210e-01 1.2510368227958679e-01</leafValues></_>
    <_>
      <internalNodes>
        0 -1 46 -73629745 -124486935 1064280049 1598539690 -503401622
        -1119387819 -130180969 -98647553</internalNodes>
      <leafValues>
        -5.7852763682603836e-02 2.2129891812801361e-01</leafValues></_>
    <_>
      <internalNodes>
        0 -1 69 113160329 -1030988575 1003950411 -1234377733 -719507011
        817257362 -1520095198 -751266400</internalNodes>
      <leafValues>
        -1.8014991283416748e-01 8.6813643574714661e-02</leafValues></_>
    <_>
      <internalNodes>
        0 -1 120 1301202608 1217806995 1499209848 2087343791 1219888339
        1888655068 1159727015 270038229</internalNodes>
      <leafValues>
        -1.5958146750926971e-01 8.3825536072254181e-02</leafValues></_>
    <_>
      <internalNodes>
        0 -1 117 1611588672 112783429 2047946390 836897506 403842593
        2238481 1966152752 17043476</internalNodes>
      <leafValues>
        -4.2399391531944275e-01 3.0229771509766579e-02</leafValues></_>
    <_>
      <internalNodes>
        0 -1 0 -707011121 -781274658 1966158771 1976957743 -11354209
        998185863 -781517089 -67134769</internalNodes>
      <leafValues>
        -5.0566770136356354e-02 2.6099216938018799e-01</leafValues></_>
    <_>
      <internalNodes>
        0 -1 178 585622375 551169073 1315781461 -628607003 -1260067450
        -1397915850 -1621560691 -1378882690</internalNodes>
      <leafValues>
        -9.3492940068244934e-02 1.3537472486495972e-01</leafValues></_>
    <_>
      <internalNodes>
        0 -1 88 -1726021941 -709064628 -1222971043 -415271157 -530913812
        -35242421 -1999902135 -284216372</internalNodes>
      <leafValues>
        -7.9261511564254761e-02 1.8050672113895416e-01</leafValues></_>
    <_>
      <internalNodes>
        0 -1 56 538192640 8841730 2131402812 -1943876434 832640352
        303063718 1013804176 68687152</internalNodes>
      <leafValues>
        -4.5537447929382324e-01 2.8731029480695724e-02</leafValues></_>
    <_>
      <internalNodes>
        0 -1 51 -478657096 -999889512 662175317 2053186555 -1774102112
        -608174327 -571129931 -141656261</internalNodes>
      <leafValues>
        -9.9701695144176483e-02 1.3460147380828857e-01</leafValues></_>
    <_>
      <internalNodes>
        0 -1 11 145686664 34247710 130865503 -393872337 1664366861
        1261158754 1465452922 1577876556</internalNodes>
      <leafValues>
        -1.7627251148223877e-01 7.7076651155948639e-02</leafValues></_>
    <_>
      <internalNodes>
        0 -1 36 707808413 1056875618 180373432 1256990760 1615666207
        1314755960 909431618 67377009</internalNodes>
      <leafValues>
        -2.1457956731319427e-01 6.3796699047088623e-02</leafValues></_>
    <_>
      <internalNodes>
        0 -1 32 -671203499 -202567881 2072768443 -540829 -1174411788
        -1351393410 388496318 -14191000</internalNodes>
      <leafValues>
        -4.2646974325180054e-02 3.1073525547981262e-01</leafValues></_>
    <_>
      <internalNodes>
        0 -1 160 56107776 1174590132 -1744183407 386986072 829161536
        113265852 -113213868 323496647</internalNodes>
      <leafValues>
        -3.9610427618026733e-01 3.4182116389274597e-02</leafValues></_>
    <_>
      <internalNodes>
        0 -1 45 868993054 -981002361 868133561 1334194442 810710634
        543766300 285688185 843953411</internalNodes>
      <leafValues>
        -1.4372189342975616e-01 8.9177705347537994e-02</leafValues></_>
    <_>
      <internalNodes>
        0 -1 157 -537920513 922465744 -1077936257 1539045246 -1078202947
        1879029695 -1225005060 -1031024449</internalNodes>
      <leafValues>
        -3.0920330435037613e-02 4.3183603882789612e-01</leafValues></_>
    <_>
      <internalNodes>
        0 -1 152 705564160 -2146227581 -2011447157 289499632 1750018116
        -1089264505 410182361 271798103</internalNodes>
      <leafValues>
        -5.4742425680160522e-01 2.6500120759010315e-02</leafValues></_>
    <_>
      <internalNodes>
        0 -1 9 640332554 488667140 161954061 201533773 -1878124931
        392042250 1895918119 341859344</internalNodes>
      <leafValues>
        -2.1268707513809204e-01 5.8752473443746567e-02</leafValues></_>
    <_>
      <internalNodes>
        0 -1 48 -982645183 -956986156 707024129 550577105 2129453427
        -597330295 1097027125 257184200</internalNodes>
      <leafValues>
        -1.7407888174057007e-01 7.6560527086257935e-02</leafValues></_>
    <_>
      <internalNodes>
        0 -1 221 -505209413 378919326 -769685870 -8551708 -270553219
        -1480266281 -45312801 -201328633</internalNodes>
      <leafValues>
        -7.3686927556991577e-02 1.7746470868587494e-01</leafValues></_>
    <_>
      <internalNodes>
        0 -1 141 -782349716 881479936 950746 136839842 69107721
        1713854555 153239928 718806308</internalNodes>
      <leafValues>
        -4.9426504969596863e-01 2.5411821901798248e-02</leafValues></_></weakClassifiers></stage15>
</opencv_storage>
