<?xml version="1.0"?>
<opencv_storage>
<stage10>
  <maxWeakCount>33</maxWeakCount>
  <stageThreshold>-1.4157981872558594e+00</stageThreshold>
  <weakClassifiers>
    <_>
      <internalNodes>
        0 -1 196 -892352257 -540278882 -622864385 -18875921 -822492725
        -85206049 -355862066 -500432929</internalNodes>
      <leafValues>
        -4.5576408505439758e-01 1.8663194775581360e-01</leafValues></_>
    <_>
      <internalNodes>
        0 -1 101 -67440642 1299633143 1145374671 -15280161 1196678999
        -585117729 1762246623 -847775777</internalNodes>
      <leafValues>
        -4.1764008998870850e-01 1.2156043201684952e-01</leafValues></_>
    <_>
      <internalNodes>
        0 -1 88 1423341279 1440738983 -537167905 -545292801 696659700
        -25280661 1324841960 -13681666</internalNodes>
      <leafValues>
        -1.6477777063846588e-01 3.4522029757499695e-01</leafValues></_>
    <_>
      <internalNodes>
        0 -1 182 -336616672 177898687 -645678429 12091551 1942884260
        1539725029 -890834879 1109574147</internalNodes>
      <leafValues>
        -4.3483898043632507e-01 1.0783062875270844e-01</leafValues></_>
    <_>
      <internalNodes>
        0 -1 114 -1898045018 1927167387 574361800 2008168990 1738868000
        1411858523 1917517828 2136946814</internalNodes>
      <leafValues>
        -3.1232640147209167e-01 1.6272076964378357e-01</leafValues></_>
    <_>
      <internalNodes>
        0 -1 58 -321871570 2116870398 -11347717 -844967685 1749362869
        2132293273 34361851 1075642573</internalNodes>
      <leafValues>
        -4.7829720377922058e-01 1.0671249032020569e-01</leafValues></_>
    <_>
      <internalNodes>
        0 -1 197 646942246 66887902 1382608606 897491922 -492920088
        -612138769 1850139303 1122883230</internalNodes>
      <leafValues>
        -2.2314929962158203e-01 2.0465162396430969e-01</leafValues></_>
    <_>
      <internalNodes>
        0 -1 172 1326186254 1472945931 -1996369532 323863190 -360482635
        25832109 -1468600912 -1998459973</internalNodes>
      <leafValues>
        -3.0612850189208984e-01 1.2064734101295471e-01</leafValues></_>
    <_>
      <internalNodes>
        0 -1 178 844067569 -1669024235 787431399 -10603528 -2030051953
        -1364492490 390463149 -1075872098</internalNodes>
      <leafValues>
        -1.5373311936855316e-01 2.6773965358734131e-01</leafValues></_>
    <_>
      <internalNodes>
        0 -1 35 77106314 -779572725 265106774 1290011102 -1671113244
        1033514135 992165728 1537417332</internalNodes>
      <leafValues>
        -5.9071630239486694e-01 6.7234091460704803e-02</leafValues></_>
    <_>
      <internalNodes>
        0 -1 75 -424232305 -52162613 -1374338814 -681664573 -132735910
        320802882 1694761044 -251178234</internalNodes>
      <leafValues>
        -2.1125130355358124e-01 2.0933783054351807e-01</leafValues></_>
    <_>
      <internalNodes>
        0 -1 192 830974471 -1512958593 1174608713 1138901322 -2030575307
        87817195 1294701549 -1887454294</internalNodes>
      <leafValues>
        -2.2030742466449738e-01 1.8686184287071228e-01</leafValues></_>
    <_>
      <internalNodes>
        0 -1 129 2093392908 348370870 1474309884 1524059094 -35020560
        -1468056036 -20782192 437578342</internalNodes>
      <leafValues>
        -2.9226827621459961e-01 1.4153328537940979e-01</leafValues></_>
    <_>
      <internalNodes>
        0 -1 43 -1370689484 -1889836321 -1370694404 -549422754
        1219512551 -893246205 -1939244256 -83027624</internalNodes>
      <leafValues>
        -2.4076993763446808e-01 1.6588747501373291e-01</leafValues></_>
    <_>
      <internalNodes>
        0 -1 134 165645348 743218485 -729244419 294815804 152605028
        -1109292902 1849809332 405823252</internalNodes>
      <leafValues>
        -4.7604495286941528e-01 8.0318935215473175e-02</leafValues></_>
    <_>
      <internalNodes>
        0 -1 224 -627614253 -1320027150 50947107 959533381 -145779204
        -1891832897 -411914373 -674760898</internalNodes>
      <leafValues>
        -1.3350601494312286e-01 2.9858604073524475e-01</leafValues></_>
    <_>
      <internalNodes>
        0 -1 59 794748844 642392550 1751406556 1471146442 511171827
        1776790687 1360840751 191157461</internalNodes>
      <leafValues>
        -5.2201986312866211e-01 7.4134431779384613e-02</leafValues></_>
    <_>
      <internalNodes>
        0 -1 91 -143593136 -201330303 -134365419 -4794765 -46663684
        -1350765749 -860227449 -681585257</internalNodes>
      <leafValues>
        -1.0508304089307785e-01 4.3327510356903076e-01</leafValues></_>
    <_>
      <internalNodes>
        0 -1 4 705111011 -284115008 172529369 -1091652399 849176594
        -544700914 69235982 1750091070</internalNodes>
      <leafValues>
        -3.6573845148086548e-01 1.0308943688869476e-01</leafValues></_>
    <_>
      <internalNodes>
        0 -1 211 -380659523 -5128485 -1292939587 -848443668 -402046663
        -10051637 -505814642 -619717811</internalNodes>
      <leafValues>
        -1.1954043805599213e-01 3.1992051005363464e-01</leafValues></_>
    <_>
      <internalNodes>
        0 -1 207 -1384698101 -1917894038 198885171 -844009666
        -1174689985 -1881833605 -1654696791 -401616897</internalNodes>
      <leafValues>
        -1.3817431032657623e-01 2.6264432072639465e-01</leafValues></_>
    <_>
      <internalNodes>
        0 -1 68 -293690588 -1913196841 75765208 377849621 470776340
        -302069989 1333905980 136267299</internalNodes>
      <leafValues>
        -6.8488520383834839e-01 5.5005438625812531e-02</leafValues></_>
    <_>
      <internalNodes>
        0 -1 203 -9527553 -470391077 -275845448 1089924772 1591591647
        449175543 -1594885928 -89071958</internalNodes>
      <leafValues>
        -1.1748161911964417e-01 3.3477953076362610e-01</leafValues></_>
    <_>
      <internalNodes>
        0 -1 89 2026282864 785281234 1405850106 -1428144100 54098704
        938801333 443521616 70840924</internalNodes>
      <leafValues>
        -4.5705476403236389e-01 8.1697896122932434e-02</leafValues></_>
    <_>
      <internalNodes>
        0 -1 148 -1067460487 -387041986 383729493 1781152490 -1238909331
        -1889632912 385703403 -1350045570</internalNodes>
      <leafValues>
        -1.5702947974205017e-01 2.3759894073009491e-01</leafValues></_>
    <_>
      <internalNodes>
        0 -1 3 1259213723 -108480770 463839851 2017376405 -250347704
        -610482195 2013491894 -79171181</internalNodes>
      <leafValues>
        -1.5459911525249481e-01 2.3677580058574677e-01</leafValues></_>
    <_>
      <internalNodes>
        0 -1 139 1564367392 1356211645 1501661688 348496558 539372772
        222083851 998320768 421755492</internalNodes>
      <leafValues>
        -7.4275016784667969e-01 5.0348393619060516e-02</leafValues></_>
    <_>
      <internalNodes>
        0 -1 144 -446192330 -336981533 4097466 1601468854 2023852499
        389762321 1227169972 320748346</internalNodes>
      <leafValues>
        -3.2454314827919006e-01 1.0433277487754822e-01</leafValues></_>
    <_>
      <internalNodes>
        0 -1 2 149815816 -1527250116 1141194569 2031680168 725696668
        -347420254 -1219035066 1897664292</internalNodes>
      <leafValues>
        -3.8908869028091431e-01 9.2296682298183441e-02</leafValues></_>
    <_>
      <internalNodes>
        0 -1 9 -25052965 -576587643 2004474255 1432485551 -856227844
        1599608362 1897952223 -1807364429</internalNodes>
      <leafValues>
        -1.3299977779388428e-01 2.9100334644317627e-01</leafValues></_>
    <_>
      <internalNodes>
        0 -1 159 -2021077985 -403369228 2019883419 -2137965817
        -636891967 -865265993 -842722670 2053079000</internalNodes>
      <leafValues>
        -1.9829425215721130e-01 1.9067846238613129e-01</leafValues></_>
    <_>
      <internalNodes>
        0 -1 42 847145723 -81240224 118211547 1302107199 1910326414
        -858240756 685009666 119478554</internalNodes>
      <leafValues>
        -2.0736922323703766e-01 1.7657151818275452e-01</leafValues></_>
    <_>
      <internalNodes>
        0 -1 223 -1222022621 -2120779804 1401947536 -1915736120
        1740888296 -1459189319 756314147 -749867334</internalNodes>
      <leafValues>
        -1.8184816837310791e-01 2.0062251389026642e-01</leafValues></_></weakClassifiers></stage10>
</opencv_storage>
