<?xml version="1.0"?>
<opencv_storage>
<stage13>
  <maxWeakCount>44</maxWeakCount>
  <stageThreshold>-1.2714855670928955e+00</stageThreshold>
  <weakClassifiers>
    <_>
      <internalNodes>
        0 -1 40 -725506689 -538971393 1107547001 -9 -1576006012
        -77387763 -398132517 -8429969</internalNodes>
      <leafValues>
        -4.4932845234870911e-01 1.5948276221752167e-01</leafValues></_>
    <_>
      <internalNodes>
        0 -1 181 -50607361 -603982903 -4276501 -2110721 -424415489
        -541065283 -320022020 -98837779</internalNodes>
      <leafValues>
        -1.1744674295186996e-01 4.7090193629264832e-01</leafValues></_>
    <_>
      <internalNodes>
        0 -1 17 -1396659154 -807889586 -736827024 -862071346 1601781439
        -631374993 -1973375261 -33033376</internalNodes>
      <leafValues>
        -5.9303319454193115e-01 4.9550693482160568e-02</leafValues></_>
    <_>
      <internalNodes>
        0 -1 63 -16254193 -8194158 -6822088 -5311643 -8913569 -81044179
        1438246726 -10554831</internalNodes>
      <leafValues>
        -8.5892781615257263e-02 4.0031370520591736e-01</leafValues></_>
    <_>
      <internalNodes>
        0 -1 208 -1095140001 795676146 -1016001481 -983013594
        -1078214981 -1912635454 468643823 -8209</internalNodes>
      <leafValues>
        -7.8421920537948608e-02 3.6441817879676819e-01</leafValues></_>
    <_>
      <internalNodes>
        0 -1 185 729263712 -1709053457 1076020906 -1949571678 838945313
        1076381898 680192945 1716791970</internalNodes>
      <leafValues>
        -4.8061794042587280e-01 4.5195039361715317e-02</leafValues></_>
    <_>
      <internalNodes>
        0 -1 5 242413698 782024961 -555908825 -1565690985 -195100054
        -599334726 922800204 1913259868</internalNodes>
      <leafValues>
        -4.4102239608764648e-01 9.1883160173892975e-02</leafValues></_>
    <_>
      <internalNodes>
        0 -1 176 242310867 -1502953498 805010619 2134457024 2147003827
        -1938342540 1067055833 -12434</internalNodes>
      <leafValues>
        -1.2238267809152603e-01 2.4191194772720337e-01</leafValues></_>
    <_>
      <internalNodes>
        0 -1 4 -474337104 -662605204 891045591 1251128626 -167108593
        -16189739 358241849 2015130778</internalNodes>
      <leafValues>
        -2.2186359763145447e-01 1.3960510492324829e-01</leafValues></_>
    <_>
      <internalNodes>
        0 -1 53 117710624 1180515583 -2118089838 -1635166518 -678800266
        -1874007818 1213569701 5959958</internalNodes>
      <leafValues>
        -6.7518198490142822e-01 4.0980029851198196e-02</leafValues></_>
    <_>
      <internalNodes>
        0 -1 64 1659306155 -536875187 -1773175592 -1879102562 -799024161
        574340961 845180776 -717371615</internalNodes>
      <leafValues>
        -1.5295436978340149e-01 1.9011236727237701e-01</leafValues></_>
    <_>
      <internalNodes>
        0 -1 194 -1194395141 -1540821227 1063747157 1051690961
        -1143888105 -1855131652 823652335 -613425153</internalNodes>
      <leafValues>
        -9.3636251986026764e-02 2.9970067739486694e-01</leafValues></_>
    <_>
      <internalNodes>
        0 -1 196 1265370196 1843758492 -1069701048 -594766130 -79851454
        -494581507 1520422672 314900</internalNodes>
      <leafValues>
        -3.0973234772682190e-01 8.6734950542449951e-02</leafValues></_>
    <_>
      <internalNodes>
        0 -1 80 462828352 -241824745 558444862 584527934 -1063115902
        -1333712765 1017821824 6110276</internalNodes>
      <leafValues>
        -5.1161497831344604e-01 5.1860943436622620e-02</leafValues></_>
    <_>
      <internalNodes>
        0 -1 211 -914587234 -408320306 1273908974 1280263564 -1196897364
        2028978121 -480292473 2016337660</internalNodes>
      <leafValues>
        -1.6335012018680573e-01 1.8094165623188019e-01</leafValues></_>
    <_>
      <internalNodes>
        0 -1 50 1323738382 -1264664244 -7125962 1830479834 -535474041
        1405550811 1712522641 1661854948</internalNodes>
      <leafValues>
        -4.7306290268898010e-01 5.5066779255867004e-02</leafValues></_>
    <_>
      <internalNodes>
        0 -1 84 -1435440899 -52477957 1077717365 2134840959 -511820548
        -230094221 -1043142346 -77869009</internalNodes>
      <leafValues>
        -9.6510566771030426e-02 2.9187616705894470e-01</leafValues></_>
    <_>
      <internalNodes>
        0 -1 40 1363359479 -1974775190 -1038891872 -144822764 144307807
        -218687116 1287668416 282384628</internalNodes>
      <leafValues>
        -2.1673014760017395e-01 1.2534637749195099e-01</leafValues></_>
    <_>
      <internalNodes>
        0 -1 39 776748713 -999523988 373313308 291167452 2138400268
        514996831 -1527242726 156446478</internalNodes>
      <leafValues>
        -2.1949689090251923e-01 1.2436716258525848e-01</leafValues></_>
    <_>
      <internalNodes>
        0 -1 126 -989292911 -342509502 1515128308 -538207151 1935206836
        973870968 1987151283 -1895493547</internalNodes>
      <leafValues>
        -1.6659618914127350e-01 1.6683137416839600e-01</leafValues></_>
    <_>
      <internalNodes>
        0 -1 202 116263424 -1693403314 1283647600 62670352 -1490867963
        22716458 709012072 34127678</internalNodes>
      <leafValues>
        -4.1757604479789734e-01 7.1192398667335510e-02</leafValues></_>
    <_>
      <internalNodes>
        0 -1 179 2126799360 106787842 -977119374 -1432954045 -14585327
        115800628 425910292 391246176</internalNodes>
      <leafValues>
        -3.5929262638092041e-01 7.1033440530300140e-02</leafValues></_>
    <_>
      <internalNodes>
        0 -1 153 -821868587 -172133385 -323726915 -806365161 2097351576
        -537264402 1785668563 -88739137</internalNodes>
      <leafValues>
        -9.7012318670749664e-02 2.6587313413619995e-01</leafValues></_>
    <_>
      <internalNodes>
        0 -1 90 -79701197 2000344657 2065722353 -1687864402 -1196254681
        -441082937 779598047 -556804621</internalNodes>
      <leafValues>
        -8.9361421763896942e-02 2.9203447699546814e-01</leafValues></_>
    <_>
      <internalNodes>
        0 -1 7 584589480 -1594849095 295207058 -1293115280 -655333312
        2049476659 -1200577452 218121284</internalNodes>
      <leafValues>
        -4.7564813494682312e-01 5.9477496892213821e-02</leafValues></_>
    <_>
      <internalNodes>
        0 -1 166 -907038854 -503836301 1560631550 1926320792 33131975
        386433192 608164088 1345717307</internalNodes>
      <leafValues>
        -1.9099493324756622e-01 1.3831934332847595e-01</leafValues></_>
    <_>
      <internalNodes>
        0 -1 217 -470244446 -617893889 -480105705 -704719202 -1625455711
        -1998754181 1598947209 -972538088</internalNodes>
      <leafValues>
        -1.5054215490818024e-01 1.6979457437992096e-01</leafValues></_>
    <_>
      <internalNodes>
        0 -1 184 12782340 47907040 -1912485843 279898731 709804160
        -119876472 1648960196 2178562</internalNodes>
      <leafValues>
        -4.8309090733528137e-01 5.3060062229633331e-02</leafValues></_>
    <_>
      <internalNodes>
        0 -1 27 774553898 -1530904576 536969270 -1149886026 2071036070
        637665289 1378918440 1813799875</internalNodes>
      <leafValues>
        -4.5879632234573364e-01 5.2817109972238541e-02</leafValues></_>
    <_>
      <internalNodes>
        0 -1 222 -1242791662 423045881 -206771697 1335518796 -23342630
        -1911566661 -44105734 -809763173</internalNodes>
      <leafValues>
        -1.0915949195623398e-01 2.5787732005119324e-01</leafValues></_>
    <_>
      <internalNodes>
        0 -1 221 1100099409 284662095 -497221615 1812785085 1599204833
        228076289 1871017557 1460852416</internalNodes>
      <leafValues>
        -2.4111358821392059e-01 1.1244735121726990e-01</leafValues></_>
    <_>
      <internalNodes>
        0 -1 120 -708840783 2030722995 1308177081 2087884133 -118199329
        1049729021 153475067 -212093777</internalNodes>
      <leafValues>
        -9.0364918112754822e-02 3.0204829573631287e-01</leafValues></_>
    <_>
      <internalNodes>
        0 -1 118 1998814905 2043100647 1828541883 2078221275 820669072
        -1108074644 -2067666631 -550510849</internalNodes>
      <leafValues>
        -9.1851741075515747e-02 2.8448206186294556e-01</leafValues></_>
    <_>
      <internalNodes>
        0 -1 89 -2031844381 182866098 2093417950 -959061474 1556671088
        -231895920 -60386328 1589237464</internalNodes>
      <leafValues>
        -2.4035441875457764e-01 1.1455026268959045e-01</leafValues></_>
    <_>
      <internalNodes>
        0 -1 192 -1574748157 134367571 5390345 -805289982 -409750089
        504883047 1564453088 70881993</internalNodes>
      <leafValues>
        -2.6461982727050781e-01 1.0331099480390549e-01</leafValues></_>
    <_>
      <internalNodes>
        0 -1 183 89555444 -420155680 -134469714 449620127 1693817861
        1975336347 -1747345928 -771122287</internalNodes>
      <leafValues>
        -1.4712257683277130e-01 1.8047685921192169e-01</leafValues></_>
    <_>
      <internalNodes>
        0 -1 195 -899016138 1652453818 -2146491159 268910761 812684290
        1580003453 440161088 1081132773</internalNodes>
      <leafValues>
        -2.7837353944778442e-01 9.5795236527919769e-02</leafValues></_>
    <_>
      <internalNodes>
        0 -1 129 -1736040391 -459844911 -1923832392 299785354
        -1698656624 1776134428 2119561657 2132093863</internalNodes>
      <leafValues>
        -2.0055060088634491e-01 1.3083939254283905e-01</leafValues></_>
    <_>
      <internalNodes>
        0 -1 224 -211601073 2102572915 -1492795295 -133637611 222805481
        -1623196870 -1484914774 -12585782</internalNodes>
      <leafValues>
        -9.4102524220943451e-02 2.8668421506881714e-01</leafValues></_>
    <_>
      <internalNodes>
        0 -1 93 576858880 116145607 -1944493744 71839891 1830039556
        84249522 268582416 805585165</internalNodes>
      <leafValues>
        -4.7105133533477783e-01 5.5725496262311935e-02</leafValues></_>
    <_>
      <internalNodes>
        0 -1 213 1971047913 -9090360 293581320 1120927409 -201408094
        -671628846 1480946025 -907420972</internalNodes>
      <leafValues>
        -1.2896828353404999e-01 2.0409414172172546e-01</leafValues></_>
    <_>
      <internalNodes>
        0 -1 210 252381323 -1501904498 -1587019185 95806079 71964164
        2002831632 1157699079 4277508</internalNodes>
      <leafValues>
        -3.0019912123680115e-01 9.4289653003215790e-02</leafValues></_>
    <_>
      <internalNodes>
        0 -1 0 1461272816 67283290 508648117 374683663 -1991902257
        708164105 292731441 -166268385</internalNodes>
      <leafValues>
        -1.6181901097297668e-01 1.5784798562526703e-01</leafValues></_>
    <_>
      <internalNodes>
        0 -1 108 111683588 583058257 -1583296154 1358969040 1243107707
        828391433 866214130 5255815</internalNodes>
      <leafValues>
        -6.8611794710159302e-01 3.7883888930082321e-02</leafValues></_></weakClassifiers></stage13>
</opencv_storage>
