<?xml version="1.0"?>
<opencv_storage>
<stage1>
  <maxWeakCount>7</maxWeakCount>
  <stageThreshold>-1.5062410831451416e+00</stageThreshold>
  <weakClassifiers>
    <_>
      <internalNodes>
        0 -1 17 -65538 -1 -513 -8193 -8912897 -26625 -2098177 -1025</internalNodes>
      <leafValues>
        -8.1722778081893921e-01 6.2948751449584961e-01</leafValues></_>
    <_>
      <internalNodes>
        0 -1 79 -73400474 2147352063 -2310146 -67371137 -537133065
        -1079252501 -83886084 -67108869</internalNodes>
      <leafValues>
        -6.4102768898010254e-01 4.1319882869720459e-01</leafValues></_>
    <_>
      <internalNodes>
        0 -1 127 -1362448602 -17891331 -136315403 -134485010 -352850967
        -301014018 -989860931 -1055193829</internalNodes>
      <leafValues>
        -5.1496750116348267e-01 3.3628365397453308e-01</leafValues></_>
    <_>
      <internalNodes>
        0 -1 33 -421593666 -151113881 -412467470 2141073214 913734638
        2130774068 2004325220 -8448186</internalNodes>
      <leafValues>
        -4.6934697031974792e-01 3.5412731766700745e-01</leafValues></_>
    <_>
      <internalNodes>
        0 -1 130 -956372956 -639648833 -673467393 1476386683 -1320158303
        -1308938705 -80881188 285858475</internalNodes>
      <leafValues>
        -5.2742624282836914e-01 3.4135863184928894e-01</leafValues></_>
    <_>
      <internalNodes>
        0 -1 171 -287642124 -1092692266 2046497630 133708506 -1645005867
        507912235 247404732 -50758</internalNodes>
      <leafValues>
        -4.6238633990287781e-01 3.3682188391685486e-01</leafValues></_>
    <_>
      <internalNodes>
        0 -1 7 1862265320 -50448963 2032113467 1740619115 2079522545
        -24127041 2102929271 1565853270</internalNodes>
      <leafValues>
        -4.7524264454841614e-01 3.0345892906188965e-01</leafValues></_></weakClassifiers></stage1>
</opencv_storage>
