<?xml version="1.0"?>
<opencv_storage>
<cascade>
  <stageType>BOOST</stageType>
  <featureType>HAAR</featureType>
  <height>8</height>
  <width>8</width>
  <stageParams>
    <boostType>GAB</boostType>
    <minHitRate>9.9500000476837158e-01</minHitRate>
    <maxFalseAlarm>5.0000000000000000e-01</maxFalseAlarm>
    <weightTrimRate>9.4999999999999996e-01</weightTrimRate>
    <maxDepth>1</maxDepth>
    <maxWeakCount>100</maxWeakCount></stageParams>
  <featureParams>
    <maxCatCount>0</maxCatCount>
    <featSize>1</featSize>
    <mode>BASIC</mode></featureParams>
  <stageNum>1</stageNum>
  <stages>
    <!-- stage 0 -->
    <_>
      <maxWeakCount>4</maxWeakCount>
      <stageThreshold>-2.2636785507202148e+00</stageThreshold>
      <weakClassifiers>
        <_>
          <internalNodes>
            0 -1 1 5.4018706083297729e-01</internalNodes>
          <leafValues>
            -9.8208063840866089e-01 5.6097561120986938e-01</leafValues></_>
        <_>
          <internalNodes>
            0 -1 0 3.9093136787414551e-01</internalNodes>
          <leafValues>
            -9.4136816263198853e-01 4.3860447406768799e-01</leafValues></_>
        <_>
          <internalNodes>
            0 -1 3 2.7830493450164795e-01</internalNodes>
          <leafValues>
            -7.8849279880523682e-01 7.3032468557357788e-01</leafValues></_>
        <_>
          <internalNodes>
            0 -1 2 1.9362863898277283e-01</internalNodes>
          <leafValues>
            -9.8593312501907349e-01 4.4826298952102661e-01</leafValues></_></weakClassifiers></_></stages>
  <features>
    <_>
      <rects>
        <_>
          0 3 6 3 -1.</_>
        <_>
          2 3 2 3 3.</_></rects>
      <tilted>0</tilted></_>
    <_>
      <rects>
        <_>
          1 2 6 4 -1.</_>
        <_>
          3 2 2 4 3.</_></rects>
      <tilted>0</tilted></_>
    <_>
      <rects>
        <_>
          1 2 6 6 -1.</_>
        <_>
          3 2 2 6 3.</_></rects>
      <tilted>0</tilted></_>
    <_>
      <rects>
        <_>
          3 1 2 6 -1.</_>
        <_>
          3 3 2 2 3.</_></rects>
      <tilted>0</tilted></_></features></cascade>
</opencv_storage>
