<?xml version="1.0"?>
<opencv_storage>
<stage13>
  <maxWeakCount>70</maxWeakCount>
  <stageThreshold>-1.6869004964828491e+00</stageThreshold>
  <weakClassifiers>
    <_>
      <internalNodes>
        0 -1 47 -16637 -12605184 -740876790 -33558875 -77893091
        -80748876 2071947532 1937733392</internalNodes>
      <leafValues>
        -7.2562545537948608e-01 -3.0745342373847961e-01</leafValues></_>
    <_>
      <internalNodes>
        0 -1 197 -336613649 -68493069 -357632066 -1344543038 -352345366
        -645410374 -1382706 50329278</internalNodes>
      <leafValues>
        -2.9301539063453674e-01 1.8723423779010773e-01</leafValues></_>
    <_>
      <internalNodes>
        0 -1 17 -1111441478 -959398802 1305728988 -937306787 1970364211
        -586817665 -1419259951 -27330621</internalNodes>
      <leafValues>
        -4.4358590245246887e-01 6.0484465211629868e-02</leafValues></_>
    <_>
      <internalNodes>
        0 -1 116 201794572 1855946719 -1091679715 -79987297 217318485
        2138522634 1816414025 -12584225</internalNodes>
      <leafValues>
        -1.0697381943464279e-01 3.4051144123077393e-01</leafValues></_>
    <_>
      <internalNodes>
        0 -1 82 -1395440650 1455843725 -2061002242 -9372046 -1238990623
        1718945885 1104931053 -579376285</internalNodes>
      <leafValues>
        -2.6831349730491638e-01 8.0879509449005127e-02</leafValues></_>
    <_>
      <internalNodes>
        0 -1 134 -50494460 1901378615 1419472124 823365662 1484306620
        -1242453842 2026936810 403723164</internalNodes>
      <leafValues>
        -2.7053755521774292e-01 1.0834003984928131e-01</leafValues></_>
    <_>
      <internalNodes>
        0 -1 57 -115281120 -187517718 -541237313 -72745251 -715590288
        -70056129 1978792155 -59287945</internalNodes>
      <leafValues>
        -1.3000500202178955e-01 2.3586006462574005e-01</leafValues></_>
    <_>
      <internalNodes>
        0 -1 131 1556377088 1416429023 -1557467156 1424592071 1412112196
        1428741631 795573597 1364585956</internalNodes>
      <leafValues>
        -6.2306469678878784e-01 1.3476438820362091e-02</leafValues></_>
    <_>
      <internalNodes>
        0 -1 201 -1912896372 -162533873 -7901218 1080414060 1308204736
        -2425234 1999096524 -96933395</internalNodes>
      <leafValues>
        -1.1385044455528259e-01 1.9471439719200134e-01</leafValues></_>
    <_>
      <internalNodes>
        0 -1 161 520301284 -585030225 1244317034 1544553146 -1534964892
        1605015657 -257236228 1140644428</internalNodes>
      <leafValues>
        -3.5540476441383362e-01 8.3328835666179657e-02</leafValues></_>
    <_>
      <internalNodes>
        0 -1 149 107234320 111452144 366244631 1015173776 71169060
        -1965171176 999434840 245084890</internalNodes>
      <leafValues>
        -2.4920125305652618e-01 6.9920100271701813e-02</leafValues></_>
    <_>
      <internalNodes>
        0 -1 27 586609410 -330268590 -2094280564 -1359827962 894809796
        1735460880 1916888230 1014237257</internalNodes>
      <leafValues>
        -4.1933134198188782e-01 5.9102185070514679e-02</leafValues></_>
    <_>
      <internalNodes>
        0 -1 52 823985312 -890314276 -69789188 1689579754 2050054172
        1378001064 1082683440 167991818</internalNodes>
      <leafValues>
        -3.5010495781898499e-01 5.4630000144243240e-02</leafValues></_>
    <_>
      <internalNodes>
        0 -1 221 -239657421 -1680091069 794593105 -17510411 -10770453
        248425876 1545983466 -807766194</internalNodes>
      <leafValues>
        -9.7734123468399048e-02 2.0454122126102448e-01</leafValues></_>
    <_>
      <internalNodes>
        0 -1 9 1560484968 1596225541 265493885 893872389 17807871
        -46574037 1378431807 -1788745801</internalNodes>
      <leafValues>
        -1.2341070920228958e-01 1.5871959924697876e-01</leafValues></_>
    <_>
      <internalNodes>
        0 -1 102 -374031483 -680502411 -537035490 -15672538 -1394999396
        -604637274 1397995282 -6753212</internalNodes>
      <leafValues>
        -1.1149372160434723e-01 1.7128194868564606e-01</leafValues></_>
    <_>
      <internalNodes>
        0 -1 73 712812832 1060304310 1774206070 836104377 -101016067
        -1074186040 -1429146556 153204754</internalNodes>
      <leafValues>
        -3.9052972197532654e-01 4.7381661832332611e-02</leafValues></_>
    <_>
      <internalNodes>
        0 -1 43 785182412 -1437185841 1943285340 828046718 541592818
        -8971233 -2073354720 -9676468</internalNodes>
      <leafValues>
        -1.7919117212295532e-01 9.8791636526584625e-02</leafValues></_>
    <_>
      <internalNodes>
        0 -1 183 -835793698 -386732819 -439748627 1500079325 1845350851
        -84232936 -705971205 -626418737</internalNodes>
      <leafValues>
        -7.3339052498340607e-02 2.4613177776336670e-01</leafValues></_>
    <_>
      <internalNodes>
        0 -1 41 1224403686 651081958 1079491454 -1566909536 1233780768
        750793195 2017977384 1225683308</internalNodes>
      <leafValues>
        -3.3569005131721497e-01 5.4988160729408264e-02</leafValues></_>
    <_>
      <internalNodes>
        0 -1 144 -1019600625 -1997384073 -373897857 506624660 296567303
        221727253 1769947637 -1956647686</internalNodes>
      <leafValues>
        -1.6392745077610016e-01 1.0889549553394318e-01</leafValues></_>
    <_>
      <internalNodes>
        0 -1 193 1056492394 -2030995139 -1409456 -1124536826 -1620115461
        -1619036681 459526139 -537395201</internalNodes>
      <leafValues>
        -7.3787011206150055e-02 2.4745325744152069e-01</leafValues></_>
    <_>
      <internalNodes>
        0 -1 101 -1445277908 1280374641 1163800260 281992940 1145493316
        1198514015 2658136 70579058</internalNodes>
      <leafValues>
        -6.0589158535003662e-01 3.0638990923762321e-02</leafValues></_>
    <_>
      <internalNodes>
        0 -1 219 835070752 69836546 -1032377376 95348452 287441984
        115004883 512319600 1129902656</internalNodes>
      <leafValues>
        -3.4312033653259277e-01 4.9757778644561768e-02</leafValues></_>
    <_>
      <internalNodes>
        0 -1 209 1227751281 -1139169440 790588179 585051680 791074553
        -1879574477 1064169190 265998074</internalNodes>
      <leafValues>
        -1.3640913367271423e-01 1.3514862954616547e-01</leafValues></_>
    <_>
      <internalNodes>
        0 -1 84 -1904877499 -18891795 170170749 897193503 -491496324
        -112316586 -929778640 -1688736140</internalNodes>
      <leafValues>
        -1.2454385310411453e-01 1.4070107042789459e-01</leafValues></_>
    <_>
      <internalNodes>
        0 -1 127 -1897780220 -409586856 -42733067 -473913278 813043881
        924893466 105595804 286785802</internalNodes>
      <leafValues>
        -4.5415183901786804e-01 3.6452986299991608e-02</leafValues></_>
    <_>
      <internalNodes>
        0 -1 168 -337654940 -189604394 -1060516494 293916039 -1736246813
        -908931936 -930550808 -2007708691</internalNodes>
      <leafValues>
        -1.2895154953002930e-01 1.3172265887260437e-01</leafValues></_>
    <_>
      <internalNodes>
        0 -1 218 -2056289078 766901611 -20757657 15248751 -1225471350
        -25728257 376291022 -101065332</internalNodes>
      <leafValues>
        -1.0842013359069824e-01 1.8185210227966309e-01</leafValues></_>
    <_>
      <internalNodes>
        0 -1 196 1292110932 -1343877188 1639670890 1246550886 -941244416
        -375428610 1133141826 153146908</internalNodes>
      <leafValues>
        -2.4686259031295776e-01 7.3697008192539215e-02</leafValues></_>
    <_>
      <internalNodes>
        0 -1 45 -7549193 -1748430173 727183009 1044659000 1530474107
        1293663599 -788129905 -478198409</internalNodes>
      <leafValues>
        -1.0501669347286224e-01 1.6701111197471619e-01</leafValues></_>
    <_>
      <internalNodes>
        0 -1 72 638901632 1176896008 559832762 255072604 845268308
        1732531322 1080338632 1413745778</internalNodes>
      <leafValues>
        -5.5409944057464600e-01 3.2354343682527542e-02</leafValues></_>
    <_>
      <internalNodes>
        0 -1 31 719526632 1549020302 681529909 1418610388 -1630052746
        636899382 -2053159936 309081956</internalNodes>
      <leafValues>
        -2.5163760781288147e-01 6.3794590532779694e-02</leafValues></_>
    <_>
      <internalNodes>
        0 -1 178 1666634707 -1631939531 527383493 -1709686816 1961754244
        -1088192715 516337291 -269485217</internalNodes>
      <leafValues>
        -7.9201273620128632e-02 2.1744050085544586e-01</leafValues></_>
    <_>
      <internalNodes>
        0 -1 119 1076836034 178682222 1273396084 -1404680662 1304506225
        -2026019782 839531280 2118920928</internalNodes>
      <leafValues>
        -2.8466656804084778e-01 6.3060514628887177e-02</leafValues></_>
    <_>
      <internalNodes>
        0 -1 195 136829670 -1034074152 -1977270192 237862345 -1742692202
        1610250445 1534467057 248467</internalNodes>
      <leafValues>
        -1.6018523275852203e-01 1.0392421483993530e-01</leafValues></_>
    <_>
      <internalNodes>
        0 -1 153 -838139384 1866369878 -269137557 1338799623 1948976156
        1543272250 2032926792 -1198228737</internalNodes>
      <leafValues>
        -1.7639510333538055e-01 1.0314906388521194e-01</leafValues></_>
    <_>
      <internalNodes>
        0 -1 18 -652243017 -183807707 -274440279 -1080051117 -177275649
        -541898 -1220315685 -81348929</internalNodes>
      <leafValues>
        -6.3180677592754364e-02 2.7400416135787964e-01</leafValues></_>
    <_>
      <internalNodes>
        0 -1 212 -1476754925 -1762153734 188838616 1723833930 1103522851
        -302543884 2118732909 1624397528</internalNodes>
      <leafValues>
        -1.5705882012844086e-01 1.1000146716833115e-01</leafValues></_>
    <_>
      <internalNodes>
        0 -1 47 -2103825114 716155138 1489476169 759128743 -518032750
        -114600202 930685247 -1831567008</internalNodes>
      <leafValues>
        -1.9982260465621948e-01 8.1053502857685089e-02</leafValues></_>
    <_>
      <internalNodes>
        0 -1 76 -834686283 -270320929 162790785 -681603857 -5263201
        1842179229 630958586 -541074243</internalNodes>
      <leafValues>
        -6.3914731144905090e-02 2.7813473343849182e-01</leafValues></_>
    <_>
      <internalNodes>
        0 -1 39 913186029 -831772307 706390334 320392271 -953322
        707493381 -2041565102 23075975</internalNodes>
      <leafValues>
        -1.9529633224010468e-01 8.4244534373283386e-02</leafValues></_>
    <_>
      <internalNodes>
        0 -1 87 -1813426964 -1732939779 584896122 -522187668 -737652172
        342390906 1213230864 168887946</internalNodes>
      <leafValues>
        -2.0735377073287964e-01 7.9349316656589508e-02</leafValues></_>
    <_>
      <internalNodes>
        0 -1 48 -2097926622 -802799660 573886089 1079551929 1802184977
        1424742313 1699071271 1313755347</internalNodes>
      <leafValues>
        -2.0399001240730286e-01 7.9513013362884521e-02</leafValues></_>
    <_>
      <internalNodes>
        0 -1 175 51597832 805507278 302154458 322113785 563406084
        86124598 1946142864 271971901</internalNodes>
      <leafValues>
        -3.7469756603240967e-01 4.1864849627017975e-02</leafValues></_>
    <_>
      <internalNodes>
        0 -1 207 1298542434 498801419 450538546 1137934122 -637698369
        -1883423125 -536879701 -29454469</internalNodes>
      <leafValues>
        -7.4644558131694794e-02 2.3580297827720642e-01</leafValues></_>
    <_>
      <internalNodes>
        0 -1 139 -549824480 1373028488 1118285808 1082559174 554250128
        67644235 696531008 430255668</internalNodes>
      <leafValues>
        -6.6310876607894897e-01 2.6307024061679840e-02</leafValues></_>
    <_>
      <internalNodes>
        0 -1 36 255550687 -608899 -2031978605 1607314961 617578143
        -823322821 -190042722 -1620584611</internalNodes>
      <leafValues>
        -7.9710312187671661e-02 2.2097229957580566e-01</leafValues></_>
    <_>
      <internalNodes>
        0 -1 4 -1491393110 -301682424 -450992229 1721939057 -149116599
        -150477634 35778588 1141133594</internalNodes>
      <leafValues>
        -2.4150623381137848e-01 6.9864466786384583e-02</leafValues></_>
    <_>
      <internalNodes>
        0 -1 224 -1840948826 475451888 643125329 -1191089916 761771384
        -1786877156 1651666920 -518949630</internalNodes>
      <leafValues>
        -1.4069657027721405e-01 1.1894120275974274e-01</leafValues></_>
    <_>
      <internalNodes>
        0 -1 180 345868561 -1403769227 606442977 1917148719 2085738882
        758372093 -908581469 939614828</internalNodes>
      <leafValues>
        -1.7227388918399811e-01 9.4317324459552765e-02</leafValues></_>
    <_>
      <internalNodes>
        0 -1 206 164248587 677975058 1699353347 1278250630 263337649
        871699307 261322301 257202012</internalNodes>
      <leafValues>
        -2.4061071872711182e-01 6.6037200391292572e-02</leafValues></_>
    <_>
      <internalNodes>
        0 -1 91 1563491090 -239439206 -151790 2100746146 -852265473
        -268439229 2004415246 -600260334</internalNodes>
      <leafValues>
        -7.8641228377819061e-02 2.0756226778030396e-01</leafValues></_>
    <_>
      <internalNodes>
        0 -1 176 -865743074 609907137 94073883 1398034325 2010768408
        -1942546059 978934441 -1357387188</internalNodes>
      <leafValues>
        -1.5083435177803040e-01 1.1385505646467209e-01</leafValues></_>
    <_>
      <internalNodes>
        0 -1 223 1554708349 -577243152 1473753047 -457785627 -3675661
        -1443368524 790215355 -11545153</internalNodes>
      <leafValues>
        -6.5289661288261414e-02 2.4844770133495331e-01</leafValues></_>
    <_>
      <internalNodes>
        0 -1 99 760422400 217480819 -2072179888 2632779 -383764476
        355141918 683680292 308</internalNodes>
      <leafValues>
        -5.1962798833847046e-01 3.1379822641611099e-02</leafValues></_>
    <_>
      <internalNodes>
        0 -1 214 1107200832 1695180860 -840654109 233653788 1512360972
        -14683284 2118261288 590274416</internalNodes>
      <leafValues>
        -2.0162469148635864e-01 7.6850630342960358e-02</leafValues></_>
    <_>
      <internalNodes>
        0 -1 210 804539875 559917054 1160927255 257289463 169533390
        2099859250 1465866895 275176705</internalNodes>
      <leafValues>
        -1.4929643273353577e-01 1.0469887405633926e-01</leafValues></_>
    <_>
      <internalNodes>
        0 -1 213 -872946193 -529455 -1385704983 1806499835 -662768734
        -1344025125 1229817191 -370434346</internalNodes>
      <leafValues>
        -8.1253275275230408e-02 2.0226928591728210e-01</leafValues></_>
    <_>
      <internalNodes>
        0 -1 200 842664736 655460066 687902508 34110624 1391503488
        422173780 1634130437 91251072</internalNodes>
      <leafValues>
        -4.2198681831359863e-01 3.7436425685882568e-02</leafValues></_>
    <_>
      <internalNodes>
        0 -1 204 1261386411 -139283977 196001315 -256676169 -43869761
        -1079511589 -1180677 -3407894</internalNodes>
      <leafValues>
        -4.6345945447683334e-02 4.1541653871536255e-01</leafValues></_>
    <_>
      <internalNodes>
        0 -1 185 -339825120 397664739 -1056945502 45081777 444705633
        1074350251 982575112 1088224170</internalNodes>
      <leafValues>
        -3.2320997118949890e-01 5.5391788482666016e-02</leafValues></_>
    <_>
      <internalNodes>
        0 -1 222 -1748131874 154643309 -1595330746 -1444202548
        -1082532974 -1923641837 -538977058 -1044646566</internalNodes>
      <leafValues>
        -1.0543512552976608e-01 1.5799635648727417e-01</leafValues></_>
    <_>
      <internalNodes>
        0 -1 13 -338349677 2129834158 -1074282785 -1074998019 -149681506
        -10627098 -1300737875 -883100932</internalNodes>
      <leafValues>
        -1.0916309803724289e-01 1.6025348007678986e-01</leafValues></_>
    <_>
      <internalNodes>
        0 -1 148 810521697 -361868098 702496501 1745886135 -2088610196
        -1923187375 2020900769 -1113587777</internalNodes>
      <leafValues>
        -9.3622289597988129e-02 1.8091942369937897e-01</leafValues></_>
    <_>
      <internalNodes>
        0 -1 0 1722351980 438707662 91239204 618076461 1816951565
        201177999 -798581947 808513565</internalNodes>
      <leafValues>
        -2.0680113136768341e-01 8.1949383020401001e-02</leafValues></_>
    <_>
      <internalNodes>
        0 -1 1 579577370 1720671362 -756541585 -1289136667 -280343745
        -484541819 879104914 684782356</internalNodes>
      <leafValues>
        -1.9332827627658844e-01 8.6174622178077698e-02</leafValues></_>
    <_>
      <internalNodes>
        0 -1 24 -735612407 2123274168 -1348518215 2145281901 -1489809762
        -10061169 468084334 -1612786454</internalNodes>
      <leafValues>
        -9.2898033559322357e-02 1.7719197273254395e-01</leafValues></_>
    <_>
      <internalNodes>
        0 -1 130 1121911300 1368502709 1493174394 390418600 1409589890
        1240599084 994678812 324784642</internalNodes>
      <leafValues>
        -3.9556252956390381e-01 4.1211426258087158e-02</leafValues></_>
    <_>
      <internalNodes>
        0 -1 156 -440408838 -105882568 -235620 317554612 2136850457
        -1401094531 806870591 -1700636905</internalNodes>
      <leafValues>
        -9.0436972677707672e-02 1.7566379904747009e-01</leafValues></_></weakClassifiers></stage13>
</opencv_storage>
