<?xml version="1.0"?>
<opencv_storage>
<stage8>
  <maxWeakCount>45</maxWeakCount>
  <stageThreshold>-1.7651818990707397e+00</stageThreshold>
  <weakClassifiers>
    <_>
      <internalNodes>
        0 -1 40 -630201089 -38273 -50462753 -1 1422927612 -11055604
        -496771397 -8429569</internalNodes>
      <leafValues>
        -5.2085369825363159e-01 2.4202993512153625e-01</leafValues></_>
    <_>
      <internalNodes>
        0 -1 222 -5267030 -1960140102 551627298 21668514 -1050625
        9408427 -543162373 -537919489</internalNodes>
      <leafValues>
        -2.6363870501518250e-01 3.1566596031188965e-01</leafValues></_>
    <_>
      <internalNodes>
        0 -1 49 -272915457 -67898369 -6884869 -70520065 -202247173
        -2370561 1972303359 1197426175</internalNodes>
      <leafValues>
        -2.8450003266334534e-01 2.4841696023941040e-01</leafValues></_>
    <_>
      <internalNodes>
        0 -1 53 -172060 -852559873 -93856001 -1074998801 -273162761
        -12293 -573046865 -360719377</internalNodes>
      <leafValues>
        -4.1821447014808655e-01 1.4085568487644196e-01</leafValues></_>
    <_>
      <internalNodes>
        0 -1 183 -654517028 -117904268 -1245165571 1079782621 -654523196
        -50840232 -593626664 -1879008584</internalNodes>
      <leafValues>
        -1.8223358690738678e-01 3.8563895225524902e-01</leafValues></_>
    <_>
      <internalNodes>
        0 -1 107 -654401858 1895576545 -675083725 1601845870 -25469921
        310186507 1450639380 2147476606</internalNodes>
      <leafValues>
        -3.6866891384124756e-01 1.0276109725236893e-01</leafValues></_>
    <_>
      <internalNodes>
        0 -1 164 -119747572 1954469053 -572796931 1912462845 -657925808
        1155521692 -356722471 -1194722595</internalNodes>
      <leafValues>
        -2.4172548949718475e-01 2.1673634648323059e-01</leafValues></_>
    <_>
      <internalNodes>
        0 -1 206 -8704328 -1151098950 706362131 158871328 -1073760259
        1002050978 939523577 -2</internalNodes>
      <leafValues>
        -1.8265071511268616e-01 2.3313798010349274e-01</leafValues></_>
    <_>
      <internalNodes>
        0 -1 28 -419516690 -287379333 -574610690 -53952034 1988060671
        -4633621 1675065215 2121620708</internalNodes>
      <leafValues>
        -4.4073683023452759e-01 8.9181236922740936e-02</leafValues></_>
    <_>
      <internalNodes>
        0 -1 63 -7881976 -12410048 -686296194 -544330078 -1283982573
        -914187993 1377956614 -150416608</internalNodes>
      <leafValues>
        -1.6606506705284119e-01 2.5850254297256470e-01</leafValues></_>
    <_>
      <internalNodes>
        0 -1 49 -1633651670 -805685255 2147381695 735040191 2112174712
        -344073233 -690067873 -1088702817</internalNodes>
      <leafValues>
        -1.4443933963775635e-01 2.6526734232902527e-01</leafValues></_>
    <_>
      <internalNodes>
        0 -1 44 -824826626 1314803448 2142715710 -841153714 786569220
        1872116476 1496350490 1806530348</internalNodes>
      <leafValues>
        -2.8621804714202881e-01 1.2500581145286560e-01</leafValues></_>
    <_>
      <internalNodes>
        0 -1 62 -1763943516 1085128102 -279036156 -925040955 1064736976
        -5292036 2043647516 -277357968</internalNodes>
      <leafValues>
        -5.4483497142791748e-01 7.1864634752273560e-02</leafValues></_>
    <_>
      <internalNodes>
        0 -1 214 -2098230782 -302061762 -2031300630 34055932 -1430401144
        -289737332 -96350008 1110108872</internalNodes>
      <leafValues>
        -2.6168429851531982e-01 1.5001265704631805e-01</leafValues></_>
    <_>
      <internalNodes>
        0 -1 176 205869905 -1753538569 1878752895 490413339 1029319927
        209673581 1004256249 -52502</internalNodes>
      <leafValues>
        -1.5047559142112732e-01 2.5848057866096497e-01</leafValues></_>
    <_>
      <internalNodes>
        0 -1 26 -415291606 -826955623 2134636893 -42180078 930828957
        -146355693 1978627240 -9087021</internalNodes>
      <leafValues>
        -2.1021564304828644e-01 1.7109021544456482e-01</leafValues></_>
    <_>
      <internalNodes>
        0 -1 160 -1409438940 -1125389586 -810755203 1101398012
        -1144304912 -657859587 768835380 453180359</internalNodes>
      <leafValues>
        -3.0669268965721130e-01 1.1615455150604248e-01</leafValues></_>
    <_>
      <internalNodes>
        0 -1 12 -348915278 -100490966 -542671873 -611913008 1981279078
        -1172178193 857035503 -5021311</internalNodes>
      <leafValues>
        -1.6122293472290039e-01 2.1931400895118713e-01</leafValues></_>
    <_>
      <internalNodes>
        0 -1 190 -296833034 -951110049 1329920126 1970566 -1897662540
        115869523 225163753 33814715</internalNodes>
      <leafValues>
        -2.0050548017024994e-01 1.6486200690269470e-01</leafValues></_>
    <_>
      <internalNodes>
        0 -1 162 -324098780 -553724042 1607060892 -776675943 -997144876
        -1444569016 1555588248 -804257067</internalNodes>
      <leafValues>
        -2.1405033767223358e-01 1.4736741781234741e-01</leafValues></_>
    <_>
      <internalNodes>
        0 -1 29 -1461796888 -50287118 263361142 1517691510 -1076498441
        -1082171649 1596829685 -333644929</internalNodes>
      <leafValues>
        -4.1331726312637329e-01 7.9160526394844055e-02</leafValues></_>
    <_>
      <internalNodes>
        0 -1 195 -924127072 -892443594 -2130443683 4478185 -2002727808
        -698556776 272403408 52379</internalNodes>
      <leafValues>
        -2.4888800084590912e-01 1.3063098490238190e-01</leafValues></_>
    <_>
      <internalNodes>
        0 -1 31 282792878 -620835634 109201532 -681808642 -818471746
        1057505590 115617358 -8606104</internalNodes>
      <leafValues>
        -1.8433201313018799e-01 1.6467769443988800e-01</leafValues></_>
    <_>
      <internalNodes>
        0 -1 194 67304147 -2043090030 1057442385 -814680203 -1616859362
        -1078429969 520597465 -1610657542</internalNodes>
      <leafValues>
        -1.4535996317863464e-01 2.1591484546661377e-01</leafValues></_>
    <_>
      <internalNodes>
        0 -1 197 602910244 1591391166 -1192500417 98083662 -1430196896
        -910130566 643409422 1108453166</internalNodes>
      <leafValues>
        -2.9803061485290527e-01 1.0359132289886475e-01</leafValues></_>
    <_>
      <internalNodes>
        0 -1 113 1012592612 904942110 1830712754 244191758 -704447951
        271916047 578469488 494696428</internalNodes>
      <leafValues>
        -4.7059237957000732e-01 5.9053938835859299e-02</leafValues></_>
    <_>
      <internalNodes>
        0 -1 146 5002513 -1200203841 1296357439 895094461 404750881
        41894000 896758077 -1623248006</internalNodes>
      <leafValues>
        -1.6576687991619110e-01 1.7417939007282257e-01</leafValues></_>
    <_>
      <internalNodes>
        0 -1 95 651699236 -330301449 1373624310 1706876798 1667485136
        -235088975 1416654718 1429525784</internalNodes>
      <leafValues>
        -5.5929756164550781e-01 4.9747161567211151e-02</leafValues></_>
    <_>
      <internalNodes>
        0 -1 201 -1058304786 -96049590 727961518 1618953966 -923235696
        -20205649 2090977474 -670511928</internalNodes>
      <leafValues>
        -1.3292720913887024e-01 2.3437535762786865e-01</leafValues></_>
    <_>
      <internalNodes>
        0 -1 182 784999200 710844583 -186422609 201194139 1904702048
        1797148903 1785119349 36105769</internalNodes>
      <leafValues>
        -4.6126073598861694e-01 6.2821507453918457e-02</leafValues></_>
    <_>
      <internalNodes>
        0 -1 223 296195089 131749873 1063316561 3423444 -1886918198
        168532844 259908554 1600085946</internalNodes>
      <leafValues>
        -1.7289629578590393e-01 1.6400951147079468e-01</leafValues></_>
    <_>
      <internalNodes>
        0 -1 175 781158148 822844063 615377878 357848280 185619732
        -2084914470 -637600944 -1946159237</internalNodes>
      <leafValues>
        -2.6860323548316956e-01 1.0934050381183624e-01</leafValues></_>
    <_>
      <internalNodes>
        0 -1 208 -326540781 453884607 1127435571 -1004741512 -1386217477
        -1934623534 -609223685 -543162673</internalNodes>
      <leafValues>
        -8.5710205137729645e-02 3.5611900687217712e-01</leafValues></_>
    <_>
      <internalNodes>
        0 -1 40 134559552 1747622702 273473422 2090231422 755030855
        859004004 84491092 126329892</internalNodes>
      <leafValues>
        -2.9792720079421997e-01 9.4890341162681580e-02</leafValues></_>
    <_>
      <internalNodes>
        0 -1 120 -309276624 -108855754 496040959 -707409987 -716130603
        -1349474318 992474570 -577485689</internalNodes>
      <leafValues>
        -1.2792032957077026e-01 2.1600154042243958e-01</leafValues></_>
    <_>
      <internalNodes>
        0 -1 154 -1857542140 -1352077883 1557601722 54909128 -1965666059
        -111029795 -1149445775 453102528</internalNodes>
      <leafValues>
        -2.8738373517990112e-01 1.0260974615812302e-01</leafValues></_>
    <_>
      <internalNodes>
        0 -1 10 -1972821490 -88297526 2041422714 -712050806 -480795906
        -839724988 1465377646 -210975684</internalNodes>
      <leafValues>
        -1.7845454812049866e-01 1.5213216841220856e-01</leafValues></_>
    <_>
      <internalNodes>
        0 -1 222 114047063 203107285 -1585414845 -864607380 -1090019438
        -1928035549 1306524236 97438730</internalNodes>
      <leafValues>
        -1.8603482842445374e-01 1.4619323611259460e-01</leafValues></_>
    <_>
      <internalNodes>
        0 -1 102 -300567650 -21734862 1977577488 2073230080 -773982219
        -1227948187 1934668752 -12778367</internalNodes>
      <leafValues>
        -1.4270129799842834e-01 1.8571256101131439e-01</leafValues></_>
    <_>
      <internalNodes>
        0 -1 220 -1614869681 -48263297 596436643 1095084412 -26956879
        245187958 1063250924 -649187478</internalNodes>
      <leafValues>
        -1.2939147651195526e-01 2.0008404552936554e-01</leafValues></_>
    <_>
      <internalNodes>
        0 -1 170 -286621104 1555802893 -551577220 377619258 -1577077772
        321831806 22000884 186353899</internalNodes>
      <leafValues>
        -2.7128812670707703e-01 9.9003106355667114e-02</leafValues></_>
    <_>
      <internalNodes>
        0 -1 5 217851434 1176305069 1876923172 1722706590 863343190
        2128404950 1898212032 607445722</internalNodes>
      <leafValues>
        -4.1583693027496338e-01 6.2871418893337250e-02</leafValues></_>
    <_>
      <internalNodes>
        0 -1 198 -755243049 -705958245 904191439 -786599937 -67646332
        -1547265041 -1241673016 -82059318</internalNodes>
      <leafValues>
        -8.1997916102409363e-02 3.3657455444335938e-01</leafValues></_>
    <_>
      <internalNodes>
        0 -1 204 1202534944 -1757601538 128098818 1492181666 482621861
        247492152 1064503208 1073868682</internalNodes>
      <leafValues>
        -2.7972897887229919e-01 9.0329155325889587e-02</leafValues></_>
    <_>
      <internalNodes>
        0 -1 132 -361972172 -657280972 -81494210 1455093546 -1644380169
        -707989741 904660659 -1761607279</internalNodes>
      <leafValues>
        -1.7230311036109924e-01 1.4949248731136322e-01</leafValues></_></weakClassifiers></stage8>
</opencv_storage>
