<?xml version="1.0"?>
<opencv_storage>
<stage14>
  <maxWeakCount>16</maxWeakCount>
  <stageThreshold>-7.6332062482833862e-01</stageThreshold>
  <weakClassifiers>
    <_>
      <internalNodes>
        0 -1 514 -1347223682 2055221246 931065852 733904830 103939967
        1043365886 1664614269 1664841148</internalNodes>
      <leafValues>
        -3.2209107279777527e-01 5.8720523118972778e-01</leafValues></_>
    <_>
      <internalNodes>
        0 -1 488 -186781643 -88674659 2113928411 -1126711813 -704710472
        -573474411 -233727495 404606915</internalNodes>
      <leafValues>
        -2.6305940747261047e-01 4.1331851482391357e-01</leafValues></_>
    <_>
      <internalNodes>
        0 -1 792 530927 268636227 1091027674 -245623472 314814643
        167915008 297116408 530251838</internalNodes>
      <leafValues>
        -3.9372348785400391e-01 2.8949752449989319e-01</leafValues></_>
    <_>
      <internalNodes>
        0 -1 1083 -1556370720 245054931 -1014266968 13382276 -72422991
        298422914 -618415879 465347234</internalNodes>
      <leafValues>
        -4.7259938716888428e-01 2.2741582989692688e-01</leafValues></_>
    <_>
      <internalNodes>
        0 -1 89 -1451234040 -287702756 -519191476 -74813142 1373611829
        -970833920 1361170722 -13606797</internalNodes>
      <leafValues>
        -3.3987820148468018e-01 3.0445927381515503e-01</leafValues></_>
    <_>
      <internalNodes>
        0 -1 24 -679287034 -653523113 285214992 -1425997735 -2063546057
        -866305645 -1610315705 -1165176304</internalNodes>
      <leafValues>
        -6.3045257329940796e-01 1.7214334011077881e-01</leafValues></_>
    <_>
      <internalNodes>
        0 -1 936 -900954104 -662109958 -805289639 1892115144 -1028857714
        -1073709054 -241016360 -1702882614</internalNodes>
      <leafValues>
        -3.1839820742607117e-01 3.2239338755607605e-01</leafValues></_>
    <_>
      <internalNodes>
        0 -1 974 51392448 692338724 16781576 1540358344 594232 134746632
        318878132 469703608</internalNodes>
      <leafValues>
        -4.6132403612136841e-01 2.0511738955974579e-01</leafValues></_>
    <_>
      <internalNodes>
        0 -1 1090 -795258774 -532496371 1081986 -1030750013 -1974632443
        8912906 310608296 -1866951990</internalNodes>
      <leafValues>
        -3.3958166837692261e-01 2.8199297189712524e-01</leafValues></_>
    <_>
      <internalNodes>
        0 -1 1057 -118814097 -3297685 201239275 -974161685 -482028848
        -1388473161 1049357264 -626274972</internalNodes>
      <leafValues>
        -2.4975019693374634e-01 3.9353138208389282e-01</leafValues></_>
    <_>
      <internalNodes>
        0 -1 523 -461196664 -496588572 -1863780695 -571736882
        -1581603183 -1053364363 1130886422 -150929308</internalNodes>
      <leafValues>
        -3.1232818961143494e-01 3.3135253190994263e-01</leafValues></_>
    <_>
      <internalNodes>
        0 -1 395 4227714 2005598789 16797955 -230288983 1904837202
        1896480768 1661055180 1935663171</internalNodes>
      <leafValues>
        -3.2988852262496948e-01 2.9785794019699097e-01</leafValues></_>
    <_>
      <internalNodes>
        0 -1 183 1780890407 -870507766 -1860310190 1917412890 -933477369
        -1769635584 1379356990 1912766800</internalNodes>
      <leafValues>
        -4.1831213235855103e-01 2.3492038249969482e-01</leafValues></_>
    <_>
      <internalNodes>
        0 -1 803 1397887707 1372667732 1751481339 -675677328 -1893845118
        -2137694748 489698317 -24564</internalNodes>
      <leafValues>
        -2.2079849243164062e-01 4.5171344280242920e-01</leafValues></_>
    <_>
      <internalNodes>
        0 -1 869 -531715836 1404338250 1074309788 1395163136 286402613
        1183352988 1821060084 50407978</internalNodes>
      <leafValues>
        -7.3434954881668091e-01 1.4421877264976501e-01</leafValues></_>
    <_>
      <internalNodes>
        0 -1 711 -1072429044 1422201562 -259944206 1214316920
        -1662859580 -1135606671 -662136016 302616613</internalNodes>
      <leafValues>
        -4.4408458471298218e-01 2.0392139256000519e-01</leafValues></_></weakClassifiers></stage14>
</opencv_storage>
