<?xml version="1.0"?>
<opencv_storage>
<stage3>
  <maxWeakCount>16</maxWeakCount>
  <stageThreshold>-1.3246380090713501e+00</stageThreshold>
  <weakClassifiers>
    <_>
      <internalNodes>
        0 -1 4 -65554 -69733481 -356518437 -67108981 -1310721 -3147265
        -71566337 -4194305</internalNodes>
      <leafValues>
        -5.9243267774581909e-01 4.2372021079063416e-01</leafValues></_>
    <_>
      <internalNodes>
        0 -1 5 -19465220 1966144094 867907518 2140934646 -155976706
        -584911687 1069489208 2147426286</internalNodes>
      <leafValues>
        -5.6279063224792480e-01 2.1712404489517212e-01</leafValues></_>
    <_>
      <internalNodes>
        0 -1 1 -286347442 -16869922 -4767329 -4800563 -210536565
        -78174215 1936823907 2013222651</internalNodes>
      <leafValues>
        -4.6196228265762329e-01 2.6052924990653992e-01</leafValues></_>
    <_>
      <internalNodes>
        0 -1 6 -774008571 -346640817 1251996159 -242357793 -359883855
        -70783860 -1950824305 269081257</internalNodes>
      <leafValues>
        -3.5688602924346924e-01 3.0062460899353027e-01</leafValues></_>
    <_>
      <internalNodes>
        0 -1 2 1742634926 -151064601 -8765498 2111732716 2000090943
        -96592771 -1082228952 -8393222</internalNodes>
      <leafValues>
        -2.5921234488487244e-01 3.3788815140724182e-01</leafValues></_>
    <_>
      <internalNodes>
        0 -1 7 -271844604 1439550155 -610358786 1413610443 -977545807
        -725750379 1776742136 834531242</internalNodes>
      <leafValues>
        -4.7060534358024597e-01 1.5631629526615143e-01</leafValues></_>
    <_>
      <internalNodes>
        0 -1 4 -422597840 -124460042 1212101102 427813786 -17836035
        -1110967889 2075916540 -348169329</internalNodes>
      <leafValues>
        -4.0803748369216919e-01 2.1652482450008392e-01</leafValues></_>
    <_>
      <internalNodes>
        0 -1 3 -532413696 -369579020 1347956949 -51429157 -1685546499
        -1312126845 -687222060 452985925</internalNodes>
      <leafValues>
        -5.1164454221725464e-01 1.6462343931198120e-01</leafValues></_>
    <_>
      <internalNodes>
        0 -1 8 -402666736 1306523103 62566972 60752307 -1105385040
        227204999 -1152126788 -536871937</internalNodes>
      <leafValues>
        -2.6183182001113892e-01 3.0137944221496582e-01</leafValues></_>
    <_>
      <internalNodes>
        0 -1 5 1065869736 -46335194 -1547977808 -1345779672 -163925599
        1059718297 -285787280 -1133698555</internalNodes>
      <leafValues>
        -3.4647768735885620e-01 1.8304814398288727e-01</leafValues></_>
    <_>
      <internalNodes>
        0 -1 1 1970527982 -206045441 -1138839938 -12865556 -1766785621
        1903558525 -178243730 -128657549</internalNodes>
      <leafValues>
        -2.1859124302864075e-01 3.2461616396903992e-01</leafValues></_>
    <_>
      <internalNodes>
        0 -1 0 -1600609686 -488965631 -1929129345 -20659595 -171890425
        -41876447 28459061 1142232235</internalNodes>
      <leafValues>
        -3.7690290808677673e-01 1.6794924437999725e-01</leafValues></_>
    <_>
      <internalNodes>
        0 -1 7 1198246176 -784055876 -627674848 -800990357 632421641
        1571843125 -1142175512 -2110559060</internalNodes>
      <leafValues>
        -3.3213713765144348e-01 1.4041064679622650e-01</leafValues></_>
    <_>
      <internalNodes>
        0 -1 2 -434461782 653930460 -580677562 -7114834 -782814277
        1109529845 2066879393 2140173259</internalNodes>
      <leafValues>
        -2.8170758485794067e-01 1.9376221299171448e-01</leafValues></_>
    <_>
      <internalNodes>
        0 -1 3 764916384 1763423213 1346385119 797821083 -68627538
        -1215703023 428574730 -350632807</internalNodes>
      <leafValues>
        -2.1359260380268097e-01 2.1675397455692291e-01</leafValues></_>
    <_>
      <internalNodes>
        0 -1 6 -1296305158 -84673793 1597471611 548104539 -87100454
        -116657250 -918836375 -1199115277</internalNodes>
      <leafValues>
        -1.5363271534442902e-01 2.8638237714767456e-01</leafValues></_></weakClassifiers></stage3>
</opencv_storage>
