<?xml version="1.0"?>
<opencv_storage>
<stage26>
  <maxWeakCount>11</maxWeakCount>
  <stageThreshold>-5.0284224748611450e-01</stageThreshold>
  <weakClassifiers>
    <_>
      <internalNodes>
        0 -1 1003 1275103336 1156228846 2058776175 1098813994 417104072
        1080192213 1308626888 838998402</internalNodes>
      <leafValues>
        -4.3921068310737610e-02 7.2405445575714111e-01</leafValues></_>
    <_>
      <internalNodes>
        0 -1 409 443761170 899814906 975941128 1802722424 511455880
        102913573 607978628 -208940781</internalNodes>
      <leafValues>
        -2.1150453388690948e-01 6.5133029222488403e-01</leafValues></_>
    <_>
      <internalNodes>
        0 -1 171 -668870511 423928962 1076924437 497106993 -2128344026
        -1125644602 167773192 -915700605</internalNodes>
      <leafValues>
        -1.8742673099040985e-01 7.1651458740234375e-01</leafValues></_>
    <_>
      <internalNodes>
        0 -1 1223 1359079411 1158152209 268500994 486608962 -2088689490
        -788527096 270926433 1530954272</internalNodes>
      <leafValues>
        -3.9640262722969055e-01 4.2168354988098145e-01</leafValues></_>
    <_>
      <internalNodes>
        0 -1 1212 -900582293 -928569848 782639104 325356116 2132903016
        120762182 -1303359640 -989070134</internalNodes>
      <leafValues>
        -2.8211596608161926e-01 5.6732070446014404e-01</leafValues></_>
    <_>
      <internalNodes>
        0 -1 288 -1792302641 -1723656331 1312300498 1366514802
        -1963712374 -1217120763 -483870671 -745632246</internalNodes>
      <leafValues>
        -2.2206550836563110e-01 7.2438067197799683e-01</leafValues></_>
    <_>
      <internalNodes>
        0 -1 830 -1166892164 545241019 -75530242 -1015810061 855636899
        -1829535949 998210544 453653265</internalNodes>
      <leafValues>
        -3.4580901265144348e-01 4.4792473316192627e-01</leafValues></_>
    <_>
      <internalNodes>
        0 -1 491 -482307944 1132527616 285216771 -1878982528 -2136946550
        -1870659584 402723471 -2129123294</internalNodes>
      <leafValues>
        -3.2999223470687866e-01 4.8884633183479309e-01</leafValues></_>
    <_>
      <internalNodes>
        0 -1 1151 1800534579 1538057344 -1410781404 438798369 1685030871
        -1738334974 1853664669 -107243537</internalNodes>
      <leafValues>
        -1.8963272869586945e-01 7.9564261436462402e-01</leafValues></_>
    <_>
      <internalNodes>
        0 -1 131 -1029328523 2053957668 426515809 353570408 405046403
        -2041150684 1148990618 -746122093</internalNodes>
      <leafValues>
        -1.9971911609172821e-01 6.8249201774597168e-01</leafValues></_>
    <_>
      <internalNodes>
        0 -1 692 268517393 271646740 229404 1562116164 -2080374232
        524288 17867488 1300629546</internalNodes>
      <leafValues>
        -5.3817313909530640e-01 3.2671099901199341e-01</leafValues></_></weakClassifiers></stage26>
</opencv_storage>
