<?xml version="1.0"?>
<opencv_storage>
<stage1>
  <maxWeakCount>7</maxWeakCount>
  <stageThreshold>-1.4089771509170532e+00</stageThreshold>
  <weakClassifiers>
    <_>
      <internalNodes>
        0 -1 485 -2 -263169 -771883009 -1 -67110913 -1025 -67108865 -1</internalNodes>
      <leafValues>
        -7.4109667539596558e-01 7.7784121036529541e-01</leafValues></_>
    <_>
      <internalNodes>
        0 -1 2342 -352403676 -8397857 -973364225 -262273 -622862401
        -67375171 -67174401 -1019492561</internalNodes>
      <leafValues>
        -5.5145496129989624e-01 4.3193274736404419e-01</leafValues></_>
    <_>
      <internalNodes>
        0 -1 1017 -604571650 -44422146 636959738 2140548090 -145752065
        1965097268 1798126316 2138527582</internalNodes>
      <leafValues>
        -5.9846651554107666e-01 3.4129297733306885e-01</leafValues></_>
    <_>
      <internalNodes>
        0 -1 2495 -1429272018 -352421529 -1845701890 -94451622
        -1551124111 -1759779069 65532149 -1958940</internalNodes>
      <leafValues>
        -4.8384141921997070e-01 3.7985914945602417e-01</leafValues></_>
    <_>
      <internalNodes>
        0 -1 412 -268472530 -27271265 -709108737 2113781759 2073980925
        -2104954 1945619455 190800651</internalNodes>
      <leafValues>
        -5.5708718299865723e-01 3.7361478805541992e-01</leafValues></_>
    <_>
      <internalNodes>
        0 -1 2508 -404750554 401830399 -82339812 316070398 2140911093
        75147957 -588324896 -1845690385</internalNodes>
      <leafValues>
        -5.5808103084564209e-01 3.0195391178131104e-01</leafValues></_>
    <_>
      <internalNodes>
        0 -1 2259 -2032526730 -363880770 -778412947 -25234534
        -1583661705 1648984682 286946673 -88427373</internalNodes>
      <leafValues>
        -4.5319053530693054e-01 3.5731512308120728e-01</leafValues></_></weakClassifiers></stage1>
</opencv_storage>
