<?xml version="1.0"?>
<opencv_storage>
<stage7>
  <maxWeakCount>100</maxWeakCount>
  <stageThreshold>-1.2278330326080322e+00</stageThreshold>
  <weakClassifiers>
    <_>
      <internalNodes>
        0 -1 4 1505615854 -204531665 -1664000961 -7749295 -1496467201
        -591017798 -1937006933 -17180499</internalNodes>
      <leafValues>
        -4.5463535189628601e-01 1.3224181532859802e-01</leafValues></_>
    <_>
      <internalNodes>
        0 -1 2 356179968 -772667809 -1537470248 -8490530 21250720
        324469304 -334419530 2133801119</internalNodes>
      <leafValues>
        -3.5135284066200256e-01 1.5600773692131042e-01</leafValues></_>
    <_>
      <internalNodes>
        0 -1 6 -917563339 -657619340 -765068049 1354227916 -661985083
        -393248116 -387147525 537501097</internalNodes>
      <leafValues>
        -3.1838640570640564e-01 1.6159792244434357e-01</leafValues></_>
    <_>
      <internalNodes>
        0 -1 5 -637255266 852492360 -341460642 1436418194 79332618
        251806106 299831292 2143256558</internalNodes>
      <leafValues>
        -3.6606681346893311e-01 1.4435628056526184e-01</leafValues></_>
    <_>
      <internalNodes>
        0 -1 0 -364797129 -3476117 -1678780546 -9439499 -268437297
        -667282 -688404489 -547924516</internalNodes>
      <leafValues>
        -1.4706966280937195e-01 3.0731436610221863e-01</leafValues></_>
    <_>
      <internalNodes>
        0 -1 7 -1961103580 -737412406 -1973377623 1376297162 -1123091036
        -1858156144 2049025704 828414619</internalNodes>
      <leafValues>
        -3.6905926465988159e-01 1.0185035318136215e-01</leafValues></_>
    <_>
      <internalNodes>
        0 -1 8 -403541069 1576925119 2147457716 413089791 -1098943003
        199879079 -845431044 -538968193</internalNodes>
      <leafValues>
        -1.4752824604511261e-01 2.1433262526988983e-01</leafValues></_>
    <_>
      <internalNodes>
        0 -1 3 -485457632 -847202053 1629018320 -1764695182 -1277124431
        -113598288 -1899994538 822149377</internalNodes>
      <leafValues>
        -3.5185092687606812e-01 6.7730173468589783e-02</leafValues></_>
    <_>
      <internalNodes>
        0 -1 1 610200674 -229228125 -1657208317 -79812596 -2050228594
        1913067520 292336274 1981896143</internalNodes>
      <leafValues>
        -3.2242652773857117e-01 9.4984672963619232e-02</leafValues></_>
    <_>
      <internalNodes>
        0 -1 4 1211925296 1644959807 -1806623690 1895928145 -1212081932
        -1673148230 -1936745944 571504760</internalNodes>
      <leafValues>
        -3.8286992907524109e-01 7.2843782603740692e-02</leafValues></_>
    <_>
      <internalNodes>
        0 -1 2 -2066145276 1752221508 -1538420432 1610348564 151112256
        -1088924461 605595652 -1357587614</internalNodes>
      <leafValues>
        -1.8126340210437775e-01 1.5356443822383881e-01</leafValues></_>
    <_>
      <internalNodes>
        0 -1 0 -1183386016 -20170384 -570468489 -227575555 -16833161
        -140946 1828683519 922740251</internalNodes>
      <leafValues>
        -1.4134413003921509e-01 1.8092182278633118e-01</leafValues></_>
    <_>
      <internalNodes>
        0 -1 6 1006293706 -76840986 444071928 -1100190247 -53488982
        -546866209 -818021787 -72687747</internalNodes>
      <leafValues>
        -8.2668825984001160e-02 2.6593899726867676e-01</leafValues></_>
    <_>
      <internalNodes>
        0 -1 5 -1962648628 940577088 731970586 -712015276 -2079144117
        -1155889192 -36327584 -1087396865</internalNodes>
      <leafValues>
        -1.5396665036678314e-01 1.3679704070091248e-01</leafValues></_>
    <_>
      <internalNodes>
        0 -1 7 562821572 1554727020 577299507 -721321782 -352006204
        205045912 -1238789448 -660174336</internalNodes>
      <leafValues>
        -1.8912540376186371e-01 1.2035907804965973e-01</leafValues></_>
    <_>
      <internalNodes>
        0 -1 8 1644798180 -805232448 1385758918 -1994153786 700358948
        -1942339313 1069267707 1073740782</internalNodes>
      <leafValues>
        -1.4772728085517883e-01 1.3874325156211853e-01</leafValues></_>
    <_>
      <internalNodes>
        0 -1 1 -360550750 -1529724766 -804159422 -423991284 1900181034
        -83584896 -1167771086 -418192377</internalNodes>
      <leafValues>
        -2.1497893333435059e-01 1.0563924908638000e-01</leafValues></_>
    <_>
      <internalNodes>
        0 -1 3 -1882586998 -675223471 -526527788 1300427600 -757057295
        -47595392 778101396 -854843279</internalNodes>
      <leafValues>
        -1.7015162110328674e-01 9.7731836140155792e-02</leafValues></_>
    <_>
      <internalNodes>
        0 -1 6 -205663584 -1431765014 -633373701 2041112969 -267790424
        -208669729 -1547900753 -1205544238</internalNodes>
      <leafValues>
        -1.0544616729021072e-01 1.6806180775165558e-01</leafValues></_>
    <_>
      <internalNodes>
        0 -1 2 -409862215 914165536 -8675473 2136796671 -146802769
        2081709173 -35025 -620761312</internalNodes>
      <leafValues>
        -8.4037609398365021e-02 1.5019077062606812e-01</leafValues></_>
    <_>
      <internalNodes>
        0 -1 5 184895104 815010112 731981904 -640986597 -2072869120
        -1189182318 -1462293971 -17842178</internalNodes>
      <leafValues>
        -1.1868970841169357e-01 9.8762072622776031e-02</leafValues></_>
    <_>
      <internalNodes>
        0 -1 1 -250478734 -135334146 -41523681 -1208516657 -219125885
        -755630083 1432663915 -120455301</internalNodes>
      <leafValues>
        -7.5663149356842041e-02 1.4995016157627106e-01</leafValues></_>
    <_>
      <internalNodes>
        0 -1 4 1208516612 1879316540 -1665134592 822608192 658616536
        1354877178 67309600 270026761</internalNodes>
      <leafValues>
        -4.5850536227226257e-01 2.3064354434609413e-02</leafValues></_>
    <_>
      <internalNodes>
        0 -1 0 -7246168 -655688330 -1174452361 -2187 -151655729
        -536871425 -184615243 -168053611</internalNodes>
      <leafValues>
        -5.9541977941989899e-02 1.7496234178543091e-01</leafValues></_>
    <_>
      <internalNodes>
        0 -1 6 -1379355076 1284145944 -1341866834 -1840848887 13549639
        241402376 1244154571 1088157676</internalNodes>
      <leafValues>
        -1.1424523591995239e-01 7.9481236636638641e-02</leafValues></_>
    <_>
      <internalNodes>
        0 -1 7 -1861490416 -1333178142 -1972853316 1544126536 -49775106
        674286000 -97938382 -1037268343</internalNodes>
      <leafValues>
        -1.0848616808652878e-01 7.4350617825984955e-02</leafValues></_>
    <_>
      <internalNodes>
        0 -1 3 -145824216 -270995547 -1085326627 -37924945 -1140875985
        -1083191393 -159956 -73796433</internalNodes>
      <leafValues>
        -8.2268908619880676e-02 1.1532071977853775e-01</leafValues></_>
    <_>
      <internalNodes>
        0 -1 1 1617620610 -569032285 85557962 -134799347 1212171780
        -150562816 -1329258318 -4541049</internalNodes>
      <leafValues>
        -1.1775892972946167e-01 9.1295577585697174e-02</leafValues></_>
    <_>
      <internalNodes>
        0 -1 0 1619046544 -376516576 -132599274 345411649 1948692592
        -156728320 1686769684 1084228753</internalNodes>
      <leafValues>
        -1.7156477272510529e-01 5.6458361446857452e-02</leafValues></_>
    <_>
      <internalNodes>
        0 -1 2 1727033336 1610092260 -8478745 -1077592883 -4753538
        2032097367 -526547 -2129921</internalNodes>
      <leafValues>
        -7.5092278420925140e-02 1.1466806381940842e-01</leafValues></_>
    <_>
      <internalNodes>
        0 -1 8 37540 1510023298 1922662405 -1305767866 1256128938
        690635151 -7099228 -866321425</internalNodes>
      <leafValues>
        -9.1244071722030640e-02 9.7619868814945221e-02</leafValues></_>
    <_>
      <internalNodes>
        0 -1 4 1208535168 1879312430 -1806625764 696877312 885100769
        -1744713558 67341483 -868161408</internalNodes>
      <leafValues>
        -2.0825727283954620e-01 3.3779907971620560e-02</leafValues></_>
    <_>
      <internalNodes>
        0 -1 5 168034448 815534145 -73287651 228495638 3180033 974521810
        -108558158 -1078120525</internalNodes>
      <leafValues>
        -8.5505686700344086e-02 8.4431618452072144e-02</leafValues></_>
    <_>
      <internalNodes>
        0 -1 1 -163280382 -251510750 -710409536 -10848244 -1253968890
        -293267456 -615731151 -13753022</internalNodes>
      <leafValues>
        -8.6570687592029572e-02 8.3775199949741364e-02</leafValues></_>
    <_>
      <internalNodes>
        0 -1 5 1056940768 1974533982 -1476744272 663494705 -13369347
        2113863679 -1140854917 -5259265</internalNodes>
      <leafValues>
        -8.0505944788455963e-02 8.8483557105064392e-02</leafValues></_>
    <_>
      <internalNodes>
        0 -1 3 -1026928576 -645879599 -535293744 -574463216 -758988567
        -40189944 -286203188 1297268944</internalNodes>
      <leafValues>
        -8.8061563670635223e-02 7.0833809673786163e-02</leafValues></_>
    <_>
      <internalNodes>
        0 -1 7 1439263180 96982245 -671697034 -120266935 -279060636
        -151650817 -67633686 -109051928</internalNodes>
      <leafValues>
        -7.0698976516723633e-02 7.8911289572715759e-02</leafValues></_>
    <_>
      <internalNodes>
        0 -1 5 168051840 848363840 597689344 -774520180 1180744
        -1198079078 545589412 2105534264</internalNodes>
      <leafValues>
        -1.3389930129051208e-01 4.0531124919652939e-02</leafValues></_>
    <_>
      <internalNodes>
        0 -1 2 2012430248 -285528283 -8708482 -39850950 2138535726
        -190904228 2004842284 972758321</internalNodes>
      <leafValues>
        -7.3818534612655640e-02 8.1714764237403870e-02</leafValues></_>
    <_>
      <internalNodes>
        0 -1 4 143956186 -242483139 -2147462135 -477507328 -1304317701
        -599441366 -2071657942 -320292676</internalNodes>
      <leafValues>
        -8.7908774614334106e-02 5.8201108127832413e-02</leafValues></_>
    <_>
      <internalNodes>
        0 -1 6 -134509375 -471270405 -96994310 -152245811 -254880826
        1431040927 -1044585244 -663463972</internalNodes>
      <leafValues>
        -5.0856571644544601e-02 1.1759616434574127e-01</leafValues></_>
    <_>
      <internalNodes>
        0 -1 1 209776258 -300138318 -1666149886 -566872052 -393690110
        -1123772416 1945023008 -5898802</internalNodes>
      <leafValues>
        -1.0630398243665695e-01 5.4050240665674210e-02</leafValues></_>
    <_>
      <internalNodes>
        0 -1 0 -1152325405 -117902732 -17877889 -512822540 -805932587
        -33704834 -704650123 -237964067</internalNodes>
      <leafValues>
        -5.1051240414381027e-02 1.0625308752059937e-01</leafValues></_>
    <_>
      <internalNodes>
        0 -1 3 1206419584 -1920669215 -1593274156 1304428800 -1027590143
        -49594248 248531710 -376893432</internalNodes>
      <leafValues>
        -9.2574618756771088e-02 5.2993200719356537e-02</leafValues></_>
    <_>
      <internalNodes>
        0 -1 7 17000708 268455940 -2107579996 1410367490 -49916450
        1009945488 -97933654 585927315</internalNodes>
      <leafValues>
        -1.1947274953126907e-01 4.5013498514890671e-02</leafValues></_>
    <_>
      <internalNodes>
        0 -1 8 160 8324 1922564100 271257670 3670048 178782465 227606560
        72382820</internalNodes>
      <leafValues>
        -3.2942357659339905e-01 1.4014823362231255e-02</leafValues></_>
    <_>
      <internalNodes>
        0 -1 2 1725448108 -1083404699 -9494682 -35686372 -147425410
        -335279499 1073643430 -25315382</internalNodes>
      <leafValues>
        -5.7043503969907761e-02 7.6295502483844757e-02</leafValues></_>
    <_>
      <internalNodes>
        0 -1 4 1485357256 1892485178 -1807672306 -276180735 868327672
        -1874474902 -2079422455 -320280343</internalNodes>
      <leafValues>
        -1.1464601010084152e-01 4.0019977837800980e-02</leafValues></_>
    <_>
      <internalNodes>
        0 -1 8 1744749312 1308423613 1879022388 144588799 -1617641571
        -2145162321 -80482353 -134742433</internalNodes>
      <leafValues>
        -4.6894576400518417e-02 1.1464403569698334e-01</leafValues></_>
    <_>
      <internalNodes>
        0 -1 5 436486344 852824328 -73271278 -1915813478 -2076981696
        -98597168 -120779992 -1093911826</internalNodes>
      <leafValues>
        -9.3641512095928192e-02 4.6156946569681168e-02</leafValues></_>
    <_>
      <internalNodes>
        0 -1 7 -438569986 -1512712992 -671680646 2027741129 -1250034188
        -218270241 -436208148 -860491864</internalNodes>
      <leafValues>
        -5.2664421498775482e-02 9.4504699110984802e-02</leafValues></_>
    <_>
      <internalNodes>
        0 -1 0 1816601090 -106934235 -1123532522 1392935109 2083399778
        1722436608 1955277276 771839059</internalNodes>
      <leafValues>
        -1.0432659834623337e-01 4.3195802718400955e-02</leafValues></_>
    <_>
      <internalNodes>
        0 -1 1 35330 -1572716510 -577732606 -1240827892 4219906
        -217671680 -646893008 1679025603</internalNodes>
      <leafValues>
        -1.6084456443786621e-01 2.3407042026519775e-02</leafValues></_>
    <_>
      <internalNodes>
        0 -1 6 -109195032 -337576405 -92832770 1030385088 1960761216
        -641207329 356049448 -1869047726</internalNodes>
      <leafValues>
        -5.0913214683532715e-02 7.8221604228019714e-02</leafValues></_>
    <_>
      <internalNodes>
        0 -1 3 -1344796640 -545216447 1628000468 -37600958 -1059018591
        -49758072 -296564220 -45252511</internalNodes>
      <leafValues>
        -8.4865055978298187e-02 5.2904054522514343e-02</leafValues></_>
    <_>
      <internalNodes>
        0 -1 6 -1417100638 143165065 -1341278166 -2113608695 -2012722038
        -1999961460 -1331165055 706983567</internalNodes>
      <leafValues>
        -7.5737513601779938e-02 5.2872557193040848e-02</leafValues></_>
    <_>
      <internalNodes>
        0 -1 5 436469888 814747648 595591168 0 70386688 403834000
        537133088 335544832</internalNodes>
      <leafValues>
        -8.7486767768859863e-01 3.0584980268031359e-03</leafValues></_>
    <_>
      <internalNodes>
        0 -1 7 16859392 0 35661056 1342177344 84165892 271597952
        539033632 2097152</internalNodes>
      <leafValues>
        -9.3025326728820801e-01 2.9684863984584808e-03</leafValues></_>
    <_>
      <internalNodes>
        0 -1 8 670220710 -1879115841 -9611 -2134949889 1048506338
        -1465472538 247168702 -1350565890</internalNodes>
      <leafValues>
        -3.5742070525884628e-02 8.8025294244289398e-02</leafValues></_>
    <_>
      <internalNodes>
        0 -1 5 1090519560 574882057 -1736114164 1292767236 -2142649847
        -493207038 -640684320 -90199888</internalNodes>
      <leafValues>
        -8.9385695755481720e-02 4.1956469416618347e-02</leafValues></_>
    <_>
      <internalNodes>
        0 -1 1 -83825022 -14551042 2080892575 -12582962 1580388227
        -1368031235 1463859042 -2556038</internalNodes>
      <leafValues>
        -5.4046787321567535e-02 7.6528139412403107e-02</leafValues></_>
    <_>
      <internalNodes>
        0 -1 3 -672298296 -379785291 -28394787 -306339955 -1948394227
        -44101777 -404912180 -672865147</internalNodes>
      <leafValues>
        -5.2929736673831940e-02 7.4679605662822723e-02</leafValues></_>
    <_>
      <internalNodes>
        0 -1 7 -1879005184 1476964488 -2145353577 -1524924406 -400381832
        -1390507478 -67067249 -104162598</internalNodes>
      <leafValues>
        -5.6204319000244141e-02 5.7517070323228836e-02</leafValues></_>
    <_>
      <internalNodes>
        0 -1 5 -1090542432 2012807006 671034032 -67241349 -13369356
        -33816577 2062944827 -513</internalNodes>
      <leafValues>
        -5.1511134952306747e-02 6.5116815268993378e-02</leafValues></_>
    <_>
      <internalNodes>
        0 -1 2 84951040 1353719872 -1541926912 1595418632 262656
        621674576 605036580 1605634048</internalNodes>
      <leafValues>
        -1.4158895611763000e-01 2.2338148206472397e-02</leafValues></_>
    <_>
      <internalNodes>
        0 -1 4 32768 1879048200 -1933566968 1695056128 33624256
        268517514 67309600 1879066624</internalNodes>
      <leafValues>
        -4.8021569848060608e-01 6.2390579842031002e-03</leafValues></_>
    <_>
      <internalNodes>
        0 -1 8 671007138 1308555199 2147457590 -1161838594 -1372180822
        715828132 -1366053126 2124087039</internalNodes>
      <leafValues>
        -4.4671975076198578e-02 6.2188033014535904e-02</leafValues></_>
    <_>
      <internalNodes>
        0 -1 4 1233409024 -1023143927 102422 981520448 -1304321946
        -805224374 -2079946742 -1997492040</internalNodes>
      <leafValues>
        -1.2222497165203094e-01 2.5535501539707184e-02</leafValues></_>
    <_>
      <internalNodes>
        0 -1 2 1981296568 -546463904 -9789850 -37225301 2004252542
        -7899042 930512808 -1119094853</internalNodes>
      <leafValues>
        -3.8184646517038345e-02 9.8238900303840637e-02</leafValues></_>
    <_>
      <internalNodes>
        0 -1 1 -52691206 -184879362 -44669282 -606226 -1208952957
        -196611 -723453966 -16779270</internalNodes>
      <leafValues>
        -4.5138280838727951e-02 7.7378161251544952e-02</leafValues></_>
    <_>
      <internalNodes>
        0 -1 5 22026 805830656 -2002409408 -2004844544 -2134883773
        1653850946 -640970770 -68295505</internalNodes>
      <leafValues>
        -6.3834823668003082e-02 5.3858540952205658e-02</leafValues></_>
    <_>
      <internalNodes>
        0 -1 1 -16711894 -1968130 2131160734 -786482 -13500657 -34078723
        -1085259783 -983049</internalNodes>
      <leafValues>
        -4.1543990373611450e-02 7.7338099479675293e-02</leafValues></_>
    <_>
      <internalNodes>
        0 -1 0 -1160482576 -352781728 -1107306881 -352352012 -537091849
        -570428930 1442793213 -573528483</internalNodes>
      <leafValues>
        -4.3756145983934402e-02 6.7700646817684174e-02</leafValues></_>
    <_>
      <internalNodes>
        0 -1 3 33554432 151003137 537658068 209715200 46137345 554172416
        100663812 16777216</internalNodes>
      <leafValues>
        -7.4498295783996582e-01 4.7015650197863579e-03</leafValues></_>
    <_>
      <internalNodes>
        0 -1 6 -8449 -1048577 -92274689 -35 -8241 -1049601 -65537 -8193</internalNodes>
      <leafValues>
        -3.5440984647721052e-03 8.6064869165420532e-01</leafValues></_>
    <_>
      <internalNodes>
        0 -1 4 1074268302 -780136386 -2147479552 -1601601520 -1233084311
        -805191510 -2138927608 -927424280</internalNodes>
      <leafValues>
        -9.4495154917240143e-02 2.6684723794460297e-02</leafValues></_>
    <_>
      <internalNodes>
        0 -1 8 1710474021 234747837 2147457844 515850239 -1900298581
        -1565873233 -1103380497 -1346371841</internalNodes>
      <leafValues>
        -2.7772929519414902e-02 1.0459835082292557e-01</leafValues></_>
    <_>
      <internalNodes>
        0 -1 5 -2147482496 810090752 1520476160 -578158592 -2146385400
        -1340980990 -577951612 -34615840</internalNodes>
      <leafValues>
        -8.0258838832378387e-02 3.2249808311462402e-02</leafValues></_>
    <_>
      <internalNodes>
        0 -1 2 -136761432 805252709 -8774050 -539006510 -138512513
        -23197612 -143130844 -50104</internalNodes>
      <leafValues>
        -3.7699490785598755e-02 7.6462581753730774e-02</leafValues></_>
    <_>
      <internalNodes>
        0 -1 0 8388608 32 134742036 131140 67371072 77594624 75497492 16</internalNodes>
      <leafValues>
        -9.3399214744567871e-01 2.8544866945594549e-03</leafValues></_>
    <_>
      <internalNodes>
        0 -1 7 -1475679552 -401899452 -2009038456 244875402 -116872976
        -1407546736 -100134880 810059913</internalNodes>
      <leafValues>
        -7.5164988636970520e-02 3.0349908396601677e-02</leafValues></_>
    <_>
      <internalNodes>
        0 -1 1 35330 16418 2 131084 17408 268288 4206592 17474</internalNodes>
      <leafValues>
        -1. 1.2060379376634955e-03</leafValues></_>
    <_>
      <internalNodes>
        0 -1 2 1048576 2097152 -1542975488 134225920 262656 16 605036544
        0</internalNodes>
      <leafValues>
        -1. 1.6594049520790577e-03</leafValues></_>
    <_>
      <internalNodes>
        0 -1 1 545923240 2140536834 -1661894591 -178298875 1086521520
        2113933312 -120618989 -138432123</internalNodes>
      <leafValues>
        -5.4836083203554153e-02 3.8699660450220108e-02</leafValues></_>
    <_>
      <internalNodes>
        0 -1 3 -959519872 -73859123 -28413731 -714215473 -75641377
        -3289105 -1076891706 -270672548</internalNodes>
      <leafValues>
        -4.4023688882589340e-02 6.5508194267749786e-02</leafValues></_>
    <_>
      <internalNodes>
        0 -1 6 1708032234 -926367095 -2109376342 402809033 -2000116568
        -928808244 -2010232279 534592</internalNodes>
      <leafValues>
        -6.4133621752262115e-02 4.2291961610317230e-02</leafValues></_>
    <_>
      <internalNodes>
        0 -1 5 -2113923364 537395456 -929012722 152470156 -2145795061
        -1306885310 -1647400325 -30492497</internalNodes>
      <leafValues>
        -5.4800484329462051e-02 4.6246491372585297e-02</leafValues></_>
    <_>
      <internalNodes>
        0 -1 1 16801800 -15204093 -822083520 -14782460 -1195366400
        -41381888 1497399440 -15419127</internalNodes>
      <leafValues>
        -5.6939404457807541e-02 4.4105879962444305e-02</leafValues></_>
    <_>
      <internalNodes>
        0 -1 0 1750245506 2024423424 -184549118 479473665 -534749104
        -56074240 -503218096 1954706517</internalNodes>
      <leafValues>
        -7.0972442626953125e-02 3.2297443598508835e-02</leafValues></_>
    <_>
      <internalNodes>
        0 -1 6 16777216 512 302331936 268443648 0 197132 2621440 4096</internalNodes>
      <leafValues>
        -9.0150398015975952e-01 1.9145718542858958e-03</leafValues></_>
    <_>
      <internalNodes>
        0 -1 8 -268436545 -536873025 2147474431 -1077952513 -1 -1315841
        -21233665 -1</internalNodes>
      <leafValues>
        -4.3447241187095642e-03 5.8615279197692871e-01</leafValues></_>
    <_>
      <internalNodes>
        0 -1 4 1502923968 -1027073985 -2080370678 721997824 583639272
        -939407206 -2071559157 -323440452</internalNodes>
      <leafValues>
        -8.4550656378269196e-02 2.8021994978189468e-02</leafValues></_>
    <_>
      <internalNodes>
        0 -1 8 670187872 805238719 -1073833420 301875198 1042280428
        -1431340113 -335548419 -20971521</internalNodes>
      <leafValues>
        -3.8422200828790665e-02 6.8546622991561890e-02</leafValues></_>
    <_>
      <internalNodes>
        0 -1 2 -434606168 -17052064 -8675370 -1073742337 2000058303
        1528760413 2012706474 -67109401</internalNodes>
      <leafValues>
        -2.9303414747118950e-02 6.6324122250080109e-02</leafValues></_>
    <_>
      <internalNodes>
        0 -1 4 1216928780 -746321908 -2143252480 -318713856 -1811830719
        -1744779254 -1946022904 -871841792</internalNodes>
      <leafValues>
        -1.0770383477210999e-01 2.0930171012878418e-02</leafValues></_>
    <_>
      <internalNodes>
        0 -1 6 -33633059 -352780561 -624951298 -22090298 -17039378
        -806357025 -374020401 -589432322</internalNodes>
      <leafValues>
        -1.4477897435426712e-02 1.7152877151966095e-01</leafValues></_>
    <_>
      <internalNodes>
        0 -1 7 1841560024 -1277820946 1610004461 -10690741 2136866798
        -16908291 -67141649 -67508813</internalNodes>
      <leafValues>
        -2.8467450290918350e-02 6.8758077919483185e-02</leafValues></_>
    <_>
      <internalNodes>
        0 -1 5 -905967928 809501001 -1700747264 -976239926 -2146352127
        -233127278 -661697504 -1073811974</internalNodes>
      <leafValues>
        -6.9096595048904419e-02 3.7880368530750275e-02</leafValues></_>
    <_>
      <internalNodes>
        0 -1 1 -100291038 -90114050 -44046625 -327730 1664155395
        -76185603 -144574624 -10223622</internalNodes>
      <leafValues>
        -4.1348747909069061e-02 5.1293447613716125e-02</leafValues></_>
    <_>
      <internalNodes>
        0 -1 8 33555168 -2013126524 -770670580 -1859977146 -1967480702
        674136719 737881718 258701934</internalNodes>
      <leafValues>
        -5.7413045316934586e-02 3.3549237996339798e-02</leafValues></_></weakClassifiers></stage7>
</opencv_storage>
