<?xml version="1.0"?>
<opencv_storage>
<stage10>
  <maxWeakCount>21</maxWeakCount>
  <stageThreshold>-1.3726484775543213e+00</stageThreshold>
  <weakClassifiers>
    <_>
      <internalNodes>
        0 -1 319 1971846367 -2242401 -1852716034 -2171430 1208175871
        -348696262 252662779 -76057273</internalNodes>
      <leafValues>
        -4.4796174764633179e-01 1.7157085239887238e-01</leafValues></_>
    <_>
      <internalNodes>
        0 -1 56 -276630605 -13896736 -4755075 -551685389 -478806036
        -79719825 1735980415 -2140969</internalNodes>
      <leafValues>
        -2.3470200598239899e-01 4.0165585279464722e-01</leafValues></_>
    <_>
      <internalNodes>
        0 -1 3115 -336611276 1707036991 -880176401 52884271 -73170704
        1471186099 -219165991 1108061455</internalNodes>
      <leafValues>
        -4.5043042302131653e-01 1.8746064603328705e-01</leafValues></_>
    <_>
      <internalNodes>
        0 -1 3573 -1566331230 -1346636589 -1374486558 133994238
        -1241873212 493344086 -10627218 1124006830</internalNodes>
      <leafValues>
        -2.7036103606224060e-01 2.9992619156837463e-01</leafValues></_>
    <_>
      <internalNodes>
        0 -1 189 -1461575514 -1433647368 -124397059 2130482036 867399163
        -718190571 1630090239 2104845362</internalNodes>
      <leafValues>
        -6.1855709552764893e-01 1.0565261542797089e-01</leafValues></_>
    <_>
      <internalNodes>
        0 -1 2988 -353693900 -903970674 -1869950814 1113498060 147039140
        47351939 910278880 -136406308</internalNodes>
      <leafValues>
        -3.8602289557456970e-01 2.1173012256622314e-01</leafValues></_>
    <_>
      <internalNodes>
        0 -1 3347 -1789446398 -1632644650 -2128581352 43943522
        -1074857555 451608122 1945082109 -807403526</internalNodes>
      <leafValues>
        -2.8431251645088196e-01 2.6316162943840027e-01</leafValues></_>
    <_>
      <internalNodes>
        0 -1 459 -1354778333 -83454 1609516091 2144174066 -208861973
        -1177640 389632839 -1006571520</internalNodes>
      <leafValues>
        -2.2957497835159302e-01 3.0293813347816467e-01</leafValues></_>
    <_>
      <internalNodes>
        0 -1 2283 -1949085925 -1435832292 -1945106436 -625202626
        -350806011 50479155 2066436252 -2474452</internalNodes>
      <leafValues>
        -3.6347001791000366e-01 1.7962488532066345e-01</leafValues></_>
    <_>
      <internalNodes>
        0 -1 1793 -1957994748 1416310649 -1676543009 25612770
        -1021817148 -655625642 885242109 15495725</internalNodes>
      <leafValues>
        -6.1468136310577393e-01 1.0616739839315414e-01</leafValues></_>
    <_>
      <internalNodes>
        0 -1 3663 -536900913 -206577720 860825563 -537962545 -121257846
        -605028642 -1560410481 -97848082</internalNodes>
      <leafValues>
        -1.6433791816234589e-01 4.5628193020820618e-01</leafValues></_>
    <_>
      <internalNodes>
        0 -1 1411 677477214 486425294 512070622 1867923930 1237983749
        -1335424757 -692897220 455040824</internalNodes>
      <leafValues>
        -4.5040333271026611e-01 1.7336492240428925e-01</leafValues></_>
    <_>
      <internalNodes>
        0 -1 2820 2102900370 -1649609263 788414224 -1027785630 756594366
        -1094725844 505193913 -1620452358</internalNodes>
      <leafValues>
        -2.4946224689483643e-01 2.7178850769996643e-01</leafValues></_>
    <_>
      <internalNodes>
        0 -1 2747 -1498546140 1693641545 1771174120 1518384106 269088948
        1233346632 -223348556 -74477404</internalNodes>
      <leafValues>
        -3.4622243046760559e-01 2.0415648818016052e-01</leafValues></_>
    <_>
      <internalNodes>
        0 -1 1049 -1424089044 1859792393 1765987504 1967264221
        1368277854 1511988428 575957574 1296611466</internalNodes>
      <leafValues>
        -4.3465295433998108e-01 1.4703567326068878e-01</leafValues></_>
    <_>
      <internalNodes>
        0 -1 119 -72769902 -30476062 -1611406023 -1913273733 -625742503
        703101408 1366598415 -1621142321</internalNodes>
      <leafValues>
        -1.8942953646183014e-01 3.5416010022163391e-01</leafValues></_>
    <_>
      <internalNodes>
        0 -1 733 1217294994 -459718578 -939419554 1341791246 672164868
        -1291311546 -1876009152 1562605584</internalNodes>
      <leafValues>
        -4.3293520808219910e-01 1.5837255120277405e-01</leafValues></_>
    <_>
      <internalNodes>
        0 -1 47 241041960 -900677364 1448075557 1862515520 1662640381
        1004656802 1481462792 1394390550</internalNodes>
      <leafValues>
        -4.0720012784004211e-01 1.6800828278064728e-01</leafValues></_>
    <_>
      <internalNodes>
        0 -1 3616 -776520909 163565994 1995002371 1262463474 1030159867
        -2063680101 1465628553 -617087510</internalNodes>
      <leafValues>
        -2.1189534664154053e-01 3.3013322949409485e-01</leafValues></_>
    <_>
      <internalNodes>
        0 -1 790 -1675427036 -1655788085 1376901623 1823445413
        -1196322437 1511246061 -1936115253 454827594</internalNodes>
      <leafValues>
        -5.8538287878036499e-01 1.2704585492610931e-01</leafValues></_>
    <_>
      <internalNodes>
        0 -1 3245 -925136929 -839188670 -68284455 1239273209 -932068904
        -595823459 -277275968 -74711079</internalNodes>
      <leafValues>
        -1.5666590631008148e-01 4.3712908029556274e-01</leafValues></_></weakClassifiers></stage10>
</opencv_storage>
