<?xml version="1.0"?>
<opencv_storage>
<stage22>
  <maxWeakCount>17</maxWeakCount>
  <stageThreshold>-6.3245362043380737e-01</stageThreshold>
  <weakClassifiers>
    <_>
      <internalNodes>
        0 -1 714 -587401244 1349893375 2145909885 1425372663 -713689099
        -671301889 -50530841 1409647271</internalNodes>
      <leafValues>
        -1.5762273967266083e-01 5.9629446268081665e-01</leafValues></_>
    <_>
      <internalNodes>
        0 -1 1010 -605236003 -943869394 1752952031 1895825087
        -1614249290 -1660963639 -921903458 -122959619</internalNodes>
      <leafValues>
        -1.2443198263645172e-01 6.4822530746459961e-01</leafValues></_>
    <_>
      <internalNodes>
        0 -1 797 251975796 508715086 402739548 1023938650 1797468323
        143335425 251916524 993730680</internalNodes>
      <leafValues>
        -4.2581167817115784e-01 2.4726003408432007e-01</leafValues></_>
    <_>
      <internalNodes>
        0 -1 463 -1395752406 -653205487 117805317 -435838800 -670805745
        -1274904256 1164034313 1124614318</internalNodes>
      <leafValues>
        -6.6553980112075806e-01 1.4130637049674988e-01</leafValues></_>
    <_>
      <internalNodes>
        0 -1 201 -1424322174 -142072507 890254639 906097162 1862279489
        856196000 1931322112 1409832303</internalNodes>
      <leafValues>
        -4.0204796195030212e-01 2.4070115387439728e-01</leafValues></_>
    <_>
      <internalNodes>
        0 -1 720 1614842116 -893202352 80769147 147365981 -224280239
        1610842252 -1196824520 403182481</internalNodes>
      <leafValues>
        -4.9690377712249756e-01 1.5350502729415894e-01</leafValues></_>
    <_>
      <internalNodes>
        0 -1 1011 213550151 1340538528 -1356354130 1269527358 -906966909
        385775205 -219256119 -71718005</internalNodes>
      <leafValues>
        -2.6565435528755188e-01 3.6341005563735962e-01</leafValues></_>
    <_>
      <internalNodes>
        0 -1 438 306842662 2016558122 402692119 2052993948 -1534454552
        1783111888 -234714496 2048685444</internalNodes>
      <leafValues>
        -5.0174486637115479e-01 1.8206787109375000e-01</leafValues></_>
    <_>
      <internalNodes>
        0 -1 987 -844445203 -71435417 -5611778 -67195193 1202672378
        -539233034 -2963000 -771494199</internalNodes>
      <leafValues>
        -1.6943483054637909e-01 5.5490738153457642e-01</leafValues></_>
    <_>
      <internalNodes>
        0 -1 1056 91817923 -183779334 -1456485433 1391029571 998117200
        1206742751 -576155413 -221661392</internalNodes>
      <leafValues>
        -2.5084578990936279e-01 3.8090515136718750e-01</leafValues></_>
    <_>
      <internalNodes>
        0 -1 33 -1890090093 -585027804 -1750155493 -1034012131
        1712403112 -167127470 501614327 -28571977</internalNodes>
      <leafValues>
        -2.3934915661811829e-01 3.7640929222106934e-01</leafValues></_>
    <_>
      <internalNodes>
        0 -1 86 1144715999 -246606205 288107970 -149452741 -53394790
        -924860434 -1052772357 -418531333</internalNodes>
      <leafValues>
        -1.6648748517036438e-01 5.6222808361053467e-01</leafValues></_>
    <_>
      <internalNodes>
        0 -1 796 361903313 -1337311084 310493201 1495679317 -1563700695
        -1602142141 -1971297875 -1216471000</internalNodes>
      <leafValues>
        -3.1203928589820862e-01 3.0031171441078186e-01</leafValues></_>
    <_>
      <internalNodes>
        0 -1 811 -359019265 -224461057 -21272081 -254006201 -185863947
        -625170381 -26626321 -116449357</internalNodes>
      <leafValues>
        -1.4483015239238739e-01 6.6385024785995483e-01</leafValues></_>
    <_>
      <internalNodes>
        0 -1 1211 -571909118 -1787099406 2004848426 158666291
        -1210214612 -516835809 -733214336 -1014172049</internalNodes>
      <leafValues>
        -2.4943460524082184e-01 3.7005814909934998e-01</leafValues></_>
    <_>
      <internalNodes>
        0 -1 395 -2062445941 1073811496 1476419598 942277000 302552883
        -1576531968 -434057199 -1021590303</internalNodes>
      <leafValues>
        -3.5713201761245728e-01 2.7471244335174561e-01</leafValues></_>
    <_>
      <internalNodes>
        0 -1 978 826437824 1128563473 1241531778 -659617550 151028122
        2030731264 67601 2127102152</internalNodes>
      <leafValues>
        -3.8901126384735107e-01 2.6893806457519531e-01</leafValues></_></weakClassifiers></stage22>
</opencv_storage>
