<?xml version="1.0"?>
<opencv_storage>
<stage2>
  <maxWeakCount>7</maxWeakCount>
  <stageThreshold>-1.6175583600997925e+00</stageThreshold>
  <weakClassifiers>
    <_>
      <internalNodes>
        0 -1 485 -2098178 -1 -34080257 -3121 -257 -67109185 -1 -1025</internalNodes>
      <leafValues>
        -7.2681146860122681e-01 6.1102527379989624e-01</leafValues></_>
    <_>
      <internalNodes>
        0 -1 216 -287117330 -117512197 -2105346 -4538470 1886912511
        -145285393 2004342783 2138265167</internalNodes>
      <leafValues>
        -6.5824466943740845e-01 2.9401144385337830e-01</leafValues></_>
    <_>
      <internalNodes>
        0 -1 1968 -2098188 1509949439 1068972792 528448382 -538968843
        478145681 417315068 469756863</internalNodes>
      <leafValues>
        -5.8371526002883911e-01 3.1218144297599792e-01</leafValues></_>
    <_>
      <internalNodes>
        0 -1 778 -1369135324 2147406203 -134480521 -273763333 -522717787
        -33592321 1442386885 1393313623</internalNodes>
      <leafValues>
        -6.4495915174484253e-01 2.8268572688102722e-01</leafValues></_>
    <_>
      <internalNodes>
        0 -1 2511 -1896400073 -488746241 -570433193 -625325844
        -2082999297 163480091 -1280451597 -88148536</internalNodes>
      <leafValues>
        -4.2208480834960938e-01 3.9442038536071777e-01</leafValues></_>
    <_>
      <internalNodes>
        0 -1 677 -386074625 785090647 1566401310 1068004218 236935341
        1124401760 2001669540 2136429844</internalNodes>
      <leafValues>
        -4.9802011251449585e-01 3.0931833386421204e-01</leafValues></_>
    <_>
      <internalNodes>
        0 -1 2682 -1369036028 1987804279 -1411449511 -244424834
        -479989771 130759358 -1214251052 286982459</internalNodes>
      <leafValues>
        -7.1249121427536011e-01 1.7212691903114319e-01</leafValues></_></weakClassifiers></stage2>
</opencv_storage>
