<?xml version="1.0"?>
<opencv_storage>
<stage14>
  <maxWeakCount>24</maxWeakCount>
  <stageThreshold>-1.2928166389465332e+00</stageThreshold>
  <weakClassifiers>
    <_>
      <internalNodes>
        0 -1 331 -425645317 -68161953 1693413947 1601689599 -1199997253
        -496869761 845142998 -76055425</internalNodes>
      <leafValues>
        -3.1729736924171448e-01 3.7773883342742920e-01</leafValues></_>
    <_>
      <internalNodes>
        0 -1 3040 -1969820859 -83041829 1233879118 50447983 -355554622
        -641154877 1673777098 1111121734</internalNodes>
      <leafValues>
        -3.9053240418434143e-01 1.8361514806747437e-01</leafValues></_>
    <_>
      <internalNodes>
        0 -1 430 1619000067 -1093500672 931258657 -1348612864 -471268989
        -257813504 1728355090 1078825302</internalNodes>
      <leafValues>
        -3.3559647202491760e-01 1.9777204096317291e-01</leafValues></_>
    <_>
      <internalNodes>
        0 -1 788 -799924047 -1192136205 -2129538637 1657045858 998075636
        -235243224 -1468941791 22371995</internalNodes>
      <leafValues>
        -2.5797811150550842e-01 2.5829535722732544e-01</leafValues></_>
    <_>
      <internalNodes>
        0 -1 71 -2070241298 1275992525 -804814056 -1725604606 -619578713
        193566719 -2147162994 -627092256</internalNodes>
      <leafValues>
        -5.9437179565429688e-01 9.4848677515983582e-02</leafValues></_>
    <_>
      <internalNodes>
        0 -1 1142 -50268390 -635155064 -42892426 -201072660 -2031504979
        -361774022 1161619267 -821954637</internalNodes>
      <leafValues>
        -1.6038219630718231e-01 4.3634790182113647e-01</leafValues></_>
    <_>
      <internalNodes>
        0 -1 3375 -1492499807 -1492938623 -788377548 1084923904 1542257
        -2016728933 -2100578576 -1275622920</internalNodes>
      <leafValues>
        -3.4409511089324951e-01 1.8414783477783203e-01</leafValues></_>
    <_>
      <internalNodes>
        0 -1 2085 894631799 1999530852 916660225 1807472099 225720043
        1244555053 1286557723 -7881129</internalNodes>
      <leafValues>
        -1.6160926222801208e-01 3.7027639150619507e-01</leafValues></_>
    <_>
      <internalNodes>
        0 -1 3663 -580025448 -122594366 122621836 -1879208733 1519206792
        -1410859313 1906254031 -365962772</internalNodes>
      <leafValues>
        -1.7908050119876862e-01 3.5009351372718811e-01</leafValues></_>
    <_>
      <internalNodes>
        0 -1 1344 1330618538 -362933971 -2029921024 -680390630
        -417789813 -229507072 641925926 -1152040946</internalNodes>
      <leafValues>
        -3.0634310841560364e-01 2.1195352077484131e-01</leafValues></_>
    <_>
      <internalNodes>
        0 -1 2621 -1044312988 -115701042 1250352532 433690837 -659863355
        -87522095 1272480203 -1340537717</internalNodes>
      <leafValues>
        -2.7280211448669434e-01 2.4667370319366455e-01</leafValues></_>
    <_>
      <internalNodes>
        0 -1 1394 562661288 2134786255 -1543438334 928149999 159683404
        472392036 -1742069706 2078113708</internalNodes>
      <leafValues>
        -2.7968177199363708e-01 2.2754752635955811e-01</leafValues></_>
    <_>
      <internalNodes>
        0 -1 2580 2101992282 327237761 754983365 1719079200 1317090115
        -2000088885 -1070882260 -413168698</internalNodes>
      <leafValues>
        -2.4877776205539703e-01 2.5531989336013794e-01</leafValues></_>
    <_>
      <internalNodes>
        0 -1 2970 -1576143354 -536697662 -1073229804 1884950996
        142621572 -1031664629 -1715095164 1939790492</internalNodes>
      <leafValues>
        -3.2669350504875183e-01 2.0347809791564941e-01</leafValues></_>
    <_>
      <internalNodes>
        0 -1 3928 724777328 454316865 37980292 856495001 704664225
        -884501876 -1023008044 -1937218332</internalNodes>
      <leafValues>
        -4.0856760740280151e-01 1.5856651961803436e-01</leafValues></_>
    <_>
      <internalNodes>
        0 -1 492 -721090663 -7125883 938734525 -1712458531 747885021
        252376936 911549275 -1409589813</internalNodes>
      <leafValues>
        -1.4191788434982300e-01 4.4888076186180115e-01</leafValues></_>
    <_>
      <internalNodes>
        0 -1 3311 581610400 969605267 537935882 180462232 -427282664
        408461960 1644923717 374393334</internalNodes>
      <leafValues>
        -4.5573380589485168e-01 1.5079958736896515e-01</leafValues></_>
    <_>
      <internalNodes>
        0 -1 698 1111765586 1820332169 471464762 56026178 872419696
        -1742733303 1124197240 1384973402</internalNodes>
      <leafValues>
        -5.1078325510025024e-01 1.3876235485076904e-01</leafValues></_>
    <_>
      <internalNodes>
        0 -1 733 -374416685 -449074491 -810647937 2046010335 -390222169
        -71421116 208336853 -10520229</internalNodes>
      <leafValues>
        -1.5517093241214752e-01 5.1116287708282471e-01</leafValues></_>
    <_>
      <internalNodes>
        0 -1 2809 281443686 -1530707903 -1861511593 534511888 587860163
        68870145 1074411696 1116156478</internalNodes>
      <leafValues>
        -3.6804023385047913e-01 2.0190820097923279e-01</leafValues></_>
    <_>
      <internalNodes>
        0 -1 750 -48892569 -714624739 163631115 570920093 1286232172
        1208058114 1510533130 1684629599</internalNodes>
      <leafValues>
        -3.0335435271263123e-01 2.2434875369071960e-01</leafValues></_>
    <_>
      <internalNodes>
        0 -1 3244 -1707271813 -827474022 -1024097347 1818327989
        -1336047395 451377289 1089259077 -1732649108</internalNodes>
      <leafValues>
        -2.3102453351020813e-01 3.1355628371238708e-01</leafValues></_>
    <_>
      <internalNodes>
        0 -1 2511 -2133384931 -531618672 -536837948 1522452944
        -2012085375 537038848 817043712 2075800148</internalNodes>
      <leafValues>
        -4.4241032004356384e-01 1.4826017618179321e-01</leafValues></_>
    <_>
      <internalNodes>
        0 -1 638 -2005364266 1289634398 1291862142 566363614 -2113240951
        1797652488 101531677 1332085902</internalNodes>
      <leafValues>
        -5.7046252489089966e-01 1.1669239401817322e-01</leafValues></_></weakClassifiers></stage14>
</opencv_storage>
