<?xml version="1.0"?>
<opencv_storage>
<stage5>
  <maxWeakCount>9</maxWeakCount>
  <stageThreshold>-7.4971282482147217e-01</stageThreshold>
  <weakClassifiers>
    <_>
      <internalNodes>
        0 -1 24 -2050 -131137 -4194305 -1073741841 -513 -135689
        -25170177 -68163749</internalNodes>
      <leafValues>
        -1.8819671869277954e-01 7.7917039394378662e-01</leafValues></_>
    <_>
      <internalNodes>
        0 -1 767 -440403164 339050675 -1895579298 320805343 960158069
        1103284411 -1349785116 297765803</internalNodes>
      <leafValues>
        -6.5118914842605591e-01 3.9968562126159668e-01</leafValues></_>
    <_>
      <internalNodes>
        0 -1 126 -1325993482 1734262870 1360343474 2101246846
        -1274978593 1747274830 520565284 2136438312</internalNodes>
      <leafValues>
        -6.6138392686843872e-01 2.7536755800247192e-01</leafValues></_>
    <_>
      <internalNodes>
        0 -1 35 -328223769 -115967813 -1190693543 -77860795 -971279517
        -243231860 1360913046 1464820979</internalNodes>
      <leafValues>
        -4.2054107785224915e-01 4.4153016805648804e-01</leafValues></_>
    <_>
      <internalNodes>
        0 -1 784 -973720577 -925343668 1413009438 -161871842 948162649
        319488066 317621164 -69592360</internalNodes>
      <leafValues>
        -4.2672801017761230e-01 4.0444383025169373e-01</leafValues></_>
    <_>
      <internalNodes>
        0 -1 1109 -1091323637 -2001784973 1941454080 212647218
        -358903839 101899580 -589305420 -1064963</internalNodes>
      <leafValues>
        -3.4573942422866821e-01 4.7191923856735229e-01</leafValues></_>
    <_>
      <internalNodes>
        0 -1 527 -1392900236 -96145034 -582887118 -195128986 -497305229
        -1488838382 576390868 2001011398</internalNodes>
      <leafValues>
        -5.6813991069793701e-01 2.6215708255767822e-01</leafValues></_>
    <_>
      <internalNodes>
        0 -1 1044 193863993 743736280 16855465 -845668125 -1591625575
        -1937225726 463127025 -1617202992</internalNodes>
      <leafValues>
        -4.0221536159515381e-01 4.0101006627082825e-01</leafValues></_>
    <_>
      <internalNodes>
        0 -1 155 -2007290685 -149880187 286584154 -407216262 1082345956
        -266665968 -1457984746 -9557902</internalNodes>
      <leafValues>
        -4.0498664975166321e-01 4.0439382195472717e-01</leafValues></_></weakClassifiers></stage5>
</opencv_storage>
