<?xml version="1.0"?>
<opencv_storage>
<stage13>
  <maxWeakCount>100</maxWeakCount>
  <stageThreshold>-1.2157953977584839e+00</stageThreshold>
  <weakClassifiers>
    <_>
      <internalNodes>
        0 -1 2 -1646026681 -67719009 -1902632741 -42281778 -1874558831
        1935081985 -1069498149 2135382495</internalNodes>
      <leafValues>
        -4.2509204149246216e-01 5.5323988199234009e-02</leafValues></_>
    <_>
      <internalNodes>
        0 -1 3 -506223445 -656354256 -720332781 -690161594 -528421928
        -660414288 -732925739 1477509133</internalNodes>
      <leafValues>
        -3.0763587355613708e-01 1.2902121245861053e-01</leafValues></_>
    <_>
      <internalNodes>
        0 -1 8 -803656645 1185087488 1073818059 1732321281 -68486179
        194876315 167487981 1543496363</internalNodes>
      <leafValues>
        -1.9501505792140961e-01 1.6754783689975739e-01</leafValues></_>
    <_>
      <internalNodes>
        0 -1 6 -76154593 -278021122 1538784255 2100948236 -103940415
        -846203938 -641861430 -608444961</internalNodes>
      <leafValues>
        -8.1591516733169556e-02 2.8476744890213013e-01</leafValues></_>
    <_>
      <internalNodes>
        0 -1 2 1727414206 -1766125968 -1089954 535657829 2008971070
        1312373149 939425312 -281493890</internalNodes>
      <leafValues>
        -1.0858753323554993e-01 2.4026039242744446e-01</leafValues></_>
    <_>
      <internalNodes>
        0 -1 1 -291614055 -589393648 1439252581 -238993280 -1846865736
        -570257277 1124239369 -612945780</internalNodes>
      <leafValues>
        -2.1960069239139557e-01 1.5193824470043182e-01</leafValues></_>
    <_>
      <internalNodes>
        0 -1 5 -2113315490 117965097 268505534 1897337116 402697219
        1086382088 421758044 1272700815</internalNodes>
      <leafValues>
        -2.5460883975028992e-01 1.0888724774122238e-01</leafValues></_>
    <_>
      <internalNodes>
        0 -1 7 -1702434940 -712333838 -1941927798 9117862 -1467443071
        137267840 -870276216 1485605000</internalNodes>
      <leafValues>
        -2.3225802183151245e-01 1.1065635085105896e-01</leafValues></_>
    <_>
      <internalNodes>
        0 -1 6 -859722304 -915160752 1616954053 -2117319544 -956510982
        -835935034 -850809380 541125704</internalNodes>
      <leafValues>
        -1.9996376335620880e-01 8.3936020731925964e-02</leafValues></_>
    <_>
      <internalNodes>
        0 -1 0 -335470417 -656539799 -219179649 -537143300 -69879073
        -159379 1995896375 -537397473</internalNodes>
      <leafValues>
        -9.4383142888545990e-02 2.4209544062614441e-01</leafValues></_>
    <_>
      <internalNodes>
        0 -1 4 -994734300 70867 135332890 545587537 277801151 1409337345
        546085640 274808981</internalNodes>
      <leafValues>
        -3.5423254966735840e-01 3.9485223591327667e-02</leafValues></_>
    <_>
      <internalNodes>
        0 -1 7 -538707176 -8562695 -134824079 -632520763 -310943809
        -754974761 704118779 -1334743622</internalNodes>
      <leafValues>
        -9.6588760614395142e-02 1.4362269639968872e-01</leafValues></_>
    <_>
      <internalNodes>
        0 -1 3 -67315872 -336023643 -1074842913 -411234307 -8540249
        -204492993 -403845316 -1893544489</internalNodes>
      <leafValues>
        -1.0230156034231186e-01 1.6410057246685028e-01</leafValues></_>
    <_>
      <internalNodes>
        0 -1 1 105267980 -414082800 -1784035260 -246636399 539408572
        -1064775551 -267894775 -134381439</internalNodes>
      <leafValues>
        -1.5420950949192047e-01 9.6439227461814880e-02</leafValues></_>
    <_>
      <internalNodes>
        0 -1 5 -2096605876 83886216 268485808 889198614 403221512
        47768074 1147211161 -885432422</internalNodes>
      <leafValues>
        -1.8966974318027496e-01 7.7340714633464813e-02</leafValues></_>
    <_>
      <internalNodes>
        0 -1 8 -1107330646 905969151 2147465910 -1646329857 -285530458
        -1716617301 -1084260678 -1132462858</internalNodes>
      <leafValues>
        -7.1243494749069214e-02 1.9787022471427917e-01</leafValues></_>
    <_>
      <internalNodes>
        0 -1 4 -709080582 -2130504685 135332891 570523920 286187697
        335857665 536910338 -1724805084</internalNodes>
      <leafValues>
        -1.5653717517852783e-01 9.3006178736686707e-02</leafValues></_>
    <_>
      <internalNodes>
        0 -1 2 1729523624 2137849829 -1434034 -2097170 2004252607
        -636086147 -1207994525 -4194464</internalNodes>
      <leafValues>
        -8.8146872818470001e-02 1.6134214401245117e-01</leafValues></_>
    <_>
      <internalNodes>
        0 -1 5 -1022885366 256573736 -939194884 -452558566 403221504
        -1060101624 -1742066942 -1430321268</internalNodes>
      <leafValues>
        -1.6248144209384918e-01 7.0230498909950256e-02</leafValues></_>
    <_>
      <internalNodes>
        0 -1 0 12886546 -532892928 881135890 -570380008 1690381314
        -128415712 -1542639092 1946965137</internalNodes>
      <leafValues>
        -1.9961015880107880e-01 5.8489702641963959e-02</leafValues></_>
    <_>
      <internalNodes>
        0 -1 1 2076303258 -10291202 -1080629441 -207106098 -34406421
        -143196163 -1075708064 -3021198</internalNodes>
      <leafValues>
        -6.9437347352504730e-02 1.6628390550613403e-01</leafValues></_>
    <_>
      <internalNodes>
        0 -1 7 -572269082 1163386322 -536887432 1590550471 -1912734281
        1560280543 -336068626 -553910278</internalNodes>
      <leafValues>
        -7.2310261428356171e-02 1.3028910756111145e-01</leafValues></_>
    <_>
      <internalNodes>
        0 -1 3 -813381740 -337969259 -1085325601 925720477 -75661915
        -36716617 2005913365 -8329569</internalNodes>
      <leafValues>
        -7.6290130615234375e-02 1.2999127805233002e-01</leafValues></_>
    <_>
      <internalNodes>
        0 -1 0 -1145209415 -235589531 -839967370 1441517821 -1227546403
        -940191508 1425497143 -1544223341</internalNodes>
      <leafValues>
        -7.7714256942272186e-02 1.2669728696346283e-01</leafValues></_>
    <_>
      <internalNodes>
        0 -1 8 -2145873760 1990393922 1073752264 1027661825 713574944
        638309651 -1351375648 -1946295767</internalNodes>
      <leafValues>
        -1.2977379560470581e-01 6.3720308244228363e-02</leafValues></_>
    <_>
      <internalNodes>
        0 -1 1 -434634232 -800548863 1419823136 -251649919 39913720
        1660997763 19398656 1927942284</internalNodes>
      <leafValues>
        -1.9332964718341827e-01 3.6753226071596146e-02</leafValues></_>
    <_>
      <internalNodes>
        0 -1 3 -539510838 -107434043 -19940897 1974325149 -67260995
        -35790849 -1748127803 -1411736345</internalNodes>
      <leafValues>
        -6.5857730805873871e-02 1.1675363034009933e-01</leafValues></_>
    <_>
      <internalNodes>
        0 -1 0 1996030598 1344910080 -1283092461 -1198483432 1355521408
        -99090045 -1140031276 1485308944</internalNodes>
      <leafValues>
        -9.6171252429485321e-02 7.5666375458240509e-02</leafValues></_>
    <_>
      <internalNodes>
        0 -1 2 -2073755648 584196164 -1902272437 -271187924 -1866170351
        2108637376 38289673 -70297213</internalNodes>
      <leafValues>
        -1.0959909111261368e-01 8.4406025707721710e-02</leafValues></_>
    <_>
      <internalNodes>
        0 -1 5 34081040 122552744 -939491142 -180289536 402696194
        1658355714 -1071406976 -348450942</internalNodes>
      <leafValues>
        -1.2515671551227570e-01 5.6885074824094772e-02</leafValues></_>
    <_>
      <internalNodes>
        0 -1 1 826688456 -254764784 1343346692 -242163584 -803166104
        -41922559 1619132420 -1118525436</internalNodes>
      <leafValues>
        -9.7510620951652527e-02 7.0598602294921875e-02</leafValues></_>
    <_>
      <internalNodes>
        0 -1 7 -1467848412 -980385639 -1405056880 -2147377114 -494227272
        -2146662264 -905404008 -259355952</internalNodes>
      <leafValues>
        -1.0107289999723434e-01 6.8034552037715912e-02</leafValues></_>
    <_>
      <internalNodes>
        0 -1 6 -394223230 -918830887 -530546037 1083228361 1105510560
        1518643394 -783493104 1644283584</internalNodes>
      <leafValues>
        -1.1926841735839844e-01 7.4593327939510345e-02</leafValues></_>
    <_>
      <internalNodes>
        0 -1 5 34078728 122552456 263600 -1521073151 402664459
        -522698238 -870233382 -335556931</internalNodes>
      <leafValues>
        -8.4359653294086456e-02 7.6167099177837372e-02</leafValues></_>
    <_>
      <internalNodes>
        0 -1 4 -728179724 -2118118317 134284346 -1602125487 -1870208875
        -1811625919 -1467445236 -1311653691</internalNodes>
      <leafValues>
        -1.4083945751190186e-01 5.6909840553998947e-02</leafValues></_>
    <_>
      <internalNodes>
        0 -1 2 67239936 1792278532 -1911029694 2111766639 273416192
        -396946592 138412035 2147424569</internalNodes>
      <leafValues>
        -9.6471428871154785e-02 7.0798978209495544e-02</leafValues></_>
    <_>
      <internalNodes>
        0 -1 6 -1074509731 1810546430 -621297669 -1103304221 -68920508
        -1615858722 -704844337 -1735639815</internalNodes>
      <leafValues>
        -6.5400838851928711e-02 1.0803859680891037e-01</leafValues></_>
    <_>
      <internalNodes>
        0 -1 3 -1513046016 -926755648 -728643053 -183713728 1342241354
        -594370528 -457127755 -662576599</internalNodes>
      <leafValues>
        -8.5386916995048523e-02 6.7140564322471619e-02</leafValues></_>
    <_>
      <internalNodes>
        0 -1 1 75514440 -7497472 -1853831136 -103706496 1151862816
        -58683263 1073741824 2129633416</internalNodes>
      <leafValues>
        -9.9761731922626495e-02 5.3471244871616364e-02</leafValues></_>
    <_>
      <internalNodes>
        0 -1 7 -1971175168 1166542282 -1941962744 67272710 1073779200
        -1576761216 1277198484 281467592</internalNodes>
      <leafValues>
        -1.7552934587001801e-01 2.1847639232873917e-02</leafValues></_>
    <_>
      <internalNodes>
        0 -1 8 -268705304 -973081153 -17675 -2082471937 207247136
        -1968554199 985513519 -268518146</internalNodes>
      <leafValues>
        -4.7688983380794525e-02 1.0257005691528320e-01</leafValues></_>
    <_>
      <internalNodes>
        0 -1 4 -720776242 -2147478318 135332874 -1434332863 976927
        -1676883887 -1610311153 -842927915</internalNodes>
      <leafValues>
        -9.1152727603912354e-02 5.3025346249341965e-02</leafValues></_>
    <_>
      <internalNodes>
        0 -1 1 -656564734 -17303810 -1129943266 -16838706 -76392653
        2088665085 -549341331 -143374734</internalNodes>
      <leafValues>
        -5.8590881526470184e-02 7.5013130903244019e-02</leafValues></_>
    <_>
      <internalNodes>
        0 -1 5 -1090605408 2108751454 -297999 -217073495 2134556157
        -16961 -8396819 -50331750</internalNodes>
      <leafValues>
        -5.2361302077770233e-02 9.4077378511428833e-02</leafValues></_>
    <_>
      <internalNodes>
        0 -1 7 -840709688 -918030784 1476311024 -187891739 -304743036
        1560149981 -301990428 -25559584</internalNodes>
      <leafValues>
        -6.6023297607898712e-02 7.5100108981132507e-02</leafValues></_>
    <_>
      <internalNodes>
        0 -1 8 -2145877968 109117442 -805230464 1010933761 142647303
        1086456195 -269226050 698344107</internalNodes>
      <leafValues>
        -6.1846919357776642e-02 6.3000939786434174e-02</leafValues></_>
    <_>
      <internalNodes>
        0 -1 5 -2146888704 122618248 -1744513890 -178269026 411052033
        -488783798 1298817306 -337649761</internalNodes>
      <leafValues>
        -6.3904024660587311e-02 6.6436074674129486e-02</leafValues></_>
    <_>
      <internalNodes>
        0 -1 4 -994518888 -2109598574 135332888 -1601842880 -1870208839
        -737359807 -1601660928 -101584652</internalNodes>
      <leafValues>
        -1.0474901646375656e-01 3.2458502799272537e-02</leafValues></_>
    <_>
      <internalNodes>
        0 -1 2 -432656466 -1083445508 -1352122 -536874336 -139036882
        -153508 938964512 -818291190</internalNodes>
      <leafValues>
        -4.7104045748710632e-02 9.9370904266834259e-02</leafValues></_>
    <_>
      <internalNodes>
        0 -1 0 -103744653 -238010783 -34663041 1878718333 -338315433
        -140817 1710653183 -271194985</internalNodes>
      <leafValues>
        -2.7723414823412895e-02 1.1851099133491516e-01</leafValues></_>
    <_>
      <internalNodes>
        0 -1 3 1099038720 -1971010560 -729805295 -976695226 -199202168
        -594493320 -461313852 -1469380094</internalNodes>
      <leafValues>
        -9.2045456171035767e-02 3.7933103740215302e-02</leafValues></_>
    <_>
      <internalNodes>
        0 -1 6 -608966262 -289702918 -88654850 -89544241 -5318738
        -2114978850 62450333 -1171613794</internalNodes>
      <leafValues>
        -4.7989871352910995e-02 1.1339537799358368e-01</leafValues></_>
    <_>
      <internalNodes>
        0 -1 7 -572391562 -179446560 -606341 -20578345 -270535267
        -587203113 -369107457 -528902</internalNodes>
      <leafValues>
        -4.1476085782051086e-02 7.9178452491760254e-02</leafValues></_>
    <_>
      <internalNodes>
        0 -1 4 -1006075648 -2134834048 134218760 679809280 143056912
        -1677408255 -1601400828 1771061380</internalNodes>
      <leafValues>
        -2.6344215869903564e-01 1.1708664707839489e-02</leafValues></_>
    <_>
      <internalNodes>
        0 -1 6 -1069175612 -926235572 -1600077301 81510537 1223461032
        -939491130 -573652926 1153523937</internalNodes>
      <leafValues>
        -5.2707351744174957e-02 5.5641829967498779e-02</leafValues></_>
    <_>
      <internalNodes>
        0 -1 5 524288 83886088 160 553650176 402664448 5251072 2097152
        134219264</internalNodes>
      <leafValues>
        -6.5245324373245239e-01 4.3487269431352615e-03</leafValues></_>
    <_>
      <internalNodes>
        0 -1 8 -2146395992 539166722 268509184 -1992253439 174070412
        715047745 698067620 -881483733</internalNodes>
      <leafValues>
        -6.4492657780647278e-02 4.3242089450359344e-02</leafValues></_>
    <_>
      <internalNodes>
        0 -1 0 -292428760 -67242142 -1662022281 -554019203 -1076416571
        -552467 -76171 -143166191</internalNodes>
      <leafValues>
        -4.4239614158868790e-02 6.0528200119733810e-02</leafValues></_>
    <_>
      <internalNodes>
        0 -1 1 1778401792 1077968896 1372667905 -182652927 1621366824
        -218034176 -1700593663 -77615100</internalNodes>
      <leafValues>
        -8.8780984282493591e-02 3.3087186515331268e-02</leafValues></_>
    <_>
      <internalNodes>
        0 -1 0 -640634759 1895624801 -101772170 -219483908 -86642467
        -168488721 1962898677 351335568</internalNodes>
      <leafValues>
        -4.9094069749116898e-02 5.9578664600849152e-02</leafValues></_>
    <_>
      <internalNodes>
        0 -1 3 629276672 -1870625664 -1786707437 890800128 -803151096
        -1936687072 -456996859 1821434576</internalNodes>
      <leafValues>
        -9.8056420683860779e-02 2.6754716411232948e-02</leafValues></_>
    <_>
      <internalNodes>
        0 -1 4 -978057150 16913603 134317119 -1610575616 -2146539334
        -737654719 671652623 -2061389743</internalNodes>
      <leafValues>
        -8.3618201315402985e-02 2.8401244431734085e-02</leafValues></_>
    <_>
      <internalNodes>
        0 -1 5 -85848 1975320158 -284673 -159418945 2142420478
        2113633727 -1073758213 -134234661</internalNodes>
      <leafValues>
        -3.1193455681204796e-02 8.9428395032882690e-02</leafValues></_>
    <_>
      <internalNodes>
        0 -1 1 -1219305598 -4522242 -22026466 -540722 -1674346581
        -335577091 -1117077664 -17564042</internalNodes>
      <leafValues>
        -4.0176104754209518e-02 6.8338006734848022e-02</leafValues></_>
    <_>
      <internalNodes>
        0 -1 3 -840924960 -926624640 -738194431 -976723904 1151347096
        1283637312 1690355893 -666892279</internalNodes>
      <leafValues>
        -5.9479355812072754e-02 4.7579266130924225e-02</leafValues></_>
    <_>
      <internalNodes>
        0 -1 7 -1969040924 1157636112 201359506 8945666 -392152526
        -1574139256 -1040146046 -255272232</internalNodes>
      <leafValues>
        -6.2497857958078384e-02 4.2020041495561600e-02</leafValues></_>
    <_>
      <internalNodes>
        0 -1 8 -2146361182 637730818 1342253186 222404609 167862304
        348424 -291803541 855630496</internalNodes>
      <leafValues>
        -6.1349190771579742e-02 4.3460041284561157e-02</leafValues></_>
    <_>
      <internalNodes>
        0 -1 2 -2061238272 1811030092 -1945272102 2043024750 273416209
        1931870537 -2143239933 -19514752</internalNodes>
      <leafValues>
        -7.3755361139774323e-02 3.6616694182157516e-02</leafValues></_>
    <_>
      <internalNodes>
        0 -1 5 -2147481574 38207873 -2147380782 -1269923710 269000714
        -490110400 -987518328 -1560289857</internalNodes>
      <leafValues>
        -6.7776612937450409e-02 4.6017173677682877e-02</leafValues></_>
    <_>
      <internalNodes>
        0 -1 7 -840701543 -304229224 -81926 -590553103 -973087300
        -50987553 -268960264 -587599896</internalNodes>
      <leafValues>
        -3.1992964446544647e-02 7.8774623572826385e-02</leafValues></_>
    <_>
      <internalNodes>
        0 -1 8 -1342445077 -1241514563 -1073759497 -1075838977
        -1131182421 -1749931605 -1 -257</internalNodes>
      <leafValues>
        -1.3771178200840950e-02 1.5737208724021912e-01</leafValues></_>
    <_>
      <internalNodes>
        0 -1 5 -1056964352 4849664 -671087488 -199573099 268435457
        -489668096 -652079804 -478158966</internalNodes>
      <leafValues>
        -5.7813365012407303e-02 3.2136421650648117e-02</leafValues></_>
    <_>
      <internalNodes>
        0 -1 7 -35520524 -841089830 -671170592 -54067243 -1375865427
        -50332203 -436208147 -34210320</internalNodes>
      <leafValues>
        -4.1003897786140442e-02 5.3932130336761475e-02</leafValues></_>
    <_>
      <internalNodes>
        0 -1 3 -149556720 -100995323 2121267933 -448946275 -75629083
        -70385897 -139643060 -1087177114</internalNodes>
      <leafValues>
        -3.4046836197376251e-02 7.4338406324386597e-02</leafValues></_>
    <_>
      <internalNodes>
        0 -1 0 -50890782 -103468704 1961854326 -280963 -2656177
        -671147793 -167852483 -304216936</internalNodes>
      <leafValues>
        -3.0863270163536072e-02 7.2518147528171539e-02</leafValues></_>
    <_>
      <internalNodes>
        0 -1 2 67371008 35651584 -1912078270 134217728 268697600
        1073741824 4210688 33554432</internalNodes>
      <leafValues>
        -9.0183770656585693e-01 8.0347509356215596e-04</leafValues></_>
    <_>
      <internalNodes>
        0 -1 1 512 36864 268484608 536870912 2097152 536875008 0
        272629760</internalNodes>
      <leafValues>
        -4.7003141045570374e-01 4.4269501231610775e-03</leafValues></_>
    <_>
      <internalNodes>
        0 -1 6 -1 -257 -84410369 -5651 -1114113 -570426370 -536936481 -1</internalNodes>
      <leafValues>
        -3.5684264730662107e-03 6.3664907217025757e-01</leafValues></_>
    <_>
      <internalNodes>
        0 -1 4 -998241780 -2143284159 1034 -1568636591 268886170
        1409304593 -1467999730 -248385311</internalNodes>
      <leafValues>
        -1.2235561013221741e-01 1.9582659006118774e-02</leafValues></_>
    <_>
      <internalNodes>
        0 -1 2 -411340882 -16806083 -9822498 -2101287 2000582446 -94787
        -1250527712 -33558577</internalNodes>
      <leafValues>
        -2.2452326491475105e-02 1.1578170210123062e-01</leafValues></_>
    <_>
      <internalNodes>
        0 -1 1 -536652848 -100528112 -719300576 -187576192 -1282795336
        -687828992 -1281259384 -403361664</internalNodes>
      <leafValues>
        -4.8497296869754791e-02 4.4505339115858078e-02</leafValues></_>
    <_>
      <internalNodes>
        0 -1 4 -735294270 25167040 134284312 679575872 -2138414951
        335857729 143170316 -1985970048</internalNodes>
      <leafValues>
        -8.6286254227161407e-02 2.3580895736813545e-02</leafValues></_>
    <_>
      <internalNodes>
        0 -1 8 -1108188752 637533631 -17868 480165887 -1898255186
        682425331 -1168113665 -541606145</internalNodes>
      <leafValues>
        -3.2512046396732330e-02 8.7111733853816986e-02</leafValues></_>
    <_>
      <internalNodes>
        0 -1 7 -1467977440 -527424848 742424576 -1576951754 -259999088
        -1609793376 -869752044 -1282537318</internalNodes>
      <leafValues>
        -6.8235605955123901e-02 3.2071731984615326e-02</leafValues></_>
    <_>
      <internalNodes>
        0 -1 3 -138127840 -73875659 -2164003 -1246908435 -614613209
        -2109481 -547487852 -8354156</internalNodes>
      <leafValues>
        -4.4919047504663467e-02 5.4003544151782990e-02</leafValues></_>
    <_>
      <internalNodes>
        0 -1 6 -33568630 -353698818 -25166854 -89473557 -85139480
        2076441566 -1182930484 -1146094849</internalNodes>
      <leafValues>
        -3.1542178243398666e-02 9.4520576298236847e-02</leafValues></_>
    <_>
      <internalNodes>
        0 -1 0 0 8192 8716306 16 12648448 1048576 67371012 16</internalNodes>
      <leafValues>
        -1. 3.2317033037543297e-03</leafValues></_>
    <_>
      <internalNodes>
        0 -1 8 1056768 65536 8192 8192 0 256 135331840 270336</internalNodes>
      <leafValues>
        -6.6616004705429077e-01 1.2899979483336210e-03</leafValues></_>
    <_>
      <internalNodes>
        0 -1 1 -8229 -1 -134217857 -40993 -1 -1 -1327123 -257</internalNodes>
      <leafValues>
        -2.1822499111294746e-03 8.8368231058120728e-01</leafValues></_>
    <_>
      <internalNodes>
        0 -1 5 -2146888628 256508288 -671071976 893457804 268995592
        -2100715006 287902344 1807732377</internalNodes>
      <leafValues>
        -6.7827418446540833e-02 2.5383127853274345e-02</leafValues></_>
    <_>
      <internalNodes>
        0 -1 1 -3354866 -680132610 943157022 -851985 1961910195
        -537395203 2086991728 -269551618</internalNodes>
      <leafValues>
        -3.3744648098945618e-02 4.7663059085607529e-02</leafValues></_>
    <_>
      <internalNodes>
        0 -1 3 767593672 -1966948160 -1801447934 -979613664 -260038392
        -2003664704 -186455924 -589266936</internalNodes>
      <leafValues>
        -5.2358929067850113e-02 4.5930963009595871e-02</leafValues></_>
    <_>
      <internalNodes>
        0 -1 4 -1006628856 -2097150830 134251561 -1434332847 -2147342160
        -737654783 -1610049009 -105799499</internalNodes>
      <leafValues>
        -8.6309149861335754e-02 2.0320180803537369e-02</leafValues></_>
    <_>
      <internalNodes>
        0 -1 2 -435015768 -671187099 -9789882 -2097369 2008446766
        -342925964 897578593 -41673</internalNodes>
      <leafValues>
        -3.4401662647724152e-02 6.7227721214294434e-02</leafValues></_>
    <_>
      <internalNodes>
        0 -1 5 -2147480504 117571584 144 -1342177150 268971010 46137352
        -2128050176 -1468195836</internalNodes>
      <leafValues>
        -8.9806772768497467e-02 1.9216779619455338e-02</leafValues></_>
    <_>
      <internalNodes>
        0 -1 8 1039856042 134084029 1073724086 -1365327873 781332002
        -1440105686 2126428842 -1400987906</internalNodes>
      <leafValues>
        -2.7978047728538513e-02 6.2473852187395096e-02</leafValues></_>
    <_>
      <internalNodes>
        0 -1 6 537053252 1215530136 -526383477 79742091 -1060601692
        -1106473786 286114504 707301128</internalNodes>
      <leafValues>
        -5.6696616113185883e-02 2.9659746214747429e-02</leafValues></_>
    <_>
      <internalNodes>
        0 -1 7 -2002718464 1704103059 -1543503743 536911892 -394219471
        -1576629592 1409294748 1938063568</internalNodes>
      <leafValues>
        -8.3796240389347076e-02 1.8119750544428825e-02</leafValues></_>
    <_>
      <internalNodes>
        0 -1 3 -139173358 -102957291 -2164003 -167911443 -612500035
        -371204345 -18588 -69536636</internalNodes>
      <leafValues>
        -2.8174385428428650e-02 5.4192889481782913e-02</leafValues></_>
    <_>
      <internalNodes>
        0 -1 4 -721401724 -2134899632 82946 -1434070784 -2147049320
        -1811625983 -1602185204 166777024</internalNodes>
      <leafValues>
        -9.8191648721694946e-02 1.5750395134091377e-02</leafValues></_></weakClassifiers></stage13>
</opencv_storage>
