<?xml version="1.0"?>
<opencv_storage>
<stage0>
  <maxWeakCount>5</maxWeakCount>
  <stageThreshold>-6.0478246212005615e-01</stageThreshold>
  <weakClassifiers>
    <_>
      <internalNodes>
        0 -1 64 -67712 -134218769 -4243716 -67108869 -75519058 -2049
        -4130 -67109893</internalNodes>
      <leafValues>
        -5.5480831861495972e-01 9.2918264865875244e-01</leafValues></_>
    <_>
      <internalNodes>
        0 -1 128 -34668572 -134480961 -67147266 -7182 -25690177 -8913169
        -336120356 2134343650</internalNodes>
      <leafValues>
        -4.7293719649314880e-01 7.4279499053955078e-01</leafValues></_>
    <_>
      <internalNodes>
        0 -1 361 -434583794 -31272481 -788278823 -14824630 -2135717381
        -5046065 1125491711 2065630215</internalNodes>
      <leafValues>
        -5.6676441431045532e-01 5.7028615474700928e-01</leafValues></_>
    <_>
      <internalNodes>
        0 -1 107 -1564571170 -332234409 310479198 -146503875 1645449663
        1142031226 1996714237 -143632418</internalNodes>
      <leafValues>
        -5.4865604639053345e-01 5.2242940664291382e-01</leafValues></_>
    <_>
      <internalNodes>
        0 -1 819 1374622068 1171642477 1426176815 1398789055 -506264211
        1647872643 -525523991 1508896686</internalNodes>
      <leafValues>
        -5.7360905408859253e-01 4.6729809045791626e-01</leafValues></_></weakClassifiers></stage0>
</opencv_storage>
