<?xml version="1.0"?>
<opencv_storage>
<stage24>
  <maxWeakCount>22</maxWeakCount>
  <stageThreshold>-5.2171468734741211e-01</stageThreshold>
  <weakClassifiers>
    <_>
      <internalNodes>
        0 -1 829 -922957752 -901454484 -117803702 304578108 -913469048
        435707884 -2005873520 404241564</internalNodes>
      <leafValues>
        9.3127809464931488e-02 6.5652304887771606e-01</leafValues></_>
    <_>
      <internalNodes>
        0 -1 1105 -807401950 -374697230 -1950684240 1140502314
        -1344817181 130802957 -36815425 -537481430</internalNodes>
      <leafValues>
        -1.5404053032398224e-01 4.4120311737060547e-01</leafValues></_>
    <_>
      <internalNodes>
        0 -1 313 85258458 -597430748 204396377 1067170073 169083964
        -563147260 1646561274 -1907411694</internalNodes>
      <leafValues>
        -2.0692376792430878e-01 3.6212784051895142e-01</leafValues></_>
    <_>
      <internalNodes>
        0 -1 24 -651388508 -2013179385 2458648 1101004803 1275595295
        -267907381 1098946573 -1009515453</internalNodes>
      <leafValues>
        -6.5560626983642578e-01 1.2740311026573181e-01</leafValues></_>
    <_>
      <internalNodes>
        0 -1 200 -649856228 -138962077 -687301863 -1116752285 -148576719
        -554699345 2003893099 -550512689</internalNodes>
      <leafValues>
        -1.9155015051364899e-01 5.6718558073043823e-01</leafValues></_>
    <_>
      <internalNodes>
        0 -1 16 34734754 -1341091336 -1006534108 -1026555144 2013329424
        -259637071 981583105 762577504</internalNodes>
      <leafValues>
        -4.7975322604179382e-01 1.7230045795440674e-01</leafValues></_>
    <_>
      <internalNodes>
        0 -1 1 -251268917 430414568 415902006 1902315661 -1760770373
        438407631 -1352923237 -775049458</internalNodes>
      <leafValues>
        -1.5492209792137146e-01 4.9441191554069519e-01</leafValues></_>
    <_>
      <internalNodes>
        0 -1 699 1417804656 960926560 16847128 -1382737792 2021826564
        -1424355200 990629540 994418936</internalNodes>
      <leafValues>
        -3.3966377377510071e-01 2.3280565440654755e-01</leafValues></_>
    <_>
      <internalNodes>
        0 -1 260 809632130 1018429775 -2147467216 1454768384 -130940862
        222232617 277955608 253528096</internalNodes>
      <leafValues>
        -5.3816890716552734e-01 1.5364712476730347e-01</leafValues></_>
    <_>
      <internalNodes>
        0 -1 778 542298624 -490027904 -1828552296 270041230 -1308610424
        -2045198336 302886916 465753080</internalNodes>
      <leafValues>
        -5.4390656948089600e-01 1.3582661747932434e-01</leafValues></_>
    <_>
      <internalNodes>
        0 -1 705 -787554103 -263319644 -679801291 1205446007 -1181419535
        -557962178 -833268217 -903543655</internalNodes>
      <leafValues>
        -1.9503302872180939e-01 4.3194594979286194e-01</leafValues></_>
    <_>
      <internalNodes>
        0 -1 1065 1424820302 -1393765094 -1973221553 -1334110468
        -884372848 1754437784 -637859390 -796195855</internalNodes>
      <leafValues>
        -2.7557191252708435e-01 2.9537841677665710e-01</leafValues></_>
    <_>
      <internalNodes>
        0 -1 711 -962557331 444104426 1929128743 -924306283 -1128804156
        -581140556 -6512952 -1207051105</internalNodes>
      <leafValues>
        -2.4604426324367523e-01 3.3226460218429565e-01</leafValues></_>
    <_>
      <internalNodes>
        0 -1 1088 1744405626 -143694180 1518071593 -738466086 468159394
        -1772096105 804208332 -77053990</internalNodes>
      <leafValues>
        -1.9559669494628906e-01 4.0046110749244690e-01</leafValues></_>
    <_>
      <internalNodes>
        0 -1 131 531087565 1377288895 24647110 -676139016 -865581749
        63315814 1484404760 -70838069</internalNodes>
      <leafValues>
        -1.8134494125843048e-01 4.3766820430755615e-01</leafValues></_>
    <_>
      <internalNodes>
        0 -1 181 -686312165 -653089638 2136982039 -62733578 1555623259
        -874515304 -1306216677 -607261649</internalNodes>
      <leafValues>
        -1.3985462486743927e-01 6.0484623908996582e-01</leafValues></_>
    <_>
      <internalNodes>
        0 -1 584 1073791189 287203395 16978072 -309194598 671228430
        304676864 16788428 -47248366</internalNodes>
      <leafValues>
        -3.1338828802108765e-01 2.5864154100418091e-01</leafValues></_>
    <_>
      <internalNodes>
        0 -1 1199 1629327785 -240549816 268550658 1108541835 -1609915956
        -1071511430 1778442513 978452683</internalNodes>
      <leafValues>
        -2.7057170867919922e-01 3.0651178956031799e-01</leafValues></_>
    <_>
      <internalNodes>
        0 -1 26 436437634 1533657290 318804496 352375042 -1644100861
        147457 -1471970411 1360578846</internalNodes>
      <leafValues>
        -2.9497891664505005e-01 2.7909466624259949e-01</leafValues></_>
    <_>
      <internalNodes>
        0 -1 889 -1226497827 -1976958700 269549865 -1823473508 34242979
        29491200 45818096 -1693253384</internalNodes>
      <leafValues>
        -3.3569702506065369e-01 2.6347482204437256e-01</leafValues></_>
    <_>
      <internalNodes>
        0 -1 816 -1836471964 176737923 106759119 508379602 1215056577
        -1966415192 -2038427641 2068138121</internalNodes>
      <leafValues>
        -2.9429894685745239e-01 2.9500055313110352e-01</leafValues></_>
    <_>
      <internalNodes>
        0 -1 1056 -154425257 -1276511236 1843264138 1475169975 689589457
        536828462 -955737446 -356452439</internalNodes>
      <leafValues>
        -2.1391169726848602e-01 4.0010875463485718e-01</leafValues></_></weakClassifiers></stage24>
</opencv_storage>
