<?xml version="1.0"?>
<opencv_storage>
<stage13>
  <maxWeakCount>15</maxWeakCount>
  <stageThreshold>-8.2684320211410522e-01</stageThreshold>
  <weakClassifiers>
    <_>
      <internalNodes>
        0 -1 333 1851600676 472891375 -1324351637 -268451922 -67119785
        -270044571 1728003951 168439567</internalNodes>
      <leafValues>
        -4.2095914483070374e-01 5.9378623962402344e-01</leafValues></_>
    <_>
      <internalNodes>
        0 -1 582 498541909 23123888 1073740799 2113896446 -1484808641
        -1879663108 1004501944 1073724878</internalNodes>
      <leafValues>
        -3.0952054262161255e-01 4.2806965112686157e-01</leafValues></_>
    <_>
      <internalNodes>
        0 -1 829 -118039492 -52640517 -104992545 1367080893 -359689784
        -268705848 -880967445 -1172701237</internalNodes>
      <leafValues>
        -2.5511720776557922e-01 4.9874052405357361e-01</leafValues></_>
    <_>
      <internalNodes>
        0 -1 942 1804592932 -976691193 -2013248638 1204611146
        -1576884015 1074303138 579805401 1665180282</internalNodes>
      <leafValues>
        -5.7177883386611938e-01 2.0095276832580566e-01</leafValues></_>
    <_>
      <internalNodes>
        0 -1 634 -1553875064 -765067279 -76762213 -213542863 -1887599917
        -730581403 -1251698805 -213843835</internalNodes>
      <leafValues>
        -2.9891866445541382e-01 3.7790790200233459e-01</leafValues></_>
    <_>
      <internalNodes>
        0 -1 1059 2010022179 -97787522 -1555373781 144552923 -2105297757
        -1316257106 -909596281 1135529914</internalNodes>
      <leafValues>
        -3.0432274937629700e-01 3.5796985030174255e-01</leafValues></_>
    <_>
      <internalNodes>
        0 -1 583 -755945230 -631941000 536355409 2070822652 -963116456
        -1637724587 -2080050629 -12902962</internalNodes>
      <leafValues>
        -2.4602013826370239e-01 4.2083126306533813e-01</leafValues></_>
    <_>
      <internalNodes>
        0 -1 1106 868616106 -1580494834 -938458485 -2092584959
        -1559665999 67240072 1217102065 -1687188823</internalNodes>
      <leafValues>
        -3.2977980375289917e-01 3.2244649529457092e-01</leafValues></_>
    <_>
      <internalNodes>
        0 -1 555 1482086068 -1924474810 85659358 1872233694 -2147431296
        34209794 335425400 1577656248</internalNodes>
      <leafValues>
        -6.8944227695465088e-01 1.4397811889648438e-01</leafValues></_>
    <_>
      <internalNodes>
        0 -1 16 1617659424 -78065447 -1325196041 -1564653413 -1198078655
        -125091167 -1711197630 1413550866</internalNodes>
      <leafValues>
        -4.5614546537399292e-01 2.0957857370376587e-01</leafValues></_>
    <_>
      <internalNodes>
        0 -1 1003 1322035310 -932778450 1807413247 1115675631 1501413573
        -513019915 1540594434 -1821779296</internalNodes>
      <leafValues>
        -3.0574074387550354e-01 3.3475401997566223e-01</leafValues></_>
    <_>
      <internalNodes>
        0 -1 108 217502340 -1363516770 26656780 -6389250 2057470119
        1461977136 776587298 1696350223</internalNodes>
      <leafValues>
        -5.7690262794494629e-01 1.8396820127964020e-01</leafValues></_>
    <_>
      <internalNodes>
        0 -1 944 -1981538294 -900661095 1073775059 1342374047
        -2138785164 -1474265080 336708308 532785</internalNodes>
      <leafValues>
        -5.7967853546142578e-01 1.6038574278354645e-01</leafValues></_>
    <_>
      <internalNodes>
        0 -1 578 268559412 -2068708979 299290 462039327 -503285503
        1620525570 -1593808435 -886104168</internalNodes>
      <leafValues>
        -3.4297111630439758e-01 2.9432335495948792e-01</leafValues></_>
    <_>
      <internalNodes>
        0 -1 808 -1360122064 -510467821 -2146795517 845541915
        -1051524945 -770670592 1094824195 1091731463</internalNodes>
      <leafValues>
        -6.1013913154602051e-01 1.7127723991870880e-01</leafValues></_></weakClassifiers></stage13>
</opencv_storage>
