<?xml version="1.0"?>
<opencv_storage>
<stage12>
  <maxWeakCount>14</maxWeakCount>
  <stageThreshold>-6.6653871536254883e-01</stageThreshold>
  <weakClassifiers>
    <_>
      <internalNodes>
        0 -1 265 -285298714 -268513345 -1058 1056358398 -93061121
        -565377 -16403 679305071</internalNodes>
      <leafValues>
        -3.2863187789916992e-01 6.1363089084625244e-01</leafValues></_>
    <_>
      <internalNodes>
        0 -1 1004 -1963004315 -939528853 1858010111 1107033215 -92484668
        -151257857 -1238 1651179402</internalNodes>
      <leafValues>
        -3.5991960763931274e-01 3.8368916511535645e-01</leafValues></_>
    <_>
      <internalNodes>
        0 -1 575 -24174385 -251756552 738152364 -225956178 258932995
        912334199 -1334036724 -15009206</internalNodes>
      <leafValues>
        -3.3276885747909546e-01 3.6974546313285828e-01</leafValues></_>
    <_>
      <internalNodes>
        0 -1 750 -349181004 287277379 -1685452470 8988735 -896566851
        137293442 -1973228868 1602932718</internalNodes>
      <leafValues>
        -5.5520039796829224e-01 2.1530126035213470e-01</leafValues></_>
    <_>
      <internalNodes>
        0 -1 1107 -2043986261 -1948147908 1877163784 -1971971154
        -1073760845 -2094729459 258452669 -406094113</internalNodes>
      <leafValues>
        -2.5940549373626709e-01 4.7035831212997437e-01</leafValues></_>
    <_>
      <internalNodes>
        0 -1 300 605484921 2136869017 1644512031 1464743326 -1711118510
        -113742784 -1451105658 2139048284</internalNodes>
      <leafValues>
        -4.0419408679008484e-01 2.8307893872261047e-01</leafValues></_>
    <_>
      <internalNodes>
        0 -1 495 -1944280551 -282021232 -224340043 -138102027 1263843249
        -62454088 301733883 -280996527</internalNodes>
      <leafValues>
        -3.2132685184478760e-01 3.6888027191162109e-01</leafValues></_>
    <_>
      <internalNodes>
        0 -1 679 1792237678 -1036459480 -1064300540 1912631626 270745669
        372453410 -888464828 2003735196</internalNodes>
      <leafValues>
        -5.1726925373077393e-01 2.0936368405818939e-01</leafValues></_>
    <_>
      <internalNodes>
        0 -1 1100 1938401570 -2052201781 -1433458560 1106346322
        -1683767326 95160026 -1403273304 -694552518</internalNodes>
      <leafValues>
        -3.2438880205154419e-01 3.5225650668144226e-01</leafValues></_>
    <_>
      <internalNodes>
        0 -1 912 -1513606043 -997748531 -1740578071 -1324759206
        -662140005 1621590144 -2146651255 301989981</internalNodes>
      <leafValues>
        -5.5167341232299805e-01 2.0242451131343842e-01</leafValues></_>
    <_>
      <internalNodes>
        0 -1 883 -1600439440 1188970624 1426379912 -732166714 1759027255
        -95936503 1267339444 731515628</internalNodes>
      <leafValues>
        -5.1084244251251221e-01 2.0435874164104462e-01</leafValues></_>
    <_>
      <internalNodes>
        0 -1 105 -958486968 684598598 327672101 -652856620 -849196953
        1886522324 168851980 520643688</internalNodes>
      <leafValues>
        -5.1630008220672607e-01 2.0997819304466248e-01</leafValues></_>
    <_>
      <internalNodes>
        0 -1 30 -953716441 -140363109 -616744163 -81776203 1601091147
        -1257580953 -789382978 -1875209614</internalNodes>
      <leafValues>
        -2.5987067818641663e-01 4.5078083872795105e-01</leafValues></_>
    <_>
      <internalNodes>
        0 -1 754 -1368348384 -132935538 -1874528804 1346912387
        -929553807 -391905144 851493283 -1699741572</internalNodes>
      <leafValues>
        -4.2412224411964417e-01 2.6110231876373291e-01</leafValues></_></weakClassifiers></stage12>
</opencv_storage>
