<?xml version="1.0"?>
<opencv_storage>
<stage0>
  <maxWeakCount>5</maxWeakCount>
  <stageThreshold>-1.9005491733551025e+00</stageThreshold>
  <weakClassifiers>
    <_>
      <internalNodes>
        0 -1 4 -286349408 -136315969 -34881570 -6177 -336069633
        -72634227 -4457473 -117</internalNodes>
      <leafValues>
        -7.9983955621719360e-01 7.2691601514816284e-01</leafValues></_>
    <_>
      <internalNodes>
        0 -1 5 -2162692 -172884897 399717302 -1236514 -13386316
        1026689325 862666680 -4245538</internalNodes>
      <leafValues>
        -5.2271395921707153e-01 5.0365567207336426e-01</leafValues></_>
    <_>
      <internalNodes>
        0 -1 1 -429199634 -1025051394 -283646017 -357922 -234624017
        -210273863 1983984506 -146315661</internalNodes>
      <leafValues>
        -4.9109068512916565e-01 4.4620087742805481e-01</leafValues></_>
    <_>
      <internalNodes>
        0 -1 3 -1025605088 -371413547 -690868001 -1070625 -344396483
        -1316123865 -548829235 453051399</internalNodes>
      <leafValues>
        -5.8592903614044189e-01 2.8774893283843994e-01</leafValues></_>
    <_>
      <internalNodes>
        0 -1 4 -151848850 -186852405 2105229177 -151324770 1543166896
        -1591496547 -214435108 -1559814210</internalNodes>
      <leafValues>
        -4.3826752901077271e-01 3.6999613046646118e-01</leafValues></_></weakClassifiers></stage0>
</opencv_storage>
