<?xml version="1.0"?>
<opencv_storage>
<stage8>
  <maxWeakCount>18</maxWeakCount>
  <stageThreshold>-1.3234074115753174e+00</stageThreshold>
  <weakClassifiers>
    <_>
      <internalNodes>
        0 -1 3223 -335549593 -7866497 -196544049 -941636529 -83894042
        -353516157 -364131378 1647572831</internalNodes>
      <leafValues>
        -4.6582221984863281e-01 2.1843971312046051e-01</leafValues></_>
    <_>
      <internalNodes>
        0 -1 2023 -59548193 -67216513 1056931839 2131900222 1467960831
        1937200763 -33555043 -281314694</internalNodes>
      <leafValues>
        -3.1461605429649353e-01 3.3844172954559326e-01</leafValues></_>
    <_>
      <internalNodes>
        0 -1 317 -1170231305 -67171201 666894203 -545358849 -151137026
        2135100442 -159516710 -10526998</internalNodes>
      <leafValues>
        -2.3281331360340118e-01 3.9537227153778076e-01</leafValues></_>
    <_>
      <internalNodes>
        0 -1 2243 -1362417681 -286502785 1973080508 -28157442
        -1869633545 155426954 396822311 -134507852</internalNodes>
      <leafValues>
        -3.4469974040985107e-01 2.6182281970977783e-01</leafValues></_>
    <_>
      <internalNodes>
        0 -1 788 1884760096 1056795358 -1055690341 -1265271297
        -193924879 -1179273499 -1270514607 290806551</internalNodes>
      <leafValues>
        -4.4186592102050781e-01 2.2803413867950439e-01</leafValues></_>
    <_>
      <internalNodes>
        0 -1 1007 -354435159 -429247493 -1391587326 -8494913 -213707201
        592664928 1342910464 -217591026</internalNodes>
      <leafValues>
        -3.5163950920104980e-01 2.3046162724494934e-01</leafValues></_>
    <_>
      <internalNodes>
        0 -1 3266 1332454305 494904055 1803714922 76070839 1800142248
        2052839554 -406324056 1224670154</internalNodes>
      <leafValues>
        -3.5775575041770935e-01 2.5352144241333008e-01</leafValues></_>
    <_>
      <internalNodes>
        0 -1 2022 -1378899861 1855519202 -854093890 -225299082
        -338204086 709165683 1709912396 -147096706</internalNodes>
      <leafValues>
        -4.1667497158050537e-01 1.8068271875381470e-01</leafValues></_>
    <_>
      <internalNodes>
        0 -1 2919 -1352260855 -704901097 -485993481 -83590087
        -1633817485 -1719139635 -1718972175 -1197469354</internalNodes>
      <leafValues>
        -3.2130905985832214e-01 2.5589549541473389e-01</leafValues></_>
    <_>
      <internalNodes>
        0 -1 52 1857959434 -522336 1606115167 2079532202 -498374387
        -540823348 303420948 1363968868</internalNodes>
      <leafValues>
        -4.0028306841850281e-01 1.8440514802932739e-01</leafValues></_>
    <_>
      <internalNodes>
        0 -1 2594 781070112 -1681167389 370545631 1998577515 2130669751
        -358942265 317182453 1075547703</internalNodes>
      <leafValues>
        -6.6329127550125122e-01 1.2706778943538666e-01</leafValues></_>
    <_>
      <internalNodes>
        0 -1 1774 -1394169054 -312573742 -821186262 -678319289
        -1571302662 -1222835860 1981256541 3671187</internalNodes>
      <leafValues>
        -5.6597197055816650e-01 1.2320684641599655e-01</leafValues></_>
    <_>
      <internalNodes>
        0 -1 3378 -1183490285 74100128 2143057521 -417009879 1002108823
        199138606 350729181 -1632665601</internalNodes>
      <leafValues>
        -2.5099307298660278e-01 3.2679975032806396e-01</leafValues></_>
    <_>
      <internalNodes>
        0 -1 623 496426996 1028427037 427760446 769813116 -335476739
        -1083995599 258555764 733106228</internalNodes>
      <leafValues>
        -6.5117913484573364e-01 1.0610264539718628e-01</leafValues></_>
    <_>
      <internalNodes>
        0 -1 3050 -864385930 -42025537 2117331915 -928253969 -701120298
        -822166082 -667379431 -1073096679</internalNodes>
      <leafValues>
        -2.6522174477577209e-01 3.0379563570022583e-01</leafValues></_>
    <_>
      <internalNodes>
        0 -1 2712 -1010881760 1432088155 -1967092874 1392828550
        -1881978670 -618024314 -368907608 427680508</internalNodes>
      <leafValues>
        -3.8611942529678345e-01 2.1676616370677948e-01</leafValues></_>
    <_>
      <internalNodes>
        0 -1 2306 1041789269 1324108735 -1125812229 -536911905
        -1359209286 255754046 1069447229 -296642</internalNodes>
      <leafValues>
        -2.3260511457920074e-01 3.6790007352828979e-01</leafValues></_>
    <_>
      <internalNodes>
        0 -1 3906 1805156087 323348999 -1072311615 252921156 62083007
        1059793428 151212871 1279622493</internalNodes>
      <leafValues>
        -3.7913200259208679e-01 2.0839658379554749e-01</leafValues></_></weakClassifiers></stage8>
</opencv_storage>
